{"learner":{"attributes":{"best_iteration":"1","best_score":"0.6981112403759164"},"feature_names":[],"feature_types":[],"gradient_booster":{"model":{"cats":{"enc":[],"feature_segments":[],"sorted_idx":[]},"gbtree_model_param":{"num_parallel_tree":"1","num_trees":"52"},"iteration_indptr":[0,1,2,3,4,5,6,7,8,9,10,11,12,13,14,15,16,17,18,19,20,21,22,23,24,25,26,27,28,29,30,31,32,33,34,35,36,37,38,39,40,41,42,43,44,45,46,47,48,49,50,51,52],"tree_info":[0,0,0,0,0,0,0,0,0,0,0,0,0,0,0,0,0,0,0,0,0,0,0,0,0,0,0,0,0,0,0,0,0,0,0,0,0,0,0,0,0,0,0,0,0,0,0,0,0,0,0,0],"trees":[{"base_weights":[1.3785665E-2,-4.358016E-1,5.6036476E-2,3.2290276E-2,8.87094E-1,-9.298524E-1,-2.8129274E-2,9.15931E-2,-8.968006E-3,1.4132905E-1,-1.9013043E-1,2.2201896E-2,-3.6850682E-1,1.9266924E-1,6.0298073E-1],"categories":[],"categories_nodes":[],"categories_segments":[],"categories_sizes":[],"default_left":[0,0,0,0,0,0,0,0,0,0,0,0,0,0,0],"id":0,"left_children":[1,5,3,7,13,11,9,-1,-1,-1,-1,-1,-1,-1,-1],"loss_changes":[2.4529373E1,2.2341307E1,2.3293774E1,1.9826874E1,8.91634E0,1.5720085E1,1.878398E1,0E0,0E0,0E0,0E0,0E0,0E0,0E0,0E0],"parents":[2147483647,0,0,2,2,1,1,3,3,6,6,5,5,4,4],"right_children":[2,6,4,8,14,12,10,-1,-1,-1,-1,-1,-1,-1,-1],"split_conditions":[6.8375766E-1,9.480727E-3,1.6973922E-2,5.870468E-4,1.0350552E0,-8.906833E-1,1.2153927E-2,9.15931E-2,-8.968006E-3,1.4132905E-1,-1.9013043E-1,2.2201896E-2,-3.6850682E-1,1.9266924E-1,6.0298073E-1],"split_indices":[13,12,3,14,4,4,12,0,0,0,0,0,0,0,0],"split_type":[0,0,0,0,0,0,0,0,0,0,0,0,0,0,0],"sum_hessian":[1.2913365E3,1.10923294E2,1.1804132E3,1.1476298E3,3.2783497E1,5.014375E1,6.077955E1,2.1169672E2,9.3593304E2,3.3333336E1,2.744621E1,1.1881493E1,3.8262257E1,2.7154175E1,5.6293225E0],"tree_param":{"num_deleted":"0","num_feature":"39","num_nodes":"15","size_leaf_vector":"1"}},{"base_weights":[-3.820365E-2,-1.8055828E-1,1.0696504E-1,4.879918E-1,7.734195E-3,5.310977E-2,-7.8689806E-2,-7.090192E-1,-1.2367532E-1,5.78341E-1,-2.51853E-1,-1.2473826E-2,-1.6485514E-1,4.1784413E-2,2.580108E-1],"categories":[],"categories_nodes":[],"categories_segments":[],"categories_sizes":[],"default_left":[0,0,0,0,0,0,0,0,0,0,0,0,0,0,0],"id":1,"left_children":[1,7,3,13,5,-1,-1,9,11,-1,-1,-1,-1,-1,-1],"loss_changes":[2.6519358E1,1.9475166E1,2.4021824E1,1.7384E1,2.3557224E1,0E0,0E0,2.3386484E1,2.06235E1,0E0,0E0,0E0,0E0,0E0,0E0],"parents":[2147483647,0,0,2,2,4,4,1,1,7,7,8,8,3,3],"right_children":[2,8,4,14,6,-1,-1,10,12,-1,-1,-1,-1,-1,-1],"split_conditions":[6.123234E-17,-7.397235E-2,-3.3142056E-2,2.1518987E-1,1E1,5.310977E-2,-7.8689806E-2,5.870468E-4,1.6509235E-1,5.78341E-1,-2.51853E-1,-1.2473826E-2,-1.6485514E-1,4.1784413E-2,2.580108E-1],"split_indices":[9,16,15,21,30,0,0,14,27,0,0,0,0,0,0],"split_type":[0,0,0,0,0,0,0,0,0,0,0,0,0,0,0],"sum_hessian":[1.2832543E3,6.479098E2,6.3534454E2,1.3126724E2,5.0407727E2,3.0973666E2,1.9434062E2,6.2953728E1,5.8495605E2,3.1386428E0,5.9815086E1,4.9196414E2,9.299194E1,6.872809E1,6.2539154E1],"tree_param":{"num_deleted":"0","num_feature":"39","num_nodes":"15","size_leaf_vector":"1"}},{"base_weights":[3.2042574E-2,1.939105E-2,4.1540572E-1,6.1125875E-1,1.1248631E-2,-2.2035718E-3,2.2150747E-1],"categories":[],"categories_nodes":[],"categories_segments":[],"categories_sizes":[],"default_left":[0,0,0,0,0,0,0],"id":2,"left_children":[1,3,-1,-1,5,-1,-1],"loss_changes":[2.231274E1,2.1225285E1,0E0,0E0,1.747288E1,0E0,0E0],"parents":[2147483647,0,0,1,1,4,4],"right_children":[2,4,-1,-1,6,-1,-1],"split_conditions":[1.843209E0,3.8301179E-3,4.1540572E-1,6.1125875E-1,3.8631102E-3,-2.2035718E-3,2.2150747E-1],"split_indices":[13,12,0,0,14,0,0],"split_type":[0,0,0,0,0,0,0],"sum_hessian":[1.2894753E3,1.2776653E3,1.1810074E1,5.0709662E0,1.2725942E3,1.2410757E3,3.151857E1],"tree_param":{"num_deleted":"0","num_feature":"39","num_nodes":"7","size_leaf_vector":"1"}},{"base_weights":[-1.7883867E-2,-7.439297E-1,3.5928902E-3,2.7113223E-1,-6.7089215E-2,-3.0656118E-2,1.3970807E-1,1.834625E-2,-5.7761937E-2,-1.2284532E0,1.3054903E-1,-3.0992275E-1,3.100221E-1,-4.1869175E-1,2.7598336E-1],"categories":[],"categories_nodes":[],"categories_segments":[],"categories_sizes":[],"default_left":[0,0,0,0,0,0,0,0,0,0,0,0,0,0,0],"id":3,"left_children":[1,9,3,5,7,-1,-1,-1,-1,13,11,-1,-1,-1,-1],"loss_changes":[2.025676E1,1.5816385E1,2.385969E1,1.971401E1,1.6412294E1,0E0,0E0,0E0,0E0,9.46949E0,1.4306119E1,0E0,0E0,0E0,0E0],"parents":[2147483647,0,0,2,2,3,3,4,4,1,1,10,10,9,9],"right_children":[2,10,4,6,8,-1,-1,-1,-1,14,12,-1,-1,-1,-1],"split_conditions":[2.4737456E-1,9.960769E-3,3.3438906E-1,7.849866E-3,-5.5884097E-2,-3.0656118E-2,1.3970807E-1,1.834625E-2,-5.7761937E-2,8.507072E-1,5E0,-3.0992275E-1,3.100221E-1,-4.1869175E-1,2.7598336E-1],"split_indices":[18,12,18,11,27,0,0,0,0,19,30,0,0,0,0],"split_type":[0,0,0,0,0,0,0,0,0,0,0,0,0,0,0],"sum_hessian":[1.2990255E3,3.731669E1,1.2617089E3,2.6367328E2,9.980356E2,9.170082E1,1.7197246E2,4.963827E2,5.0165286E2,2.401125E1,1.3305441E1,5.821402E0,7.484039E0,2.2142157E1,1.8690927E0],"tree_param":{"num_deleted":"0","num_feature":"39","num_nodes":"15","size_leaf_vector":"1"}},{"base_weights":[3.661093E-2,6.835651E-2,-4.4027165E-1,1.363598E-2,4.2052883E-1,3.9651144E-1,8.537557E-2,8.183687E-3,-2.9397613E-1,-5.7295257E-1,7.9107773E-1,-3.361294E-1,4.79211E-1,-1.0854461E-1,-3.7105525E-1],"categories":[],"categories_nodes":[],"categories_segments":[],"categories_sizes":[],"default_left":[0,0,0,0,0,0,0,0,0,0,0,0,0,0,0],"id":4,"left_children":[1,3,9,7,5,-1,-1,-1,-1,13,11,-1,-1,-1,-1],"loss_changes":[1.90294E1,2.2711443E1,1.282024E1,1.4281882E1,1.9272045E1,0E0,0E0,0E0,0E0,9.935677E0,1.2110113E1,0E0,0E0,0E0,0E0],"parents":[2147483647,0,0,1,1,4,4,3,3,2,2,10,10,9,9],"right_children":[2,4,10,8,6,-1,-1,-1,-1,14,12,-1,-1,-1,-1],"split_conditions":[1.9310236E0,1.9697454E-2,8.660254E-1,1.9101832E-2,-1.9342722E0,3.9651144E-1,8.537557E-2,8.183687E-3,-2.9397613E-1,9.5105654E-1,1.3968899E0,-3.361294E-1,4.79211E-1,-1.0854461E-1,-3.7105525E-1],"split_indices":[7,5,9,5,4,0,0,0,0,25,22,0,0,0,0],"split_type":[0,0,0,0,0,0,0,0,0,0,0,0,0,0,0],"sum_hessian":[1.2569921E3,1.1785455E3,7.844655E1,1.02005884E3,1.5848671E2,2.0068823E1,1.384179E2,1.0060995E3,1.3959356E1,7.0819984E1,7.626563E0,2.2854958E0,5.3410673E0,5.424361E1,1.6576372E1],"tree_param":{"num_deleted":"0","num_feature":"39","num_nodes":"15","size_leaf_vector":"1"}},{"base_weights":[-1.5592751E-2,-5.7340294E-2,4.0329364E-1,-1.9978413E-2,-6.4556885E-1,1.07812755E-1,-3.0506924E-1,-4.046708E-2,5.0472967E-2,8.327494E-1,-6.491511E-4,1.2112294E-1,4.749748E-1,-3.185028E-2,6.07418E-1],"categories":[],"categories_nodes":[],"categories_segments":[],"categories_sizes":[],"default_left":[0,0,0,0,0,0,0,0,0,0,0,0,0,0,0],"id":5,"left_children":[1,3,9,7,5,-1,-1,-1,-1,11,13,-1,-1,-1,-1],"loss_changes":[2.22835E1,2.5466251E1,2.0034916E1,2.4103704E1,2.6706877E1,0E0,0E0,0E0,0E0,1.8242695E1,1.2999992E1,0E0,0E0,0E0,0E0],"parents":[2147483647,0,0,1,1,4,4,3,3,2,2,9,9,10,10],"right_children":[2,4,10,8,6,-1,-1,-1,-1,12,14,-1,-1,-1,-1],"split_conditions":[5.10044E-1,1.0749344E-1,1.6451984E-3,5E-1,3.5583708E-1,1.07812755E-1,-3.0506924E-1,-4.046708E-2,5.0472967E-2,2.720588E-1,1.7511033E-1,1.2112294E-1,4.749748E-1,-3.185028E-2,6.07418E-1],"split_indices":[18,16,14,9,18,0,0,0,0,21,16,0,0,0,0],"split_type":[0,0,0,0,0,0,0,0,0,0,0,0,0,0,0],"sum_hessian":[1.2742601E3,1.1587808E3,1.1547941E2,1.0895836E3,6.919715E1,1.9021051E1,5.0176098E1,6.757705E2,4.1381308E2,5.596993E1,5.950948E1,3.6048573E1,1.9921356E1,5.656902E1,2.9404588E0],"tree_param":{"num_deleted":"0","num_feature":"39","num_nodes":"15","size_leaf_vector":"1"}},{"base_weights":[-6.204454E-3,4.8910095E-3,-7.038749E-1,-4.00254E-2,2.3995478E-1,1.4253752E-1,-1.713396E-2,1.9869773E-1,-1.7522395E-2,2.5370792E-1,-1.1936388E0,-2.9198414E-1,4.831499E-1,-5.3772026E-1,-0E0],"categories":[],"categories_nodes":[],"categories_segments":[],"categories_sizes":[],"default_left":[0,0,0,0,0,0,0,0,0,0,0,0,0,0,0],"id":6,"left_children":[1,3,9,7,5,-1,-1,-1,-1,11,13,-1,-1,-1,-1],"loss_changes":[9.655602E0,1.2962785E1,9.160801E0,1.3913452E1,1.4095114E1,0E0,0E0,0E0,0E0,1.1259604E1,9.536348E0,0E0,0E0,0E0,0E0],"parents":[2147483647,0,0,1,1,4,4,3,3,2,2,9,9,10,10],"right_children":[2,4,10,8,6,-1,-1,-1,-1,12,14,-1,-1,-1,-1],"split_conditions":[2.4173839E-2,1.3612428E0,5.8778524E-1,4.7891946E-3,5.066455E-1,1.4253752E-1,-1.713396E-2,1.9869773E-1,-1.7522395E-2,1.426005E0,5.8840863E-2,-2.9198414E-1,4.831499E-1,-5.3772026E-1,-0E0],"split_indices":[0,4,25,5,29,0,0,0,0,13,16,0,0,0,0],"split_type":[0,0,0,0,0,0,0,0,0,0,0,0,0,0,0],"sum_hessian":[1.2472301E3,1.2277102E3,1.9519855E1,1.030753E3,1.9695714E2,1.0896854E2,8.79886E1,2.6902735E1,1.00385034E3,6.605631E0,1.2914224E1,3.476368E0,3.129263E0,8.504255E0,4.409969E0],"tree_param":{"num_deleted":"0","num_feature":"39","num_nodes":"15","size_leaf_vector":"1"}},{"base_weights":[-5.3366255E-3,-1.1981565E-2,6.2768763E-1,1.1424534E-2,-7.4940354E-1,-4.4659493E-3,1.775875E-1,-3.886808E-1,-6.145014E-2],"categories":[],"categories_nodes":[],"categories_segments":[],"categories_sizes":[],"default_left":[0,0,0,0,0,0,0,0,0],"id":7,"left_children":[1,3,-1,5,7,-1,-1,-1,-1],"loss_changes":[1.8238972E1,2.2274822E1,0E0,1.9439037E1,1.2062653E1,0E0,0E0,0E0,0E0],"parents":[2147483647,0,0,1,1,3,3,4,4],"right_children":[2,4,-1,6,8,-1,-1,-1,-1],"split_conditions":[2.0033139E-1,1.001431E-1,6.2768763E-1,5.424869E-1,9.269477E-1,-4.4659493E-3,1.775875E-1,-3.886808E-1,-6.145014E-2],"split_indices":[15,15,0,18,22,0,0,0,0],"split_type":[0,0,0,0,0,0,0,0,0],"sum_hessian":[1.294514E3,1.2904774E3,4.0366282E0,1.2507821E3,3.969521E1,1.1968116E3,5.3970528E1,1.9516693E1,2.0178516E1],"tree_param":{"num_deleted":"0","num_feature":"39","num_nodes":"9","size_leaf_vector":"1"}},{"base_weights":[9.628785E-3,-1.5728302E-1,9.14308E-2,1.430577E-1,-4.360035E-1,5.1237583E-1,-1.6503765E-1,5.026167E-3,9.6267715E-2,3.951197E-1,-2.2881483E-1,3.5278255E-1,-7.765523E-2,-2.6604012E-1,-4.0537607E-2],"categories":[],"categories_nodes":[],"categories_segments":[],"categories_sizes":[],"default_left":[0,0,0,0,0,0,0,0,0,0,0,0,0,0,0],"id":8,"left_children":[1,9,3,7,5,-1,-1,-1,-1,11,13,-1,-1,-1,-1],"loss_changes":[1.7171955E1,1.634544E1,2.298297E1,1.7583382E1,1.9558464E1,0E0,0E0,0E0,0E0,2.4725782E1,2.2546158E1,0E0,0E0,0E0,0E0],"parents":[2147483647,0,0,2,2,4,4,3,3,1,1,9,9,10,10],"right_children":[2,10,4,8,6,-1,-1,-1,-1,12,14,-1,-1,-1,-1],"split_conditions":[7.430277E-3,-3.5407394E-2,1.0749344E-1,2.5978306E-1,-1.226907E-2,5.1237583E-1,-1.6503765E-1,5.026167E-3,9.6267715E-2,8.5723716E-1,3.0524036E-1,3.5278255E-1,-7.765523E-2,-2.6604012E-1,-4.0537607E-2],"split_indices":[12,15,16,4,0,0,0,0,0,23,18,0,0,0,0],"split_type":[0,0,0,0,0,0,0,0,0,0,0,0,0,0,0],"sum_hessian":[1.2576672E3,4.136406E2,8.440266E2,7.6878265E2,7.524391E1,3.955124E0,7.128879E1,4.5344708E2,3.153356E2,4.7417175E1,3.6622342E2,2.1469217E1,2.594796E1,4.442952E1,3.217939E2],"tree_param":{"num_deleted":"0","num_feature":"39","num_nodes":"15","size_leaf_vector":"1"}},{"base_weights":[5.9755925E-2,8.318293E-1,4.453073E-2,-2.471026E-1,1.0219105E-1,-1.2506568E-1,9.487209E-2,4.0060062E-2,-9.1873944E-2,3.482613E-1,-5.1941484E-1,-6.05734E-1,4.920825E-1],"categories":[],"categories_nodes":[],"categories_segments":[],"categories_sizes":[],"default_left":[0,0,0,0,0,0,0,0,0,0,0,0,0],"id":9,"left_children":[1,9,3,5,7,-1,-1,-1,-1,-1,11,-1,-1],"loss_changes":[1.483874E1,1.1278358E1,2.0818378E1,2.019759E1,1.3964156E1,0E0,0E0,0E0,0E0,0E0,1.6367943E1,0E0,0E0],"parents":[2147483647,0,0,2,2,3,3,4,4,1,1,10,10],"right_children":[2,10,4,6,8,-1,-1,-1,-1,-1,12,-1,-1],"split_conditions":[4.5620347E-3,7.712479E-4,7.547319E-3,5.4067916E-1,4.8429318E-2,-1.2506568E-1,9.487209E-2,4.0060062E-2,-9.1873944E-2,3.482613E-1,1.2665982E0,-6.05734E-1,4.920825E-1],"split_indices":[11,15,5,29,2,0,0,0,0,0,4,0,0],"split_type":[0,0,0,0,0,0,0,0,0,0,0,0,0],"sum_hessian":[1.2624319E3,2.4405243E1,1.2380266E3,2.0436293E2,1.0336637E3,1.5629109E2,4.8071823E1,9.5739905E2,7.626465E1,1.947996E1,4.925283E0,2.899752E0,2.0255308E0],"tree_param":{"num_deleted":"0","num_feature":"39","num_nodes":"13","size_leaf_vector":"1"}},{"base_weights":[-3.4729794E-2,-1.2756804E-1,1.0054577E-1,6.143815E-2,3.4555373E-1,1.081453E-1,-2.2435233E-1,-5.865684E-1,-5.8042984E-2,1.0865098E-2,3.4973118E-1,4.208585E-1,1.2369117E-2],"categories":[],"categories_nodes":[],"categories_segments":[],"categories_sizes":[],"default_left":[0,0,0,0,0,0,0,0,0,0,0,0,0],"id":10,"left_children":[1,5,3,11,-1,9,7,-1,-1,-1,-1,-1,-1],"loss_changes":[1.5799633E1,1.702026E1,2.1301334E1,1.3235802E1,0E0,1.6626097E1,2.6645292E1,0E0,0E0,0E0,0E0,0E0,0E0],"parents":[2147483647,0,0,2,2,1,1,6,6,5,5,3,3],"right_children":[2,6,4,12,-1,10,8,-1,-1,-1,-1,-1,-1],"split_conditions":[3.050398E-1,4.5098475E-1,3.5065323E-1,4.390182E-3,3.4555373E-1,4.4778877E-1,4.5361435E-1,-5.865684E-1,-5.8042984E-2,1.0865098E-2,3.4973118E-1,4.208585E-1,1.2369117E-2],"split_indices":[21,29,27,12,0,29,29,0,0,0,0,0,0],"split_type":[0,0,0,0,0,0,0,0,0,0,0,0,0],"sum_hessian":[1.2580424E3,7.460465E2,5.1199585E2,4.9385098E2,1.8144844E1,2.1715776E2,5.288888E2,8.531076E0,5.203577E2,2.035623E2,1.359547E1,7.0800257E0,4.8677097E2],"tree_param":{"num_deleted":"0","num_feature":"39","num_nodes":"13","size_leaf_vector":"1"}},{"base_weights":[-3.2054037E-2,-9.049868E-2,1.7228484E-1,3.661378E-1,-2.0532104E-1,-9.703075E-2,3.8764933E-1,1.3138948E-1,-2.4413052E-1,2.7746693E-3,-2.5629556E-1,-1.1183376E-1,7.175951E-2,-9.942372E-3,2.3627387E-1],"categories":[],"categories_nodes":[],"categories_segments":[],"categories_sizes":[],"default_left":[0,0,0,0,0,0,0,0,0,0,0,0,0,0,0],"id":11,"left_children":[1,9,3,7,5,-1,-1,-1,-1,13,11,-1,-1,-1,-1],"loss_changes":[1.5098042E1,1.5202776E1,2.0582293E1,1.6927025E1,1.7543095E1,0E0,0E0,0E0,0E0,1.8110619E1,2.1257175E1,0E0,0E0,0E0,0E0],"parents":[2147483647,0,0,2,2,4,4,3,3,1,1,10,10,9,9],"right_children":[2,10,4,8,6,-1,-1,-1,-1,14,12,-1,-1,-1,-1],"split_conditions":[4.7047403E-2,2.7449806E-3,1.00296974E-1,1.5524779E-2,1.6670825E-1,-9.703075E-2,3.8764933E-1,1.3138948E-1,-2.4413052E-1,3.2547274E-1,1.085705E-2,-1.1183376E-1,7.175951E-2,-9.942372E-3,2.3627387E-1],"split_indices":[16,15,16,0,15,0,0,0,0,27,12,0,0,0,0],"split_type":[0,0,0,0,0,0,0,0,0,0,0,0,0,0,0],"sum_hessian":[1.2642184E3,9.8305554E2,2.811628E2,1.8578745E2,9.5375374E1,8.8276726E1,7.0986423E0,1.7454231E2,1.1245128E1,6.2912506E2,3.5393048E2,2.8495984E2,6.897064E1,6.016216E2,2.7503483E1],"tree_param":{"num_deleted":"0","num_feature":"39","num_nodes":"15","size_leaf_vector":"1"}},{"base_weights":[-4.9257115E-2,-3.6676432E-4,-3.682874E-1,2.3198575E-1,-5.3503245E-1,-1.8021539E-1,2.9043508E-1,-6.514581E-3,5.42868E-1,1.1223488E-2,-8.783178E-2,-7.835341E-3,3.8727993E-1],"categories":[],"categories_nodes":[],"categories_segments":[],"categories_sizes":[],"default_left":[0,0,0,0,0,0,0,0,0,0,0,0,0],"id":12,"left_children":[1,7,3,11,5,-1,-1,9,-1,-1,-1,-1,-1],"loss_changes":[1.961698E1,1.2266351E1,1.6729355E1,1.0076639E1,1.4312485E1,0E0,0E0,1.3950207E1,0E0,0E0,0E0,0E0,0E0],"parents":[2147483647,0,0,2,2,4,4,1,1,7,7,3,3],"right_children":[2,8,4,12,6,-1,-1,10,-1,-1,-1,-1,-1],"split_conditions":[1.8605524E-1,1.794688E-1,5.752644E-4,7.8682825E-3,3.486814E-3,-1.8021539E-1,2.9043508E-1,1.22669E-2,5.42868E-1,1.1223488E-2,-8.783178E-2,-7.835341E-3,3.8727993E-1],"split_indices":[27,15,14,11,14,0,0,11,0,0,0,0,0],"split_type":[0,0,0,0,0,0,0,0,0,0,0,0,0],"sum_hessian":[1.2577185E3,1.090598E3,1.671205E2,3.632901E1,1.3079149E2,1.2483642E2,5.9550743E0,1.0869532E3,3.644782E0,9.425843E2,1.44369E2,2.9283426E1,7.0455823E0],"tree_param":{"num_deleted":"0","num_feature":"39","num_nodes":"13","size_leaf_vector":"1"}},{"base_weights":[2.5880063E-2,1.8647483E-2,3.9787433E-1,6.8947084E-2,-1.6703956E-1,2.3858924E-1,-7.294753E-2,-3.368781E-3,7.4548766E-2],"categories":[],"categories_nodes":[],"categories_segments":[],"categories_sizes":[],"default_left":[0,0,0,0,0,0,0,0,0],"id":13,"left_children":[1,3,-1,7,5,-1,-1,-1,-1],"loss_changes":[1.1810953E1,1.153782E1,0E0,1.4227133E1,2.0143959E1,0E0,0E0,0E0,0E0],"parents":[2147483647,0,0,1,1,4,4,3,3],"right_children":[2,4,-1,8,6,-1,-1,-1,-1],"split_conditions":[1.794688E-1,1.0391067E-2,3.9787433E-1,5.313405E-1,1.3232514E-2,2.3858924E-1,-7.294753E-2,-3.368781E-3,7.4548766E-2],"split_indices":[15,1,0,29,20,0,0,0,0],"split_type":[0,0,0,0,0,0,0,0,0],"sum_hessian":[1.242098E3,1.2353109E3,6.7871666E0,9.720172E2,2.6329367E2,1.9752848E1,2.4354083E2,6.7475574E2,2.9726147E2],"tree_param":{"num_deleted":"0","num_feature":"39","num_nodes":"9","size_leaf_vector":"1"}},{"base_weights":[-2.456876E-2,-5.376066E-1,-1.746246E-3,-8.4340733E-1,5.84737E-1,-3.019803E-1,4.0937015E-1,3.3970016E-1,-3.7352765E-1,8.021947E-1,-1.3151249E-2,6.630372E-2,-1.5056477E-2,4.9451277E-2,5.2093154E-1],"categories":[],"categories_nodes":[],"categories_segments":[],"categories_sizes":[],"default_left":[0,0,0,0,0,0,0,0,0,0,0,0,0,0,0],"id":14,"left_children":[1,3,9,5,7,-1,-1,-1,-1,13,11,-1,-1,-1,-1],"loss_changes":[1.4512006E1,1.8120815E1,1.0879818E1,1.6076658E1,1.1681591E1,0E0,0E0,0E0,0E0,1.0051907E1,1.0404932E1,0E0,0E0,0E0,0E0],"parents":[2147483647,0,0,1,1,3,3,4,4,2,2,10,10,9,9],"right_children":[2,4,10,6,8,-1,-1,-1,-1,14,12,-1,-1,-1,-1],"split_conditions":[-5.464132E-2,2.7268673E-3,-8.360958E-2,8.422945E-3,3.3026114E-1,-3.019803E-1,4.0937015E-1,3.3970016E-1,-3.7352765E-1,9.5105654E-1,4.2440318E-2,6.630372E-2,-1.5056477E-2,4.9451277E-2,5.2093154E-1],"split_indices":[2,14,15,16,20,0,0,0,0,25,20,0,0,0,0],"split_type":[0,0,0,0,0,0,0,0,0,0,0,0,0,0,0],"sum_hessian":[1.2394518E3,5.278031E1,1.1866715E3,4.1480812E1,1.1299497E1,3.846983E1,3.010984E0,8.669138E0,2.6303587E0,1.6591248E1,1.1700802E3,1.6040068E2,1.00967957E3,9.959934E0,6.6313133E0],"tree_param":{"num_deleted":"0","num_feature":"39","num_nodes":"15","size_leaf_vector":"1"}},{"base_weights":[2.7171645E-2,-1.7622924E-1,7.874231E-2,6.629725E-1,-2.7513346E-1,-1.2888204E-1,6.998662E-2,6.767069E-1,9.178606E-2,6.776877E-2,3.430483E-1,2.6459396E-2,-1.782396E-1],"categories":[],"categories_nodes":[],"categories_segments":[],"categories_sizes":[],"default_left":[0,0,0,0,0,0,0,0,0,0,0,0,0],"id":15,"left_children":[1,3,9,7,5,-1,-1,-1,-1,11,-1,-1,-1],"loss_changes":[1.3017803E1,2.0834734E1,1.1701889E1,1.5131136E1,1.826548E1,0E0,0E0,0E0,0E0,1.4015686E1,0E0,0E0,0E0],"parents":[2147483647,0,0,1,1,4,4,3,3,2,2,9,9],"right_children":[2,4,10,8,6,-1,-1,-1,-1,12,-1,-1,-1],"split_conditions":[7.778915E-1,4.7950688E-1,1.843209E0,2.1083172E-1,5.4991525E-1,-1.2888204E-1,6.998662E-2,6.767069E-1,9.178606E-2,1.5950453E0,3.430483E-1,2.6459396E-2,-1.782396E-1],"split_indices":[13,23,13,19,29,0,0,0,0,13,0,0,0],"split_type":[0,0,0,0,0,0,0,0,0,0,0,0,0],"sum_hessian":[1.2410239E3,2.510026E2,9.9002136E2,2.6457941E1,2.2454465E2,1.712116E2,5.333305E1,4.7401204E0,2.1717821E1,9.8004645E2,9.974925E0,9.496556E2,3.0390856E1],"tree_param":{"num_deleted":"0","num_feature":"39","num_nodes":"13","size_leaf_vector":"1"}},{"base_weights":[3.4259981E-3,-1.3349709E-1,1.3106804E-1,8.356086E-1,9.5073074E-2,3.250604E-1,-4.859156E-1,5.3052347E-2,-8.6262256E-2,-1.1830602E-1,-5.03108E-1,-6.265254E-2,4.0312734E-2],"categories":[],"categories_nodes":[],"categories_segments":[],"categories_sizes":[],"default_left":[0,0,0,0,0,0,0,0,0,0,0,0,0],"id":16,"left_children":[1,9,3,5,7,-1,-1,-1,-1,11,-1,-1,-1],"loss_changes":[2.1999321E1,1.4405945E1,1.6519356E1,2.0354984E1,2.0014095E1,0E0,0E0,0E0,0E0,1.4189491E1,0E0,0E0,0E0],"parents":[2147483647,0,0,2,2,3,3,4,4,1,1,9,9],"right_children":[2,10,4,6,8,-1,-1,-1,-1,12,-1,-1,-1],"split_conditions":[9.4392663E-1,9.4122744E-1,-5.947737E-2,4.8045978E-1,5.539874E-1,3.250604E-1,-4.859156E-1,5.3052347E-2,-8.6262256E-2,1.7E1,-5.03108E-1,-6.265254E-2,4.0312734E-2],"split_indices":[23,23,2,20,29,0,0,0,0,30,0,0,0],"split_type":[0,0,0,0,0,0,0,0,0,0,0,0,0],"sum_hessian":[1.258735E3,6.072848E2,6.5145013E2,3.1656109E1,6.1979407E2,2.8650517E1,3.0055933E0,5.0929095E2,1.1050309E2,6.014431E2,5.8417063E0,4.4054794E2,1.6089514E2],"tree_param":{"num_deleted":"0","num_feature":"39","num_nodes":"13","size_leaf_vector":"1"}},{"base_weights":[-5.588123E-3,2.615833E-1,-5.3161893E-2,1.100643E0,8.4898554E-2,1.0395023E-1,-1.20511346E-1,-4.2449996E-1,-2.0006625E-2,4.1222554E-2,-3.5980094E-2,-2.026901E-1,4.4958718E-2,-4.3363873E-2,4.0415955E-1],"categories":[],"categories_nodes":[],"categories_segments":[],"categories_sizes":[],"default_left":[0,0,0,0,0,0,0,0,0,0,0,0,0,0,0],"id":17,"left_children":[1,3,7,13,5,-1,-1,11,9,-1,-1,-1,-1,-1,-1],"loss_changes":[1.5924977E1,2.8073116E1,1.3093741E1,1.0734589E1,2.0387516E1,0E0,0E0,1.2983066E1,1.5709524E1,0E0,0E0,0E0,0E0,0E0,0E0],"parents":[2147483647,0,0,1,1,4,4,2,2,8,8,7,7,3,3],"right_children":[2,4,8,14,6,-1,-1,12,10,-1,-1,-1,-1,-1,-1],"split_conditions":[-5.8778524E-1,3.2608697E-1,-3.409314E-1,-9.050416E-3,3.0872482E-1,1.0395023E-1,-1.20511346E-1,9.906975E-3,9.939494E-1,4.1222554E-2,-3.5980094E-2,-2.026901E-1,4.4958718E-2,-4.3363873E-2,4.0415955E-1],"split_indices":[25,18,6,1,21,0,0,3,24,0,0,0,0,0,0],"split_type":[0,0,0,0,0,0,0,0,0,0,0,0,0,0,0],"sum_hessian":[1.2529175E3,1.8937065E2,1.0635469E3,3.293311E1,1.5643755E2,1.0155103E2,5.4886513E1,8.716702E1,9.763798E2,3.7995004E2,5.964298E2,6.0163483E1,2.7003538E1,5.70637E0,2.722674E1],"tree_param":{"num_deleted":"0","num_feature":"39","num_nodes":"15","size_leaf_vector":"1"}},{"base_weights":[2.2887306E-2,-5.9622016E-2,2.1781088E-1,2.882489E-1,-6.074535E-1,-4.264915E-1,9.409313E-2,5.6152273E-2,-3.7253162E-1,-7.4842356E-2,7.6440537E-1,1.5757456E-2,-5.464315E-2,-1.6292343E-1,3.78878E-1],"categories":[],"categories_nodes":[],"categories_segments":[],"categories_sizes":[],"default_left":[0,0,0,0,0,0,0,0,0,0,0,0,0,0,0],"id":18,"left_children":[1,9,3,5,7,-1,-1,-1,-1,11,13,-1,-1,-1,-1],"loss_changes":[2.029927E1,1.1121588E1,2.1821045E1,1.7207632E1,1.5240633E1,0E0,0E0,0E0,0E0,1.2175953E1,1.0827673E1,0E0,0E0,0E0,0E0],"parents":[2147483647,0,0,2,2,3,3,4,4,1,1,9,9,10,10],"right_children":[2,10,4,6,8,-1,-1,-1,-1,12,14,-1,-1,-1,-1],"split_conditions":[1.0084615E0,4.9E1,1.3534059E-2,-8.0226414E-2,8.220047E-1,-4.264915E-1,9.409313E-2,5.6152273E-2,-3.7253162E-1,-1.783532E-2,9.651387E-1,1.5757456E-2,-5.464315E-2,-1.6292343E-1,3.78878E-1],"split_indices":[17,30,12,16,13,0,0,0,0,16,24,0,0,0,0],"split_type":[0,0,0,0,0,0,0,0,0,0,0,0,0,0,0],"sum_hessian":[1.2621334E3,8.867708E2,3.7536258E2,3.458493E2,2.9513271E1,5.6780176E0,3.401713E2,1.3238521E1,1.627475E1,8.7069586E2,1.6074928E1,4.0112985E2,4.69566E2,4.5102777E0,1.156465E1],"tree_param":{"num_deleted":"0","num_feature":"39","num_nodes":"15","size_leaf_vector":"1"}},{"base_weights":[4.7244346E-3,2.6586905E-2,-5.4520166E-1,-7.7884597E-1,8.140796E-1,1.9880287E-2,4.8459488E-1,-6.851076E-2,-4.0266374E-1,-4.5456588E-1,7.757748E-3,5.3553134E-1,-1.6377272E-1],"categories":[],"categories_nodes":[],"categories_segments":[],"categories_sizes":[],"default_left":[0,0,0,0,0,0,0,0,0,0,0,0,0],"id":19,"left_children":[1,5,3,7,11,9,-1,-1,-1,-1,-1,-1,-1],"loss_changes":[1.50276785E1,1.2950075E1,1.5182262E1,1.2915907E1,9.496733E0,1.1632028E1,0E0,0E0,0E0,0E0,0E0,0E0,0E0],"parents":[2147483647,0,0,2,2,1,1,3,3,5,5,4,4],"right_children":[2,6,4,8,12,10,-1,-1,-1,-1,-1,-1,-1],"split_conditions":[2.0367813E0,2.850089E0,2.144979E-3,3.09017E-1,7E0,9.4839615E-1,4.8459488E-1,-6.851076E-2,-4.0266374E-1,-4.5456588E-1,7.757748E-3,5.3553134E-1,-1.6377272E-1],"split_indices":[7,4,14,26,30,17,0,0,0,0,0,0,0],"split_type":[0,0,0,0,0,0,0,0,0,0,0,0,0],"sum_hessian":[1.2499689E3,1.2021841E3,4.778483E1,4.0779053E1,7.005777E0,1.1971934E3,4.99064E0,2.0940338E1,1.9838715E1,4.8048472E0,1.1923885E3,4.0600786E0,2.9456985E0],"tree_param":{"num_deleted":"0","num_feature":"39","num_nodes":"13","size_leaf_vector":"1"}},{"base_weights":[-3.960134E-3,2.4680977E-1,-6.257705E-2,3.4385085E-1,1.635645E-1,8.235065E-2,-1.8606964E-1,-8.704576E-2,4.1176805E-1,3.3769435E-1,-4.328076E-2,-4.33853E-2,1.9230451E-2],"categories":[],"categories_nodes":[],"categories_segments":[],"categories_sizes":[],"default_left":[0,0,0,0,0,0,0,0,0,0,0,0,0],"id":20,"left_children":[1,3,7,-1,5,-1,-1,11,9,-1,-1,-1,-1],"loss_changes":[1.8249825E1,1.7853796E1,1.1679964E1,0E0,1.9419052E1,0E0,0E0,8.596556E0,1.9991863E1,0E0,0E0,0E0,0E0],"parents":[2147483647,0,0,1,1,4,4,2,2,8,8,7,7],"right_children":[2,4,8,-1,6,-1,-1,12,10,-1,-1,-1,-1],"split_conditions":[6.498097E-3,-1.8101866E0,1.5235016E0,3.4385085E-1,1.6129597E0,8.235065E-2,-1.8606964E-1,1.6E1,3.09017E-1,3.3769435E-1,-4.328076E-2,-4.33853E-2,1.9230451E-2],"split_indices":[12,4,13,0,7,0,0,30,26,0,0,0,0],"split_type":[0,0,0,0,0,0,0,0,0,0,0,0,0],"sum_hessian":[1.2415383E3,2.3521628E2,1.0063221E3,1.9667435E1,2.1554884E2,1.8840094E2,2.7147913E1,9.569656E2,4.935656E1,2.1435251E1,2.7921307E1,6.8868085E2,2.6828467E2],"tree_param":{"num_deleted":"0","num_feature":"39","num_nodes":"13","size_leaf_vector":"1"}},{"base_weights":[2.7711984E-2,1.7225792E-1,-4.6534557E-2,-2.2998413E-1,6.939434E-2,1.4912952E-1,-3.7554589E-3,-4.2361945E-2,-2.4693117E-1,3.3319816E-1,-7.231198E-2,3.161974E-2,-2.8404638E-1,2.264086E-1,5.8721263E-2],"categories":[],"categories_nodes":[],"categories_segments":[],"categories_sizes":[],"default_left":[0,0,0,0,0,0,0,0,0,0,0,0,0,0,0],"id":21,"left_children":[1,9,3,7,5,-1,-1,-1,-1,13,11,-1,-1,-1,-1],"loss_changes":[1.3254182E1,1.6496601E1,1.735217E1,1.6593306E1,1.776915E1,0E0,0E0,0E0,0E0,1.4697521E1,2.6328527E1,0E0,0E0,0E0,0E0],"parents":[2147483647,0,0,2,2,4,4,3,3,1,1,10,10,9,9],"right_children":[2,10,4,8,6,-1,-1,-1,-1,14,12,-1,-1,-1,-1],"split_conditions":[-2.4246192E-2,9.951812E-1,9.990182E-1,1.1110697E-2,1.0046165E0,1.4912952E-1,-3.7554589E-3,-4.2361945E-2,-2.4693117E-1,3.562042E-1,5.0678736E-1,3.161974E-2,-2.8404638E-1,2.264086E-1,5.8721263E-2],"split_indices":[16,24,24,3,24,0,0,0,0,18,21,0,0,0,0],"split_type":[0,0,0,0,0,0,0,0,0,0,0,0,0,0,0],"sum_hessian":[1.2349869E3,4.1909082E2,8.158961E2,3.1594202E2,4.999541E2,7.9618095E1,4.20336E2,2.759727E2,3.9969322E1,2.527618E2,1.6632904E2,1.383653E2,2.796375E1,6.0517406E1,1.9224438E2],"tree_param":{"num_deleted":"0","num_feature":"39","num_nodes":"15","size_leaf_vector":"1"}},{"base_weights":[-3.3570424E-2,4.3174306E-1,-3.9623655E-2,-2.8583857E-1,-6.6541876E-3,-3.2580497E-3,-2.4647178E-1,-4.227438E-2,1.9523155E-2],"categories":[],"categories_nodes":[],"categories_segments":[],"categories_sizes":[],"default_left":[0,0,0,0,0,0,0,0,0],"id":22,"left_children":[1,-1,3,5,7,-1,-1,-1,-1],"loss_changes":[1.1100142E1,0E0,9.960775E0,2.1695423E1,1.0647172E1,0E0,0E0,0E0,0E0],"parents":[2147483647,0,0,2,2,3,3,4,4],"right_children":[2,-1,4,6,8,-1,-1,-1,-1],"split_conditions":[-3.0312755E0,4.3174306E-1,-6.552497E-2,-5.268789E-1,7.5622443E-3,-3.2580497E-3,-2.4647178E-1,-4.227438E-2,1.9523155E-2],"split_indices":[4,0,16,4,11,0,0,0,0],"split_type":[0,0,0,0,0,0,0,0,0],"sum_hessian":[1.2320793E3,4.9829803E0,1.2270964E3,1.4490045E2,1.0821959E3,9.631258E1,4.8587875E1,3.7647104E2,7.057249E2],"tree_param":{"num_deleted":"0","num_feature":"39","num_nodes":"9","size_leaf_vector":"1"}},{"base_weights":[4.138975E-2,3.8596925E-1,3.2880113E-3,1.9048539E-1,2.89901E-1,-1.6921183E-1,7.117507E-2,2.1371736E-1,-7.706858E-2,-4.0194255E-4,2.492887E-1,-9.270448E-2,3.1205432E-2],"categories":[],"categories_nodes":[],"categories_segments":[],"categories_sizes":[],"default_left":[0,0,0,0,0,0,0,0,0,0,0,0,0],"id":23,"left_children":[1,3,5,9,-1,7,11,-1,-1,-1,-1,-1,-1],"loss_changes":[1.6206055E1,1.4195221E1,1.3016236E1,1.1510519E1,0E0,2.526619E1,1.0396935E1,0E0,0E0,0E0,0E0,0E0,0E0],"parents":[2147483647,0,0,1,1,2,2,5,5,3,3,6,6],"right_children":[2,4,6,10,-1,8,12,-1,-1,-1,-1,-1,-1],"split_conditions":[2.6101142E-2,1.835853E-2,7.348846E-3,5.4991525E-1,2.89901E-1,-3.5407394E-2,-1.7014377E0,2.1371736E-1,-7.706858E-2,-4.0194255E-4,2.492887E-1,-9.270448E-2,3.1205432E-2],"split_indices":[20,20,11,29,0,15,4,0,0,0,0,0,0],"split_type":[0,0,0,0,0,0,0,0,0,0,0,0,0],"sum_hessian":[1.2343893E3,1.22893326E2,1.111496E3,9.235403E1,3.0539297E1,3.1388748E2,7.976085E2,2.8983385E1,2.8490408E2,7.1301704E1,2.1052317E1,6.490601E1,7.3270245E2],"tree_param":{"num_deleted":"0","num_feature":"39","num_nodes":"13","size_leaf_vector":"1"}},{"base_weights":[-4.07029E-3,5.415397E-1,-2.4073085E-2,-6.148021E-1,9.772166E-1,-4.3217063E-1,2.0636933E-1,-5.1494144E-2,3.6869693E-1,7.2627865E-2,-2.7622564E-2,-3.5011426E-1,3.3480144E-1,2.5456421E-2,2.3801395E-1],"categories":[],"categories_nodes":[],"categories_segments":[],"categories_sizes":[],"default_left":[0,0,0,0,0,0,0,0,0,0,0,0,0,0,0],"id":24,"left_children":[1,3,7,5,11,-1,-1,9,13,-1,-1,-1,-1,-1,-1],"loss_changes":[1.3271044E1,2.1669159E1,1.263365E1,1.2987717E1,1.0184828E1,0E0,0E0,1.3509555E1,9.384119E0,0E0,0E0,0E0,0E0,0E0,0E0],"parents":[2147483647,0,0,1,1,3,3,2,2,7,7,4,4,8,8],"right_children":[2,4,8,6,12,-1,-1,10,14,-1,-1,-1,-1,-1,-1],"split_conditions":[3.8449123E-4,1.25E-1,1.4000515E-2,6.248276E-3,5.969718E-1,-4.3217063E-1,2.0636933E-1,4.135821E-1,9E0,7.2627865E-2,-2.7622564E-2,-3.5011426E-1,3.3480144E-1,2.5456421E-2,2.3801395E-1],"split_indices":[14,21,11,11,22,0,0,29,30,0,0,0,0,0,0],"split_type":[0,0,0,0,0,0,0,0,0,0,0,0,0,0,0],"sum_hessian":[1.2160317E3,4.2996655E1,1.1730352E3,1.1765172E1,3.1231482E1,7.163923E0,4.6012497E0,1.0964926E3,7.654257E1,1.3498134E2,9.615112E2,2.0400224E0,2.919146E1,4.6316963E1,3.0225609E1],"tree_param":{"num_deleted":"0","num_feature":"39","num_nodes":"15","size_leaf_vector":"1"}},{"base_weights":[1.23555735E-2,1.7102182E-2,-5.451321E-1,3.3502553E-2,-4.4858631E-1,3.0728066E-2,-2.4628939E-1,-1.9352338E-1,1.3052486E-2],"categories":[],"categories_nodes":[],"categories_segments":[],"categories_sizes":[],"default_left":[0,0,0,0,0,0,0,0,0],"id":25,"left_children":[1,3,-1,7,5,-1,-1,-1,-1],"loss_changes":[1.046022E1,9.078765E0,0E0,8.25294E0,8.516641E0,0E0,0E0,0E0,0E0],"parents":[2147483647,0,0,1,1,4,4,3,3],"right_children":[2,4,-1,8,6,-1,-1,-1,-1],"split_conditions":[5.3800557E-2,1.001431E-1,-5.451321E-1,3.5056815E-1,-6.9785096E-2,3.0728066E-2,-2.4628939E-1,-1.9352338E-1,1.3052486E-2],"split_indices":[5,15,0,29,27,0,0,0,0],"split_type":[0,0,0,0,0,0,0,0,0],"sum_hessian":[1.1917965E3,1.1887527E3,3.0438154E0,1.1483203E3,4.0432404E1,1.6519037E1,2.3913368E1,1.7283924E1,1.1310364E3],"tree_param":{"num_deleted":"0","num_feature":"39","num_nodes":"9","size_leaf_vector":"1"}},{"base_weights":[-1.4437548E-2,3.7527934E-2,-2.6599166E-1,3.2108915E-1,-3.3477122E-1,3.1373173E-1,-1.1891096E-1,4.5597438E-2,-3.711998E-1,9.017716E-3,2.4799919E-1],"categories":[],"categories_nodes":[],"categories_segments":[],"categories_sizes":[],"default_left":[0,0,0,0,0,0,0,0,0,0,0],"id":26,"left_children":[1,7,3,-1,5,-1,-1,9,-1,-1,-1],"loss_changes":[1.6164982E1,1.0654507E1,1.9631287E1,0E0,1.849319E1,0E0,0E0,1.2238134E1,0E0,0E0,0E0],"parents":[2147483647,0,0,2,2,4,4,1,1,7,7],"right_children":[2,8,4,-1,6,-1,-1,10,-1,-1,-1],"split_conditions":[1.312817E0,5.011173E-1,-6.769968E-2,3.2108915E-1,4.563796E-3,3.1373173E-1,-1.1891096E-1,4.014775E-1,-3.711998E-1,9.017716E-3,2.4799919E-1],"split_indices":[23,27,2,0,3,0,0,27,0,0,0],"split_type":[0,0,0,0,0,0,0,0,0,0,0],"sum_hessian":[1.2365684E3,1.024857E3,2.1171121E2,1.0272134E1,2.0143907E2,9.105681E0,1.9233339E2,1.01848553E3,6.3715644E0,9.992593E2,1.9226244E1],"tree_param":{"num_deleted":"0","num_feature":"39","num_nodes":"11","size_leaf_vector":"1"}},{"base_weights":[2.9035645E-2,-2.8948206E-1,5.085521E-2,-9.216366E-1,6.581259E-2,9.11527E-2,-3.2522982E-1,9.1851026E-2,-3.5619503E-1,3.9194763E-2,7.0006263E-1,-3.3641455E-1,3.2247108E-1,1.6198438E-2,-1.7704825E-1],"categories":[],"categories_nodes":[],"categories_segments":[],"categories_sizes":[],"default_left":[0,0,0,0,0,0,0,0,0,0,0,0,0,0,0],"id":27,"left_children":[1,3,9,7,5,-1,-1,-1,-1,13,11,-1,-1,-1,-1],"loss_changes":[8.550784E0,1.7717537E1,8.715887E0,9.741999E0,1.4162763E1,0E0,0E0,0E0,0E0,1.1069874E1,1.4410774E1,0E0,0E0,0E0,0E0],"parents":[2147483647,0,0,1,1,4,4,3,3,2,2,10,10,9,9],"right_children":[2,4,10,8,6,-1,-1,-1,-1,14,12,-1,-1,-1,-1],"split_conditions":[6.540938E-1,8.976919E-4,1.8248454E-2,-7.1132393E-3,7.5193477E-1,9.11527E-2,-3.2522982E-1,9.1851026E-2,-3.5619503E-1,1.5532668E-2,8.136664E-1,-3.3641455E-1,3.2247108E-1,1.6198438E-2,-1.7704825E-1],"split_indices":[13,14,3,1,23,0,0,0,0,3,23,0,0,0,0],"split_type":[0,0,0,0,0,0,0,0,0,0,0,0,0,0,0],"sum_hessian":[1.230359E3,7.887184E1,1.1514872E3,2.8376148E1,5.0495693E1,4.1814667E1,8.6810255E0,5.236869E0,2.313928E1,1.1311788E3,2.0308376E1,3.5334618E0,1.6774914E1,1.1044506E3,2.6728218E1],"tree_param":{"num_deleted":"0","num_feature":"39","num_nodes":"15","size_leaf_vector":"1"}},{"base_weights":[-3.8216207E-2,-6.570134E-2,3.908586E-1,7.092803E-1,-8.0544904E-2,-1.5500327E-2,-1.363332E-1,-1.6698784E-1,6.70802E-1,2.2556522E-1,-2.9375002E-1,3.077891E-1,-1.6006168E-2,-1.342271E-1,3.2238388E-1],"categories":[],"categories_nodes":[],"categories_segments":[],"categories_sizes":[],"default_left":[0,0,0,0,0,0,0,0,0,0,0,0,0,0,0],"id":28,"left_children":[1,3,7,13,5,-1,-1,9,11,-1,-1,-1,-1,-1,-1],"loss_changes":[1.4266089E1,1.30778885E1,1.1373798E1,9.363134E0,1.1964936E1,0E0,0E0,1.8573223E1,1.2878508E1,0E0,0E0,0E0,0E0,0E0,0E0],"parents":[2147483647,0,0,1,1,4,4,2,2,7,7,8,8,3,3],"right_children":[2,4,8,14,6,-1,-1,10,12,-1,-1,-1,-1,-1,-1],"split_conditions":[1.4094047E-2,1.9900497E-2,5E0,4.56621E-3,1.2435968E-2,-1.5500327E-2,-1.363332E-1,9.0081584E-1,4.929591E-1,2.2556522E-1,-2.9375002E-1,3.077891E-1,-1.6006168E-2,-1.342271E-1,3.2238388E-1],"split_indices":[11,19,30,19,12,0,0,22,18,0,0,0,0,0,0],"split_type":[0,0,0,0,0,0,0,0,0,0,0,0,0,0,0],"sum_hessian":[1.2096979E3,1.1368812E3,7.2816734E1,2.1358683E1,1.1155225E3,1.0379725E3,7.754994E1,2.433099E1,4.848575E1,1.1440747E1,1.2890242E1,3.2203384E1,1.6282364E1,5.233563E0,1.612512E1],"tree_param":{"num_deleted":"0","num_feature":"39","num_nodes":"15","size_leaf_vector":"1"}},{"base_weights":[4.008864E-3,-1.666416E-1,5.6245647E-2,-5.6630105E-1,-1.439575E-3,-9.620979E-2,9.7645335E-2,-1.2467697E-1,-5.2110875E-1,4.417894E-1,4.7952678E-2,-1.0788858E-1,2.1649126E-2],"categories":[],"categories_nodes":[],"categories_segments":[],"categories_sizes":[],"default_left":[0,0,0,0,0,0,0,0,0,0,0,0,0],"id":29,"left_children":[1,3,9,7,5,-1,-1,-1,-1,-1,11,-1,-1],"loss_changes":[1.0742363E1,1.8646431E1,1.095904E1,1.4355808E1,2.131787E1,0E0,0E0,0E0,0E0,0E0,9.438461E0,0E0,0E0],"parents":[2147483647,0,0,1,1,4,4,3,3,2,2,10,10],"right_children":[2,4,10,8,6,-1,-1,-1,-1,-1,12,-1,-1],"split_conditions":[-4.0485106E-2,8.334915E-3,-5.947737E-2,8.165091E-3,-4.098764E-2,-9.620979E-2,9.7645335E-2,-1.2467697E-1,-5.2110875E-1,4.417894E-1,-1.9394796E-2,-1.0788858E-1,2.1649126E-2],"split_indices":[16,12,2,12,15,0,0,0,0,0,1,0,0],"split_type":[0,0,0,0,0,0,0,0,0,0,0,0,0],"sum_hessian":[1.2050796E3,2.8241922E2,9.2266034E2,8.259098E1,1.9982823E2,1.0109606E2,9.873217E1,7.3563965E1,9.027009E0,5.302947E0,9.1735736E2,5.253387E1,8.648235E2],"tree_param":{"num_deleted":"0","num_feature":"39","num_nodes":"13","size_leaf_vector":"1"}},{"base_weights":[4.9066022E-2,-2.9625088E-1,9.24875E-2,6.289459E-1,6.260299E-2,-3.555187E-2,3.08734E-1,-1.9248227E-2,-5.978431E-1,-4.261164E-2,3.9834768E-1,-2.6068572E-2,-2.8177088E-1,3.0247992E-2,-5.282342E-2],"categories":[],"categories_nodes":[],"categories_segments":[],"categories_sizes":[],"default_left":[0,0,0,0,0,0,0,0,0,0,0,0,0,0,0],"id":30,"left_children":[1,7,3,5,13,-1,-1,9,11,-1,-1,-1,-1,-1,-1],"loss_changes":[1.81115E1,1.1270724E1,1.7200983E1,1.744363E1,9.61792E0,0E0,0E0,1.1908837E1,1.1583235E1,0E0,0E0,0E0,0E0,0E0,0E0],"parents":[2147483647,0,0,2,2,3,3,1,1,7,7,8,8,4,4],"right_children":[2,8,4,6,14,-1,-1,10,12,-1,-1,-1,-1,-1,-1],"split_conditions":[6.548357E-3,8.278459E-1,5.5049392E-3,4.8868973E-3,2.2457684E-3,-3.555187E-2,3.08734E-1,1.0439214E-2,2.5093168E-1,-4.261164E-2,3.9834768E-1,-2.6068572E-2,-2.8177088E-1,3.0247992E-2,-5.282342E-2],"split_indices":[5,22,11,11,14,0,0,12,19,0,0,0,0,0,0],"split_type":[0,0,0,0,0,0,0,0,0,0,0,0,0,0,0],"sum_hessian":[1.2078982E3,1.3491324E2,1.072985E3,5.660976E1,1.01637524E3,2.0076508E1,3.6533253E1,7.032902E1,6.458422E1,6.445007E1,5.8789477E0,2.6363995E1,3.822023E1,8.735922E2,1.42783E2],"tree_param":{"num_deleted":"0","num_feature":"39","num_nodes":"15","size_leaf_vector":"1"}},{"base_weights":[-3.1308465E-2,1.8896213E-1,-1.0489111E-1,2.0937486E-1,-7.1725464E-1,1.5656501E-1,2.137507E-2,-1.1464581E-1,3.702623E-1,-8.957643E-2,-1.4854535E-2],"categories":[],"categories_nodes":[],"categories_segments":[],"categories_sizes":[],"default_left":[0,0,0,0,0,0,0,0,0,0,0],"id":31,"left_children":[1,3,7,5,-1,-1,-1,9,-1,-1,-1],"loss_changes":[1.911846E1,1.5713367E1,1.1666259E1,1.2808574E1,0E0,0E0,0E0,1.0614624E1,0E0,0E0,0E0],"parents":[2147483647,0,0,1,1,3,3,2,2,7,7],"right_children":[2,4,8,6,-1,-1,-1,10,-1,-1,-1],"split_conditions":[8.339151E-3,5.4E1,2.2591074E0,-1.1068308E-2,-7.1725464E-1,1.5656501E-1,2.137507E-2,1.0896445E-2,3.702623E-1,-8.957643E-2,-1.4854535E-2],"split_indices":[5,30,6,2,0,0,0,5,0,0,0],"split_type":[0,0,0,0,0,0,0,0,0,0,0],"sum_hessian":[1.1795533E3,2.9536108E2,8.8419226E2,2.9307208E2,2.2890248E0,8.834614E1,2.0472594E2,8.7786835E2,6.323971E0,2.251654E2,6.527029E2],"tree_param":{"num_deleted":"0","num_feature":"39","num_nodes":"11","size_leaf_vector":"1"}},{"base_weights":[-1.6847739E-2,-1.1848066E-1,6.9478326E-2,2.9102605E-2,-2.959827E-1,-1.0776418E-1,2.4939537E-1,2.4927257E-2,-2.0354842E-1,1.190107E-1,-2.3019214E-1,4.6833834E-1,-9.252945E-2,9.4705215E-3,8.741385E-2],"categories":[],"categories_nodes":[],"categories_segments":[],"categories_sizes":[],"default_left":[0,0,0,0,0,0,0,0,0,0,0,0,0,0,0],"id":32,"left_children":[1,3,9,7,5,-1,-1,-1,-1,13,11,-1,-1,-1,-1],"loss_changes":[1.0575133E1,1.4502439E1,9.674118E0,1.1865318E1,1.9185213E1,0E0,0E0,0E0,0E0,8.551779E0,1.364705E1,0E0,0E0,0E0,0E0],"parents":[2147483647,0,0,1,1,4,4,3,3,2,2,10,10,9,9],"right_children":[2,4,10,8,6,-1,-1,-1,-1,14,12,-1,-1,-1,-1],"split_conditions":[4.1666666E-1,9E0,4.8967475E-1,1.00296974E-1,1.4077407E-2,-1.0776418E-1,2.4939537E-1,2.4927257E-2,-2.0354842E-1,4.1716853E-1,-2.6069181E-2,4.6833834E-1,-9.252945E-2,9.4705215E-3,8.741385E-2],"split_indices":[19,30,18,16,3,0,0,0,0,18,0,0,0,0,0],"split_type":[0,0,0,0,0,0,0,0,0,0,0,0,0,0,0],"sum_hessian":[1.2053208E3,5.5358594E2,6.517348E2,3.02267E2,2.5131895E2,2.372989E2,1.4020046E1,2.807212E2,2.1545792E1,5.5929663E2,9.243822E1,3.9859366E0,8.845228E1,3.7384552E2,1.8545108E2],"tree_param":{"num_deleted":"0","num_feature":"39","num_nodes":"15","size_leaf_vector":"1"}},{"base_weights":[-5.111694E-3,-1.9420529E-2,6.218282E-1,-7.1397773E-3,4.1820955E-1,-2.8060845E-1,2.65886E-1,-9.103682E-3,-7.132395E-1,2.7228436E-1,-4.0803492E-1,-5.0396837E-2,1.10668745E-2],"categories":[],"categories_nodes":[],"categories_segments":[],"categories_sizes":[],"default_left":[0,0,0,0,0,0,0,0,0,0,0,0,0],"id":33,"left_children":[1,7,3,5,-1,-1,-1,11,9,-1,-1,-1,-1],"loss_changes":[1.105778E1,8.626096E0,1.3624871E1,1.297149E1,0E0,0E0,0E0,8.856182E0,1.9064823E1,0E0,0E0,0E0,0E0],"parents":[2147483647,0,0,2,2,3,3,1,1,8,8,7,7],"right_children":[2,8,4,6,-1,-1,-1,12,10,-1,-1,-1,-1],"split_conditions":[4.0867715E-3,6.278119E-1,9.990182E-1,1.7628329E-2,4.1820955E-1,-2.8060845E-1,2.65886E-1,8.278581E-2,-6.541141E-3,2.7228436E-1,-4.0803492E-1,-5.0396837E-2,1.10668745E-2],"split_indices":[14,29,24,5,0,0,0,20,1,0,0,0,0],"split_type":[0,0,0,0,0,0,0,0,0,0,0,0,0],"sum_hessian":[1.2327004E3,1.2052019E3,2.7498459E1,1.5290826E1,1.2207634E1,7.4991536E0,7.791672E0,1.1875519E3,1.765013E1,5.093707E0,1.2556422E1,2.660225E2,9.2152936E2],"tree_param":{"num_deleted":"0","num_feature":"39","num_nodes":"13","size_leaf_vector":"1"}},{"base_weights":[1.6636519E-2,-4.9808692E-2,1.4430222E-1,2.6556888E-1,-1.4254124E-1,1.0452162E-1,-1.5552883E-1,-2.4024232E-1,2.3555148E-2,-1.677985E-1,5.444131E-2,8.778498E-1,1.2183237E-2,-8.349917E-2,4.971956E-2],"categories":[],"categories_nodes":[],"categories_segments":[],"categories_sizes":[],"default_left":[0,0,0,0,0,0,0,0,0,0,0,0,0,0,0],"id":34,"left_children":[1,9,3,5,7,-1,-1,-1,-1,13,11,-1,-1,-1,-1],"loss_changes":[1.00140915E1,9.550366E0,1.4056813E1,1.9436981E1,1.7776075E1,0E0,0E0,0E0,0E0,1.3872998E1,1.6017874E1,0E0,0E0,0E0,0E0],"parents":[2147483647,0,0,2,2,3,3,4,4,1,1,10,10,9,9],"right_children":[2,10,4,6,8,-1,-1,-1,-1,14,12,-1,-1,-1,-1],"split_conditions":[1.0088134E0,9.378895E-1,1.2009618E0,1.363632E-2,-2.2528616E-1,1.0452162E-1,-1.5552883E-1,-2.4024232E-1,2.3555148E-2,1E0,2.1410926E-1,8.778498E-1,1.2183237E-2,-8.349917E-2,4.971956E-2],"split_indices":[24,22,7,12,27,0,0,0,0,28,18,0,0,0,0],"split_type":[0,0,0,0,0,0,0,0,0,0,0,0,0,0,0],"sum_hessian":[1.1804965E3,7.764034E2,4.0409308E2,2.84023E2,1.2007006E2,2.559426E2,2.8080431E1,2.997087E1,9.009919E1,3.6420428E2,4.1219907E2,1.8842278E0,4.1031485E2,2.7206125E2,9.214304E1],"tree_param":{"num_deleted":"0","num_feature":"39","num_nodes":"15","size_leaf_vector":"1"}},{"base_weights":[7.26483E-3],"categories":[],"categories_nodes":[],"categories_segments":[],"categories_sizes":[],"default_left":[0],"id":35,"left_children":[-1],"loss_changes":[0E0],"parents":[2147483647],"right_children":[-1],"split_conditions":[2.1558253E-3],"split_indices":[0],"split_type":[0],"sum_hessian":[1.2198313E3],"tree_param":{"num_deleted":"0","num_feature":"39","num_nodes":"1","size_leaf_vector":"1"}},{"base_weights":[2.73962E-2,3.7521225E-1,-8.9980155E-4,-1.2542985E-2,9.484402E-1,-3.9561935E-2,2.5906414E-2,-8.629909E-2,5.046513E-1,2.0747553E-1,1.0396866E0,1.0339936E-1,-2.3801196E-1,3.8422012E-1,-1.970573E-1],"categories":[],"categories_nodes":[],"categories_segments":[],"categories_sizes":[],"default_left":[0,0,0,0,0,0,0,0,0,0,0,0,0,0,0],"id":36,"left_children":[1,9,3,5,7,-1,-1,-1,-1,11,13,-1,-1,-1,-1],"loss_changes":[1.1694971E1,9.961307E0,1.2145182E1,1.3090506E1,1.2413916E1,0E0,0E0,0E0,0E0,1.0160923E1,7.8360233E0,0E0,0E0,0E0,0E0],"parents":[2147483647,0,0,2,2,3,3,4,4,1,1,9,9,10,10],"right_children":[2,10,4,6,8,-1,-1,-1,-1,12,14,-1,-1,-1,-1],"split_conditions":[8.278146E-2,6.344086E-1,1.893172E-1,-1.8369701E-16,4.646729E-3,-3.9561935E-2,2.5906414E-2,-8.629909E-2,5.046513E-1,9.659258E-1,1.6942554E0,1.0339936E-1,-2.3801196E-1,3.8422012E-1,-1.970573E-1],"split_indices":[19,20,16,9,1,0,0,0,0,9,4,0,0,0,0],"split_type":[0,0,0,0,0,0,0,0,0,0,0,0,0,0,0],"sum_hessian":[1.1882478E3,8.9391975E1,1.0988558E3,1.0855499E3,1.330597E1,4.9128302E2,5.9426685E2,5.0267177E0,8.279252E0,7.138286E1,1.8009119E1,6.2641476E1,8.741383E0,1.5665886E1,2.343232E0],"tree_param":{"num_deleted":"0","num_feature":"39","num_nodes":"15","size_leaf_vector":"1"}},{"base_weights":[-4.8169117E-2,3.8070981E-3,-1.8911763E-1,-6.2291944E-1,-4.4269208E-2,1.9465859E-1,-3.6928896E-2,7.659216E-2,-2.3049663E-1,-6.358833E-1,2.2916485E-2,-3.1671357E-1,2.349799E-1,-2.0146158E-3,1.4179915E-1],"categories":[],"categories_nodes":[],"categories_segments":[],"categories_sizes":[],"default_left":[0,0,0,0,0,0,0,0,0,0,0,0,0,0,0],"id":37,"left_children":[1,9,3,7,5,-1,-1,-1,-1,11,13,-1,-1,-1,-1],"loss_changes":[8.803109E0,1.07307E1,2.0340948E1,1.0983784E1,1.3626005E1,0E0,0E0,0E0,0E0,1.5688934E1,1.1519995E1,0E0,0E0,0E0,0E0],"parents":[2147483647,0,0,2,2,4,4,3,3,1,1,9,9,10,10],"right_children":[2,10,4,8,6,-1,-1,-1,-1,12,14,-1,-1,-1,-1],"split_conditions":[3.9961013E-1,2.4737456E-1,4.589372E-1,-2.6880595E-1,-3.9141183E-3,1.9465859E-1,-3.6928896E-2,7.659216E-2,-2.3049663E-1,7.3670214E-1,3.5824743E-1,-3.1671357E-1,2.349799E-1,-2.0146158E-3,1.4179915E-1],"split_indices":[20,18,20,6,0,0,0,0,0,19,20,0,0,0,0],"split_type":[0,0,0,0,0,0,0,0,0,0,0,0,0,0,0],"sum_hessian":[1.2015961E3,8.7787103E2,3.2372504E2,8.102783E1,2.426972E2,2.4927114E1,2.1777008E2,1.2042461E1,6.8985374E1,2.545593E1,8.524151E2,1.9550951E1,5.9049807E0,8.001705E2,5.224463E1],"tree_param":{"num_deleted":"0","num_feature":"39","num_nodes":"15","size_leaf_vector":"1"}},{"base_weights":[-1.749848E-2,-5.417151E-1,-4.0527764E-3],"categories":[],"categories_nodes":[],"categories_segments":[],"categories_sizes":[],"default_left":[0,0,0],"id":38,"left_children":[1,-1,-1],"loss_changes":[8.332997E0,0E0,0E0],"parents":[2147483647,0,0],"right_children":[2,-1,-1],"split_conditions":[9.4202864E-1,-5.417151E-1,-4.0527764E-3],"split_indices":[17,0,0],"split_type":[0,0,0],"sum_hessian":[1.2001749E3,2.53707E0,1.1976378E3],"tree_param":{"num_deleted":"0","num_feature":"39","num_nodes":"3","size_leaf_vector":"1"}},{"base_weights":[8.837551E-3,-2.5728336E-1,4.088342E-2,6.106129E-1,-3.7524846E-1,2.985136E-1,-3.1983542E-1,1.9000214E-2,-3.561828E-1,-4.6904945E-1,-5.3055834E-2,-2.6221067E-1,-6.255578E-2],"categories":[],"categories_nodes":[],"categories_segments":[],"categories_sizes":[],"default_left":[0,0,0,0,0,0,0,0,0,0,0,0,0],"id":39,"left_children":[1,3,7,5,11,-1,-1,-1,9,-1,-1,-1,-1],"loss_changes":[1.007066E1,1.299517E1,9.6859865E0,1.0144992E1,9.338377E0,0E0,0E0,0E0,1.2605316E1,0E0,0E0,0E0,0E0],"parents":[2147483647,0,0,1,1,3,3,2,2,8,8,4,4],"right_children":[2,4,8,6,12,-1,-1,-1,10,-1,-1,-1,-1],"split_conditions":[2E0,1.0483871E-1,1.0273515E0,6.885246E-1,-1.7121261E-1,2.985136E-1,-3.1983542E-1,1.9000214E-2,7.538932E-4,-4.6904945E-1,-5.3055834E-2,-2.6221067E-1,-6.255578E-2],"split_indices":[30,19,17,21,6,0,0,0,14,0,0,0,0],"split_type":[0,0,0,0,0,0,0,0,0,0,0,0,0],"sum_hessian":[1.1808951E3,1.269096E2,1.0539856E3,1.5181164E1,1.1172843E2,1.2303657E1,2.877508E0,9.959413E2,5.804423E1,7.337555E0,5.0706676E1,2.7299257E1,8.442918E1],"tree_param":{"num_deleted":"0","num_feature":"39","num_nodes":"13","size_leaf_vector":"1"}},{"base_weights":[5.931724E-3,-4.922631E-1,1.9674566E-2,1.2938377E-1,-8.382437E-1,-3.5416442E-1,1.4061417E-1,1.4028129E-1,-3.921249E-2,3.299668E-2,3.6141738E-1,4.1764863E-3,-7.660433E-2],"categories":[],"categories_nodes":[],"categories_segments":[],"categories_sizes":[],"default_left":[0,0,0,0,0,0,0,0,0,0,0,0,0],"id":40,"left_children":[1,3,7,-1,5,-1,-1,9,11,-1,-1,-1,-1],"loss_changes":[8.320775E0,1.048072E1,8.400306E0,0E0,1.1083822E1,0E0,0E0,1.21609535E1,9.271754E0,0E0,0E0,0E0,0E0],"parents":[2147483647,0,0,1,1,4,4,2,2,7,7,8,8],"right_children":[2,4,8,-1,6,-1,-1,10,12,-1,-1,-1,-1],"split_conditions":[5.85947E-1,-1.1659541E-2,7.854877E-4,1.2938377E-1,1E0,-3.5416442E-1,1.4061417E-1,7.9253696E-2,7.050558E-3,3.299668E-2,3.6141738E-1,4.1764863E-3,-7.660433E-2],"split_indices":[13,2,14,0,28,0,0,15,0,0,0,0,0],"split_type":[0,0,0,0,0,0,0,0,0,0,0,0,0],"sum_hessian":[1.2153701E3,3.2617943E1,1.1827522E3,8.855021E0,2.376292E1,1.8701134E1,5.0617876E0,3.8803192E2,7.947203E2,3.778419E2,1.0190051E1,6.391561E2,1.5556415E2],"tree_param":{"num_deleted":"0","num_feature":"39","num_nodes":"13","size_leaf_vector":"1"}},{"base_weights":[-1.8808655E-2,-9.1295965E-2,8.198799E-2,-7.787403E-1,-6.2594384E-2,1.5463299E-2,-6.882392E-2,2.6330304E-1,-4.7141865E-2,-9.213927E-3,1.7435944E-1,4.8530662E-1,-2.0593459E-2,-3.450737E-1,9.28047E-4],"categories":[],"categories_nodes":[],"categories_segments":[],"categories_sizes":[],"default_left":[0,0,0,0,0,0,0,0,0,0,0,0,0,0,0],"id":41,"left_children":[1,3,7,13,5,-1,-1,9,11,-1,-1,-1,-1,-1,-1],"loss_changes":[8.677567E0,1.3629652E1,1.1632163E1,8.315857E0,1.28809805E1,0E0,0E0,1.9725231E1,1.0864414E1,0E0,0E0,0E0,0E0,0E0,0E0],"parents":[2147483647,0,0,1,1,4,4,2,2,7,7,8,8,3,3],"right_children":[2,4,8,14,6,-1,-1,10,12,-1,-1,-1,-1,-1,-1],"split_conditions":[1.0358447E0,9.73207E-1,1.140301E0,3.2546513E-3,9.306549E-3,1.5463299E-2,-6.882392E-2,3.25076E-3,5.820722E-4,-9.213927E-3,1.7435944E-1,4.8530662E-1,-2.0593459E-2,-3.450737E-1,9.28047E-4],"split_indices":[23,17,7,1,15,0,0,2,21,0,0,0,0,0,0],"split_type":[0,0,0,0,0,0,0,0,0,0,0,0,0,0,0],"sum_hessian":[1.1876389E3,6.908381E2,4.9680084E2,2.7678768E1,6.631593E2,3.9535184E2,2.6780746E2,2.0664534E2,2.9015552E2,1.0831996E2,9.832537E1,3.7808037E0,2.8637473E2,1.8559225E1,9.119542E0],"tree_param":{"num_deleted":"0","num_feature":"39","num_nodes":"15","size_leaf_vector":"1"}},{"base_weights":[-5.5734706E-3,-3.9783303E-2,2.1886745E-1,-4.6760505E-1,3.187506E-1,6.497462E-1,-2.3347034E-1,1.1782571E-1,-2.1520606E-1,-9.367499E-2,1.5077253E-1,5.423952E-2,-4.5625865E-2,2.7896217E-1,2.9341672E-2],"categories":[],"categories_nodes":[],"categories_segments":[],"categories_sizes":[],"default_left":[0,0,0,0,0,0,0,0,0,0,0,0,0,0,0],"id":42,"left_children":[1,9,3,5,7,-1,-1,-1,-1,11,13,-1,-1,-1,-1],"loss_changes":[9.007727E0,1.045458E1,1.064013E1,1.6725723E1,1.1075396E1,0E0,0E0,0E0,0E0,1.3180916E1,9.19128E0,0E0,0E0,0E0,0E0],"parents":[2147483647,0,0,2,2,3,3,4,4,1,1,9,9,10,10],"right_children":[2,10,4,6,8,-1,-1,-1,-1,12,14,-1,-1,-1,-1],"split_conditions":[5.710073E-1,1.7403461E-2,6.444766E-3,-7.0710677E-1,2.681688E-2,6.497462E-1,-2.3347034E-1,1.1782571E-1,-2.1520606E-1,5.84706E-4,7.4185765E-1,5.423952E-2,-4.5625865E-2,2.7896217E-1,2.9341672E-2],"split_indices":[29,5,3,9,5,0,0,0,0,14,22,0,0,0,0],"split_type":[0,0,0,0,0,0,0,0,0,0,0,0,0,0,0],"sum_hessian":[1.1731842E3,1.01802466E3,1.551595E2,1.9703907E1,1.354556E2,2.1083121E0,1.7595596E1,1.2600911E2,9.4464855E0,7.935947E2,2.2442998E2,1.41667E2,6.519277E2,1.3837356E1,2.1059262E2],"tree_param":{"num_deleted":"0","num_feature":"39","num_nodes":"15","size_leaf_vector":"1"}},{"base_weights":[5.5384333E-3,-1.2765805E-1,8.63554E-2,-8.6745724E-2,-8.9299124E-1,-3.0778222E-2,5.89959E-1,9.132567E-1,6.923089E-2,4.0217754E-1,-5.406525E-1,-6.6579576E-3,7.489281E-2,3.6733663E-1,-3.2115394E-1],"categories":[],"categories_nodes":[],"categories_segments":[],"categories_sizes":[],"default_left":[0,0,0,0,0,0,0,0,0,0,0,0,0,0,0],"id":43,"left_children":[1,3,7,5,13,-1,-1,9,11,-1,-1,-1,-1,-1,-1],"loss_changes":[1.2863464E1,1.4127892E1,1.0530033E1,1.5084273E1,9.242352E0,0E0,0E0,1.8257668E1,1.223339E1,0E0,0E0,0E0,0E0,0E0,0E0],"parents":[2147483647,0,0,1,1,3,3,2,2,7,7,8,8,4,4],"right_children":[2,4,8,6,14,-1,-1,10,12,-1,-1,-1,-1,-1,-1],"split_conditions":[-2.5881904E-1,1.1048673E-1,3.629995E-1,1.0345502E0,6.4800605E-3,-3.0778222E-2,5.89959E-1,1.0092043E0,1.4165805E-2,4.0217754E-1,-5.406525E-1,-6.6579576E-3,7.489281E-2,3.6733663E-1,-3.2115394E-1],"split_indices":[8,16,29,17,3,0,0,17,2,0,0,0,0,0,0],"split_type":[0,0,0,0,0,0,0,0,0,0,0,0,0,0,0],"sum_hessian":[1.194976E3,4.512471E2,7.437288E2,4.2835736E2,2.2889765E1,4.2488855E2,3.4687905E0,1.5081176E1,7.2864764E2,1.2986279E1,2.0948968E0,4.8559973E2,2.430479E2,1.8636266E0,2.1026138E1],"tree_param":{"num_deleted":"0","num_feature":"39","num_nodes":"15","size_leaf_vector":"1"}},{"base_weights":[-3.59415E-3,-2.1283635E-1,4.426355E-2,3.6551112E-1,-4.2540756E-1,2.2028899E-1,-9.267582E-2,8.2581973E-1,2.591376E-2,8.305764E-2,-1.5899995E-1,7.244132E-2,-6.767884E-3,3.0373642E-1,-3.3568296E-1],"categories":[],"categories_nodes":[],"categories_segments":[],"categories_sizes":[],"default_left":[0,0,0,0,0,0,0,0,0,0,0,0,0,0,0],"id":44,"left_children":[1,3,7,5,9,-1,-1,13,11,-1,-1,-1,-1,-1,-1],"loss_changes":[1.18984585E1,2.7192677E1,1.3867141E1,1.5186135E1,1.2594986E1,0E0,0E0,8.591049E0,1.0044762E1,0E0,0E0,0E0,0E0,0E0,0E0],"parents":[2147483647,0,0,1,1,3,3,2,2,4,4,8,8,7,7],"right_children":[2,4,8,6,10,-1,-1,14,12,-1,-1,-1,-1,-1,-1],"split_conditions":[-2.3578233E-1,8.206873E-1,9.6454686E-1,3.2544377E-1,-5.612604E-2,2.2028899E-1,-9.267582E-2,5.1243407E-1,6.5800673E-3,8.305764E-2,-1.5899995E-1,7.244132E-2,-6.767884E-3,3.0373642E-1,-3.3568296E-1],"split_indices":[27,13,17,20,16,0,0,20,12,0,0,0,0,0,0],"split_type":[0,0,0,0,0,0,0,0,0,0,0,0,0,0,0],"sum_hessian":[1.1881691E3,2.2117082E2,9.669982E2,5.9440308E1,1.6173051E2,3.8202526E1,2.123778E1,2.217475E1,9.448235E2,2.1886543E1,1.3984398E2,1.7245401E2,7.723695E2,2.0143307E1,2.0314429E0],"tree_param":{"num_deleted":"0","num_feature":"39","num_nodes":"15","size_leaf_vector":"1"}},{"base_weights":[-4.0892266E-2,-2.3791444E-2,-6.4140147E-1,3.2943976E-1,-3.1865314E-2,-1.235057E-2,2.2222881E-1,-9.902571E-2,-3.3203515E-1,-5.2694917E-1,1.358631E-1],"categories":[],"categories_nodes":[],"categories_segments":[],"categories_sizes":[],"default_left":[0,0,0,0,0,0,0,0,0,0,0],"id":45,"left_children":[1,3,7,-1,5,-1,-1,9,-1,-1,-1],"loss_changes":[1.2316416E1,1.06764345E1,8.598706E0,0E0,8.818382E0,0E0,0E0,1.4532342E1,0E0,0E0,0E0],"parents":[2147483647,0,0,1,1,4,4,2,2,7,7],"right_children":[2,4,8,-1,6,-1,-1,10,-1,-1,-1],"split_conditions":[7.0552146E-1,4.0891644E-1,4.891843E-1,3.2943976E-1,6.7469877E-1,-1.235057E-2,2.2222881E-1,8.962264E-2,-3.3203515E-1,-5.2694917E-1,1.358631E-1],"split_indices":[20,23,29,0,20,0,0,19,0,0,0],"split_type":[0,0,0,0,0,0,0,0,0,0,0],"sum_hessian":[1.199427E3,1.166225E3,3.320206E1,8.23749E0,1.1579875E3,1.1437062E3,1.428137E1,1.5550048E1,1.7652014E1,3.8736644E0,1.1676383E1],"tree_param":{"num_deleted":"0","num_feature":"39","num_nodes":"11","size_leaf_vector":"1"}},{"base_weights":[3.1138826E-2,-2.4104044E-1,1.181219E-2],"categories":[],"categories_nodes":[],"categories_segments":[],"categories_sizes":[],"default_left":[0,0,0],"id":46,"left_children":[1,-1,-1],"loss_changes":[8.732748E0,0E0,0E0],"parents":[2147483647,0,0],"right_children":[2,-1,-1],"split_conditions":[-4.0637698E-2,-2.4104044E-1,1.181219E-2],"split_indices":[1,0,0],"split_type":[0,0,0],"sum_hessian":[1.194786E3,1.2144741E1,1.1826412E3],"tree_param":{"num_deleted":"0","num_feature":"39","num_nodes":"3","size_leaf_vector":"1"}},{"base_weights":[-1.1604002E-2],"categories":[],"categories_nodes":[],"categories_segments":[],"categories_sizes":[],"default_left":[0],"id":47,"left_children":[-1],"loss_changes":[0E0],"parents":[2147483647],"right_children":[-1],"split_conditions":[-3.4434665E-3],"split_indices":[0],"split_type":[0],"sum_hessian":[1.1970312E3],"tree_param":{"num_deleted":"0","num_feature":"39","num_nodes":"1","size_leaf_vector":"1"}},{"base_weights":[3.5103615E-2,2.5704023E-1,-4.7219717E-3,1.0373079E0,1.4748725E-1,-4.3453372E-1,6.1999835E-2,-3.2890493E-1,3.9886707E-1,-4.5509526E-1,2.4258956E-2,3.74443E-2,-2.3510166E-2,-1.9426973E-1,9.016416E-2],"categories":[],"categories_nodes":[],"categories_segments":[],"categories_sizes":[],"default_left":[0,0,0,0,0,0,0,0,0,0,0,0,0,0,0],"id":48,"left_children":[1,3,9,7,5,-1,-1,-1,-1,13,11,-1,-1,-1,-1],"loss_changes":[1.0359094E1,1.5240068E1,1.2970147E1,1.4461512E1,1.5486719E1,0E0,0E0,0E0,0E0,9.101047E0,9.847254E0,0E0,0E0,0E0,0E0],"parents":[2147483647,0,0,1,1,4,4,3,3,2,2,10,10,9,9],"right_children":[2,4,10,8,6,-1,-1,-1,-1,14,12,-1,-1,-1,-1],"split_conditions":[3.1399345E-1,9.84123E-1,5.8455074E-1,7.7600065E-3,-1.5678605E0,-4.3453372E-1,6.1999835E-2,-3.2890493E-1,3.9886707E-1,1.2074155E-1,-5.4706138E-2,3.74443E-2,-2.3510166E-2,-1.9426973E-1,9.016416E-2],"split_indices":[18,24,23,12,4,0,0,0,0,27,27,0,0,0,0],"split_type":[0,0,0,0,0,0,0,0,0,0,0,0,0,0,0],"sum_hessian":[1.1719698E3,1.7830685E2,9.93663E2,2.1944586E1,1.5636227E2,5.7355185E0,1.5062675E2,2.7427418E0,1.9201843E1,6.0071407E1,9.335916E2,4.7034958E2,4.6324207E2,4.7565983E1,1.2505424E1],"tree_param":{"num_deleted":"0","num_feature":"39","num_nodes":"15","size_leaf_vector":"1"}},{"base_weights":[-1.4816965E-2,-1.4480841E-1,5.4850593E-2,-4.220266E-1,-1.1665848E-1,-3.303718E-1,-2.702871E-2,2.3850423E-1,-7.217566E-3,1.1343752E-2,2.0864296E-1,9.27134E-3,-1.4667414E-1],"categories":[],"categories_nodes":[],"categories_segments":[],"categories_sizes":[],"default_left":[0,0,0,0,0,0,0,0,0,0,0,0,0],"id":49,"left_children":[1,3,7,-1,5,-1,-1,9,11,-1,-1,-1,-1],"loss_changes":[1.0843206E1,1.5019905E1,8.886137E0,0E0,1.0417925E1,0E0,0E0,1.8320995E1,1.0914586E1,0E0,0E0,0E0,0E0],"parents":[2147483647,0,0,1,1,4,4,2,2,7,7,8,8],"right_children":[2,4,8,-1,6,-1,-1,10,12,-1,-1,-1,-1],"split_conditions":[7.614724E-1,9.6473455E-1,9.219393E-1,-4.220266E-1,3.6447525E-1,-3.303718E-1,-2.702871E-2,2.3283524E-2,4.8429318E-2,1.1343752E-2,2.0864296E-1,9.27134E-3,-1.4667414E-1],"split_indices":[7,24,7,0,29,0,0,15,2,0,0,0,0],"split_type":[0,0,0,0,0,0,0,0,0,0,0,0,0],"sum_hessian":[1.1973025E3,4.1778085E2,7.7952167E2,9.000345E0,4.087805E2,1.0219269E1,3.9856122E2,1.96903E2,5.8261865E2,1.3759709E2,5.930591E1,5.3998254E2,4.2636158E1],"tree_param":{"num_deleted":"0","num_feature":"39","num_nodes":"13","size_leaf_vector":"1"}},{"base_weights":[1.759388E-2,3.217089E-1,6.9761705E-3,-1.0795214E-1,7.88494E-2,-1.8699275E-1,-5.8274046E-3,1.6802989E-1,9.8114675E-3],"categories":[],"categories_nodes":[],"categories_segments":[],"categories_sizes":[],"default_left":[0,0,0,0,0,0,0,0,0],"id":50,"left_children":[1,-1,3,5,7,-1,-1,-1,-1],"loss_changes":[1.3527028E1,0E0,9.770967E0,2.0987896E1,1.6239872E1,0E0,0E0,0E0,0E0],"parents":[2147483647,0,0,2,2,3,3,4,4],"right_children":[2,-1,4,6,8,-1,-1,-1,-1],"split_conditions":[-2.6069181E-2,3.217089E-1,-2.5881904E-1,9.813607E-1,5.2969395E-3,-1.8699275E-1,-5.8274046E-3,1.6802989E-1,9.8114675E-3],"split_indices":[0,0,9,24,3,0,0,0,0],"split_type":[0,0,0,0,0,0,0,0,0],"sum_hessian":[1.1946459E3,1.1768332E1,1.1828776E3,4.5511356E2,7.27764E2,6.582855E1,3.89285E2,6.248789E1,6.6527606E2],"tree_param":{"num_deleted":"0","num_feature":"39","num_nodes":"9","size_leaf_vector":"1"}},{"base_weights":[2.9899744E-2,-1.1574514E-1,8.1168346E-2,1.10125E-1,-3.1184426E-1,3.6248064E-1,-1.1016064E-1,-4.4824883E-2,1.17640555E-1,1.9924329E-1,-2.540801E-3,-2.6723403E-1,1.3859133E-2,5.5108707E-2,7.732613E-1],"categories":[],"categories_nodes":[],"categories_segments":[],"categories_sizes":[],"default_left":[0,0,0,0,0,0,0,0,0,0,0,0,0,0,0],"id":51,"left_children":[1,3,9,7,5,-1,-1,-1,-1,13,11,-1,-1,-1,-1],"loss_changes":[8.873823E0,1.3705143E1,8.688175E0,1.0753108E1,1.50827675E1,0E0,0E0,0E0,0E0,1.18710985E1,2.2746426E1,0E0,0E0,0E0,0E0],"parents":[2147483647,0,0,1,1,4,4,3,3,2,2,10,10,9,9],"right_children":[2,4,10,8,6,-1,-1,-1,-1,14,12,-1,-1,-1,-1],"split_conditions":[-1.8833536E-1,-7.128285E-2,9.952484E-1,1.2246469E-16,9.693082E-1,3.6248064E-1,-1.1016064E-1,-4.4824883E-2,1.17640555E-1,9.9505424E-1,-3.308827E-1,-2.6723403E-1,1.3859133E-2,5.5108707E-2,7.732613E-1],"split_indices":[6,27,24,8,17,0,0,0,0,24,4,0,0,0,0],"split_type":[0,0,0,0,0,0,0,0,0,0,0,0,0,0,0],"sum_hessian":[1.1883936E3,3.0940378E2,8.789898E2,1.437861E2,1.6561768E2,6.1691246E0,1.5944855E2,7.519253E1,6.859358E1,3.646461E2,5.1434375E2,2.6734129E1,4.876096E2,3.626144E2,2.0316958E0],"tree_param":{"num_deleted":"0","num_feature":"39","num_nodes":"15","size_leaf_vector":"1"}}]},"name":"gbtree"},"learner_model_param":{"base_score":"[4.9150252E-1]","boost_from_average":"1","num_class":"0","num_feature":"39","num_target":"1"},"objective":{"name":"binary:logistic","reg_loss_param":{"scale_pos_weight":"1"}}},"version":[3,1,3]}