{"learner":{"attributes":{"best_iteration":"5","best_score":"0.6959261917083313"},"feature_names":[],"feature_types":[],"gradient_booster":{"model":{"cats":{"enc":[],"feature_segments":[],"sorted_idx":[]},"gbtree_model_param":{"num_parallel_tree":"1","num_trees":"56"},"iteration_indptr":[0,1,2,3,4,5,6,7,8,9,10,11,12,13,14,15,16,17,18,19,20,21,22,23,24,25,26,27,28,29,30,31,32,33,34,35,36,37,38,39,40,41,42,43,44,45,46,47,48,49,50,51,52,53,54,55,56],"tree_info":[0,0,0,0,0,0,0,0,0,0,0,0,0,0,0,0,0,0,0,0,0,0,0,0,0,0,0,0,0,0,0,0,0,0,0,0,0,0,0,0,0,0,0,0,0,0,0,0,0,0,0,0,0,0,0,0],"trees":[{"base_weights":[-1.2702516E-2,-1.1786219E-1,4.1467378E-1,-0E0,-2.8719148E-1,-0E0,-4.1727513E-1,-3.2249987E-2,-0E0,1.7759386E-1,-6.5645754E-2,-9.2454525E-3,9.174783E-3,1.620779E-2,-0E0,4.9577412E-1,-0E0,-0E0,2.8940916E-2],"categories":[],"categories_nodes":[],"categories_segments":[],"categories_sizes":[],"default_left":[0,0,0,0,0,0,0,0,0,0,0,0,0,0,0,0,0,0,0],"id":0,"left_children":[1,3,15,9,5,-1,7,-1,-1,13,11,-1,-1,-1,-1,17,-1,-1,-1],"loss_changes":[2.8781494E1,1.3435415E1,1.5423698E0,4.691249E0,1.2238735E1,0E0,1.3590588E1,0E0,0E0,5.102843E0,7.052572E0,0E0,0E0,0E0,0E0,2.8822498E0,0E0,0E0,0E0],"parents":[2147483647,0,0,1,1,4,4,6,6,3,3,10,10,9,9,2,2,15,15],"right_children":[2,4,16,10,6,-1,8,-1,-1,14,12,-1,-1,-1,-1,18,-1,-1,-1],"split_conditions":[5.346223E-1,1.0022539E0,6.982217E-3,-1.4098958E-2,8.1683487E-1,-0E0,2.2402117E-2,-3.2249987E-2,-0E0,-3.8634273E-1,1E0,-9.2454525E-3,9.174783E-3,1.620779E-2,-0E0,6.9112724E-1,-0E0,-0E0,2.8940916E-2],"split_indices":[18,17,3,16,13,0,16,0,0,4,26,0,0,0,0,7,0,0,0],"split_type":[0,0,0,0,0,0,0,0,0,0,0,0,0,0,0,0,0,0,0],"sum_hessian":[6.855708E2,5.7478156E2,1.10789246E2,3.233948E2,2.5138675E2,6.727969E1,1.8410706E2,1.0390726E2,8.01998E1,1.0793649E2,2.154583E2,1.745958E2,4.0862514E1,7.396236E1,3.3974136E1,8.0778404E1,3.0010841E1,1.5576772E1,6.520163E1],"tree_param":{"num_deleted":"0","num_feature":"39","num_nodes":"19","size_leaf_vector":"1"}},{"base_weights":[-0E0,3.1068346E-2,-4.6786312E-2,-1.598748E-1,1.0493344E-1,-0E0,-3.0519027E-1,-0E0,-1.9160306E-2,-2.0385422E-3,2.6184827E-1,-0E0,2.0894384E-2,1.1697296E-2,-5.868295E-3,3.4859867E-3,-1.4371057E-2],"categories":[],"categories_nodes":[],"categories_segments":[],"categories_sizes":[],"default_left":[0,0,0,0,0,0,0,0,0,0,0,0,0,0,0,0,0],"id":1,"left_children":[1,-1,3,5,9,13,7,-1,-1,15,11,-1,-1,-1,-1,-1,-1],"loss_changes":[2.1290113E1,0E0,1.1796836E1,1.1911213E1,6.699898E0,6.1362476E0,8.228531E0,0E0,0E0,4.7763786E0,7.608265E0,0E0,0E0,0E0,0E0,0E0,0E0],"parents":[2147483647,0,0,2,2,3,3,6,6,4,4,10,10,5,5,9,9],"right_children":[2,-1,4,6,10,14,8,-1,-1,16,12,-1,-1,-1,-1,-1,-1],"split_conditions":[-3.383652E-2,3.1068346E-2,1.7407874E-2,-3.6834016E-1,4.3708137E-1,-1.3240088E-2,4.636785E-2,-0E0,-1.9160306E-2,3.5714287E-2,2.9057187E-3,-0E0,2.0894384E-2,1.1697296E-2,-5.868295E-3,3.4859867E-3,-1.4371057E-2],"split_indices":[15,0,16,4,18,16,20,0,0,16,12,0,0,0,0,0,0],"split_type":[0,0,0,0,0,0,0,0,0,0,0,0,0,0,0,0,0],"sum_hessian":[6.77233E2,4.1480835E1,6.3575214E2,4.0170428E2,2.3404785E2,1.7084013E2,2.3086417E2,3.2055668E1,1.988085E2,1.0714572E2,1.2690213E2,3.9582752E1,8.7319374E1,7.564011E1,9.520003E1,6.365598E1,4.3489742E1],"tree_param":{"num_deleted":"0","num_feature":"39","num_nodes":"17","size_leaf_vector":"1"}},{"base_weights":[9.618597E-3,2.520689E-1,-1.1611904E-1,-2.6637426E-1,8.916972E-2,-3.488812E-1,5.6857018E-5,-1.5063028E-2,2.255536E-1,-0E0,3.440357E-1,4.4785324E-1,-0E0,-2.01633E-2,-0E0,1.5707904E-2,-0E0,2.5738535E-2,-0E0,-9.549846E-3,3.6329497E-2,1.2832552E-2,-0E0],"categories":[],"categories_nodes":[],"categories_segments":[],"categories_sizes":[],"default_left":[0,0,0,0,0,0,0,0,0,0,0,0,0,0,0,0,0,0,0,0,0,0,0],"id":2,"left_children":[1,9,3,5,7,13,-1,-1,15,19,11,17,-1,-1,-1,-1,-1,-1,-1,-1,21,-1,-1],"loss_changes":[2.2791866E1,8.073891E0,1.5468014E1,9.71793E0,8.642159E0,7.7992496E0,0E0,0E0,4.8978887E0,1.3697679E0,8.126499E0,4.5517883E0,0E0,0E0,0E0,0E0,0E0,0E0,0E0,0E0,1.5741656E0,0E0,0E0],"parents":[2147483647,0,0,2,2,3,3,4,4,1,1,10,10,5,5,8,8,11,11,9,9,20,20],"right_children":[2,10,4,6,8,14,-1,-1,16,20,12,18,-1,-1,-1,-1,-1,-1,-1,-1,22,-1,-1],"split_conditions":[-2.2363178E-3,2.9956652E-3,2.2402117E-2,4.163543E-3,3.3885103E-1,5.472077E-1,5.6857018E-5,-1.5063028E-2,1.2675468E-3,1.0048089E0,7.790093E-3,4.8811752E-3,-0E0,-2.01633E-2,-0E0,1.5707904E-2,-0E0,2.5738535E-2,-0E0,-9.549846E-3,-1.587576E-3,1.2832552E-2,-0E0],"split_indices":[2,3,16,11,18,18,0,0,14,23,5,1,0,0,0,0,0,0,0,0,1,0,0],"split_type":[0,0,0,0,0,0,0,0,0,0,0,0,0,0,0,0,0,0,0,0,0,0,0],"sum_hessian":[6.834419E2,2.5712698E2,4.2631494E2,2.7255927E2,1.5375566E2,2.345563E2,3.8002968E1,1.7693197E1,1.3606247E2,5.5512566E1,2.0161443E2,1.5539305E2,4.622137E1,2.2100098E2,1.3555327E1,1.1491713E2,2.1145336E1,1.3236482E2,2.3028229E1,2.612356E1,2.9389004E1,1.4687393E1,1.470161E1],"tree_param":{"num_deleted":"0","num_feature":"39","num_nodes":"23","size_leaf_vector":"1"}},{"base_weights":[-0E0,-1.2827542E-1,1.9173168E-1,1.9773487E-2,-1.9196543E-1,-0E0,-3.07164E-1,-1.9656014E-2,-0E0,2.8138566E-1,-0E0,3.5624647E-1,-0E0,-0E0,2.0296432E-2,-2.002658E-3,8.9316005E-3,2.6605646E-3,-1.3567418E-2,-8.881437E-3,2.6115547E-3],"categories":[],"categories_nodes":[],"categories_segments":[],"categories_sizes":[],"default_left":[0,0,0,0,0,0,0,0,0,0,0,0,0,0,0,0,0,0,0,0,0],"id":3,"left_children":[1,3,9,-1,5,15,7,-1,-1,11,19,13,17,-1,-1,-1,-1,-1,-1,-1,-1],"loss_changes":[1.7273159E1,1.28137E1,7.150141E0,0E0,1.1376388E1,2.1643376E0,1.097864E1,0E0,0E0,6.6303062E0,1.7787093E0,4.484579E0,1.9463258E0,0E0,0E0,0E0,0E0,0E0,0E0,0E0,0E0],"parents":[2147483647,0,0,1,1,4,4,6,6,2,2,9,9,11,11,5,5,12,12,10,10],"right_children":[2,4,10,-1,6,16,8,-1,-1,12,20,14,18,-1,-1,-1,-1,-1,-1,-1,-1],"split_conditions":[1.0313984E0,-3.383652E-2,1.0851235E-2,1.9773487E-2,-1.5049449E-3,1.1E1,4.063153E-3,-1.9656014E-2,-0E0,4.478267E-3,5.252178E-1,6.8155676E-1,-3.0718122E-2,-0E0,2.0296432E-2,-2.002658E-3,8.9316005E-3,2.6605646E-3,-1.3567418E-2,-8.881437E-3,2.6115547E-3],"split_indices":[23,15,2,0,1,30,11,0,0,11,18,22,15,0,0,0,0,0,0,0,0],"split_type":[0,0,0,0,0,0,0,0,0,0,0,0,0,0,0,0,0,0,0,0,0],"sum_hessian":[6.831974E2,4.123832E2,2.7081418E2,2.2039701E1,3.903435E2,1.2340217E2,2.6694135E2,2.3011343E2,3.6827904E1,2.1068234E2,6.0131836E1,1.7992336E2,3.0758987E1,1.6429108E1,1.6349425E2,6.957523E1,5.3826935E1,1.5297929E1,1.5461059E1,4.4125362E1,1.6006474E1],"tree_param":{"num_deleted":"0","num_feature":"39","num_nodes":"21","size_leaf_vector":"1"}},{"base_weights":[-0E0,4.1047028E-1,-6.2009215E-2,-1.3918209E-1,2.9348463E-1,3.5225764E-2,-2.4739592E-1,-1.6632637E-2,-0E0,1.2760669E-2,-7.07398E-3,-0E0,4.4918406E-1,-0E0,5.151488E-1,2.9186139E-2,-0E0,6.4439446E-1,-0E0,4.004583E-2,-0E0],"categories":[],"categories_nodes":[],"categories_segments":[],"categories_sizes":[],"default_left":[0,0,0,0,0,0,0,0,0,0,0,0,0,0,0,0,0,0,0,0,0],"id":4,"left_children":[1,13,3,5,11,9,7,-1,-1,-1,-1,-1,15,-1,17,-1,-1,19,-1,-1,-1],"loss_changes":[1.7101913E1,5.57777E0,1.5289816E1,1.205674E1,6.802658E0,8.229646E0,8.386501E0,0E0,0E0,0E0,0E0,0E0,4.6611023E0,0E0,4.1692276E0,0E0,0E0,4.802328E0,0E0,0E0,0E0],"parents":[2147483647,0,0,2,2,3,3,6,6,5,5,4,4,1,1,12,12,14,14,17,17],"right_children":[2,14,4,6,12,10,8,-1,-1,-1,-1,-1,16,-1,18,-1,-1,20,-1,-1,-1],"split_conditions":[-2.2968536E-2,-2.1268084E0,5.356107E-1,-1.4881995E-3,2.776127E-3,3.1731632E-3,4.469914E-1,-1.6632637E-2,-0E0,1.2760669E-2,-7.07398E-3,-0E0,5.675834E-3,-0E0,-2.1845782E-2,2.9186139E-2,-0E0,-5.0760144E-1,-0E0,4.004583E-2,-0E0],"split_indices":[15,4,18,1,11,11,6,0,0,0,0,0,3,0,16,0,0,4,0,0,0],"split_type":[0,0,0,0,0,0,0,0,0,0,0,0,0,0,0,0,0,0,0,0,0],"sum_hessian":[6.665166E2,7.7840706E1,5.886759E2,5.117883E2,7.688757E1,1.6315964E2,3.4862866E2,2.641448E2,8.4483864E1,9.590818E1,6.725146E1,1.6080101E1,6.0807476E1,1.1053387E1,6.678732E1,4.560866E1,1.5198814E1,4.911441E1,1.7672913E1,3.575329E1,1.336112E1],"tree_param":{"num_deleted":"0","num_feature":"39","num_nodes":"21","size_leaf_vector":"1"}},{"base_weights":[-0E0,4.647917E-1,-3.7644994E-2,-1.9391273E-1,5.9086163E-2,-3.1090546E-1,-0E0,-0E0,-2.2333518E-2,-0E0,2.958535E-2,1.5835652E-1,-0E0,-1.7599821E-2,7.845833E-3,-0E0,1.0715189E-2],"categories":[],"categories_nodes":[],"categories_segments":[],"categories_sizes":[],"default_left":[0,0,0,0,0,0,0,0,0,0,0,0,0,0,0,0,0],"id":5,"left_children":[1,9,3,5,11,7,-1,-1,-1,-1,-1,15,13,-1,-1,-1,-1],"loss_changes":[1.5270038E1,4.749651E0,1.0904082E1,5.1953773E0,3.4115748E0,1.1325408E1,0E0,0E0,0E0,0E0,0E0,2.5230637E0,1.2062782E1,0E0,0E0,0E0,0E0],"parents":[2147483647,0,0,2,2,3,3,5,5,1,1,4,4,12,12,11,11],"right_children":[2,10,4,6,12,8,-1,-1,-1,-1,-1,16,14,-1,-1,-1,-1],"split_conditions":[-2.8494898E-2,3.4802584E-3,-6.26741E-2,4.6346835E-3,3.6750278E-3,-1.5975244E-2,-0E0,-0E0,-2.2333518E-2,-0E0,2.958535E-2,2.9699744E-3,8.6456165E-3,-1.7599821E-2,7.845833E-3,-0E0,1.0715189E-2],"split_indices":[15,12,6,5,2,16,0,0,0,0,0,5,16,0,0,0,0],"split_type":[0,0,0,0,0,0,0,0,0,0,0,0,0,0,0,0,0],"sum_hessian":[6.711748E2,5.658713E1,6.1458765E2,2.7066504E2,3.439226E2,1.5292809E2,1.1773697E2,2.7226631E1,1.25701454E2,1.19352665E1,4.4651867E1,1.7531802E2,1.6860458E2,6.472707E1,1.038775E2,2.9192383E1,1.4612564E2],"tree_param":{"num_deleted":"0","num_feature":"39","num_nodes":"17","size_leaf_vector":"1"}},{"base_weights":[-0E0,2.8292945E-2,-3.1712346E-2,-9.351134E-2,2.043064E-1,1.710152E-2,-2.629301E-1,-0E0,-1.809283E-2,6.3943984E-3,-6.3319653E-3,-0E0,3.1997517E-1,-0E0,2.8557828E-2],"categories":[],"categories_nodes":[],"categories_segments":[],"categories_sizes":[],"default_left":[0,0,0,0,0,0,0,0,0,0,0,0,0,0,0],"id":6,"left_children":[1,-1,3,5,11,9,7,-1,-1,-1,-1,-1,13,-1,-1],"loss_changes":[1.7282627E1,0E0,8.264627E0,1.2609724E1,3.9262972E0,4.9511094E0,8.358683E0,0E0,0E0,0E0,0E0,0E0,5.105112E0,0E0,0E0],"parents":[2147483647,0,0,2,2,3,3,6,6,5,5,4,4,12,12],"right_children":[2,-1,4,6,12,10,8,-1,-1,-1,-1,-1,14,-1,-1],"split_conditions":[-3.383652E-2,2.8292945E-2,5.31952E-1,1.0022539E0,5E0,3.3805936E-3,2.7597528E-3,-0E0,-1.809283E-2,6.3943984E-3,-6.3319653E-3,-0E0,7.3409346E-3,-0E0,2.8557828E-2],"split_indices":[15,0,18,17,30,11,12,0,0,0,0,0,15,0,0],"split_type":[0,0,0,0,0,0,0,0,0,0,0,0,0,0,0],"sum_hessian":[6.6148535E2,4.1998E1,6.1948737E2,5.293026E2,9.018477E1,2.899564E2,2.3934619E2,5.386349E1,1.854827E2,2.036603E2,8.62961E1,2.0991613E1,6.919316E1,3.8689075E1,3.0504082E1],"tree_param":{"num_deleted":"0","num_feature":"39","num_nodes":"15","size_leaf_vector":"1"}},{"base_weights":[-0E0,4.247703E-1,-6.837742E-2,-1.7397873E-1,4.941254E-2,-0E0,5.6635094E-1,-5.2110087E-2,2.6008943E-1,1.0385163E-3,-1.9423924E-2,-0E0,-2.4696723E-1,-1.7384052E-2,1.1922194E-3,1.7090036E-2,-0E0,3.3200677E-2,-0E0,-8.821753E-4,8.579776E-3],"categories":[],"categories_nodes":[],"categories_segments":[],"categories_sizes":[],"default_left":[0,0,0,0,0,0,0,0,0,0,0,0,0,0,0,0,0,0,0,0,0],"id":7,"left_children":[1,5,3,11,7,-1,17,9,15,-1,-1,19,13,-1,-1,-1,-1,-1,-1,-1,-1],"loss_changes":[1.807425E1,7.8358536E0,9.031589E0,6.391117E0,7.683295E0,0E0,3.4822426E0,7.4059615E0,3.9050288E0,0E0,0E0,1.3411722E0,1.1233034E1,0E0,0E0,0E0,0E0,0E0,0E0,0E0,0E0],"parents":[2147483647,0,0,2,2,1,1,4,4,7,7,3,3,12,12,8,8,6,6,11,11],"right_children":[2,6,4,12,8,-1,18,10,16,-1,-1,20,14,-1,-1,-1,-1,-1,-1,-1,-1],"split_conditions":[-2.2968536E-2,4.250016E-1,1.0232351E0,7.663158E-1,1.6492752E-2,-0E0,-3.8634273E-1,1.001619E0,1.0112462E0,1.0385163E-3,-1.9423924E-2,1.0048829E0,2.4E1,-1.7384052E-2,1.1922194E-3,1.7090036E-2,-0E0,3.3200677E-2,-0E0,-8.821753E-4,8.579776E-3],"split_indices":[15,29,23,13,16,0,4,17,17,0,0,17,30,0,0,0,0,0,0,0,0],"split_type":[0,0,0,0,0,0,0,0,0,0,0,0,0,0,0,0,0,0,0,0,0],"sum_hessian":[6.831613E2,7.413244E1,6.090289E2,3.6337857E2,2.456503E2,1.2376834E1,6.1755604E1,1.388167E2,1.06833595E2,9.737238E1,4.1444317E1,8.32991E1,2.8007947E2,2.2900203E2,5.1077435E1,9.107543E1,1.57581625E1,5.00981E1,1.1657504E1,4.8367813E1,3.4931293E1],"tree_param":{"num_deleted":"0","num_feature":"39","num_nodes":"21","size_leaf_vector":"1"}},{"base_weights":[3.3868472E-3,-1.0449868E-1,1.8429175E-1,9.8166645E-2,-2.4456063E-1,2.6926696E-1,-6.1759867E-2,-0E0,-3.373394E-1,-0E0,-2.1435766E-2,4.180208E-1,1.2343175E-3,-0E0,2.555961E-2,-0E0,-3.0487323E-1,-2.7378222E-2,-0E0,1.9566198E-1,-0E0,1.5078889E-2,-0E0,-1.2600678E-2,1.160078E-3,8.067799E-3,-0E0],"categories":[],"categories_nodes":[],"categories_segments":[],"categories_sizes":[],"default_left":[0,0,0,0,0,0,0,0,0,0,0,0,0,0,0,0,0,0,0,0,0,0,0,0,0,0,0],"id":8,"left_children":[1,3,5,19,7,11,15,-1,9,-1,-1,13,25,-1,-1,-1,17,-1,-1,21,23,-1,-1,-1,-1,-1,-1],"loss_changes":[1.4080189E1,1.2827908E1,8.279609E0,2.6676884E0,8.182499E0,5.6398983E0,3.5605066E0,0E0,7.472845E0,0E0,0E0,8.806507E0,1.23361E0,0E0,0E0,0E0,3.4035356E0,0E0,0E0,4.26546E0,1.887672E0,0E0,0E0,0E0,0E0,0E0,0E0],"parents":[2147483647,0,0,1,1,2,2,4,4,8,8,5,5,11,11,6,6,16,16,3,3,19,19,20,20,12,12],"right_children":[2,4,6,20,8,12,16,-1,10,-1,-1,14,26,-1,-1,-1,18,-1,-1,22,24,-1,-1,-1,-1,-1,-1],"split_conditions":[1.0242796E0,-1.4881995E-3,4.531525E-3,1.004482E0,-1.6855866E-2,9E0,9.835264E-1,-0E0,-5.8778524E-1,-0E0,-2.1435766E-2,2.4065138E-3,1.0790887E0,-0E0,2.555961E-2,-0E0,9.2646605E-1,-2.7378222E-2,-0E0,3E1,4.9344814E-1,1.5078889E-2,-0E0,-1.2600678E-2,1.160078E-3,8.067799E-3,-0E0],"split_indices":[23,1,11,17,16,30,17,0,25,0,0,11,23,0,0,0,22,0,0,30,18,0,0,0,0,0,0],"split_type":[0,0,0,0,0,0,0,0,0,0,0,0,0,0,0,0,0,0,0,0,0,0,0,0,0,0,0],"sum_hessian":[6.6068005E2,3.8188358E2,2.7879648E2,1.2810861E2,2.5377498E2,2.367366E2,4.205986E1,5.323629E1,2.0053868E2,3.9525368E1,1.6101332E2,1.2465196E2,1.1208464E2,1.0910583E1,1.1374139E2,1.161692E1,3.044294E1,1.3889167E1,1.6553772E1,9.4446724E1,3.3661884E1,8.08646E1,1.3582127E1,1.9517395E1,1.4144489E1,3.7388527E1,7.4696106E1],"tree_param":{"num_deleted":"0","num_feature":"39","num_nodes":"27","size_leaf_vector":"1"}},{"base_weights":[2.4217373E-2,-1.0894299E-1,2.0127073E-1,8.1605315E-2,-2.400075E-1,3.5107863E-1,-0E0,-3.2121027E-1,-0E0,4.4078597E-1,-0E0,-2.0657277E-2,-0E0,2.494498E-2,-0E0,1.0886456E-2,-1.6714113E-2,1.5626027E-1,-0E0,-0E0,1.1118453E-2,1.2097508E-2,-0E0,-8.728074E-3,2.5191817E-2,6.964074E-3,-0E0],"categories":[],"categories_nodes":[],"categories_segments":[],"categories_sizes":[],"default_left":[0,0,0,0,0,0,0,0,0,0,0,0,0,0,0,0,0,0,0,0,0,0,0,0,0,0,0],"id":9,"left_children":[1,3,5,17,7,9,23,11,21,13,15,-1,-1,-1,-1,-1,-1,19,-1,-1,-1,-1,-1,-1,25,-1,-1],"loss_changes":[1.6940884E1,1.0688221E1,1.0547609E1,1.7171586E0,7.73643E0,7.5589924E0,1.0053881E0,6.6449356E0,1.6622081E0,5.8437443E0,4.1305037E0,0E0,0E0,0E0,0E0,0E0,0E0,1.9935892E0,0E0,0E0,0E0,0E0,0E0,0E0,1.4929259E0,0E0,0E0],"parents":[2147483647,0,0,1,1,2,2,4,4,5,5,7,7,9,9,10,10,3,3,17,17,8,8,6,6,24,24],"right_children":[2,4,6,18,8,10,24,12,22,14,16,-1,-1,-1,-1,-1,-1,20,-1,-1,-1,-1,-1,-1,26,-1,-1],"split_conditions":[1.0039119E0,-1.5049449E-3,1.0015117E0,9.7396845E-1,5.5112904E-3,4.478267E-3,-4.19088E-3,1.0067794E0,7.7377735E-3,2.982223E-1,9.862248E-1,-2.0657277E-2,-0E0,2.494498E-2,-0E0,1.0886456E-2,-1.6714113E-2,2.6694145E-3,-0E0,-0E0,1.1118453E-2,1.2097508E-2,-0E0,-8.728074E-3,3.27796E-3,6.964074E-3,-0E0],"split_indices":[23,1,17,23,3,11,1,17,3,27,17,0,0,0,0,0,0,3,0,0,0,0,0,0,11,0,0],"split_type":[0,0,0,0,0,0,0,0,0,0,0,0,0,0,0,0,0,0,0,0,0,0,0,0,0,0,0],"sum_hessian":[6.600886E2,3.467029E2,3.1338568E2,1.1173386E2,2.3496907E2,1.8186002E2,1.3152567E2,2.0175003E2,3.321903E1,1.5061847E2,3.124154E1,1.5692601E2,4.482403E1,1.3885718E2,1.1761283E1,1.4797889E1,1.6443653E1,9.352658E1,1.8207273E1,1.2088588E1,8.1437996E1,1.8394455E1,1.48245735E1,2.0473013E1,1.1105265E2,7.091771E1,4.0134945E1],"tree_param":{"num_deleted":"0","num_feature":"39","num_nodes":"27","size_leaf_vector":"1"}},{"base_weights":[-0E0,2.2294953E-1,-6.947715E-2,-2.5315014E-1,9.469026E-2,-5.4786194E-2,2.6622048E-1,-0E0,-3.3432502E-1,3.7487465E-1,-0E0,-0E0,5.086751E-1,-1.8845458E-2,-0E0,-0E0,1.7858608E-2,-0E0,2.9267823E-2,-0E0,-1.3624026E-2],"categories":[],"categories_nodes":[],"categories_segments":[],"categories_sizes":[],"default_left":[0,0,0,0,0,0,0,0,0,0,0,0,0,0,0,0,0,0,0,0,0],"id":10,"left_children":[1,9,3,7,5,19,15,-1,13,11,-1,-1,17,-1,-1,-1,-1,-1,-1,-1,-1],"loss_changes":[1.0684833E1,7.009469E0,1.7795086E1,7.4713955E0,8.880564E0,3.3519573E0,4.159465E0,0E0,4.332424E0,8.5988865E0,0E0,0E0,3.9769306E0,0E0,0E0,0E0,0E0,0E0,0E0,0E0,0E0],"parents":[2147483647,0,0,2,2,4,4,3,3,1,1,9,9,8,8,6,6,12,12,5,5],"right_children":[2,10,4,8,6,20,16,-1,14,12,-1,-1,18,-1,-1,-1,-1,-1,-1,-1,-1],"split_conditions":[-1.6855866E-2,9.9921405E-1,1.6492752E-2,-5.187166E-3,4.2988414E-1,3.5714287E-2,2.776127E-3,-0E0,4.709947E-3,-5.9159826E-3,-0E0,-0E0,2.5789435E-3,-1.8845458E-2,-0E0,-0E0,1.7858608E-2,-0E0,2.9267823E-2,-0E0,-1.3624026E-2],"split_indices":[16,24,16,1,18,16,11,0,11,0,0,0,11,0,0,0,0,0,0,0,0],"split_type":[0,0,0,0,0,0,0,0,0,0,0,0,0,0,0,0,0,0,0,0,0],"sum_hessian":[6.731787E2,1.5352277E2,5.1965594E2,2.7144846E2,2.4820746E2,1.051147E2,1.4309276E2,5.3236183E1,2.1821228E2,9.771724E1,5.5805527E1,1.598211E1,8.173513E1,2.0005446E2,1.8157816E1,3.5436283E1,1.0765647E2,1.0853581E1,7.088155E1,6.53141E1,3.98006E1],"tree_param":{"num_deleted":"0","num_feature":"39","num_nodes":"21","size_leaf_vector":"1"}},{"base_weights":[1.2183073E-3,3.799116E-1,-3.7643623E-2,-1.6501468E-1,5.8808196E-2,-0E0,-5.330639E-1,2.6327834E-2,-0E0,-0E0,-3.3349063E-2,-5.460323E-2,1.8143654E-1,2.1620018E-2,-0E0,7.7793235E-3,-6.8837674E-3,-0E0,-1.46082E-2],"categories":[],"categories_nodes":[],"categories_segments":[],"categories_sizes":[],"default_left":[0,0,0,0,0,0,0,0,0,0,0,0,0,0,0,0,0,0,0],"id":11,"left_children":[1,7,3,5,11,15,9,-1,-1,-1,-1,17,13,-1,-1,-1,-1,-1,-1],"loss_changes":[1.3764671E1,8.279452E0,8.698129E0,1.6418425E1,5.70535E0,5.1441965E0,7.238411E0,0E0,0E0,0E0,0E0,3.981157E0,1.2011004E1,0E0,0E0,0E0,0E0,0E0,0E0],"parents":[2147483647,0,0,2,2,3,3,1,1,6,6,4,4,12,12,5,5,11,11],"right_children":[2,8,4,6,12,16,10,-1,-1,-1,-1,18,14,-1,-1,-1,-1,-1,-1],"split_conditions":[-2.2968536E-2,1.7429872E-1,1.1149117E-2,1.0039036E0,2.9149808E-3,-1.5049449E-3,7.604309E-1,2.6327834E-2,-0E0,-0E0,-3.3349063E-2,2.7597528E-3,3.320197E-3,2.1620018E-2,-0E0,7.7793235E-3,-6.8837674E-3,-0E0,-1.46082E-2],"split_indices":[15,27,16,17,12,1,13,0,0,0,0,12,12,0,0,0,0,0,0],"split_type":[0,0,0,0,0,0,0,0,0,0,0,0,0,0,0,0,0,0,0],"sum_hessian":[6.830183E2,7.934978E1,6.036685E2,3.0175333E2,3.019152E2,2.2409964E2,7.7653694E1,6.637384E1,1.297594E1,1.53937845E1,6.225991E1,1.173684E2,1.8454678E2,8.849348E1,9.605331E1,8.850462E1,1.3559502E2,7.627986E1,4.108854E1],"tree_param":{"num_deleted":"0","num_feature":"39","num_nodes":"19","size_leaf_vector":"1"}},{"base_weights":[1.7337518E-2,2.4061689E-1,-9.784593E-2,-0E0,3.4532782E-1,-4.282283E-1,-5.914351E-3,-1.6092184E-1,7.129148E-2,-1.5812129E-2,3.3420268E-3,-3.8441662E-3,8.989518E-3,-0E0,4.205542E-1,2.9609982E-2,-0E0,-0E0,-2.6643086E-2,-0E0,-1.6417445E-1,1.4269628E-2,-0E0,-1.35622835E-2,-0E0],"categories":[],"categories_nodes":[],"categories_segments":[],"categories_sizes":[],"default_left":[0,0,0,0,0,0,0,0,0,0,0,0,0,0,0,0,0,0,0,0,0,0,0,0,0],"id":12,"left_children":[1,3,5,19,13,17,7,9,11,-1,-1,-1,-1,-1,15,-1,-1,-1,-1,21,23,-1,-1,-1,-1],"loss_changes":[1.9406574E1,9.559259E0,8.775303E0,1.0828465E0,4.23584E0,2.8137035E0,5.4667907E0,8.716635E0,4.5820045E0,0E0,0E0,0E0,0E0,0E0,1.273554E1,0E0,0E0,0E0,0E0,2.1223145E0,1.0942887E0,0E0,0E0,0E0,0E0],"parents":[2147483647,0,0,1,1,2,2,6,6,7,7,8,8,4,4,14,14,5,5,3,3,19,19,20,20],"right_children":[2,4,6,20,14,18,8,10,12,-1,-1,-1,-1,-1,16,-1,-1,-1,-1,22,24,-1,-1,-1,-1],"split_conditions":[-2.2363178E-3,2.984716E-3,7.911819E-4,-4.875784E-3,8.932491E-1,8.368201E-2,1.2807916E-2,4.6894965E-3,9.259259E-2,-1.5812129E-2,3.3420268E-3,-3.8441662E-3,8.989518E-3,-0E0,4.148959E-3,2.9609982E-2,-0E0,-0E0,-2.6643086E-2,5.2823645E-1,4.427552E-1,1.4269628E-2,-0E0,-1.35622835E-2,-0E0],"split_indices":[2,3,2,16,23,20,16,3,20,0,0,0,0,0,12,0,0,0,0,29,18,0,0,0,0],"split_type":[0,0,0,0,0,0,0,0,0,0,0,0,0,0,0,0,0,0,0,0,0,0,0,0,0],"sum_hessian":[6.799203E2,2.5722537E2,4.226949E2,5.7326855E1,1.9989853E2,6.0372246E1,3.6232263E2,1.5992303E2,2.023996E2,1.1887668E2,4.1046356E1,4.7828373E1,1.5457123E2,4.4425575E1,1.5547295E2,1.0976619E2,4.5706757E1,1.5013923E1,4.5358322E1,2.7151869E1,3.0174986E1,1.6057007E1,1.1094862E1,1.9591015E1,1.0583972E1],"tree_param":{"num_deleted":"0","num_feature":"39","num_nodes":"25","size_leaf_vector":"1"}},{"base_weights":[-9.462089E-3,3.6899877E-1,-7.9981826E-2,-1.7026551E-1,2.1958524E-2,-2.5581038E-1,4.3360922E-2,-1.6263798E-2,-0E0,1.8731073E-1,-1.664168E-1,-2.5382657E-2,3.7881553E-3,-0E0,4.9945873E-1,6.690359E-1,-0E0,1.3783434E-2,-0E0,-0E0,1.4316936E-2,-0E0,4.006649E-2],"categories":[],"categories_nodes":[],"categories_segments":[],"categories_sizes":[],"default_left":[0,0,0,0,0,0,0,0,0,0,0,0,0,0,0,0,0,0,0,0,0,0,0],"id":13,"left_children":[1,13,3,5,9,7,19,-1,-1,17,11,-1,-1,-1,15,21,-1,-1,-1,-1,-1,-1,-1],"loss_changes":[1.5453057E1,6.211665E0,7.047329E0,9.026834E0,7.9615E0,8.552439E0,3.6026003E0,0E0,0E0,3.7776737E0,1.2033169E1,0E0,0E0,0E0,5.595665E0,3.5419903E0,0E0,0E0,0E0,0E0,0E0,0E0,0E0],"parents":[2147483647,0,0,2,2,3,3,5,5,4,4,10,10,1,1,14,14,9,9,6,6,15,15],"right_children":[2,14,4,6,10,8,20,-1,-1,18,12,-1,-1,-1,16,22,-1,-1,-1,-1,-1,-1,-1],"split_conditions":[-2.2968536E-2,-6.156712E-3,1.0242796E0,2.2E1,3.348163E-3,4.293551E-3,2.0305135E-3,-1.6263798E-2,-0E0,6.503546E-1,4.7739205E-1,-2.5382657E-2,3.7881553E-3,-0E0,9.921414E-1,3.3706983E-3,-0E0,1.3783434E-2,-0E0,-0E0,1.4316936E-2,-0E0,4.006649E-2],"split_indices":[15,0,23,30,12,12,15,0,0,6,18,0,0,0,24,12,0,0,0,0,0,0,0],"split_type":[0,0,0,0,0,0,0,0,0,0,0,0,0,0,0,0,0,0,0,0,0,0,0],"sum_hessian":[6.6623816E2,7.5722984E1,5.905152E2,3.616305E2,2.2888467E2,2.902417E2,7.1388794E1,2.565289E2,3.3712826E1,1.5019151E2,7.869316E1,4.5256145E1,3.3437016E1,1.4033001E1,6.1689983E1,4.245511E1,1.9234875E1,1.1366946E2,3.652205E1,3.5582832E1,3.580596E1,1.0374237E1,3.208087E1],"tree_param":{"num_deleted":"0","num_feature":"39","num_nodes":"23","size_leaf_vector":"1"}},{"base_weights":[4.0611776E-5,-3.932831E-2,2.4088132E-1,-0E0,4.0441412E-1,5.232855E-1,-0E0,-9.69892E-2,1.344115E-1,1.69083E-2,-2.6063254E-1,-0E0,-1.9858716E-2,2.5466925E-1,-0E0,-0E0,2.0768574E-2,3.1571936E-2,-0E0,6.1905235E-3,-2.0184275E-4],"categories":[],"categories_nodes":[],"categories_segments":[],"categories_sizes":[],"default_left":[0,0,0,0,0,0,0,0,0,0,0,0,0,0,0,0,0,0,0,0,0],"id":14,"left_children":[1,7,3,-1,5,17,-1,9,13,19,11,-1,-1,15,-1,-1,-1,-1,-1,-1,-1],"loss_changes":[8.498571E0,5.286104E0,9.091327E0,0E0,7.8053513E0,2.8917847E0,0E0,1.1119869E1,3.1589017E0,1.7549707E0,1.0122191E1,0E0,0E0,5.09474E0,0E0,0E0,0E0,0E0,0E0,0E0,0E0],"parents":[2147483647,0,0,2,2,4,4,1,1,7,7,10,10,8,8,13,13,5,5,9,9],"right_children":[2,8,4,-1,6,18,-1,10,14,20,12,-1,-1,16,-1,-1,-1,-1,-1,-1,-1],"split_conditions":[5.269779E-1,9.546226E-4,2.8531535E-3,-0E0,1.0137227E0,6.5472582E-3,-0E0,4.549829E-4,4.1979522E-1,1.9886364E-1,3.0820994E-3,-0E0,-1.9858716E-2,4.130348E-3,-0E0,-0E0,2.0768574E-2,3.1571936E-2,-0E0,6.1905235E-3,-2.0184275E-4],"split_indices":[18,14,11,0,17,3,0,14,21,20,3,0,0,3,0,0,0,0,0,0,0],"split_type":[0,0,0,0,0,0,0,0,0,0,0,0,0,0,0,0,0,0,0,0,0],"sum_hessian":[6.637555E2,5.42003E2,1.21752464E2,2.9422745E1,9.232972E1,7.962371E1,1.2706006E1,4.5347748E2,8.8525536E1,2.3663515E2,2.1684232E2,6.499222E1,1.518501E2,6.615142E1,2.2374115E1,1.7996618E1,4.8154804E1,5.880415E1,2.0819565E1,1.0894015E2,1.2769501E2],"tree_param":{"num_deleted":"0","num_feature":"39","num_nodes":"21","size_leaf_vector":"1"}},{"base_weights":[-0E0,-4.6476923E-2,2.520198E-1,3.3036806E-2,-1.8792045E-1,-2.4886033E-1,-0E0,-1.6571296E-2,-0E0,-0E0,1.4084452E-1,1.4106353E-2,-0E0,2.860436E-1,-0E0,-0E0,1.878347E-2],"categories":[],"categories_nodes":[],"categories_segments":[],"categories_sizes":[],"default_left":[0,0,0,0,0,0,0,0,0,0,0,0,0,0,0,0,0],"id":15,"left_children":[1,3,13,9,5,7,-1,-1,-1,-1,11,-1,-1,15,-1,-1,-1],"loss_changes":[9.339501E0,7.84568E0,1.4925222E0,1.9051615E0,4.584584E0,6.0638084E0,0E0,0E0,0E0,0E0,2.983431E0,0E0,0E0,2.4800673E0,0E0,0E0,0E0],"parents":[2147483647,0,0,1,1,4,4,5,5,3,3,10,10,2,2,13,13],"right_children":[2,4,14,10,6,8,-1,-1,-1,-1,12,-1,-1,16,-1,-1,-1],"split_conditions":[5.281473E-1,1.6642724E-3,9.7006804E-1,6.1674222E-2,2.4E1,9.969133E-4,-0E0,-1.6571296E-2,-0E0,-0E0,-7.0710677E-1,1.4106353E-2,-0E0,8.1787616E-1,-0E0,-0E0,1.878347E-2],"split_indices":[18,1,6,27,30,14,0,0,0,0,8,0,0,7,0,0,0],"split_type":[0,0,0,0,0,0,0,0,0,0,0,0,0,0,0,0,0],"sum_hessian":[6.62556E2,5.4436346E2,1.1819255E2,3.081173E2,2.3624615E2,2.0443938E2,3.180678E1,1.6610887E2,3.8330505E1,2.0457474E2,1.0354257E2,5.5779896E1,4.7762676E1,1.0775152E2,1.0441031E1,3.1909935E1,7.584158E1],"tree_param":{"num_deleted":"0","num_feature":"39","num_nodes":"17","size_leaf_vector":"1"}},{"base_weights":[-0E0,-1.8104939E-1,1.3924533E-1,-3.1243843E-1,-0E0,-4.3811294E-1,-0E0,-2.562368E-2,-0E0,2.0845626E-1,-0E0,2.5658295E-1,-0E0,1.6365474E-2,-0E0,8.262404E-3,-1.3992055E-2,-1.6502253E-3,1.39141185E-2,1.0776757E-2,-0E0,-1.3941797E-2,4.988331E-3],"categories":[],"categories_nodes":[],"categories_segments":[],"categories_sizes":[],"default_left":[0,0,0,0,0,0,0,0,0,0,0,0,0,0,0,0,0,0,0,0,0,0,0],"id":16,"left_children":[1,3,9,5,19,7,-1,-1,-1,11,15,13,-1,-1,-1,17,-1,-1,-1,-1,21,-1,-1],"loss_changes":[1.7821857E1,9.690049E0,5.437431E0,8.725691E0,1.420366E0,7.3748417E0,0E0,0E0,0E0,3.529892E0,2.4137826E0,3.6085453E0,0E0,0E0,0E0,3.4534576E0,0E0,0E0,0E0,0E0,4.64048E0,0E0,0E0],"parents":[2147483647,0,0,1,1,3,3,5,5,2,2,9,9,11,11,10,10,15,15,4,4,20,20],"right_children":[2,4,10,6,20,8,-1,-1,-1,12,16,14,-1,-1,-1,18,-1,-1,-1,-1,22,-1,-1],"split_conditions":[9.6235484E-1,4.3081753E-3,1.0851235E-2,9.60961E-1,-2.5410233E-2,2.584774E-2,-0E0,-2.562368E-2,-0E0,7.878162E-3,5.237284E-1,3.869969E-1,-0E0,1.6365474E-2,-0E0,4.700572E-1,-1.3992055E-2,-1.6502253E-3,1.39141185E-2,1.0776757E-2,9.392308E-3,-1.3941797E-2,4.988331E-3],"split_indices":[23,3,2,7,15,15,0,0,0,5,29,20,0,0,0,18,0,0,0,0,15,0,0],"split_type":[0,0,0,0,0,0,0,0,0,0,0,0,0,0,0,0,0,0,0,0,0,0,0],"sum_hessian":[6.840869E2,3.0144507E2,3.8264185E2,1.9384474E2,1.07600334E2,1.3913055E2,5.47142E1,1.2707311E2,1.2057434E1,2.903282E2,9.231363E1,2.4184789E2,4.8480312E1,1.7844975E2,6.3398136E1,7.1561714E1,2.0751915E1,3.7564213E1,3.39975E1,2.0574837E1,8.70255E1,4.2734806E1,4.429069E1],"tree_param":{"num_deleted":"0","num_feature":"39","num_nodes":"23","size_leaf_vector":"1"}},{"base_weights":[-1.2088106E-2,3.2357827E-1,-6.3625604E-2,7.953604E-2,-1.4214082E-1,2.5030145E-1,-7.850085E-3,-2.2934169E-1,-0E0,-1.6369425E-2,-0E0,1.7259952E-2,-0E0,-0E0,4.3224725E-1,-0E0,2.88557E-2,7.953746E-3,-1.8946307E-3],"categories":[],"categories_nodes":[],"categories_segments":[],"categories_sizes":[],"default_left":[0,0,0,0,0,0,0,0,0,0,0,0,0,0,0,0,0,0,0],"id":17,"left_children":[1,13,3,5,7,11,-1,9,17,-1,-1,-1,-1,-1,15,-1,-1,-1,-1],"loss_changes":[9.4555855E0,3.2607803E0,7.7976623E0,8.746836E0,6.8673096E0,3.8863773E0,0E0,7.6744785E0,1.6735041E0,0E0,0E0,0E0,0E0,0E0,4.6448574E0,0E0,0E0,0E0,0E0],"parents":[2147483647,0,0,2,2,3,3,4,4,7,7,5,5,1,1,14,14,8,8],"right_children":[2,14,4,6,8,12,-1,10,18,-1,-1,-1,-1,-1,16,-1,-1,-1,-1],"split_conditions":[-2.8494898E-2,3.5656013E-3,-2.3275074E-3,3.4447655E-3,2.2402117E-2,2.2074422E-3,-7.850085E-3,-5E-1,3.2898173E-1,-1.6369425E-2,-0E0,1.7259952E-2,-0E0,-0E0,4.5751652E-1,-0E0,2.88557E-2,7.953746E-3,-1.8946307E-3],"split_indices":[15,12,1,12,16,2,0,8,19,0,0,0,0,0,29,0,0,0,0],"split_type":[0,0,0,0,0,0,0,0,0,0,0,0,0,0,0,0,0,0,0],"sum_hessian":[6.749503E2,5.6985073E1,6.179653E2,1.7371895E2,4.442463E2,1.2509958E2,4.861937E1,2.9505014E2,1.4919615E2,2.1129756E2,8.375257E1,9.36441E1,3.1455479E1,1.1994502E1,4.499057E1,1.0196405E1,3.4794167E1,4.9934017E1,9.926214E1],"tree_param":{"num_deleted":"0","num_feature":"39","num_nodes":"19","size_leaf_vector":"1"}},{"base_weights":[-0E0,-4.3679338E-2,2.3644705E-1,-0E0,2.5400285E-2,-1.3051703E-2,7.681402E-3,7.5119354E-2,-9.417238E-2,-1.569833E-1,5.0678067E-2,-1.1472434E-2,-0E0,-0E0,2.307586E-1,2.0162327E-2,-0E0,-0E0,1.1967378E-2],"categories":[],"categories_nodes":[],"categories_segments":[],"categories_sizes":[],"default_left":[0,0,0,0,0,0,0,0,0,0,0,0,0,0,0,0,0,0,0],"id":18,"left_children":[1,7,3,5,-1,-1,-1,13,9,11,17,-1,-1,-1,15,-1,-1,-1,-1],"loss_changes":[8.154371E0,3.5790644E0,9.900349E0,3.6220055E0,0E0,0E0,0E0,3.4869022E0,5.251725E0,6.28481E0,3.1838665E0,0E0,0E0,0E0,4.708316E0,0E0,0E0,0E0,0E0],"parents":[2147483647,0,0,2,2,3,3,1,1,8,8,9,9,7,7,14,14,10,10],"right_children":[2,8,4,6,-1,-1,-1,14,10,12,18,-1,-1,-1,16,-1,-1,-1,-1],"split_conditions":[5.3309E-1,2.8322017E-4,3.4383554E-3,1.1149117E-2,2.5400285E-2,-1.3051703E-2,7.681402E-3,8.737513E-1,2E1,9.969133E-4,-1.3740098E-1,-1.1472434E-2,-0E0,-0E0,2.7789047E-1,2.0162327E-2,-0E0,-0E0,1.1967378E-2],"split_indices":[18,14,11,16,0,0,0,7,30,14,27,0,0,0,20,0,0,0,0],"split_type":[0,0,0,0,0,0,0,0,0,0,0,0,0,0,0,0,0,0,0],"sum_hessian":[6.600833E2,5.43103E2,1.1698032E2,6.110874E1,5.5871586E1,2.834349E1,3.2765247E1,1.0146189E2,4.416411E2,3.5562985E2,8.601125E1,2.8052737E2,7.510248E1,3.4167835E1,6.729405E1,4.4266705E1,2.302735E1,3.612971E1,4.9881542E1],"tree_param":{"num_deleted":"0","num_feature":"39","num_nodes":"19","size_leaf_vector":"1"}},{"base_weights":[8.048979E-3,3.8348442E-1,-9.315355E-3,1.1652759E-2,-3.6501786E-1,1.307085E-1,-8.5451685E-2,-1.9229403E-2,1.5504454E-3,-3.2811515E-2,-0E0,-3.7782334E-3,1.03443535E-2,-0E0,2.6097074E-2],"categories":[],"categories_nodes":[],"categories_segments":[],"categories_sizes":[],"default_left":[0,0,0,0,0,0,0,0,0,0,0,0,0,0,0],"id":19,"left_children":[1,13,3,5,9,11,7,-1,-1,-1,-1,-1,-1,-1,-1],"loss_changes":[8.277293E0,4.07788E0,8.379722E0,7.400568E0,7.1772823E0,6.4327974E0,1.36003685E1,0E0,0E0,0E0,0E0,0E0,0E0,0E0,0E0],"parents":[2147483647,0,0,2,2,3,3,6,6,4,4,5,5,1,1],"right_children":[2,14,4,6,10,12,8,-1,-1,-1,-1,-1,-1,-1,-1],"split_conditions":[-3.383652E-2,4.4643328E-1,4.7877464E-3,1.0020322E0,4.7717127E-1,2.5316777E-3,1.1149117E-2,-1.9229403E-2,1.5504454E-3,-3.2811515E-2,-0E0,-3.7782334E-3,1.03443535E-2,-0E0,2.6097074E-2],"split_indices":[15,29,12,17,29,11,16,0,0,0,0,0,0,0,0],"split_type":[0,0,0,0,0,0,0,0,0,0,0,0,0,0,0],"sum_hessian":[6.802518E2,4.6209084E1,6.340427E2,5.81333E2,5.2709663E1,3.058564E2,2.754766E2,9.4805534E1,1.8067107E2,2.6068783E1,2.6640879E1,4.710838E1,2.5874805E2,1.0897163E1,3.531192E1],"tree_param":{"num_deleted":"0","num_feature":"39","num_nodes":"15","size_leaf_vector":"1"}},{"base_weights":[-1.7844576E-2,-9.8591715E-2,2.8358954E-1,4.0555666E-3,-2.5529343E-1,5.277728E-2,-4.1554686E-1,-2.5726927E-2,-0E0,-0E0,2.2716092E-2,1.2313902E-1,-1.7668483E-1,6.4148665E-3,-2.1771582E-2,1.3775124E-2,-0E0,1.1472622E-2,-0E0],"categories":[],"categories_nodes":[],"categories_segments":[],"categories_sizes":[],"default_left":[0,0,0,0,0,0,0,0,0,0,0,0,0,0,0,0,0,0,0],"id":20,"left_children":[1,3,9,11,5,17,7,-1,-1,-1,-1,15,13,-1,-1,-1,-1,-1,-1],"loss_changes":[1.5246512E1,1.1828337E1,1.0287811E1,6.5875688E0,1.7062626E1,2.4376025E0,1.1436859E1,0E0,0E0,0E0,0E0,5.5809927E0,1.1377996E1,0E0,0E0,0E0,0E0,0E0,0E0],"parents":[2147483647,0,0,1,1,4,4,6,6,2,2,3,3,12,12,11,11,5,5],"right_children":[2,4,10,12,6,18,8,-1,-1,-1,-1,16,14,-1,-1,-1,-1,-1,-1],"split_conditions":[5.3309E-1,1.0020878E0,2.8531535E-3,1.1184798E0,8.1683487E-1,1E1,2.3E1,-2.5726927E-2,-0E0,-0E0,2.2716092E-2,9E0,3.319152E-4,6.4148665E-3,-2.1771582E-2,1.3775124E-2,-0E0,1.1472622E-2,-0E0],"split_indices":[18,17,11,13,13,30,30,0,0,0,0,30,14,0,0,0,0,0,0],"split_type":[0,0,0,0,0,0,0,0,0,0,0,0,0,0,0,0,0,0,0],"sum_hessian":[6.809175E2,5.6852655E2,1.1239095E2,3.1083807E2,2.5768845E2,6.911926E1,1.885692E2,1.6271255E2,2.5856646E1,2.4861639E1,8.752931E1,2.2265411E2,8.8183975E1,2.5050718E1,6.3133255E1,1.1000769E2,1.1264642E2,4.048555E1,2.8633713E1],"tree_param":{"num_deleted":"0","num_feature":"39","num_nodes":"19","size_leaf_vector":"1"}},{"base_weights":[-0E0,1.3086058E-1,-7.5065255E-2,-1.8269731E-1,3.2942332E-2,2.3183794E-1,-0E0,-2.8350633E-1,-0E0,-0E0,-1.9199094E-2,-0E0,3.4308216E-1,-0E0,2.3290992E-2,1.210216E-1,-6.2468622E-2,-0E0,1.012548E-2,-1.24358125E-2,-0E0,-0E0,-1.0535011E-2],"categories":[],"categories_nodes":[],"categories_segments":[],"categories_sizes":[],"default_left":[0,0,0,0,0,0,0,0,0,0,0,0,0,0,0,0,0,0,0,0,0,0,0],"id":21,"left_children":[1,5,3,7,15,11,21,9,-1,-1,-1,-1,13,-1,-1,17,19,-1,-1,-1,-1,-1,-1],"loss_changes":[6.1394463E0,4.8772984E0,7.0186377E0,4.3750267E0,2.313014E0,2.626687E0,1.0653951E0,5.237157E0,0E0,0E0,0E0,0E0,3.5940552E0,0E0,0E0,3.2327657E0,1.9123368E0,0E0,0E0,0E0,0E0,0E0,0E0],"parents":[2147483647,0,0,2,2,1,1,3,3,7,7,5,5,12,12,4,4,15,15,16,16,6,6],"right_children":[2,6,4,8,16,12,22,10,-1,-1,-1,-1,14,-1,-1,18,20,-1,-1,-1,-1,-1,-1],"split_conditions":[-2.3275074E-3,1.0005553E0,4.0572155E-3,1.7017284E-2,1E0,-1.4021615E-2,4.9840603E-3,-1.5975244E-2,-0E0,-0E0,-1.9199094E-2,-0E0,-7.7307285E-3,-0E0,2.3290992E-2,-2.7256375E-4,4.8455125E-1,-0E0,1.012548E-2,-1.24358125E-2,-0E0,-0E0,-1.0535011E-2],"split_indices":[1,24,3,16,26,15,3,16,0,0,0,0,1,0,0,1,18,0,0,0,0,0,0],"split_type":[0,0,0,0,0,0,0,0,0,0,0,0,0,0,0,0,0,0,0,0,0,0,0],"sum_hessian":[6.536991E2,1.9394717E2,4.5975192E2,2.731863E2,1.865656E2,1.4572041E2,4.8226753E1,1.620331E2,1.1115321E2,4.273173E1,1.1930137E2,6.229666E1,8.342375E1,2.6182602E1,5.7241154E1,1.5011314E2,3.6452446E1,2.4102402E1,1.2601075E2,2.3844444E1,1.2608002E1,3.422844E1,1.3998313E1],"tree_param":{"num_deleted":"0","num_feature":"39","num_nodes":"23","size_leaf_vector":"1"}},{"base_weights":[-0E0,-1.5176614E-1,1.8690826E-1,1.728227E-2,-2.1244338E-1,-3.122338E-1,-0E0,-2.0597586E-2,-0E0,3.130816E-1,-0E0,-0E0,3.6759552E-1,2.0307966E-2,-0E0,4.3956493E-3,-6.26431E-3],"categories":[],"categories_nodes":[],"categories_segments":[],"categories_sizes":[],"default_left":[0,0,0,0,0,0,0,0,0,0,0,0,0,0,0,0,0],"id":22,"left_children":[1,3,9,-1,5,7,15,-1,-1,11,-1,-1,13,-1,-1,-1,-1],"loss_changes":[1.9457474E1,1.1765331E1,7.34299E0,0E0,8.234646E0,9.230509E0,1.5941296E0,0E0,0E0,5.0277596E0,0E0,0E0,3.1784E0,0E0,0E0,0E0,0E0],"parents":[2147483647,0,0,1,1,4,4,5,5,2,2,9,9,12,12,6,6],"right_children":[2,4,10,-1,6,8,16,-1,-1,12,-1,-1,14,-1,-1,-1,-1],"split_conditions":[1.0242796E0,-3.5620287E-2,6.7778386E-4,1.728227E-2,2.03663E-1,1.0069553E0,7.684786E-1,-2.0597586E-2,-0E0,3.3129054E-1,-0E0,-0E0,3.0173E-1,2.0307966E-2,-0E0,4.3956493E-3,-6.26431E-3],"split_indices":[23,15,14,0,6,17,4,0,0,18,0,0,27,0,0,0,0],"split_type":[0,0,0,0,0,0,0,0,0,0,0,0,0,0,0,0,0],"sum_hessian":[6.765195E2,3.996228E2,2.7689667E2,2.0423857E1,3.7919894E2,2.5464313E2,1.245558E2,1.964212E2,5.8221924E1,1.6716411E2,1.0973256E2,1.1442318E1,1.5572179E2,1.4501314E2,1.0708652E1,7.470315E1,4.9852657E1],"tree_param":{"num_deleted":"0","num_feature":"39","num_nodes":"17","size_leaf_vector":"1"}},{"base_weights":[-2.5809487E-2,1.0564954E-1,-1.2954102E-1,-9.7857505E-2,2.7029446E-1,-1.9171456E-1,1.0254066E-1,3.79154E-1,-0E0,-0E0,2.2649009E-2,-2.325144E-1,-0E0,-0E0,-1.4042205E-2,-0E0,2.716791E-1,-1.9914205E-1,-0E0,-0E0,-1.8083597E-2,2.1558845E-2,-0E0,3.6432643E-3,-8.140148E-3],"categories":[],"categories_nodes":[],"categories_segments":[],"categories_sizes":[],"default_left":[0,0,0,0,0,0,0,0,0,0,0,0,0,0,0,0,0,0,0,0,0,0,0,0,0],"id":23,"left_children":[1,3,5,17,7,11,15,9,23,-1,-1,13,-1,-1,-1,-1,21,19,-1,-1,-1,-1,-1,-1,-1],"loss_changes":[9.710317E0,1.0864812E1,7.2875447E0,1.8172457E0,6.24378E0,2.8748798E0,2.5822768E0,4.6336517E0,1.0011667E0,0E0,0E0,3.5547981E0,0E0,0E0,0E0,0E0,1.6063504E0,2.2700834E0,0E0,0E0,0E0,0E0,0E0,0E0,0E0],"parents":[2147483647,0,0,1,1,2,2,4,4,7,7,5,5,11,11,6,6,3,3,17,17,16,16,8,8],"right_children":[2,4,6,18,8,12,16,10,24,-1,-1,14,-1,-1,-1,-1,22,20,-1,-1,-1,-1,-1,-1,-1],"split_conditions":[-2.2363178E-3,4.23676E-1,5.346223E-1,9.9704397E-1,5.4297866E-3,5.2823645E-1,7.496166E-3,2.5316777E-3,1.0297343E0,-0E0,2.2649009E-2,7.663158E-1,-0E0,-0E0,-1.4042205E-2,-0E0,2.5791857E-1,1.0236619E0,-0E0,-0E0,-1.8083597E-2,2.1558845E-2,-0E0,3.6432643E-3,-8.140148E-3],"split_indices":[2,18,18,24,3,29,15,11,13,0,0,13,0,0,0,0,21,13,0,0,0,0,0,0,0],"split_type":[0,0,0,0,0,0,0,0,0,0,0,0,0,0,0,0,0,0,0,0,0,0,0,0,0],"sum_hessian":[6.745289E2,2.549028E2,4.1962607E2,8.8649055E1,1.6625375E2,3.6631873E2,5.3307354E1,1.23006516E2,4.324724E1,1.7239433E1,1.0576708E2,2.9901532E2,6.730341E1,5.213433E1,2.4688098E2,1.930319E1,3.400416E1,5.964418E1,2.9004875E1,3.1175158E1,2.8469025E1,1.6110403E1,1.7893759E1,2.1855364E1,2.1391874E1],"tree_param":{"num_deleted":"0","num_feature":"39","num_nodes":"25","size_leaf_vector":"1"}},{"base_weights":[1.7249133E-2,-1.5754476E-2,2.537574E-1,-0E0,3.409315E-1,2.9064037E-2,-1.0130147E-1,1.3628297E-1,-1.1040772E-1,-1.857042E-2,1.0203235E-2,1.2710159E-2,-3.0180823E-5,-0E0,-1.8807805E-1,-1.2994732E-2,-0E0,4.354085E-1,-0E0,-0E0,2.532672E-2],"categories":[],"categories_nodes":[],"categories_segments":[],"categories_sizes":[],"default_left":[0,0,0,0,0,0,0,0,0,0,0,0,0,0,0,0,0,0,0,0,0],"id":24,"left_children":[1,5,3,-1,17,7,13,11,9,-1,-1,-1,-1,-1,15,-1,-1,19,-1,-1,-1],"loss_changes":[7.616738E0,2.885682E0,4.9687643E0,0E0,2.336236E0,4.839745E0,4.0083632E0,5.967937E0,1.01268E1,0E0,0E0,0E0,0E0,0E0,4.413715E0,0E0,0E0,2.0894146E0,0E0,0E0,0E0],"parents":[2147483647,0,0,2,2,1,1,5,5,8,8,7,7,6,6,14,14,4,4,17,17],"right_children":[2,6,4,-1,18,8,14,12,10,-1,-1,-1,-1,-1,16,-1,-1,20,-1,-1,-1],"split_conditions":[5.356107E-1,1.001619E0,2.5481095E-3,-0E0,6.982217E-3,3.6348589E-3,8.244755E-1,3.654391E-1,1.0596738E-3,-1.857042E-2,1.0203235E-2,1.2710159E-2,-3.0180823E-5,-0E0,4.9122807E-1,-1.2994732E-2,-0E0,6.8719524E-1,-0E0,-0E0,2.532672E-2],"split_indices":[18,17,12,0,3,12,13,20,14,0,0,0,0,0,20,0,0,7,0,0,0],"split_type":[0,0,0,0,0,0,0,0,0,0,0,0,0,0,0,0,0,0,0,0,0],"sum_hessian":[6.5576733E2,5.4655084E2,1.0921653E2,1.0423742E1,9.879279E1,2.862767E2,2.602741E2,2.025184E2,8.3758316E1,6.215811E1,2.1600204E1,1.4343765E2,5.9080746E1,7.855033E1,1.8172379E2,1.5575008E2,2.5973698E1,6.9025444E1,2.9767345E1,1.2491439E1,5.6534008E1],"tree_param":{"num_deleted":"0","num_feature":"39","num_nodes":"21","size_leaf_vector":"1"}},{"base_weights":[-0E0,-6.346353E-2,1.20399125E-1,7.630496E-2,-1.9979721E-1,-3.1450003E-1,8.975934E-2,-0E0,-1.9910589E-2,2.654524E-1,-0E0,4.4970712E-1,-0E0,-0E0,2.5961308E-2,-0E0,1.5515168E-2,2.4021891E-1,-0E0,-0E0,2.1989366E-2,-1.09568276E-1,7.504336E-3,-0E0,-1.1823197E-2],"categories":[],"categories_nodes":[],"categories_segments":[],"categories_sizes":[],"default_left":[0,0,0,0,0,0,0,0,0,0,0,0,0,0,0,0,0,0,0,0,0,0,0,0,0],"id":25,"left_children":[1,3,9,17,5,7,15,-1,-1,11,21,13,-1,-1,-1,-1,-1,19,-1,-1,-1,23,-1,-1,-1],"loss_changes":[5.7771826E0,8.873759E0,6.8285275E0,3.1129835E0,1.0429924E1,8.739998E0,3.3208063E0,0E0,0E0,8.456332E0,2.244183E0,3.725748E0,0E0,0E0,0E0,0E0,0E0,4.8204365E0,0E0,0E0,0E0,3.507534E0,0E0,0E0,0E0],"parents":[2147483647,0,0,1,1,4,4,5,5,2,2,9,9,11,11,6,6,3,3,17,17,10,10,21,21],"right_children":[2,4,10,18,6,8,16,-1,-1,12,22,14,-1,-1,-1,-1,-1,20,-1,-1,-1,24,-1,-1,-1],"split_conditions":[1.0242796E0,8.4918445E-1,1.1184798E0,7.5027263E-1,2.3E1,-7.4620415E-3,-7.4640685E-3,-0E0,-1.9910589E-2,1.0018265E0,1.0060452E0,7.920914E-1,-0E0,-0E0,2.5961308E-2,-0E0,1.5515168E-2,-1.15937814E-1,-0E0,-0E0,2.1989366E-2,-2.1718672E-2,7.504336E-3,-0E0,-1.1823197E-2],"split_indices":[23,13,13,7,30,1,15,0,0,17,17,13,0,0,0,0,0,27,0,0,0,15,0,0,0],"split_type":[0,0,0,0,0,0,0,0,0,0,0,0,0,0,0,0,0,0,0,0,0,0,0,0,0],"sum_hessian":[6.6225793E2,3.8287967E2,2.7937827E2,1.5501392E2,2.2786574E2,1.8733167E2,4.053407E1,1.9128603E1,1.6820306E2,1.4643712E2,1.3294115E2,8.632124E1,6.0115875E1,1.0246391E1,7.607485E1,1.1817523E1,2.8716547E1,6.0596294E1,9.4417625E1,2.461072E1,3.5985577E1,1.0415208E2,2.8789074E1,2.691365E1,7.723843E1],"tree_param":{"num_deleted":"0","num_feature":"39","num_nodes":"25","size_leaf_vector":"1"}},{"base_weights":[3.3438522E-2,-9.329538E-3,3.0438614E-1,1.1074142E-1,-1.0319072E-1,2.618462E-1,-4.6982825E-2,-2.852086E-3,2.222266E-2,2.7256607E-4,-2.4323514E-2,-0E0,4.0752465E-1,-0E0,-1.8488964E-1,-0E0,-1.580686E-2,-2.6031665E-3,1.2743214E-2,4.575351E-1,-0E0,2.65524E-2,-0E0],"categories":[],"categories_nodes":[],"categories_segments":[],"categories_sizes":[],"default_left":[0,0,0,0,0,0,0,0,0,0,0,0,0,0,0,0,0,0,0,0,0,0,0],"id":26,"left_children":[1,3,11,5,13,7,9,-1,-1,-1,-1,-1,19,17,15,-1,-1,-1,-1,21,-1,-1,-1],"loss_changes":[1.0747905E1,6.3146186E0,5.300667E0,7.095422E0,4.6005316E0,1.2121062E1,6.5679903E0,0E0,0E0,0E0,0E0,0E0,2.0473862E0,3.48519E0,5.3561354E0,0E0,0E0,0E0,0E0,2.3031788E0,0E0,0E0,0E0],"parents":[2147483647,0,0,1,1,3,3,5,5,6,6,2,2,4,4,14,14,13,13,12,12,19,19],"right_children":[2,4,12,6,14,8,10,-1,-1,-1,-1,-1,20,18,16,-1,-1,-1,-1,22,-1,-1,-1],"split_conditions":[5.31952E-1,-2.2363178E-3,-1.5604328E0,1.1164643E0,3.0135047E-3,1.8913858E-1,3.6538457E-3,-2.852086E-3,2.222266E-2,2.7256607E-4,-2.4323514E-2,-0E0,1.0140548E0,1.0414008E0,8.9888704E-1,-0E0,-1.580686E-2,-2.6031665E-3,1.2743214E-2,4.3820226E-1,-0E0,2.65524E-2,-0E0],"split_indices":[18,2,4,13,3,19,12,0,0,0,0,0,17,13,13,0,0,0,0,20,0,0,0],"split_type":[0,0,0,0,0,0,0,0,0,0,0,0,0,0,0,0,0,0,0,0,0,0,0],"sum_hessian":[6.604354E2,5.468633E2,1.13572136E2,1.9239949E2,3.544638E2,1.2727055E2,6.512893E1,2.8905867E1,9.8364685E1,4.668164E1,1.8447289E1,2.2716461E1,9.0855675E1,1.1635312E2,2.3811069E2,1.0965543E2,1.2845526E2,7.629958E1,4.0053535E1,7.9793045E1,1.1062631E1,6.482061E1,1.4972436E1],"tree_param":{"num_deleted":"0","num_feature":"39","num_nodes":"23","size_leaf_vector":"1"}},{"base_weights":[-2.7991454E-3,-6.855587E-2,1.9165054E-1,-0E0,3.3500233E-1,-0E0,-1.7076176E-1,-4.5111486E-1,-0E0,-0E0,2.2480762E-2,1.1147295E-1,-1.4557624E-1,-2.9948154E-3,1.5283681E-2,-1.5740719E-2,-0E0,-0E0,-2.808007E-2,-5.10332E-3,2.9429009E-3],"categories":[],"categories_nodes":[],"categories_segments":[],"categories_sizes":[],"default_left":[0,0,0,0,0,0,0,0,0,0,0,0,0,0,0,0,0,0,0,0,0],"id":27,"left_children":[1,5,3,-1,9,11,7,17,19,-1,-1,13,15,-1,-1,-1,-1,-1,-1,-1,-1],"loss_changes":[7.560619E0,5.539551E0,6.9077563E0,0E0,4.9965687E0,4.4207845E0,1.1645497E1,3.4105015E0,1.3755466E0,0E0,0E0,9.43112E0,4.781107E0,0E0,0E0,0E0,0E0,0E0,0E0,0E0,0E0],"parents":[2147483647,0,0,2,2,1,1,6,6,4,4,5,5,11,11,12,12,7,7,8,8],"right_children":[2,6,4,-1,10,12,8,18,20,-1,-1,14,16,-1,-1,-1,-1,-1,-1,-1,-1],"split_conditions":[5.252178E-1,4.6313615E-3,2.8531535E-3,-0E0,8.291019E-1,3.664087E-3,1.1875019E-2,3.8014382E-1,9.1941917E-1,-0E0,2.2480762E-2,3.09017E-1,9.546226E-4,-2.9948154E-3,1.5283681E-2,-1.5740719E-2,-0E0,-0E0,-2.808007E-2,-5.10332E-3,2.9429009E-3],"split_indices":[18,15,11,0,13,12,16,18,22,0,0,26,14,0,0,0,0,0,0,0,0],"split_type":[0,0,0,0,0,0,0,0,0,0,0,0,0,0,0,0,0,0,0,0,0],"sum_hessian":[6.6729736E2,5.41934E2,1.25363365E2,2.9509262E1,9.58541E1,2.7300034E2,2.689337E2,8.7192314E1,1.8174136E2,2.2372091E1,7.348202E1,1.9403403E2,7.896632E1,7.939544E1,1.1463859E2,5.7265156E1,2.1701159E1,2.3667042E1,6.3525276E1,8.7315285E1,9.442608E1],"tree_param":{"num_deleted":"0","num_feature":"39","num_nodes":"21","size_leaf_vector":"1"}},{"base_weights":[-0E0,1.3107541E-1,-7.233892E-2,-1.7069176E-1,2.0868007E-2,-0E0,-2.9606968E-1,-2.1655342E-2,-0E0,3.4020525E-1,-0E0,1.4557412E-1,-1.2319425E-2,-0E0,1.3924613E-2,-0E0,4.5118377E-1,-1.7429555E-2,1.6353422E-1,-1.9164719E-3,2.0192E-2,-0E0,-8.622943E-3,-0E0,2.7443836E-2,5.194676E-3,-3.6560718E-3],"categories":[],"categories_nodes":[],"categories_segments":[],"categories_sizes":[],"default_left":[0,0,0,0,0,0,0,0,0,0,0,0,0,0,0,0,0,0,0,0,0,0,0,0,0,0,0],"id":28,"left_children":[1,9,3,5,17,25,7,-1,-1,15,11,13,-1,-1,-1,-1,23,21,19,-1,-1,-1,-1,-1,-1,-1,-1],"loss_changes":[6.2187395E0,5.558691E0,5.7705116E0,5.968011E0,2.5494816E0,1.047065E0,6.3521805E0,0E0,0E0,2.7324018E0,5.6012516E0,4.2935038E0,0E0,0E0,0E0,0E0,1.1119547E0,1.9557862E0,8.52874E0,0E0,0E0,0E0,0E0,0E0,0E0,0E0,0E0],"parents":[2147483647,0,0,2,2,3,3,6,6,1,1,10,10,11,11,9,9,4,4,18,18,17,17,16,16,5,5],"right_children":[2,10,4,6,18,26,8,-1,-1,16,12,14,-1,-1,-1,-1,24,22,20,-1,-1,-1,-1,-1,-1,-1,-1],"split_conditions":[-2.1781572E-3,9.4581646E-1,1.0213659E0,2.1428572E-1,4.4915026E-1,1.886245E-3,5.0292414E-1,-2.1655342E-2,-0E0,5E0,6.9391646E-4,2.6386906E-3,-1.2319425E-2,-0E0,1.3924613E-2,-0E0,8.533617E-1,2.987573E-3,2.9452571E-3,-1.9164719E-3,2.0192E-2,-0E0,-8.622943E-3,-0E0,2.7443836E-2,5.194676E-3,-3.6560718E-3],"split_indices":[1,13,23,21,18,1,29,0,0,30,14,12,0,0,0,0,23,12,12,0,0,0,0,0,0,0,0],"split_type":[0,0,0,0,0,0,0,0,0,0,0,0,0,0,0,0,0,0,0,0,0,0,0,0,0,0,0],"sum_hessian":[6.6335144E2,2.111961E2,4.5215533E2,2.681626E2,1.8399275E2,1.1762293E2,1.5053966E2,9.8884125E1,5.1655533E1,7.0862625E1,1.4033348E2,9.45707E1,4.5762783E1,2.063928E1,7.393143E1,2.1464859E1,4.9397762E1,9.671503E1,8.727773E1,2.93849E1,5.789283E1,3.9866768E1,5.684826E1,1.5571434E1,3.382633E1,4.7136707E1,7.048622E1],"tree_param":{"num_deleted":"0","num_feature":"39","num_nodes":"27","size_leaf_vector":"1"}},{"base_weights":[-0E0,-4.5643833E-2,1.7701256E-1,1.1642269E-2,-1.8713345E-1,2.6943073E-1,-7.406069E-2,-3.1403008E-1,-0E0,-0E0,3.3152524E-1,1.7606663E-2,-0E0,-8.708794E-3,2.2051844E-3,-0E0,-2.1763122E-2,4.1723213E-1,-0E0,2.6031679E-2,-0E0,4.670735E-4,-8.478519E-3],"categories":[],"categories_nodes":[],"categories_segments":[],"categories_sizes":[],"default_left":[0,0,0,0,0,0,0,0,0,0,0,0,0,0,0,0,0,0,0,0,0,0,0],"id":29,"left_children":[1,3,9,5,7,11,13,15,-1,21,17,-1,-1,-1,-1,-1,-1,19,-1,-1,-1,-1,-1],"loss_changes":[5.3268547E0,6.263356E0,5.626342E0,9.954786E0,6.7897334E0,4.577319E0,4.261055E0,3.7801323E0,0E0,1.0599405E0,2.5175343E0,0E0,0E0,0E0,0E0,0E0,0E0,3.0445814E0,0E0,0E0,0E0,0E0,0E0],"parents":[2147483647,0,0,1,1,3,3,4,4,2,2,5,5,6,6,7,7,10,10,17,17,9,9],"right_children":[2,4,10,6,8,12,14,16,-1,22,18,-1,-1,-1,-1,-1,-1,20,-1,-1,-1,-1,-1],"split_conditions":[9.969133E-4,5.44325E-4,3.3974703E-3,-2.3275074E-3,3.5892117E-1,1.1791173E0,1.3185051E-2,6.73301E-4,-0E0,1.2888261E-3,4.0611354E-1,1.7606663E-2,-0E0,-8.708794E-3,2.2051844E-3,-0E0,-2.1763122E-2,3.9928827E-1,-0E0,2.6031679E-2,-0E0,4.670735E-4,-8.478519E-3],"split_indices":[14,14,11,1,21,23,15,14,0,14,21,0,0,0,0,0,0,6,0,0,0,0,0],"split_type":[0,0,0,0,0,0,0,0,0,0,0,0,0,0,0,0,0,0,0,0,0,0,0],"sum_hessian":[6.6674066E2,5.435401E2,1.23200516E2,3.4311917E2,2.0042097E2,1.0937406E2,2.337451E2,1.3357317E2,6.684781E1,4.4036068E1,7.9164444E1,9.6800514E1,1.2573549E1,1.6978334E2,6.3961765E1,4.8887177E1,8.468598E1,6.0756657E1,1.8407787E1,4.6674263E1,1.4082395E1,1.7256563E1,2.6779505E1],"tree_param":{"num_deleted":"0","num_feature":"39","num_nodes":"23","size_leaf_vector":"1"}},{"base_weights":[-2.942797E-3,1.6205676E-1,-5.705867E-2,-1.4441729E-1,2.5061885E-2,3.0868182E-1,-3.963515E-2,-2.2942838E-1,-0E0,-0E0,-1.6700476E-2,1.9057315E-3,-9.6614985E-3,-0E0,2.1494368E-2,2.4192648E-1,-0E0,-0E0,2.0005668E-2],"categories":[],"categories_nodes":[],"categories_segments":[],"categories_sizes":[],"default_left":[0,0,0,0,0,0,0,0,0,0,0,0,0,0,0,0,0,0,0],"id":30,"left_children":[1,15,3,7,5,13,11,9,-1,-1,-1,-1,-1,-1,-1,17,-1,-1,-1],"loss_changes":[4.9623256E0,2.3714604E0,5.19175E0,5.8287506E0,7.1100554E0,3.324235E0,3.6650136E0,6.8190603E0,0E0,0E0,0E0,0E0,0E0,0E0,0E0,2.4489102E0,0E0,0E0,0E0],"parents":[2147483647,0,0,2,2,4,4,3,3,7,7,6,6,5,5,1,1,15,15],"right_children":[2,16,4,8,6,14,12,10,-1,-1,-1,-1,-1,-1,-1,18,-1,-1,-1],"split_conditions":[6.396256E-2,1.1828678E0,1.0286407E0,5.304445E-3,3.3772213E-4,-5.8778524E-1,-2.4492937E-16,8.473848E-1,-0E0,-0E0,-1.6700476E-2,1.9057315E-3,-9.6614985E-3,-0E0,2.1494368E-2,9.3854433E-1,-0E0,-0E0,2.0005668E-2],"split_indices":[21,13,23,5,14,25,25,23,0,0,0,0,0,0,0,7,0,0,0],"split_type":[0,0,0,0,0,0,0,0,0,0,0,0,0,0,0,0,0,0,0],"sum_hessian":[6.5298303E2,1.1070575E2,5.422773E2,3.1808716E2,2.2419016E2,6.33463E1,1.6084386E2,2.3073105E2,8.73561E1,6.6025955E1,1.647051E2,6.855395E1,9.228991E1,1.7540977E1,4.580532E1,8.468018E1,2.6025566E1,4.4768528E1,3.991166E1],"tree_param":{"num_deleted":"0","num_feature":"39","num_nodes":"19","size_leaf_vector":"1"}},{"base_weights":[-0E0,3.48204E-1,-3.8848285E-2,-1.4118755E-1,5.1717967E-2,1.6597466E-1,-2.4915177E-1,-0E0,-2.5386718E-1,-1.7436197E-2,-0E0,1.5960028E-2,-0E0,-2.1132557E-2,-0E0,-1.7451311E-3,1.6145617E-2,-0E0,2.562418E-2],"categories":[],"categories_nodes":[],"categories_segments":[],"categories_sizes":[],"default_left":[0,0,0,0,0,0,0,0,0,0,0,0,0,0,0,0,0,0,0],"id":31,"left_children":[1,17,3,7,5,11,13,15,9,-1,-1,-1,-1,-1,-1,-1,-1,-1,-1],"loss_changes":[7.322583E0,3.0372453E0,6.83337E0,7.652156E0,9.592916E0,6.620992E0,5.1887317E0,3.9593022E0,8.142293E0,0E0,0E0,0E0,0E0,0E0,0E0,0E0,0E0,0E0,0E0],"parents":[2147483647,0,0,2,2,4,4,3,3,8,8,5,5,6,6,7,7,1,1],"right_children":[2,18,4,8,6,12,14,16,10,-1,-1,-1,-1,-1,-1,-1,-1,-1,-1],"split_conditions":[-3.383652E-2,4.7717127E-1,1.0039119E0,8.1683487E-1,3.9295848E-3,1.0016534E0,1.0113498E0,1.1371804E-2,2.3E1,-1.7436197E-2,-0E0,1.5960028E-2,-0E0,-2.1132557E-2,-0E0,-1.7451311E-3,1.6145617E-2,-0E0,2.562418E-2],"split_indices":[15,29,23,13,11,17,24,2,30,0,0,0,0,0,0,0,0,0,0],"split_type":[0,0,0,0,0,0,0,0,0,0,0,0,0,0,0,0,0,0,0],"sum_hessian":[6.653772E2,4.2517E1,6.2286017E2,3.4163824E2,2.8122195E2,2.311588E2,5.006316E1,1.2414378E2,2.1749446E2,1.775198E2,3.997465E1,1.2018418E2,1.1097462E2,3.9919098E1,1.0144062E1,9.742808E1,2.6715704E1,1.670851E1,2.5808487E1],"tree_param":{"num_deleted":"0","num_feature":"39","num_nodes":"19","size_leaf_vector":"1"}},{"base_weights":[2.809895E-3,1.2993947E-1,-3.0904057E-2,-2.615446E-1,3.5809707E-2,-3.5755888E-1,-0E0,-0E0,-2.3282824E-2,1.1264059E-1,-1.8149781E-1,-0E0,-2.149584E-2,2.4667573E-1,-0E0,3.5112867E-1,-0E0,2.9482368E-2,-0E0,-0E0,1.06666535E-2],"categories":[],"categories_nodes":[],"categories_segments":[],"categories_sizes":[],"default_left":[0,0,0,0,0,0,0,0,0,0,0,0,0,0,0,0,0,0,0,0,0],"id":32,"left_children":[1,13,3,5,9,7,-1,-1,-1,19,11,-1,-1,15,-1,17,-1,-1,-1,-1,-1],"loss_changes":[3.9169571E0,4.1789546E0,9.709004E0,5.7950954E0,5.293946E0,6.025978E0,0E0,0E0,0E0,3.2698028E0,5.6032257E0,0E0,0E0,5.5929947E0,0E0,5.314996E0,0E0,0E0,0E0,0E0,0E0],"parents":[2147483647,0,0,2,2,3,3,5,5,4,4,10,10,1,1,13,13,15,15,9,9],"right_children":[2,14,4,6,10,8,-1,-1,-1,20,12,-1,-1,16,-1,18,-1,-1,-1,-1,-1],"split_conditions":[8.4918445E-1,1.6382135E-3,9.5097405E-1,3.0470658E-2,4.385742E-3,6.451613E-2,-0E0,-0E0,-2.3282824E-2,3.0056925E-3,-2.1557005E-2,-0E0,-2.149584E-2,3.4926753E-2,-0E0,-5E-1,-0E0,2.9482368E-2,-0E0,-0E0,1.06666535E-2],"split_indices":[13,1,23,16,12,20,0,0,0,11,2,0,0,16,0,8,0,0,0,0,0],"split_type":[0,0,0,0,0,0,0,0,0,0,0,0,0,0,0,0,0,0,0,0,0],"sum_hessian":[6.6345306E2,1.9525418E2,4.6819888E2,1.3212186E2,3.3607703E2,1.11370514E2,2.0751343E1,2.2018925E1,8.935159E1,2.8584753E2,5.0229507E1,1.9179146E1,3.105036E1,1.1563116E2,7.9623024E1,9.7367744E1,1.826341E1,4.3360264E1,5.400748E1,1.4152246E2,1.4432506E2],"tree_param":{"num_deleted":"0","num_feature":"39","num_nodes":"21","size_leaf_vector":"1"}},{"base_weights":[-0E0,1.6964461E-1,-5.1107027E-2,-1.5069637E-1,7.085588E-2,-1.1444568E-2,1.6279161E-1,1.8582076E-2,-0E0,-0E0,-2.520777E-1,-1.718003E-2,-0E0,2.981632E-1,-0E0,4.5607352E-1,-0E0,-0E0,2.6558144E-2,-3.399935E-3,5.722311E-3],"categories":[],"categories_nodes":[],"categories_segments":[],"categories_sizes":[],"default_left":[0,0,0,0,0,0,0,0,0,0,0,0,0,0,0,0,0,0,0,0,0],"id":33,"left_children":[1,13,3,9,5,-1,7,-1,-1,19,11,-1,-1,15,-1,17,-1,-1,-1,-1,-1],"loss_changes":[6.2061133E0,3.783019E0,7.148959E0,4.6548686E0,5.022931E0,0E0,5.948534E0,0E0,0E0,1.1674764E0,6.563551E0,0E0,0E0,8.593511E0,0E0,1.7628269E0,0E0,0E0,0E0,0E0,0E0],"parents":[2147483647,0,0,2,2,4,4,6,6,3,3,10,10,1,1,13,13,15,15,9,9],"right_children":[2,14,4,10,6,-1,8,-1,-1,20,12,-1,-1,16,-1,18,-1,-1,-1,-1,-1],"split_conditions":[-1.63647E-2,-5.0760144E-1,2.2402117E-2,-7.437922E-4,3.16834E-1,-1.1444568E-2,3.09017E-1,1.8582076E-2,-0E0,-3.5275215E-1,9.6907164E-4,-1.718003E-2,-0E0,1.6288497E-1,-0E0,2.9956652E-3,-0E0,-0E0,2.6558144E-2,-3.399935E-3,5.722311E-3],"split_indices":[16,4,16,15,18,0,26,0,0,4,14,0,0,27,0,3,0,0,0,0,0],"split_type":[0,0,0,0,0,0,0,0,0,0,0,0,0,0,0,0,0,0,0,0,0],"sum_hessian":[6.6304297E2,1.589912E2,5.040518E2,3.2131604E2,1.8273576E2,1.3864252E1,1.6887152E2,6.738942E1,1.0148209E2,1.3965334E2,1.8166269E2,1.4875142E2,3.2911278E1,8.725918E1,7.173201E1,7.288328E1,1.43758955E1,1.5529456E1,5.7353825E1,9.8996994E1,4.065634E1],"tree_param":{"num_deleted":"0","num_feature":"39","num_nodes":"21","size_leaf_vector":"1"}},{"base_weights":[-0E0,-3.545274E-2,1.559358E-1,3.036572E-2,-1.6199103E-1,-2.987292E-1,-0E0,-0E0,2.947817E-1,-3.503793E-2,1.5508373E-1,1.4841909E-2,-0E0,4.1987428E-1,-0E0,-1.9560276E-2,-0E0,7.4203206E-5,-8.1968205E-3,-0E0,2.5587186E-2,8.784432E-3,-8.6780003E-4],"categories":[],"categories_nodes":[],"categories_segments":[],"categories_sizes":[],"default_left":[0,0,0,0,0,0,0,0,0,0,0,0,0,0,0,0,0,0,0,0,0,0,0],"id":34,"left_children":[1,3,7,9,5,15,21,-1,13,17,11,-1,-1,19,-1,-1,-1,-1,-1,-1,-1,-1,-1],"loss_changes":[3.905749E0,5.9641137E0,4.617196E0,3.862274E0,7.3556795E0,3.2679262E0,1.3833653E0,0E0,3.8524513E0,2.4049096E0,5.7772875E0,0E0,0E0,1.4713755E0,0E0,0E0,0E0,0E0,0E0,0E0,0E0,0E0,0E0],"parents":[2147483647,0,0,1,1,4,4,2,2,3,3,10,10,8,8,5,5,9,9,13,13,6,6],"right_children":[2,4,8,10,6,16,22,-1,14,18,12,-1,-1,20,-1,-1,-1,-1,-1,-1,-1,-1,-1],"split_conditions":[9.969133E-4,1.6382135E-3,3.5995212E-3,-5.9933804E-2,1.3452267E-2,1.6E1,3.6386138E-1,-0E0,1.0088924E0,-2.5129716E-3,1.520001E-1,1.4841909E-2,-0E0,4.5630878E-1,-0E0,-1.9560276E-2,-0E0,7.4203206E-5,-8.1968205E-3,-0E0,2.5587186E-2,8.784432E-3,-8.6780003E-4],"split_indices":[14,1,12,27,15,30,19,0,17,2,27,0,0,29,0,0,0,0,0,0,0,0,0],"split_type":[0,0,0,0,0,0,0,0,0,0,0,0,0,0,0,0,0,0,0,0,0,0,0],"sum_hessian":[6.6424084E2,5.421571E2,1.2208374E2,3.096609E2,2.3249625E2,1.437335E2,8.876274E1,4.1988476E1,8.009526E1,1.552537E2,1.544072E2,1.0044286E2,5.3964333E1,5.6260696E1,2.3834564E1,1.00995705E2,4.2737797E1,6.822679E1,8.702689E1,1.6036613E1,4.0224087E1,3.4187496E1,5.457525E1],"tree_param":{"num_deleted":"0","num_feature":"39","num_nodes":"23","size_leaf_vector":"1"}},{"base_weights":[-0E0,-4.4925317E-2,1.4283136E-1,6.258115E-2,-2.567648E-1,-0E0,-3.8533917E-1,-7.2932206E-2,2.808183E-1,-0E0,-2.5115905E-2,3.757317E-1,-0E0,-0E0,2.4938008E-2,1.327378E-1,-6.790918E-2,1.0065555E-2,-8.486109E-3,-1.2376573E-2,-0E0,-2.4755371E-3,1.2081199E-2,-0E0,-1.14813065E-2],"categories":[],"categories_nodes":[],"categories_segments":[],"categories_sizes":[],"default_left":[0,0,0,0,0,0,0,0,0,0,0,0,0,0,0,0,0,0,0,0,0,0,0,0,0],"id":35,"left_children":[1,3,7,15,5,21,9,23,11,-1,-1,13,-1,-1,-1,17,19,-1,-1,-1,-1,-1,-1,-1,-1],"loss_changes":[4.849728E0,1.3182219E1,7.928304E0,3.4798284E0,8.7047415E0,1.9451313E0,6.3897343E0,1.5625964E0,4.36038E0,0E0,0E0,6.167454E0,0E0,0E0,0E0,5.800632E0,2.5806065E0,0E0,0E0,0E0,0E0,0E0,0E0,0E0,0E0],"parents":[2147483647,0,0,1,1,4,4,2,2,6,6,8,8,11,11,3,3,15,15,16,16,5,5,7,7],"right_children":[2,4,8,16,6,22,10,24,12,-1,-1,14,-1,-1,-1,18,20,-1,-1,-1,-1,-1,-1,-1,-1],"split_conditions":[2.2402117E-2,1.0017055E0,3.793202E-1,1.2384433E0,8.1683487E-1,1.0851235E-2,1.0033575E0,3.357318E-2,8.659051E-2,-0E0,-2.5115905E-2,9.1240875E-2,-0E0,-0E0,2.4938008E-2,2.8366262E-1,3.552138E-2,1.0065555E-2,-8.486109E-3,-1.2376573E-2,-0E0,-2.4755371E-3,1.2081199E-2,-0E0,-1.14813065E-2],"split_indices":[16,17,18,13,13,2,17,16,27,0,0,20,0,0,0,27,27,0,0,0,0,0,0,0,0],"split_type":[0,0,0,0,0,0,0,0,0,0,0,0,0,0,0,0,0,0,0,0,0,0,0,0,0],"sum_hessian":[6.560958E2,4.7650397E2,1.7959189E2,2.8945078E2,1.8705318E2,5.093801E1,1.3611517E2,4.3623646E1,1.3596823E2,3.480635E1,1.01308815E2,1.0242329E2,3.354495E1,2.3829508E1,7.859378E1,2.3797046E2,5.1480316E1,2.2366736E2,1.4303105E1,3.6744698E1,1.4735619E1,2.9269611E1,2.16684E1,1.8579252E1,2.5044394E1],"tree_param":{"num_deleted":"0","num_feature":"39","num_nodes":"25","size_leaf_vector":"1"}},{"base_weights":[1.5840685E-2,-3.854403E-2,1.4869112E-1,-1.4650549E-1,6.260945E-2,3.0891317E-1,-0E0,-1.21055115E-2,1.1066444E-2,-2.6240173E-1,-0E0,2.1002264E-1,-0E0,-1.8341808E-2,-0E0,-0E0,2.1498645E-2,3.7833405E-1,7.5573768E-3,2.3430329E-2,-0E0,8.603017E-3,-0E0],"categories":[],"categories_nodes":[],"categories_segments":[],"categories_sizes":[],"default_left":[0,0,0,0,0,0,0,0,0,0,0,0,0,0,0,0,0,0,0,0,0,0,0],"id":36,"left_children":[1,3,11,9,5,15,7,-1,-1,13,-1,17,-1,-1,-1,-1,-1,19,21,-1,-1,-1,-1],"loss_changes":[5.946599E0,5.568944E0,3.7852468E0,5.553572E0,5.586062E0,3.613132E0,7.295738E0,0E0,0E0,3.7650871E0,0E0,3.2719107E0,0E0,0E0,0E0,0E0,0E0,2.6800585E0,1.4115912E0,0E0,0E0,0E0,0E0],"parents":[2147483647,0,0,1,1,4,4,6,6,3,3,2,2,9,9,5,5,11,11,17,17,18,18],"right_children":[2,4,12,10,6,16,8,-1,-1,14,-1,18,-1,-1,-1,-1,-1,20,22,-1,-1,-1,-1],"split_conditions":[4.2911125E-3,1.0276155E0,1.0142757E0,1.013704E0,3.3772213E-4,-2.317617E-1,1.7017284E-2,-1.21055115E-2,1.1066444E-2,1.3E1,-0E0,-2.4492937E-16,-0E0,-1.8341808E-2,-0E0,-0E0,2.1498645E-2,1.200453E0,9.3877554E-2,2.3430329E-2,-0E0,8.603017E-3,-0E0],"split_indices":[3,23,24,22,14,27,16,0,0,30,0,25,0,0,0,0,0,13,21,0,0,0,0],"split_type":[0,0,0,0,0,0,0,0,0,0,0,0,0,0,0,0,0,0,0,0,0,0,0],"sum_hessian":[6.5267053E2,4.147225E2,2.3794803E2,2.4626219E2,1.6846031E2,5.586808E1,1.1259223E2,7.311924E1,3.9472992E1,1.5054025E2,9.572194E1,2.0009396E2,3.7854073E1,1.00122406E2,5.0417847E1,1.2325639E1,4.3542442E1,7.754908E1,1.22544876E2,5.9271793E1,1.8277287E1,3.793694E1,8.460794E1],"tree_param":{"num_deleted":"0","num_feature":"39","num_nodes":"23","size_leaf_vector":"1"}},{"base_weights":[-0E0,1.06428154E-1,-6.968642E-2,-1.5636238E-1,1.8391848E-1,6.542168E-3,-2.3433405E-1,-0E0,-1.9336121E-2,2.480367E-2,-0E0,2.1357729E-1,-4.9483508E-2,2.672737E-1,-0E0,-0E0,1.6025838E-2,-1.1852138E-2,-0E0,-0E0,7.1013607E-3],"categories":[],"categories_nodes":[],"categories_segments":[],"categories_sizes":[],"default_left":[0,0,0,0,0,0,0,0,0,0,0,0,0,0,0,0,0,0,0,0,0],"id":37,"left_children":[1,11,3,5,9,19,7,-1,-1,-1,-1,13,17,15,-1,-1,-1,-1,-1,-1,-1],"loss_changes":[4.8561487E0,5.8036547E0,9.541968E0,6.839342E0,6.162548E0,1.394414E0,1.0867333E1,0E0,0E0,0E0,0E0,3.543808E0,1.9105997E0,3.8796644E0,0E0,0E0,0E0,0E0,0E0,0E0,0E0],"parents":[2147483647,0,0,2,2,3,3,6,6,4,4,1,1,11,11,13,13,12,12,5,5],"right_children":[2,12,4,6,10,20,8,-1,-1,-1,-1,14,18,16,-1,-1,-1,-1,-1,-1,-1],"split_conditions":[-1.5049449E-3,4.9490198E-3,9.969133E-4,4.2272177E-1,1.4932127E-1,6.8719524E-1,3.9652913E-4,-0E0,-1.9336121E-2,2.480367E-2,-0E0,5.746355E-1,4.7717127E-1,2.4792387E-3,-0E0,-0E0,1.6025838E-2,-1.1852138E-2,-0E0,-0E0,7.1013607E-3],"split_indices":[1,3,14,29,21,7,14,0,0,0,0,29,29,12,0,0,0,0,0,0,0],"split_type":[0,0,0,0,0,0,0,0,0,0,0,0,0,0,0,0,0,0,0,0,0],"sum_hessian":[6.5639667E2,2.3285162E2,4.2354507E2,3.4790533E2,7.563973E1,7.406731E1,2.73838E2,1.0695517E2,1.6688286E2,2.681353E1,4.8826202E1,1.7382913E2,5.9022503E1,1.5699355E2,1.6835588E1,1.3107298E1,1.4388625E2,2.7010796E1,3.2011707E1,1.4761789E1,5.9305515E1],"tree_param":{"num_deleted":"0","num_feature":"39","num_nodes":"21","size_leaf_vector":"1"}},{"base_weights":[-0E0,1.3752154E-1,-2.0029789E-2,2.720781E-1,-0E0,-1.17841884E-1,4.7368016E-2,-0E0,-2.0233732E-1,-1.2959043E-2,-0E0,2.072551E-1,-0E0,-0E0,1.7571898E-2,3.6273876E-1,-0E0,-2.5869745E-3,8.5319E-3,-0E0,2.1358006E-2],"categories":[],"categories_nodes":[],"categories_segments":[],"categories_sizes":[],"default_left":[0,0,0,0,0,0,0,0,0,0,0,0,0,0,0,0,0,0,0,0,0],"id":38,"left_children":[1,3,5,15,-1,7,11,-1,9,-1,-1,13,17,-1,-1,19,-1,-1,-1,-1,-1],"loss_changes":[2.6976886E0,4.624537E0,4.383107E0,2.3823538E0,0E0,4.4135375E0,2.9736362E0,0E0,3.7751675E0,0E0,0E0,4.1084986E0,1.316463E0,0E0,0E0,1.1228104E0,0E0,0E0,0E0,0E0,0E0],"parents":[2147483647,0,0,1,1,2,2,5,5,8,8,6,6,11,11,3,3,12,12,15,15],"right_children":[2,4,6,16,-1,8,12,-1,10,-1,-1,14,18,-1,-1,20,-1,-1,-1,-1,-1],"split_conditions":[-1.0383988E-2,7.0266216E-4,3.675951E-4,1.2326468E0,-0E0,1.3649026E-1,-2.0123596E-1,-0E0,2.6243968E-2,-1.2959043E-2,-0E0,4.0899796E-4,2.4431428E-1,-0E0,1.7571898E-2,5.755396E-2,-0E0,-2.5869745E-3,8.5319E-3,-0E0,2.1358006E-2],"split_indices":[2,0,0,13,0,20,27,0,15,0,0,1,27,0,0,20,0,0,0,0,0],"split_type":[0,0,0,0,0,0,0,0,0,0,0,0,0,0,0,0,0,0,0,0,0],"sum_hessian":[6.6049646E2,1.2098598E2,5.3951044E2,8.593546E1,3.505051E1,2.775704E2,2.6194003E2,8.222446E1,1.9534596E2,1.7134969E2,2.3996273E1,7.343204E1,1.8850801E2,2.1150608E1,5.2281425E1,6.207905E1,2.3856417E1,1.6982864E2,1.8679361E1,1.3947983E1,4.8131065E1],"tree_param":{"num_deleted":"0","num_feature":"39","num_nodes":"21","size_leaf_vector":"1"}},{"base_weights":[-0E0,-5.500891E-2,1.0311938E-1,7.309761E-2,-1.8770902E-1,-2.8915223E-1,4.602848E-2,-0E0,-1.73525E-2,-4.6885225E-7,2.2148376E-2,2.5226548E-1,-2.1655083E-2,3.1532878E-1,-0E0,1.856715E-2,-0E0,-0E0,1.9444289E-2,-3.425593E-2,1.1931955E-1,2.5359653E-3,-1.8204184E-2,1.3932007E-2,-0E0,-0E0,-7.040935E-3],"categories":[],"categories_nodes":[],"categories_segments":[],"categories_sizes":[],"default_left":[0,0,0,0,0,0,0,0,0,0,0,0,0,0,0,0,0,0,0,0,0,0,0,0,0,0,0],"id":39,"left_children":[1,3,13,11,5,7,9,-1,-1,-1,-1,15,25,17,19,-1,-1,-1,-1,21,23,-1,-1,-1,-1,-1,-1],"loss_changes":[4.187297E0,7.8948407E0,3.9913409E0,5.191398E0,8.069557E0,5.361595E0,5.3261886E0,0E0,0E0,0E0,0E0,3.5534296E0,1.1695148E0,1.8921895E0,1.5456023E0,0E0,0E0,0E0,0E0,7.109743E0,3.1328368E0,0E0,0E0,0E0,0E0,0E0,0E0],"parents":[2147483647,0,0,1,1,4,4,5,5,6,6,3,3,2,2,11,11,13,13,14,14,19,19,20,20,12,12],"right_children":[2,4,14,12,6,8,10,-1,-1,-1,-1,16,26,18,20,-1,-1,-1,-1,22,24,-1,-1,-1,-1,-1,-1],"split_conditions":[1.0242796E0,8.526373E-1,3.1169545E-4,-5E-1,2.4E1,1.7114915E-2,1.4835849E-3,-0E0,-1.73525E-2,-4.6885225E-7,2.2148376E-2,3.6393427E-3,8.3751476E-1,-3.0163822E-1,1.6492752E-2,1.856715E-2,-0E0,-0E0,1.9444289E-2,-7.437922E-4,3.2753982E-3,2.5359653E-3,-1.8204184E-2,1.3932007E-2,-0E0,-0E0,-7.040935E-3],"split_indices":[23,13,14,8,30,20,15,0,0,0,0,1,23,27,16,0,0,0,0,15,12,0,0,0,0,0,0],"split_type":[0,0,0,0,0,0,0,0,0,0,0,0,0,0,0,0,0,0,0,0,0,0,0,0,0,0,0],"sum_hessian":[6.520244E2,3.7891843E2,2.7310596E2,1.5673889E2,2.2217953E2,1.8311777E2,3.906177E1,1.4544891E1,1.6857288E2,2.1388113E1,1.767366E1,8.497465E1,7.176424E1,6.0417587E1,2.1268839E2,5.959912E1,2.5375528E1,1.1607553E1,4.8810036E1,1.2527715E2,8.741123E1,8.223414E1,4.3043015E1,4.8213245E1,3.9197987E1,2.0853334E1,5.09109E1],"tree_param":{"num_deleted":"0","num_feature":"39","num_nodes":"27","size_leaf_vector":"1"}},{"base_weights":[-0E0,1.5846972E-1,-5.048133E-2,-1.3199006E-1,1.8048454E-2,2.6240486E-1,-0E0,-1.8748046E-1,-0E0,-1.2549735E-2,-0E0,1.446067E-1,-4.9979083E-2,1.49615975E-2,-0E0,1.2216163E-2,-4.0447973E-3,3.1451488E-1,-0E0,1.9557556E-2,-0E0,-7.7896784E-3,-0E0],"categories":[],"categories_nodes":[],"categories_segments":[],"categories_sizes":[],"default_left":[0,0,0,0,0,0,0,0,0,0,0,0,0,0,0,0,0,0,0,0,0,0,0],"id":40,"left_children":[1,5,3,7,11,17,-1,9,15,-1,-1,13,21,-1,-1,-1,-1,19,-1,-1,-1,-1,-1],"loss_changes":[5.3860736E0,4.061783E0,4.092086E0,3.1843667E0,2.9728637E0,1.8230352E0,0E0,4.9378977E0,2.4820063E0,0E0,0E0,4.5142336E0,1.8021145E0,0E0,0E0,0E0,0E0,3.2085485E0,0E0,0E0,0E0,0E0,0E0],"parents":[2147483647,0,0,2,2,1,1,3,3,7,7,4,4,11,11,8,8,5,5,17,17,12,12],"right_children":[2,6,4,8,12,18,-1,10,16,-1,-1,14,22,-1,-1,-1,-1,20,-1,-1,-1,-1,-1],"split_conditions":[-1.63647E-2,6.2857145E-1,1.0126712E0,3.136568E-2,4.8994818E-1,1.8773585E-3,-0E0,1.0411319E-3,6.00639E-4,-1.2549735E-2,-0E0,6.494812E-4,4.65773E-3,1.49615975E-2,-0E0,1.2216163E-2,-4.0447973E-3,-2.5881904E-1,-0E0,1.9557556E-2,-0E0,-7.7896784E-3,-0E0],"split_indices":[16,19,7,16,29,0,0,14,14,0,0,14,3,0,0,0,0,8,0,0,0,0,0],"split_type":[0,0,0,0,0,0,0,0,0,0,0,0,0,0,0,0,0,0,0,0,0,0,0],"sum_hessian":[6.656082E2,1.5126784E2,5.143404E2,2.9734384E2,2.1699652E2,1.078054E2,4.3462437E1,2.3292975E2,6.441409E1,2.0392023E2,2.900953E1,1.2331809E2,9.367843E1,7.155105E1,5.1767044E1,2.6304768E1,3.810932E1,9.043187E1,1.7373531E1,7.5903915E1,1.4527958E1,7.49178E1,1.876063E1],"tree_param":{"num_deleted":"0","num_feature":"39","num_nodes":"23","size_leaf_vector":"1"}},{"base_weights":[6.727416E-3,9.256464E-2,-6.885146E-2,-1.7826204E-1,4.2312983E-2,1.2492686E-2,-3.9180174E-1,-0E0,-2.3933792E-2,1.7825235E-1,-1.0250072E-2,-0E0,2.571025E-1,-0E0,1.6069097E-2,8.8174995E-3,-1.4511202E-1,-1.1804729E-2,-0E0,-0E0,1.5289305E-1,1.6499547E-2,-0E0,-0E0,9.036902E-3],"categories":[],"categories_nodes":[],"categories_segments":[],"categories_sizes":[],"default_left":[0,0,0,0,0,0,0,0,0,0,0,0,0,0,0,0,0,0,0,0,0,0,0,0,0],"id":41,"left_children":[1,9,3,5,19,23,7,-1,-1,11,15,-1,13,-1,-1,-1,17,-1,-1,-1,21,-1,-1,-1,-1],"loss_changes":[4.591622E0,5.009922E0,5.0288897E0,1.1833027E1,1.603956E0,1.4763877E0,6.58848E0,0E0,0E0,4.464999E0,3.1465049E0,0E0,4.2046328E0,0E0,0E0,0E0,3.2052703E0,0E0,0E0,0E0,3.8058174E0,0E0,0E0,0E0,0E0],"parents":[2147483647,0,0,2,2,3,3,6,6,1,1,9,9,12,12,10,10,16,16,4,4,20,20,5,5],"right_children":[2,10,4,6,20,24,8,-1,-1,12,16,-1,14,-1,-1,-1,18,-1,-1,-1,22,-1,-1,-1,-1],"split_conditions":[1.0020322E0,1.1164643E0,1.0397727E0,8.244755E-1,1.0048134E0,1.1371804E-2,1.0015845E0,-0E0,-2.3933792E-2,7.920914E-1,2.3755581E-4,-0E0,6.34676E-1,-0E0,1.6069097E-2,8.8174995E-3,7.911819E-4,-1.1804729E-2,-0E0,-0E0,7.7524973E-4,1.6499547E-2,-0E0,-0E0,9.036902E-3],"split_indices":[17,13,13,13,17,2,24,0,0,13,14,0,7,0,0,0,2,0,0,0,14,0,0,0,0],"split_type":[0,0,0,0,0,0,0,0,0,0,0,0,0,0,0,0,0,0,0,0,0,0,0,0,0],"sum_hessian":[6.513905E2,3.65896E2,2.854945E2,1.8617639E2,9.931811E1,7.857274E1,1.0760365E2,1.0059494E1,9.754416E1,2.486181E2,1.1727789E2,6.6757576E1,1.8186052E2,2.8364197E1,1.5349632E2,1.6802744E1,1.0047514E2,8.92382E1,1.1236951E1,3.2330784E1,6.698732E1,4.147661E1,2.5510715E1,4.2953438E1,3.56193E1],"tree_param":{"num_deleted":"0","num_feature":"39","num_nodes":"25","size_leaf_vector":"1"}},{"base_weights":[8.693668E-3,-5.9323996E-2,1.608834E-1,2.3041503E-1,-0E0,3.4432143E-1,-0E0,-1.1624187E-1,3.9343988E-3,-0E0,-2.4515729E-1,-1.5232207E-2,-0E0,-0E0,1.9565118E-2,4.523953E-3,-3.7547022E-3],"categories":[],"categories_nodes":[],"categories_segments":[],"categories_sizes":[],"default_left":[0,0,0,0,0,0,0,0,0,0,0,0,0,0,0,0,0],"id":42,"left_children":[1,7,3,5,-1,13,-1,9,-1,15,11,-1,-1,-1,-1,-1,-1],"loss_changes":[7.847205E0,3.7005196E0,4.2722435E0,6.186962E0,0E0,2.5888577E0,0E0,6.7319856E0,0E0,1.2976445E0,4.430579E0,0E0,0E0,0E0,0E0,0E0,0E0],"parents":[2147483647,0,0,2,2,3,3,1,1,7,7,10,10,5,5,9,9],"right_children":[2,8,4,6,-1,14,-1,10,-1,16,12,-1,-1,-1,-1,-1,-1],"split_conditions":[1.0293473E0,5.346223E-1,1.0091667E0,1.4446335E0,-0E0,9.912012E-1,-0E0,4.347826E-1,3.9343988E-3,-7.0710677E-1,3.139535E-1,-1.5232207E-2,-0E0,-0E0,1.9565118E-2,4.523953E-3,-3.7547022E-3],"split_indices":[22,18,24,22,0,17,0,19,0,8,20,0,0,0,0,0,0],"split_type":[0,0,0,0,0,0,0,0,0,0,0,0,0,0,0,0,0],"sum_hessian":[6.407375E2,4.0163196E2,2.3910555E2,1.9191638E2,4.718917E1,1.3260555E2,5.9310837E1,3.3677612E2,6.485583E1,1.5680464E2,1.799715E2,1.6076392E2,1.9207584E1,1.5279982E1,1.1732556E2,1.0801412E2,4.8790512E1],"tree_param":{"num_deleted":"0","num_feature":"39","num_nodes":"17","size_leaf_vector":"1"}},{"base_weights":[-0E0,2.8403527E-1,-2.07149E-2,-0E0,-1.8913722E-2,-1.0921475E-1,7.6001965E-2,-9.317903E-3,3.5381147E-3,6.461592E-3,-4.846861E-3,1.791991E-2,-0E0],"categories":[],"categories_nodes":[],"categories_segments":[],"categories_sizes":[],"default_left":[0,0,0,0,0,0,0,0,0,0,0,0,0],"id":43,"left_children":[1,11,3,5,-1,7,9,-1,-1,-1,-1,-1,-1],"loss_changes":[4.7491918E0,1.1927319E0,5.0220985E0,4.959567E0,0E0,4.6316643E0,3.7739835E0,0E0,0E0,0E0,0E0,0E0,0E0],"parents":[2147483647,0,0,2,2,3,3,5,5,6,6,1,1],"right_children":[2,12,4,6,-1,8,10,-1,-1,-1,-1,-1,-1],"split_conditions":[-3.383652E-2,1.2048734E0,7.7377735E-3,-7.622739E-2,-1.8913722E-2,1.0084655E0,1.0099792E0,-9.317903E-3,3.5381147E-3,6.461592E-3,-4.846861E-3,1.791991E-2,-0E0],"split_indices":[15,13,3,6,0,17,17,0,0,0,0,0,0],"split_type":[0,0,0,0,0,0,0,0,0,0,0,0,0],"sum_hessian":[6.5464764E2,4.557467E1,6.09073E2,5.821194E2,2.6953592E1,2.3084053E2,3.5127887E2,2.0022603E2,3.0614498E1,3.1475107E2,3.6527805E1,3.4190807E1,1.1383863E1],"tree_param":{"num_deleted":"0","num_feature":"39","num_nodes":"13","size_leaf_vector":"1"}},{"base_weights":[-0E0,-1.3142884E-1,9.0501145E-2,-4.0999737E-2,1.5681444E-1,5.946796E-2,-1.5654324E-2,-0E0,-1.7641102E-1,-0E0,-2.6554474E-1,-0E0,-1.6036108E-2,-0E0,2.0948982E-1,1.471059E-2,-0E0,4.420075E-3,-8.891146E-3,1.128255E-2,-0E0],"categories":[],"categories_nodes":[],"categories_segments":[],"categories_sizes":[],"default_left":[0,0,0,0,0,0,0,0,0,0,0,0,0,0,0,0,0,0,0,0,0],"id":44,"left_children":[1,7,3,5,13,19,-1,-1,9,-1,11,-1,-1,17,15,-1,-1,-1,-1,-1,-1],"loss_changes":[8.26194E0,3.154551E0,4.6796207E0,5.1902094E0,2.9452353E0,1.1947138E0,0E0,0E0,4.051013E0,0E0,3.8044147E0,0E0,0E0,1.5870385E0,5.699998E0,0E0,0E0,0E0,0E0,0E0,0E0],"parents":[2147483647,0,0,2,2,3,3,1,1,8,8,10,10,4,4,14,14,13,13,5,5],"right_children":[2,8,4,6,14,20,-1,-1,10,-1,12,-1,-1,18,16,-1,-1,-1,-1,-1,-1],"split_conditions":[-6.6604994E-2,-6.6497064E-1,2.8097704E-3,4.7546652E-1,8.903561E-1,1.789898E-3,-1.5654324E-2,-0E0,4.336945E-4,-0E0,-2.2968536E-2,-0E0,-1.6036108E-2,9.3178827E-1,1.1828678E0,1.471059E-2,-0E0,4.420075E-3,-8.891146E-3,1.128255E-2,-0E0],"split_indices":[6,6,3,29,7,2,0,0,14,0,15,0,0,13,13,0,0,0,0,0,0],"split_type":[0,0,0,0,0,0,0,0,0,0,0,0,0,0,0,0,0,0,0,0,0],"sum_hessian":[6.667708E2,2.8031696E2,3.8645383E2,8.027818E1,3.0617563E2,3.74947E1,4.278348E1,2.7812757E1,2.5250421E2,8.920014E1,1.6330406E2,1.7516008E1,1.4578806E2,7.1900925E1,2.3427472E2,1.7969647E2,5.457825E1,4.5404114E1,2.6496805E1,1.6761969E1,2.073273E1],"tree_param":{"num_deleted":"0","num_feature":"39","num_nodes":"21","size_leaf_vector":"1"}},{"base_weights":[3.0454874E-2,-4.000626E-2,1.0593909E-1,2.5110302E-2,-1.5100686E-1,-3.363212E-1,-0E0,-0E0,-2.2566034E-2,1.4300767E-1,-0E0,1.76127E-1,-0E0,1.4182146E-2,-0E0,9.374559E-3,-0E0,-1.0050526E-2,-0E0],"categories":[],"categories_nodes":[],"categories_segments":[],"categories_sizes":[],"default_left":[0,0,0,0,0,0,0,0,0,0,0,0,0,0,0,0,0,0,0],"id":45,"left_children":[1,3,9,15,5,7,-1,-1,-1,11,17,13,-1,-1,-1,-1,-1,-1,-1],"loss_changes":[4.222817E0,3.328989E0,2.7732387E0,1.5779963E0,4.250412E0,2.7798095E0,0E0,0E0,0E0,2.8280382E0,1.062882E0,4.691304E0,0E0,0E0,0E0,0E0,0E0,0E0,0E0],"parents":[2147483647,0,0,1,1,4,4,5,5,2,2,9,9,11,11,3,3,10,10],"right_children":[2,4,10,16,6,8,-1,-1,-1,12,18,14,-1,-1,-1,-1,-1,-1,-1],"split_conditions":[8.903561E-1,9.0084505E-1,4.7877464E-3,-2.4492937E-16,1.0070435E0,3.9690536E-1,-0E0,-0E0,-2.2566034E-2,5.716045E-1,4.7717127E-1,1.1555774E0,-0E0,1.4182146E-2,-0E0,9.374559E-3,-0E0,-1.0050526E-2,-0E0],"split_indices":[7,13,12,25,13,18,0,0,0,29,29,22,0,0,0,0,0,0,0],"split_type":[0,0,0,0,0,0,0,0,0,0,0,0,0,0,0,0,0,0,0],"sum_hessian":[6.520234E2,2.7114435E2,3.8087906E2,1.18989456E2,1.5215488E2,6.0267033E1,9.188784E1,1.7599588E1,4.2667446E1,3.4010724E2,4.077183E1,3.1198312E2,2.81241E1,1.724593E2,1.3952383E2,3.7203094E1,8.178636E1,1.6305557E1,2.4466272E1],"tree_param":{"num_deleted":"0","num_feature":"39","num_nodes":"19","size_leaf_vector":"1"}},{"base_weights":[-0E0,-8.864449E-2,9.031285E-2,-0E0,-3.4924915E-1,-1.8572481E-2,2.0923275E-1,-7.528752E-2,3.8642332E-1,-0E0,-2.4140729E-2,-0E0,2.3150109E-2,1.4971218E-1,-5.224052E-2,-1.1667711E-2,2.1780042E-3,2.2010388E-2,-0E0,-1.7151156E-1,-0E0,-1.6510446E-2,-0E0,1.0090817E-2,-4.0663802E-4,-0E0,-1.0829508E-2],"categories":[],"categories_nodes":[],"categories_segments":[],"categories_sizes":[],"default_left":[0,0,0,0,0,0,0,0,0,0,0,0,0,0,0,0,0,0,0,0,0,0,0,0,0,0,0],"id":46,"left_children":[1,3,5,13,9,19,7,25,11,-1,-1,-1,-1,17,15,-1,-1,-1,-1,21,23,-1,-1,-1,-1,-1,-1],"loss_changes":[5.5213814E0,7.260084E0,6.3477483E0,2.0213747E0,5.792282E0,1.7105589E0,1.3848884E1,1.4640355E0,4.7531433E0,0E0,0E0,0E0,0E0,5.389781E0,5.901895E0,0E0,0E0,0E0,0E0,3.2157786E0,1.6427065E0,0E0,0E0,0E0,0E0,0E0,0E0],"parents":[2147483647,0,0,1,1,2,2,6,6,4,4,8,8,3,3,14,14,13,13,5,5,19,19,20,20,7,7],"right_children":[2,4,6,14,10,20,8,26,12,-1,-1,-1,-1,18,16,-1,-1,-1,-1,22,24,-1,-1,-1,-1,-1,-1],"split_conditions":[7.836482E-3,1.0046861E0,2.9149808E-3,-5.8778524E-1,7.542857E-1,8.5559744E-1,4.0873826E-1,3.5256285E-3,5.6338027E-2,-0E0,-2.4140729E-2,-0E0,2.3150109E-2,1.0523243E0,9.967714E-1,-1.1667711E-2,2.1780042E-3,2.2010388E-2,-0E0,1.3186328E0,3.3397686E-3,-1.6510446E-2,-0E0,1.0090817E-2,-4.0663802E-4,-0E0,-1.0829508E-2],"split_indices":[16,24,12,25,13,7,18,11,20,0,0,0,0,23,23,0,0,0,0,4,5,0,0,0,0,0,0],"split_type":[0,0,0,0,0,0,0,0,0,0,0,0,0,0,0,0,0,0,0,0,0,0,0,0,0,0,0],"sum_hessian":[6.697406E2,3.3975983E2,3.2998077E2,2.6770657E2,7.205325E1,1.3276584E2,1.9721492E2,5.623358E1,1.4098134E2,1.427095E1,5.77823E1,2.3640783E1,1.1734056E2,5.28003E1,2.1490627E2,1.0549334E2,1.09412926E2,2.507725E1,2.7723051E1,4.982428E1,8.294156E1,3.5631676E1,1.4192605E1,3.0229939E1,5.271162E1,2.70221E1,2.921148E1],"tree_param":{"num_deleted":"0","num_feature":"39","num_nodes":"27","size_leaf_vector":"1"}},{"base_weights":[-7.4117756E-3,-9.292677E-2,5.2644923E-2,1.9679768E-2,-2.4801765E-1,1.6693478E-2,-3.9060575E-1,-6.0482185E-2,1.5081257E-1,-2.1268156E-1,3.1265921E-3,-0E0,2.0725743E-1,-0E0,1.5581098E-2,-2.2809764E-2,-0E0,1.4812604E-2,-0E0,-1.6016068E-2,-0E0,-0E0,1.019187E-2,-5.3396765E-3,5.078425E-3],"categories":[],"categories_nodes":[],"categories_segments":[],"categories_sizes":[],"default_left":[0,0,0,0,0,0,0,0,0,0,0,0,0,0,0,0,0,0,0,0,0,0,0,0,0],"id":47,"left_children":[1,3,7,21,5,17,15,9,11,19,-1,-1,13,-1,-1,-1,-1,-1,-1,-1,-1,23,-1,-1,-1],"loss_changes":[3.8651204E0,8.383723E0,4.6384487E0,1.6834229E0,1.07436695E1,2.7701986E0,3.414915E0,3.7362187E0,3.5536017E0,2.4912844E0,0E0,0E0,3.4360971E0,0E0,0E0,0E0,0E0,0E0,0E0,0E0,0E0,1.6599429E0,0E0,0E0,0E0],"parents":[2147483647,0,0,1,1,4,4,2,2,7,7,8,8,12,12,6,6,5,5,9,9,3,3,21,21],"right_children":[2,4,8,22,6,18,16,10,12,20,-1,-1,14,-1,-1,-1,-1,-1,-1,-1,-1,24,-1,-1,-1],"split_conditions":[7.384404E-3,-1.5975244E-2,4E0,2E0,-5.8778524E-1,3.247071E-3,1.1207856E0,6.5957445E-1,9.055118E-2,1.0067794E0,3.1265921E-3,-0E0,2.9559997E-3,-0E0,1.5581098E-2,-2.2809764E-2,-0E0,1.4812604E-2,-0E0,-1.6016068E-2,-0E0,2E1,1.019187E-2,-5.3396765E-3,5.078425E-3],"split_indices":[16,16,30,28,25,12,23,19,19,17,0,0,12,0,0,0,0,0,0,0,0,30,0,0,0],"split_type":[0,0,0,0,0,0,0,0,0,0,0,0,0,0,0,0,0,0,0,0,0,0,0,0,0],"sum_hessian":[6.546317E2,3.3650992E2,3.181218E2,1.6266025E2,1.7384966E2,3.9400608E1,1.3444905E2,1.0225583E2,2.1586595E2,7.878332E1,2.3472507E1,2.354579E1,1.9232016E2,7.744003E1,1.14880135E2,1.1230751E2,2.2141542E1,2.1720573E1,1.7680037E1,5.3420033E1,2.5363287E1,1.3053494E2,3.21253E1,8.8282814E1,4.225213E1],"tree_param":{"num_deleted":"0","num_feature":"39","num_nodes":"25","size_leaf_vector":"1"}},{"base_weights":[-1.6626138E-2,-8.372993E-2,5.5797163E-2,2.2981992E-1,-8.272581E-2,4.296671E-2,-3.7630922E-1,-1.7011327E-1,-0E0,-2.4627024E-1,-0E0,-0E0,-1.52433235E-2,-2.4513837E-2,-0E0,1.1329952E-1,-7.7949963E-3,1.3826067E-2,-1.9653782E-3,2.7297214E-1,-0E0,2.2864498E-2,-0E0,1.0539299E-2,-0E0],"categories":[],"categories_nodes":[],"categories_segments":[],"categories_sizes":[],"default_left":[0,0,0,0,0,0,0,0,0,0,0,0,0,0,0,0,0,0,0,0,0,0,0,0,0],"id":48,"left_children":[1,7,3,19,5,23,13,9,15,11,-1,-1,-1,-1,-1,17,-1,-1,-1,21,-1,-1,-1,-1,-1],"loss_changes":[3.5272458E0,4.6721487E0,7.7146826E0,2.3540263E0,7.745444E0,1.9956741E0,3.2096949E0,3.95436E0,2.6767597E0,5.169196E0,0E0,0E0,0E0,0E0,0E0,5.9032145E0,0E0,0E0,0E0,6.676793E0,0E0,0E0,0E0,0E0,0E0],"parents":[2147483647,0,0,2,2,4,4,1,1,7,7,9,9,6,6,8,8,15,15,3,3,19,19,5,5],"right_children":[2,8,4,20,6,24,14,10,16,12,-1,-1,-1,-1,-1,18,-1,-1,-1,22,-1,-1,-1,-1,-1],"split_conditions":[1.6419858E-2,4.2576166E-3,1.5347958E-1,3.7E1,5.8778524E-1,1.4561538E-3,2.5E1,2.1386685E-2,1.0102036E0,-2.2968536E-2,-0E0,-0E0,-1.52433235E-2,-2.4513837E-2,-0E0,1.1135831E0,-7.7949963E-3,1.3826067E-2,-1.9653782E-3,1.331502E-3,-0E0,2.2864498E-2,-0E0,1.0539299E-2,-0E0],"split_indices":[27,3,27,30,25,0,30,16,17,15,0,0,0,0,0,13,0,0,0,1,0,0,0,0,0],"split_type":[0,0,0,0,0,0,0,0,0,0,0,0,0,0,0,0,0,0,0,0,0,0,0,0,0],"sum_hessian":[6.4869946E2,4.07576E2,2.411235E2,1.3594226E2,1.0518124E2,5.5776237E1,4.9405003E1,2.5261357E2,1.549624E2,1.8050607E2,7.21075E1,1.0577486E1,1.6992859E2,3.8350025E1,1.1054975E1,1.2739654E2,2.756587E1,8.9296684E1,3.8099857E1,1.2503926E2,1.0903008E1,7.004759E1,5.499167E1,3.7649597E1,1.8126638E1],"tree_param":{"num_deleted":"0","num_feature":"39","num_nodes":"25","size_leaf_vector":"1"}},{"base_weights":[-0E0,-7.644724E-2,4.747581E-2,-2.2371337E-1,-0E0,1.5944886E-1,-5.406605E-4,-0E0,3.055312E-1,1.9194926E-1,-1.1012456E-1,-0E0,-2.9253325E-1,-0E0,-1.8256897E-2,1.797364E-2,-0E0,-0E0,1.3037925E-2,-0E0,-1.1058457E-2],"categories":[],"categories_nodes":[],"categories_segments":[],"categories_sizes":[],"default_left":[0,0,0,0,0,0,0,0,0,0,0,0,0,0,0,0,0,0,0,0,0],"id":49,"left_children":[1,3,5,11,9,7,-1,-1,15,17,19,-1,13,-1,-1,-1,-1,-1,-1,-1,-1],"loss_changes":[2.517231E0,4.736406E0,4.1655216E0,3.3523383E0,4.133654E0,5.3887944E0,0E0,0E0,2.5477657E0,1.9781742E0,1.3180616E0,0E0,2.9210672E0,0E0,0E0,0E0,0E0,0E0,0E0,0E0,0E0],"parents":[2147483647,0,0,1,1,2,2,5,5,4,4,3,3,12,12,8,8,9,9,10,10],"right_children":[2,4,6,12,10,8,-1,-1,16,18,20,-1,14,-1,-1,-1,-1,-1,-1,-1,-1],"split_conditions":[8.6424625E-1,3.6691248E-3,1.1110708E0,2.336267E-4,5.5665793E-3,-3.2657657E-2,-5.406605E-4,-0E0,3E1,2.4609247E-4,8E0,-0E0,-1.7294208E-2,-0E0,-1.8256897E-2,1.797364E-2,-0E0,-0E0,1.3037925E-2,-0E0,-1.1058457E-2],"split_indices":[7,5,7,14,5,6,0,0,30,14,30,0,16,0,0,0,0,0,0,0,0],"split_type":[0,0,0,0,0,0,0,0,0,0,0,0,0,0,0,0,0,0,0,0,0],"sum_hessian":[6.61274E2,2.634289E2,3.9784512E2,1.1656679E2,1.4686209E2,1.8899338E2,2.0885176E2,8.7069786E1,1.01923584E2,7.536792E1,7.149417E1,1.3372158E1,1.0319463E2,1.8630896E1,8.4563736E1,9.057026E1,1.1353328E1,1.0016564E1,6.535136E1,3.434425E1,3.714992E1],"tree_param":{"num_deleted":"0","num_feature":"39","num_nodes":"21","size_leaf_vector":"1"}},{"base_weights":[3.9945975E-2,1.266567E-1,-3.735232E-2,-2.745175E-1,5.47164E-2,-4.957451E-1,-0E0,-4.1220358E-4,1.7752483E-1,-0E0,2.6649693E-1,1.6946826E-2,-0E0,-4.031942E-2,1.5636805E-1,-0E0,1.4314874E-2,1.4007726E-3,-1.5159442E-2,-0E0,-2.7601028E-2],"categories":[],"categories_nodes":[],"categories_segments":[],"categories_sizes":[],"default_left":[0,0,0,0,0,0,0,0,0,0,0,0,0,0,0,0,0,0,0,0,0],"id":50,"left_children":[1,7,3,5,13,19,-1,-1,9,-1,11,-1,-1,17,15,-1,-1,-1,-1,-1,-1],"loss_changes":[5.455522E0,4.320154E0,8.962256E0,1.0919411E1,3.1185668E0,1.5718632E0,0E0,0E0,3.3719378E0,0E0,5.094803E0,0E0,0E0,3.8873053E0,4.42761E0,0E0,0E0,0E0,0E0,0E0,0E0],"parents":[2147483647,0,0,2,2,3,3,1,1,8,8,10,10,4,4,14,14,13,13,5,5],"right_children":[2,8,4,6,14,20,-1,-1,10,-1,12,-1,-1,18,16,-1,-1,-1,-1,-1,-1],"split_conditions":[1.0019796E0,2.5316777E-3,1.1149117E-2,-5.779617E-3,1.0055485E0,2.50121E-3,-0E0,-4.1220358E-4,-7.622739E-2,-0E0,1.6288497E-1,1.6946826E-2,-0E0,3.0679686E-3,2.9178474E-3,-0E0,1.4314874E-2,1.4007726E-3,-1.5159442E-2,-0E0,-2.7601028E-2],"split_indices":[17,11,16,27,24,11,0,0,6,0,27,0,0,3,12,0,0,0,0,0,0],"split_type":[0,0,0,0,0,0,0,0,0,0,0,0,0,0,0,0,0,0,0,0,0],"sum_hessian":[6.6364526E2,3.707422E2,2.9290308E2,1.067409E2,1.8616217E2,7.022759E1,3.6513306E1,4.998255E1,3.207596E2,1.3650829E2,1.8425134E2,1.5444102E2,2.9810314E1,4.8488163E1,1.3767401E2,4.9604576E1,8.8069435E1,1.5382031E1,3.3106133E1,1.0365463E1,5.986213E1],"tree_param":{"num_deleted":"0","num_feature":"39","num_nodes":"21","size_leaf_vector":"1"}},{"base_weights":[1.3784878E-3,2.2598831E-1,-2.061424E-3,-1.2625611E-1,6.307958E-2,1.637732E-1,-7.387496E-2,-1.7779447E-2,7.885172E-3,1.2754309E-2,-0E0,-0E0,-2.5938922E-1,-1.8778006E-2,-0E0,-8.621387E-3,4.993165E-3,-0E0,1.8215928E-2],"categories":[],"categories_nodes":[],"categories_segments":[],"categories_sizes":[],"default_left":[0,0,0,0,0,0,0,0,0,0,0,0,0,0,0,0,0,0,0],"id":51,"left_children":[1,17,3,11,5,9,7,-1,-1,-1,-1,15,13,-1,-1,-1,-1,-1,-1],"loss_changes":[2.7679486E0,2.9183617E0,5.8409977E0,3.6519728E0,6.119107E0,5.3373804E0,1.0465006E1,0E0,0E0,0E0,0E0,3.2820492E0,3.4701443E0,0E0,0E0,0E0,0E0,0E0,0E0],"parents":[2147483647,0,0,2,2,4,4,6,6,5,5,3,3,12,12,11,11,1,1],"right_children":[2,18,4,12,6,10,8,-1,-1,-1,-1,16,14,-1,-1,-1,-1,-1,-1],"split_conditions":[-3.383652E-2,4.5751652E-1,8.8761586E-1,8.1091183E-1,3.3805936E-3,1.3536162E0,4.7649106E-1,-1.7779447E-2,7.885172E-3,1.2754309E-2,-0E0,6.601812E-1,-1.1308453E-2,-1.8778006E-2,-0E0,-8.621387E-3,4.993165E-3,-0E0,1.8215928E-2],"split_indices":[15,29,7,22,11,22,18,0,0,0,0,22,27,0,0,0,0,0,0],"split_type":[0,0,0,0,0,0,0,0,0,0,0,0,0,0,0,0,0,0,0],"sum_hessian":[6.682233E2,4.4170826E1,6.240525E2,2.6429382E2,3.5975867E2,2.4827628E2,1.1148239E2,6.736279E1,4.41196E1,1.7848894E2,6.978734E1,1.5503024E2,1.0926359E2,7.149525E1,3.7768337E1,6.7764885E1,8.726535E1,1.1339594E1,3.2831234E1],"tree_param":{"num_deleted":"0","num_feature":"39","num_nodes":"19","size_leaf_vector":"1"}},{"base_weights":[-0E0,9.2902176E-2,-6.527288E-2,-1.8253669E-1,5.856159E-2,-3.0916935E-1,-0E0,2.3357008E-1,-0E0,3.7371725E-1,-0E0,-6.411385E-2,2.1859206E-1,-0E0,1.6643692E-2,8.4125504E-2,-2.1394226E-1,-0E0,2.301117E-2,-0E0,-1.1222328E-2,-1.8465836E-2,-0E0,-1.5966691E-2,-0E0,1.2504335E-2,-0E0],"categories":[],"categories_nodes":[],"categories_segments":[],"categories_sizes":[],"default_left":[0,0,0,0,0,0,0,0,0,0,0,0,0,0,0,0,0,0,0,0,0,0,0,0,0,0,0],"id":52,"left_children":[1,7,3,5,11,21,-1,9,15,17,-1,19,13,-1,-1,25,23,-1,-1,-1,-1,-1,-1,-1,-1,-1,-1],"loss_changes":[3.9486954E0,5.397254E0,7.872903E0,6.9329996E0,5.3105965E0,2.7084236E0,0E0,5.9694924E0,3.4378228E0,3.3765268E0,0E0,2.7343378E0,3.8029332E0,0E0,0E0,1.7305021E0,1.9345312E0,0E0,0E0,0E0,0E0,0E0,0E0,0E0,0E0,0E0,0E0],"parents":[2147483647,0,0,2,2,3,3,1,1,7,7,4,4,12,12,8,8,9,9,11,11,5,5,16,16,15,15],"right_children":[2,8,4,6,12,22,-1,10,16,18,-1,20,14,-1,-1,26,24,-1,-1,-1,-1,-1,-1,-1,-1,-1,-1],"split_conditions":[-1.5049449E-3,3.27796E-3,1.0242796E0,3.2066547E-3,4.23676E-1,2.8808614E-2,-0E0,1.0744609E0,9.909893E-1,8.5542226E-1,-0E0,2.6386906E-3,2.9373853E-3,-0E0,1.6643692E-2,1.1795386E0,5.029512E-1,-0E0,2.301117E-2,-0E0,-1.1222328E-2,-1.8465836E-2,-0E0,-1.5966691E-2,-0E0,1.2504335E-2,-0E0],"split_indices":[1,11,23,11,18,16,0,23,24,23,0,12,12,0,0,13,18,0,0,0,0,0,0,0,0,0,0],"split_type":[0,0,0,0,0,0,0,0,0,0,0,0,0,0,0,0,0,0,0,0,0,0,0,0,0,0,0],"sum_hessian":[6.6508105E2,2.2565471E2,4.394264E2,2.6474313E2,1.7468326E2,1.5830283E2,1.064403E2,1.26213875E2,9.944083E1,8.5948715E1,4.0265156E1,6.690277E1,1.0778048E2,3.2668987E1,7.5111496E1,4.244039E1,5.700044E1,1.6738508E1,6.921021E1,1.6349386E1,5.055339E1,1.278041E2,3.0498732E1,3.90441E1,1.7956337E1,2.3602737E1,1.8837654E1],"tree_param":{"num_deleted":"0","num_feature":"39","num_nodes":"27","size_leaf_vector":"1"}},{"base_weights":[-0E0,2.1995056E-1,-3.5542708E-2,-1.3574212E-2,-0E0,1.2935011E-1,-5.5472847E-2,-0E0,1.45370485E-2,2.1511095E-3,-6.2595173E-3,1.7619647E-2,-0E0],"categories":[],"categories_nodes":[],"categories_segments":[],"categories_sizes":[],"default_left":[0,0,0,0,0,0,0,0,0,0,0,0,0],"id":53,"left_children":[1,11,3,-1,5,7,9,-1,-1,-1,-1,-1,-1],"loss_changes":[4.7243423E0,2.896331E0,5.4832644E0,0E0,3.923998E0,4.5143394E0,3.3370805E0,0E0,0E0,0E0,0E0,0E0,0E0],"parents":[2147483647,0,0,2,2,4,4,5,5,6,6,1,1],"right_children":[2,12,4,-1,6,8,10,-1,-1,-1,-1,-1,-1],"split_conditions":[-2.2968536E-2,5.8778524E-1,-1.3194206E-2,-1.3574212E-2,1.4444445E-1,4.403822E-1,-5.5108406E-4,-0E0,1.45370485E-2,2.1511095E-3,-6.2595173E-3,1.7619647E-2,-0E0],"split_indices":[15,25,15,0,21,18,15,0,0,0,0,0,0],"split_type":[0,0,0,0,0,0,0,0,0,0,0,0,0],"sum_hessian":[6.538094E2,7.220595E1,5.816034E2,7.453617E1,5.0706726E2,1.5859901E2,3.4846823E2,8.182251E1,7.6776505E1,8.656481E1,2.619034E2,4.5349224E1,2.6856724E1],"tree_param":{"num_deleted":"0","num_feature":"39","num_nodes":"13","size_leaf_vector":"1"}},{"base_weights":[3.5074916E-2,2.4046512E-1,-0E0,-0E0,3.251971E-1,2.586177E-2,-0E0,8.954045E-2,-4.14485E-2,-1.1988591E-1,6.2472098E-2,-8.186749E-3,1.3361569E-2,-0E0,-1.7335411E-2,1.8586616E-1,-1.0331876E-3,-0E0,1.3603247E-2],"categories":[],"categories_nodes":[],"categories_segments":[],"categories_sizes":[],"default_left":[0,0,0,0,0,0,0,0,0,0,0,0,0,0,0,0,0,0,0],"id":54,"left_children":[1,3,7,-1,5,-1,-1,15,9,13,11,-1,-1,-1,-1,17,-1,-1,-1],"loss_changes":[6.0783405E0,3.919148E0,1.846261E0,0E0,4.9457893E0,0E0,0E0,3.1614852E0,4.1374593E0,5.821819E0,7.7632184E0,0E0,0E0,0E0,0E0,3.5790524E0,0E0,0E0,0E0],"parents":[2147483647,0,0,1,1,4,4,2,2,8,8,10,10,9,9,7,7,15,15],"right_children":[2,4,8,-1,6,-1,-1,16,10,14,12,-1,-1,-1,-1,18,-1,-1,-1],"split_conditions":[2.8322017E-4,1.5682718E-4,4.309951E-1,-0E0,2.0348836E-1,2.586177E-2,-0E0,4.7877464E-3,4.672879E-3,3.27796E-3,4.711673E-1,-8.186749E-3,1.3361569E-2,-0E0,-1.7335411E-2,3.9361135E-4,-1.0331876E-3,-0E0,1.3603247E-2],"split_indices":[14,14,29,0,20,0,0,12,3,11,29,0,0,0,0,14,0,0,0],"split_type":[0,0,0,0,0,0,0,0,0,0,0,0,0,0,0,0,0,0,0],"sum_hessian":[6.5582245E2,1.0928491E2,5.4653754E2,1.700319E1,9.228172E1,4.891772E1,4.3364006E1,1.2857608E2,4.1796146E2,2.9214594E2,1.25815506E2,3.7525284E1,8.829022E1,2.1758775E2,7.455819E1,1.1336375E2,1.521233E1,1.7434582E1,9.592917E1],"tree_param":{"num_deleted":"0","num_feature":"39","num_nodes":"19","size_leaf_vector":"1"}},{"base_weights":[-2.400154E-2,-7.545049E-2,1.0505032E-1,-0E0,2.0756483E-1,-0E0,1.8005295E-2,2.0096974E-2,-1.12295486E-1,-0E0,-1.5614662E-1,-1.0655231E-2,-0E0,-0E0,1.1512115E-2,-0E0,6.7758556E-3],"categories":[],"categories_nodes":[],"categories_segments":[],"categories_sizes":[],"default_left":[0,0,0,0,0,0,0,0,0,0,0,0,0,0,0,0,0],"id":55,"left_children":[1,7,3,-1,5,-1,-1,13,9,15,11,-1,-1,-1,-1,-1,-1],"loss_changes":[4.2412095E0,2.8500416E0,3.2868695E0,0E0,5.007946E0,0E0,0E0,2.4385078E0,3.7922816E0,1.1813794E0,4.303913E0,0E0,0E0,0E0,0E0,0E0,0E0],"parents":[2147483647,0,0,2,2,4,4,1,1,8,8,10,10,7,7,9,9],"right_children":[2,8,4,-1,6,-1,-1,14,10,16,12,-1,-1,-1,-1,-1,-1],"split_conditions":[5.2256364E-1,-2.8657195E-1,2.8531535E-3,-0E0,-1.0207939E-1,-0E0,1.8005295E-2,2.2364245E-4,2.5255707E-4,-1.9046979E-1,9.061926E-4,-1.0655231E-2,-0E0,-0E0,1.1512115E-2,-0E0,6.7758556E-3],"split_indices":[18,27,11,0,6,0,0,0,14,27,14,0,0,0,0,0,0],"split_type":[0,0,0,0,0,0,0,0,0,0,0,0,0,0,0,0,0],"sum_hessian":[6.6141974E2,5.312633E2,1.301564E2,2.796464E1,1.02191765E2,3.6298733E1,6.589303E1,7.3583305E1,4.5768002E2,7.025774E1,3.8742227E2,2.9814062E2,8.928164E1,3.6946903E1,3.6636402E1,1.5929576E1,5.4328156E1],"tree_param":{"num_deleted":"0","num_feature":"39","num_nodes":"17","size_leaf_vector":"1"}}]},"name":"gbtree"},"learner_model_param":{"base_score":"[4.6290144E-1]","boost_from_average":"1","num_class":"0","num_feature":"39","num_target":"1"},"objective":{"name":"binary:logistic","reg_loss_param":{"scale_pos_weight":"1"}}},"version":[3,1,3]}