{"learner":{"attributes":{"best_iteration":"2","best_score":"0.6894331806010963"},"feature_names":[],"feature_types":[],"gradient_booster":{"model":{"cats":{"enc":[],"feature_segments":[],"sorted_idx":[]},"gbtree_model_param":{"num_parallel_tree":"1","num_trees":"53"},"iteration_indptr":[0,1,2,3,4,5,6,7,8,9,10,11,12,13,14,15,16,17,18,19,20,21,22,23,24,25,26,27,28,29,30,31,32,33,34,35,36,37,38,39,40,41,42,43,44,45,46,47,48,49,50,51,52,53],"tree_info":[0,0,0,0,0,0,0,0,0,0,0,0,0,0,0,0,0,0,0,0,0,0,0,0,0,0,0,0,0,0,0,0,0,0,0,0,0,0,0,0,0,0,0,0,0,0,0,0,0,0,0,0,0],"trees":[{"base_weights":[6.6921515E-3,-4.3174334E-2,2.4484679E-1,-7.5241935E-1,3.08272E-1,-1.1704807E0,3.5068697E-1,5.8354554E-4,-3.1956947E-1,-5.1839954E-1,2.7897388E-1,1.15625635E-1,-1.06458694E-1,2.3093933E-1,-1.3515507E-1,-1.9301689E-1,1.8829127E-1,4.3168512E-1,4.2394865E-2,1.336602E-1,-5.039856E-1,5.7323486E-2,-1.6344722E-1,-2.6332602E-1,2.3772557E-1,5.831254E-1,1.20625906E-1,-1.251818E0,6.786252E-1,-8.418912E-1,2.779196E-1,-3.4890186E-2,-1.4247283E-1,-2.0604473E-1,8.900673E-1,6.241221E-1,-8.947461E-1,1.4712069E0,1.108317E-1,-1.1001462E0,1.3251133E0,8.350548E-2,-9.921782E-2,-7.979414E-2,1.584559E-1,-6.371542E-1,1.6416533E-1,1.1686124E0,-7.223588E-1,-1.949712E-1,-9.017042E-1,-1.7562531E-2,1.5789998E-1,-1.422557E-2,-2.9838097E-1,-1.2631656E-1,2.082063E-1,-4.7076866E-1,1.8325958E-2,-1.2917922E-1,5.522148E-2,1.940976E-2,-2.1204673E-1,-9.967707E-2,2.7056354E-1,-3.4379673E-1,2.1894401E-1,2.2074E-2,5.3549075E-1,-1.5321367E0,1.7255887E-1,-4.55912E-1,1.3251133E0,1.7354771E-1,-3.4308487E-1,4.1795045E-1,-4.512078E-1,1.2256836E0,-1.2514074E-1,2.910744E-1,-4.7989064E-1,4.1795045E-1,-1.4797523E0,3.903586E-1,-3.9646858E-1,1.1996477E-1,4.7838107E-1,1.2869258E-1,-2.975159E-1,1.7354771E-1,5.464651E-1,-3.4527382E-1,-1.7397473E0,-4.3421343E-1,4.1795045E-1,-5.8665043E-1,-5.0870067E-1,-4.3421343E-1,1.5065233E-1,5.0032103E-1,2.2566535E-4,5.0032103E-1,2.2566535E-4,-2.851772E-1,-5.1887137E-1],"categories":[],"categories_nodes":[],"categories_segments":[],"categories_sizes":[],"default_left":[0,0,0,0,0,0,0,0,0,0,0,0,0,0,0,0,0,0,0,0,0,0,0,0,0,0,0,0,0,0,0,0,0,0,0,0,0,0,0,0,0,0,0,0,0,0,0,0,0,0,0,0,0,0,0,0,0,0,0,0,0,0,0,0,0,0,0,0,0,0,0,0,0,0,0,0,0,0,0,0,0,0,0,0,0,0,0,0,0,0,0,0,0,0,0,0,0,0,0,0,0,0,0,0,0],"id":0,"left_children":[1,7,3,39,5,81,25,11,9,45,33,13,15,17,57,23,37,19,21,-1,-1,-1,-1,31,43,27,29,75,55,87,51,-1,-1,35,77,67,65,89,41,69,99,-1,-1,-1,-1,49,47,83,73,63,53,-1,-1,-1,-1,-1,-1,61,59,-1,-1,-1,-1,-1,-1,-1,-1,-1,-1,91,71,-1,101,-1,-1,-1,-1,85,79,-1,-1,-1,95,-1,-1,-1,-1,-1,-1,-1,-1,93,103,-1,-1,97,-1,-1,-1,-1,-1,-1,-1,-1,-1],"loss_changes":[2.1036652E1,1.771502E1,1.9459946E1,1.3691938E1,1.8206287E1,7.30089E0,1.4991138E1,1.55781975E1,2.3863516E1,1.2216644E1,1.48961735E1,1.7641045E1,1.6728483E1,1.5807692E1,9.904042E0,1.5361591E1,1.4751626E1,2.2776329E1,2.235757E1,0E0,0E0,0E0,0E0,1.4962706E1,1.249358E1,2.4681381E1,2.1470657E1,7.8449574E0,1.079414E1,6.100149E0,1.2081846E1,0E0,0E0,1.6239296E1,7.6107903E0,9.133024E0,9.209388E0,3.2243214E0,1.2532997E1,8.824343E0,1.740933E0,0E0,0E0,0E0,0E0,1.4942341E1,2.0256838E1,7.086872E0,8.578962E0,9.353028E0,1.1750809E1,0E0,0E0,0E0,0E0,0E0,0E0,9.564697E0,1.1558874E1,0E0,0E0,0E0,0E0,0E0,0E0,0E0,0E0,0E0,0E0,2.7745743E0,9.515805E0,0E0,1.740933E0,0E0,0E0,0E0,0E0,6.39542E0,1.1316843E1,0E0,0E0,0E0,2.0392017E0,0E0,0E0,0E0,0E0,0E0,0E0,0E0,0E0,5.375021E0,4.1117668E-1,0E0,0E0,2.9670327E0,0E0,0E0,0E0,0E0,0E0,0E0,0E0,0E0,0E0],"parents":[2147483647,0,0,2,2,4,4,1,1,8,8,7,7,11,11,12,12,13,13,17,17,18,18,15,15,6,6,25,25,26,26,23,23,10,10,33,33,16,16,3,3,38,38,24,24,9,9,46,46,45,45,30,30,50,50,28,28,14,14,58,58,57,57,49,49,36,36,35,35,39,39,70,70,48,48,27,27,34,34,78,78,5,5,47,47,77,77,29,29,37,37,69,69,91,91,82,82,95,95,40,40,72,72,92,92],"right_children":[2,8,4,40,6,82,26,12,10,46,34,14,16,18,58,24,38,20,22,-1,-1,-1,-1,32,44,28,30,76,56,88,52,-1,-1,36,78,68,66,90,42,70,100,-1,-1,-1,-1,50,48,84,74,64,54,-1,-1,-1,-1,-1,-1,62,60,-1,-1,-1,-1,-1,-1,-1,-1,-1,-1,92,72,-1,102,-1,-1,-1,-1,86,80,-1,-1,-1,96,-1,-1,-1,-1,-1,-1,-1,-1,94,104,-1,-1,98,-1,-1,-1,-1,-1,-1,-1,-1,-1],"split_conditions":[2.6452204E-3,5.7391286E-1,9.8302805E-1,1.6E1,3.833635E-1,2.9532778E-1,9.998042E-1,-3.804775E-2,9.405439E-1,2.0633368E-3,1.3E1,1.6E1,1E0,9.6223927E-1,-5E-1,3.0339316E-1,4.7400072E-1,1.0076655E0,4.402985E-1,1.336602E-1,-5.039856E-1,5.7323486E-2,-1.6344722E-1,1.349004E-1,3.09017E-1,3.8736883E-1,1.0010372E0,9.863446E-1,-1.12526985E-2,-3.3181983E-3,-6.8701915E-2,-3.4890186E-2,-1.4247283E-1,5E0,1.3504823E0,1.0075253E0,1.9627265E-3,1.0008069E0,1.9159107E-3,-1.4019138E0,-1.4268852E-2,8.350548E-2,-9.921782E-2,-7.979414E-2,1.584559E-1,-2.5881904E-1,3.09017E-1,2.522117E-3,9.892069E-2,5.1741296E-1,-3.1754783E-1,-1.7562531E-2,1.5789998E-1,-1.422557E-2,-2.9838097E-1,-1.2631656E-1,2.082063E-1,2.2E1,1.2765957E-1,-1.2917922E-1,5.522148E-2,1.940976E-2,-2.1204673E-1,-9.967707E-2,2.7056354E-1,-3.4379673E-1,2.1894401E-1,2.2074E-2,5.3549075E-1,4.457647E-1,1.0144927E-1,-4.55912E-1,3.3099868E-4,1.7354771E-1,-3.4308487E-1,4.1795045E-1,-4.512078E-1,1.9252874E-1,-1.5475495E-3,2.910744E-1,-4.7989064E-1,4.1795045E-1,-5.6180474E-4,3.903586E-1,-3.9646858E-1,1.1996477E-1,4.7838107E-1,1.2869258E-1,-2.975159E-1,1.7354771E-1,5.464651E-1,-1.3163683E-2,1.0266306E0,-4.3421343E-1,4.1795045E-1,2.2335026E-1,-5.0870067E-1,-4.3421343E-1,1.5065233E-1,5.0032103E-1,2.2566535E-4,5.0032103E-1,2.2566535E-4,-2.851772E-1,-5.1887137E-1],"split_indices":[3,29,24,30,13,13,24,27,4,12,30,30,26,13,8,27,13,24,20,0,0,0,0,27,26,29,24,24,1,1,27,0,0,30,13,24,3,24,12,4,1,0,0,0,0,9,26,3,20,21,27,0,0,0,0,0,0,30,21,0,0,0,0,0,0,0,0,0,0,29,20,0,1,0,0,0,0,21,27,0,0,0,1,0,0,0,0,0,0,0,0,1,13,0,0,21,0,0,0,0,0,0,0,0,0],"split_type":[0,0,0,0,0,0,0,0,0,0,0,0,0,0,0,0,0,0,0,0,0,0,0,0,0,0,0,0,0,0,0,0,0,0,0,0,0,0,0,0,0,0,0,0,0,0,0,0,0,0,0,0,0,0,0,0,0,0,0,0,0,0,0,0,0,0,0,0,0,0,0,0,0,0,0,0,0,0,0,0,0,0,0,0,0,0,0,0,0,0,0,0,0,0,0,0,0,0,0,0,0,0,0,0,0],"sum_hessian":[1.7708566E3,1.4644384E3,3.0641818E2,1.8149113E1,2.8826907E2,7.839973E0,2.8042908E2,1.2645099E3,1.9992845E2,1.5010239E2,4.982606E1,6.0947186E2,6.550381E2,4.1751398E2,1.9195787E2,5.0641458E2,1.4862349E2,2.0204643E2,2.1546754E2,1.9788647E2,4.159954E0,1.7115468E2,4.4312862E1,4.3544284E2,7.097174E1,1.3928941E2,1.4113966E2,6.7308793E0,1.3255853E2,1.9661823E1,1.21477844E2,2.809295E2,1.5451332E2,2.787656E1,2.1949503E1,1.2651111E1,1.522545E1,8.189298E0,1.4043419E2,1.5654507E1,2.494607E0,9.997942E1,4.0454765E1,2.7549263E1,4.342248E1,1.27873055E2,2.2229336E1,1.0382045E1,1.184729E1,4.8040344E1,7.983271E1,5.5978664E1,6.549918E1,1.3534663E1,6.629804E1,7.7382154E0,1.2482032E2,6.0065712E1,1.3189215E2,3.5741974E1,9.6150185E1,2.1171122E1,3.8894592E1,4.2294777E1,5.745569E0,1.2705403E1,2.5200465E0,9.123729E0,3.5273824E0,1.1647189E1,4.0073175E0,1.5127106E0,2.494607E0,3.2509623E0,8.596328E0,7.0547646E-1,6.025403E0,1.6454914E1,5.494589E0,3.225523E0,2.2690659E0,7.0547646E-1,7.134496E0,9.6256895E0,7.563553E-1,6.5273643E0,9.927549E0,2.898224E0,1.67636E1,3.2509623E0,4.9383354E0,1.8400095E0,9.807179E0,1.1345329E0,7.0547646E-1,2.218187E0,4.9163094E0,1.1345329E0,1.0836542E0,1.7636912E0,7.309159E-1,1.7636912E0,7.309159E-1,1.8654488E0,7.9417305E0],"tree_param":{"num_deleted":"0","num_feature":"39","num_nodes":"105","size_leaf_vector":"1"}},{"base_weights":[-2.006486E-2,-6.6082284E-2,2.0387594E-1,4.4457486E-1,-8.743971E-2,1.1375016E0,-2.6973712E-1,-6.496974E-1,2.6432806E-1,2.9816794E-1,-1.0513366E0,-1.3790299E0,7.399911E-1,3.4290874E-1,-2.8598076E-1,-5.5816907E-1,1.1154968E0,4.6905687E-1,-7.6273423E-1,7.1792036E-1,2.0426752E-1,1.2965046E0,-9.501861E-1,9.8166335E-1,3.9383136E-2,-3.3885086E-1,1.6817005E-1,3.277021E-1,-9.339879E-2,1.5315633E0,1.6439041E-1,1.5370188E0,-9.2330806E-2,-1.1264699E0,-8.374183E-2,2.914372E-1,-1.0584347E-1,5.0737757E-2,4.632778E-1,1.0797037E0,-1.5500042E0,-4.6108362E-1,2.9575068E-1,-8.716347E-1,2.6131007E-1,-5.321933E-1,8.90459E-2,3.0906412E-1,5.0996512E-2,-1.3412273E0,4.5736283E-1,1.7766376E0,-2.5675544E-1,-4.717068E-2,9.819017E-4,4.249241E-1,-1.1496735E0,5.15611E-1,-4.1943893E-1,-2.901763E-1,5.034638E-1,-2.7986628E-1,1.2719303E-1,4.6094897E-1,-4.5650524E-1,-4.3580833E-1,4.0626195E-1,3.4948654E-4,5.348636E-1,-1.4818842E0,-2.9384777E-1,4.3869594E-1,-3.596073E-1,-4.6877396E-1,-9.4219625E-2,-5.9426524E-4,1.494448E0,3.9233616E-1,-4.0464935E-1,5.213835E-1,8.45032E-5,8.45032E-5,-4.671809E-1,4.9760422E-1,3.0861556E-4,7.636527E-4,-4.7568616E-1,-5.442688E-4,4.865437E-1,6.6463917E-4,4.7393814E-1],"categories":[],"categories_nodes":[],"categories_segments":[],"categories_sizes":[],"default_left":[0,0,0,0,0,0,0,0,0,0,0,0,0,0,0,0,0,0,0,0,0,0,0,0,0,0,0,0,0,0,0,0,0,0,0,0,0,0,0,0,0,0,0,0,0,0,0,0,0,0,0,0,0,0,0,0,0,0,0,0,0,0,0,0,0,0,0,0,0,0,0,0,0,0,0,0,0,0,0,0,0,0,0,0,0,0,0,0,0,0,0],"id":1,"left_children":[1,3,7,5,31,29,9,21,13,11,49,85,41,19,15,17,75,-1,61,23,43,87,55,27,25,-1,-1,-1,-1,51,57,79,33,39,35,37,53,-1,-1,89,81,-1,-1,45,47,-1,-1,-1,-1,65,-1,67,63,-1,-1,-1,69,-1,59,-1,-1,-1,-1,-1,-1,-1,-1,-1,-1,73,71,-1,-1,-1,-1,77,83,-1,-1,-1,-1,-1,-1,-1,-1,-1,-1,-1,-1,-1,-1],"loss_changes":[1.8041937E1,1.584885E1,1.5445314E1,2.8959702E1,1.1114351E1,1.1308018E1,1.2930911E1,1.1916124E1,1.2086546E1,1.2846982E1,1.0161694E1,1.6770821E0,1.1083014E1,1.2655291E1,1.3514172E1,1.3894405E1,2.4453115E0,0E0,8.25997E0,1.1764225E1,1.1023758E1,1.6355715E0,9.037526E0,1.2488655E1,1.3527814E1,0E0,0E0,0E0,0E0,9.362267E0,8.951225E0,2.1959486E0,1.2322654E1,1.1125768E1,1.1443504E1,1.1414009E1,9.119925E0,0E0,0E0,1.3472261E0,1.9891739E0,0E0,0E0,1.1443441E1,1.1180523E1,0E0,0E0,0E0,0E0,7.772978E0,0E0,4.922901E0,8.100054E0,0E0,0E0,0E0,4.4838943E0,0E0,9.993688E0,0E0,0E0,0E0,0E0,0E0,0E0,0E0,0E0,0E0,0E0,2.5759354E0,9.655207E0,0E0,0E0,0E0,0E0,4.111587E0,1.914628E0,0E0,0E0,0E0,0E0,0E0,0E0,0E0,0E0,0E0,0E0,0E0,0E0,0E0,0E0],"parents":[2147483647,0,0,1,1,3,3,2,2,6,6,9,9,8,8,14,14,15,15,13,13,7,7,19,19,24,24,23,23,5,5,4,4,32,32,34,34,35,35,33,33,12,12,20,20,43,43,44,44,10,10,29,29,36,36,22,22,30,30,58,58,18,18,52,52,49,49,51,51,56,56,70,70,69,69,16,16,75,75,31,31,40,40,76,76,11,11,21,21,39,39],"right_children":[2,4,8,6,32,30,10,22,14,12,50,86,42,20,16,18,76,-1,62,24,44,88,56,28,26,-1,-1,-1,-1,52,58,80,34,40,36,38,54,-1,-1,90,82,-1,-1,46,48,-1,-1,-1,-1,66,-1,68,64,-1,-1,-1,70,-1,60,-1,-1,-1,-1,-1,-1,-1,-1,-1,-1,74,72,-1,-1,-1,-1,78,84,-1,-1,-1,-1,-1,-1,-1,-1,-1,-1,-1,-1,-1,-1],"split_conditions":[2.6452204E-3,8.387438E-4,4.9767533E-1,9.45694E-1,9.868823E-1,4.0049574E-1,9.931664E-4,3.364754E-1,5.1938025E-3,-9.0664113E-4,1E0,-2.7146667E-1,1.096112E0,9.9483734E-1,1.0109777E0,-9.3048345E-3,-1.2857144E-1,4.6905687E-1,1.4295295E0,5.486921E-1,-2.0401584E-2,-1.4907431E-3,9.903888E-1,6.111111E-1,-5.8778524E-1,-3.3885086E-1,1.6817005E-1,3.277021E-1,-9.339879E-2,2.2304799E-4,5.853049E-4,-1.7544304E-3,-2.9972393E-2,2.2642546E-4,-5.101089E-1,5.682453E-4,2.6589248E-3,5.0737757E-2,4.632778E-1,-3.1025277E-3,-5.8778524E-1,-4.6108362E-1,2.9575068E-1,4.0706524E-1,-1.3898078E-2,-5.321933E-1,8.90459E-2,3.0906412E-1,5.0996512E-2,4.7889495E-1,4.5736283E-1,-5.564014E-1,1E0,-4.717068E-2,9.819017E-4,4.249241E-1,3.5495267E-3,5.15611E-1,8.5673976E-1,-2.901763E-1,5.034638E-1,-2.7986628E-1,1.2719303E-1,4.6094897E-1,-4.5650524E-1,-4.3580833E-1,4.0626195E-1,3.4948654E-4,5.348636E-1,1.004066E0,2.940348E-1,4.3869594E-1,-3.596073E-1,-4.6877396E-1,-9.4219625E-2,-3.3054428E-4,1.1306837E0,3.9233616E-1,-4.0464935E-1,5.213835E-1,8.45032E-5,8.45032E-5,-4.671809E-1,4.9760422E-1,3.0861556E-4,7.636527E-4,-4.7568616E-1,-5.442688E-4,4.865437E-1,6.6463917E-4,4.7393814E-1],"split_indices":[3,3,13,23,24,18,11,18,3,16,10,6,13,24,24,0,6,0,23,18,16,0,24,6,25,0,0,0,0,14,5,0,16,14,6,14,5,0,0,0,25,0,0,18,16,0,0,0,0,18,0,6,10,0,0,0,3,0,13,0,0,0,0,0,0,0,0,0,0,24,23,0,0,0,0,0,23,0,0,0,0,0,0,0,0,0,0,0,0,0,0],"split_type":[0,0,0,0,0,0,0,0,0,0,0,0,0,0,0,0,0,0,0,0,0,0,0,0,0,0,0,0,0,0,0,0,0,0,0,0,0,0,0,0,0,0,0,0,0,0,0,0,0,0,0,0,0,0,0,0,0,0,0,0,0,0,0,0,0,0,0,0,0,0,0,0,0,0,0,0,0,0,0,0,0,0,0,0,0,0,0,0,0,0,0],"sum_hessian":[1.7501555E3,1.4519792E3,2.9817624E2,5.807608E1,1.3939032E3,2.9399529E1,2.8676554E1,1.9548616E1,2.7862762E2,1.6703846E1,1.1972707E1,3.3647559E0,1.3339091E1,2.4390129E2,3.4726337E1,2.9213312E1,5.513025E0,2.2759714E0,2.6937342E1,6.5530594E1,1.783707E2,2.496254E0,1.7052362E1,4.7102467E1,1.8428123E1,5.6190786E0,1.2809045E1,4.096586E1,6.136608E0,2.0816505E1,8.583023E0,3.9335022E0,1.3899697E3,1.1163139E1,1.3788065E3,7.652439E1,1.3022822E3,7.120276E1,5.3216267E0,1.731253E0,9.431886E0,1.4598482E0,1.1879243E1,8.788803E0,1.695819E2,4.5982566E0,4.1905465E0,1.3878597E1,1.557033E2,1.0932328E1,1.0403786E0,1.8309359E1,2.507147E0,8.2142633E2,4.8085583E2,1.1369547E0,1.5915407E1,2.052824E0,6.530199E0,5.211894E0,1.3183047E0,2.247346E1,4.4638824E0,1.0305101E0,1.476637E0,1.0218762E1,7.1356595E-1,1.4415417E0,1.6867817E1,1.1324192E1,4.591215E0,1.5450587E0,3.0461564E0,9.485677E0,1.8385155E0,1.4645139E0,4.048511E0,7.471671E-1,7.173468E-1,3.1715903E0,7.619117E-1,7.619117E-1,8.669974E0,3.3315876E0,7.1692336E-1,7.058897E-1,2.6588662E0,7.168545E-1,1.7793994E0,7.354775E-1,9.957755E-1],"tree_param":{"num_deleted":"0","num_feature":"39","num_nodes":"91","size_leaf_vector":"1"}},{"base_weights":[-9.490241E-3,-3.0871606E-3,-1.3769499E0,3.7402296E-1,-2.5001524E-2,1.7958952E-1,1.2202911E0,2.8814614E-2,-1.941239E-1,-2.2065358E-1,1.3410157E0,-5.8960813E-1,3.8497669E-1,-4.9052364E-1,6.434737E-1,-2.1080365E-2,3.0339506E-1,-4.8340386E-1,-1.08206235E-1,-4.060472E-2,2.7474838E-1,2.77564E-1,-2.6515386E-1,-8.2530767E-1,4.9254724E-1,-6.5779907E-1,3.8320307E-2,-9.4925356E-1,1.1009172E0,-3.902942E-1,9.574466E-2,-3.195149E-3,1.9424403E-1,5.04017E-4,1.3661991E-1,-2.2684624E-2,3.0114101E-2,-3.7956148E-1,-1.1297576E-1,1.3994044E0,-9.119827E-1,-2.599629E-1,1.6898493E0,4.5554754E-1,-4.6566886E-1,-1.4071065E-1,5.2391106E-1,-3.1819895E-1,1.1851452E-1,-3.3255273E-1,-1.6656097E0,4.0774438E-1,-4.1567653E-1,-5.219058E-1,4.053217E-4,4.7951472E-1,5.388974E-1,-1.3538069E-1,4.1514954E-1,-0E0,4.5424664E-1,-4.361923E-1,4.5223016E-4],"categories":[],"categories_nodes":[],"categories_segments":[],"categories_sizes":[],"default_left":[0,0,0,0,0,0,0,0,0,0,0,0,0,0,0,0,0,0,0,0,0,0,0,0,0,0,0,0,0,0,0,0,0,0,0,0,0,0,0,0,0,0,0,0,0,0,0,0,0,0,0,0,0,0,0,0,0,0,0,0,0,0,0],"id":2,"left_children":[1,3,49,5,7,11,39,25,9,17,55,23,13,21,15,-1,-1,37,19,-1,-1,-1,-1,47,-1,27,31,29,59,-1,-1,35,33,-1,-1,-1,-1,-1,-1,41,61,43,45,-1,-1,-1,-1,-1,-1,51,53,-1,-1,-1,-1,-1,57,-1,-1,-1,-1,-1,-1],"loss_changes":[1.5414463E1,1.4487022E1,2.3250647E0,1.5782258E1,1.5080137E1,1.2477951E1,7.192051E0,8.210668E0,1.6367294E1,1.1608778E1,1.8643293E0,9.674395E0,1.416038E1,1.0165926E1,1.55704365E1,0E0,0E0,7.8229294E0,1.1543683E1,0E0,0E0,0E0,0E0,6.285653E0,0E0,9.084035E0,8.027768E0,8.912424E0,1.5100389E0,0E0,0E0,8.585463E0,1.4937783E1,0E0,0E0,0E0,0E0,0E0,0E0,8.144932E0,9.349624E-1,8.03388E0,6.39402E0,0E0,0E0,0E0,0E0,0E0,0E0,5.0089912E0,2.2677326E0,0E0,0E0,0E0,0E0,0E0,2.7515018E0,0E0,0E0,0E0,0E0,0E0,0E0],"parents":[2147483647,0,0,1,1,3,3,4,4,8,8,5,5,12,12,14,14,9,9,18,18,13,13,11,11,7,7,25,25,27,27,26,26,32,32,31,31,17,17,6,6,39,39,41,41,42,42,23,23,2,2,49,49,50,50,10,10,56,56,28,28,40,40],"right_children":[2,4,50,6,8,12,40,26,10,18,56,24,14,22,16,-1,-1,38,20,-1,-1,-1,-1,48,-1,28,32,30,60,-1,-1,36,34,-1,-1,-1,-1,-1,-1,42,62,44,46,-1,-1,-1,-1,-1,-1,52,54,-1,-1,-1,-1,-1,58,-1,-1,-1,-1,-1,-1],"split_conditions":[7.1E1,-1.1150131E-2,1E0,1.8E1,1.2243388E0,-2.1657277E-2,4.3E1,8.92007E-4,3.602399E-3,1.3334209E0,6.50477E-1,5.4486436E-3,1.9492384E-3,-5.8778524E-1,-2.4492937E-16,-2.1080365E-2,3.0339506E-1,1.4736553E-3,2.609923E-3,-4.060472E-2,2.7474838E-1,2.77564E-1,-2.6515386E-1,7.105538E-1,4.9254724E-1,8.660254E-1,9.5105654E-1,1.0002735E0,1.6883117E-1,-3.902942E-1,9.574466E-2,1E0,2.3753564E-3,5.04017E-4,1.3661991E-1,-2.2684624E-2,3.0114101E-2,-3.7956148E-1,-1.1297576E-1,-8.660254E-1,2.058752E-3,3.4419193E-3,1.5795173E-3,4.5554754E-1,-4.6566886E-1,-1.4071065E-1,5.2391106E-1,-3.1819895E-1,1.1851452E-1,-5.0775935E-3,-3.4539613E-3,4.0774438E-1,-4.1567653E-1,-5.219058E-1,4.053217E-4,4.7951472E-1,1.5194508E0,-1.3538069E-1,4.1514954E-1,-0E0,4.5424664E-1,-4.361923E-1,4.5223016E-4],"split_indices":[30,2,10,30,13,2,30,11,11,13,19,0,11,25,25,0,0,5,11,0,0,0,0,19,0,8,25,17,19,0,0,10,2,0,0,0,0,0,0,8,5,5,11,0,0,0,0,0,0,2,2,0,0,0,0,0,13,0,0,0,0,0,0],"split_type":[0,0,0,0,0,0,0,0,0,0,0,0,0,0,0,0,0,0,0,0,0,0,0,0,0,0,0,0,0,0,0,0,0,0,0,0,0,0,0,0,0,0,0,0,0,0,0,0,0,0,0,0,0,0,0,0,0,0,0,0,0,0,0],"sum_hessian":[1.7603906E3,1.7524521E3,7.938429E0,9.600815E1,1.656444E3,7.833409E1,1.7674053E1,1.256753E3,3.9969095E2,3.9312552E2,6.565412E0,1.640287E1,6.1931225E1,1.4062429E1,4.7868793E1,1.848038E1,2.9388416E1,1.17555725E2,2.755698E2,2.6657047E2,8.9993305E0,3.2674928E0,1.0794936E1,1.507309E1,1.3297802E0,1.6912506E1,1.2398406E3,1.4613625E1,2.298882E0,1.0788251E1,3.8253734E0,9.7934357E2,2.60497E2,1.5838776E2,1.0210926E2,5.7507825E2,4.042653E2,9.021625E0,1.085341E2,1.6389137E1,1.2849166E0,2.4452612E0,1.3943876E1,1.0263386E0,1.4189227E0,1.1111869E0,1.2832689E1,1.2019562E1,3.0535278E0,1.8434882E0,6.0949407E0,6.963879E-1,1.1471003E0,5.372624E0,7.223164E-1,4.2259912E0,2.3394208E0,1.1909084E0,1.1485124E0,8.387563E-1,1.4601258E0,6.3558424E-1,6.4933234E-1],"tree_param":{"num_deleted":"0","num_feature":"39","num_nodes":"63","size_leaf_vector":"1"}},{"base_weights":[-1.0609071E-2,-4.697797E-1,5.4864436E-3,-7.458727E-1,9.122773E-1,4.654519E-1,-8.477006E-1,3.8158555E-2,-2.0379665E-1,6.3993096E-1,-3.2386136E-1,5.0356853E-1,-3.6971337E-1,-4.6381623E-1,8.543542E-1,-6.182967E-1,-8.287603E-2,2.676059E-1,-7.7892E-2,-2.5645065E-1,-5.9216052E-2,-7.682348E-2,1.3104444E0,-1.1547068E0,-1.3861288E-1,1.5012498E0,-7.5138676E-1,-1.871415E-1,6.875239E-2,1.280342E0,5.945769E-2,8.094497E-2,-4.96011E-1,-4.2928308E-1,-1.0479599E-2,-6.133772E-1,5.873919E-3,-7.138437E-1,1.9748858E-1,1.03813656E-1,-1.402475E-1,-7.912229E-1,5.888002E-1,-2.5258842E-1,3.7342072E-1,4.4246262E-1,-2.5472245E-1,3.5719804E-2,-2.472472E-2,5.147995E-1,8.883278E-2,5.4139906E-1,-1.58462E-1,-4.2510962E-1,-1.5201385E0,1.18213326E-1,-4.1608313E-1,4.356536E-1,-3.266808E-1,-3.5911667E-1,5.3024155E-1,4.1790533E-1,-4.5774722E-1,-2.5268716E-1,9.2663825E-2,5.0051928E-2,-2.9674515E-1,-4.853068E-1,-1.340347E-1,4.9838854E-4,1.6641215E0,5.1246095E-1,-2.5104742E-5],"categories":[],"categories_nodes":[],"categories_segments":[],"categories_sizes":[],"default_left":[0,0,0,0,0,0,0,0,0,0,0,0,0,0,0,0,0,0,0,0,0,0,0,0,0,0,0,0,0,0,0,0,0,0,0,0,0,0,0,0,0,0,0,0,0,0,0,0,0,0,0,0,0,0,0,0,0,0,0,0,0,0,0,0,0,0,0,0,0,0,0,0,0],"id":3,"left_children":[1,3,7,5,25,-1,23,27,9,13,11,-1,15,-1,21,19,17,-1,-1,-1,-1,51,49,53,59,69,61,35,29,57,31,47,33,-1,-1,41,37,63,39,-1,-1,43,45,-1,-1,-1,-1,-1,-1,-1,-1,-1,-1,55,67,-1,-1,-1,-1,65,-1,-1,-1,-1,-1,-1,-1,-1,-1,-1,71,-1,-1],"loss_changes":[1.2913036E1,2.2759876E1,1.1545435E1,1.2577349E1,1.0072077E1,0E0,1.0329384E1,1.0070038E1,2.315231E1,1.4493084E1,1.9754503E1,0E0,1.3947367E1,0E0,1.117539E1,1.2907314E1,1.8933681E1,0E0,0E0,0E0,0E0,9.18172E0,9.330793E0,8.6824875E0,6.8199697E0,1.8188152E0,6.2957907E0,1.4372002E1,1.4461787E1,7.418623E0,1.5246661E1,9.96444E0,2.287276E1,0E0,0E0,1.1765507E1,1.6654655E1,5.295624E0,1.1863629E1,0E0,0E0,1.2339878E1,1.12346735E1,0E0,0E0,0E0,0E0,0E0,0E0,0E0,0E0,0E0,0E0,1.06284275E1,4.9702606E0,0E0,0E0,0E0,0E0,5.215255E0,0E0,0E0,0E0,0E0,0E0,0E0,0E0,0E0,0E0,0E0,2.0278912E0,0E0,0E0],"parents":[2147483647,0,0,1,1,3,3,2,2,8,8,10,10,9,9,12,12,16,16,15,15,14,14,6,6,4,4,7,7,28,28,30,30,32,32,27,27,36,36,38,38,35,35,41,41,42,42,31,31,22,22,21,21,23,23,53,53,29,29,24,24,26,26,37,37,59,59,54,54,25,25,70,70],"right_children":[2,4,8,6,26,-1,24,28,10,14,12,-1,16,-1,22,20,18,-1,-1,-1,-1,52,50,54,60,70,62,36,30,58,32,48,34,-1,-1,42,38,64,40,-1,-1,44,46,-1,-1,-1,-1,-1,-1,-1,-1,-1,-1,56,68,-1,-1,-1,-1,66,-1,-1,-1,-1,-1,-1,-1,-1,-1,-1,72,-1,-1],"split_conditions":[3.623143E-1,5.266793E-3,1.4417946E-2,6.2085025E-4,9.525124E-3,4.654519E-1,2.9982238E-3,-1.6028937E-2,4.2536744E-1,7.628715E-5,9.9412096E-1,5.0356853E-1,5.061867E-3,-4.6381623E-1,-2.5268078E-5,5.196121E-1,6.7571793E-3,2.676059E-1,-7.7892E-2,-2.5645065E-1,-5.9216052E-2,9.99871E-1,3.948813E-4,9.622517E-1,1.6297476E0,1.5323531E-3,2.2829906E-3,1.8785878E-3,-1.749542E-2,6.6642475E-1,6.11642E-1,2.0264206E-3,-5.719617E-3,-4.2928308E-1,-1.0479599E-2,4.1126693E-4,-6.272631E-3,1.734717E0,1.7192811E-3,1.03813656E-1,-1.402475E-1,2.0101726E0,5.196121E-1,-2.5258842E-1,3.7342072E-1,4.4246262E-1,-2.5472245E-1,3.5719804E-2,-2.472472E-2,5.147995E-1,8.883278E-2,5.4139906E-1,-1.58462E-1,1.8322177E-3,2.4788212E-3,1.18213326E-1,-4.1608313E-1,4.356536E-1,-3.266808E-1,2.0745245E-3,5.3024155E-1,4.1790533E-1,-4.5774722E-1,-2.5268716E-1,9.2663825E-2,5.0051928E-2,-2.9674515E-1,-4.853068E-1,-1.340347E-1,4.9838854E-4,2E0,5.1246095E-1,-2.5104742E-5],"split_indices":[29,2,16,5,2,0,5,16,29,14,24,0,2,0,1,29,2,0,0,0,0,24,14,23,23,11,11,11,2,29,29,1,2,0,0,14,1,23,2,0,0,23,29,0,0,0,0,0,0,0,0,0,0,5,5,0,0,0,0,12,0,0,0,0,0,0,0,0,0,0,28,0,0],"split_type":[0,0,0,0,0,0,0,0,0,0,0,0,0,0,0,0,0,0,0,0,0,0,0,0,0,0,0,0,0,0,0,0,0,0,0,0,0,0,0,0,0,0,0,0,0,0,0,0,0,0,0,0,0,0,0,0,0,0,0,0,0,0,0,0,0,0,0,0,0,0,0,0,0],"sum_hessian":[1.746839E3,5.890565E1,1.6879333E3,4.9199966E1,9.705685E0,1.81877E0,4.7381195E1,1.4601958E3,2.2773756E2,2.8226284E1,1.9951128E2,3.9746728E0,1.955366E2,2.243657E0,2.5982628E1,1.0458772E2,9.094888E1,1.4281211E1,7.666767E1,5.9456635E1,4.513109E1,8.614779E0,1.7367847E1,3.2947975E1,1.4433222E1,7.1874585E0,2.5182261E0,1.7441147E2,1.2857843E3,9.511042E0,1.2762733E3,1.2289615E3,4.731168E1,1.4184992E1,3.312669E1,5.4182487E1,1.2022898E2,2.5125893E1,9.510309E1,7.612174E1,1.898134E1,4.727958E1,6.9029064E0,4.4943302E1,2.3362756E0,4.131967E0,2.7709394E0,9.598112E2,2.6915036E2,1.1066151E1,6.3016977E0,1.5338514E0,7.080928E0,1.118812E1,2.1759855E1,6.3300323E0,4.858088E0,8.598224E0,9.128183E-1,1.3228788E1,1.2044334E0,6.6478944E-1,1.8534367E0,2.1194736E1,3.9311557E0,7.6277456E0,5.6010427E0,1.7698397E1,4.061458E0,7.308831E-1,6.4565754E0,5.7968163E0,6.597589E-1],"tree_param":{"num_deleted":"0","num_feature":"39","num_nodes":"73","size_leaf_vector":"1"}},{"base_weights":[3.1603493E-2,3.9996044E-3,4.627939E-1,8.042933E-2,-9.103862E-2,-2.3792706E-1,9.295347E-2,-1.5117171E-1,-7.514156E-1,1.3477293E-1,-2.1343985E-1,-4.4187662E-1,-9.778166E-3,2.6382206E-2,-1.5353775E-1,7.405965E-1,3.287214E-2,1.8676446E-1,-4.296289E-1,-1.4463027E-1,2.3276502E-1,4.2141703E-1,-7.812839E-1,2.6735595E-1,-8.921739E-2,2.881061E-1,4.302193E-2,-4.503763E-1,4.08419E-1,-6.6654634E-1,8.238183E-2,9.2951715E-2,3.0499947E-1,-9.2962034E-2,3.984595E-2,-6.212403E-1,8.350512E-2,1.5561342E0,3.0806854E-1,-3.1341615E-1,-1.1076586E0,1.575262E-2,3.6087474E-1,-6.865125E-2,-4.1398665E-1,1.6739851E-1,7.371851E-1,5.2270275E-1,-5.227279E-1,1.3190658E0,3.5867923E-1,-9.28451E-2,1.2372081E0,6.901984E-1,-8.653118E-1,-4.1593495E-1,3.6240512E-1,-5.7887447E-1,7.56249E-1,4.4509897E-1,-4.704971E-1,1.5122998E-1,1.3538867E0,-4.3438253E-1,1.496332E-1,-5.6704664E-1,2.128079E-1,-8.126016E-2,4.1579333E-1,-2.3843047E-1,1.0929797E-2,3.384342E-1,-1.7240378E-1,1.4328455E0,-3.9711684E-1,-3.7243834E-1,1.5594524E0,-2.0056409E-1,9.3528435E-2,-1.4674063E-1,2.1169557E-1,-2.5740886E-1,1.167214E-1,-1.34023E-1,-3.9911437E-1,-9.336556E-5,4.890374E-1,4.983253E-2,4.8606956E-1,-1.183385E-1,-1.3040698E0,1.0216408E0,-8.726373E-1,-3.6989322E-1,2.2767293E-1,-4.0718037E-1,9.736926E-4,5.742091E-2,4.6802205E-1,1.4074545E-1,-4.86369E-1,-1.3114455E-1,1.4545594E0,4.785559E-1,-2.4376148E-1,5.092525E-1,-0E0,4.4264343E-1,-2.1037087E-3],"categories":[],"categories_nodes":[],"categories_segments":[],"categories_sizes":[],"default_left":[0,0,0,0,0,0,0,0,0,0,0,0,0,0,0,0,0,0,0,0,0,0,0,0,0,0,0,0,0,0,0,0,0,0,0,0,0,0,0,0,0,0,0,0,0,0,0,0,0,0,0,0,0,0,0,0,0,0,0,0,0,0,0,0,0,0,0,0,0,0,0,0,0,0,0,0,0,0,0,0,0,0,0,0,0,0,0,0,0,0,0,0,0,0,0,0,0,0,0,0,0,0,0,0,0,0,0,0,0],"id":4,"left_children":[1,3,45,9,5,7,15,11,39,25,17,19,13,-1,-1,37,35,21,65,-1,-1,23,95,-1,-1,27,29,69,31,43,33,-1,-1,-1,-1,81,41,103,79,77,83,-1,-1,-1,-1,47,49,57,89,73,51,53,101,87,55,-1,-1,59,61,-1,-1,63,97,-1,-1,71,67,-1,-1,-1,-1,-1,-1,75,-1,-1,85,-1,-1,-1,-1,-1,-1,-1,-1,-1,-1,-1,-1,91,99,105,93,-1,-1,-1,-1,-1,-1,-1,-1,-1,107,-1,-1,-1,-1,-1,-1],"loss_changes":[2.0385418E1,1.1696396E1,8.319031E0,1.4260658E1,1.9404064E1,1.7752542E1,1.2398917E1,1.40491905E1,8.898949E0,1.05953245E1,1.2081318E1,1.1414154E1,1.3115951E1,0E0,0E0,9.414148E0,9.685685E0,1.1234701E1,8.02906E0,0E0,0E0,1.6030876E1,5.1983037E0,0E0,0E0,2.5103262E1,1.318686E1,7.931487E0,1.2239021E1,8.47761E0,1.1407053E1,0E0,0E0,0E0,0E0,6.793174E0,8.814562E0,4.188757E0,6.9499884E0,7.0341263E0,6.337784E0,0E0,0E0,0E0,0E0,1.2325555E1,1.1621836E1,8.637557E0,5.3661804E0,7.090435E0,1.2997034E1,1.3368145E1,4.3133087E0,5.867116E0,1.57712E1,0E0,0E0,1.5186526E1,9.867514E0,0E0,0E0,9.490138E0,5.1414375E0,0E0,0E0,7.370672E0,1.0603956E1,0E0,0E0,0E0,0E0,0E0,0E0,7.6604195E0,0E0,0E0,6.118805E0,0E0,0E0,0E0,0E0,0E0,0E0,0E0,0E0,0E0,0E0,0E0,0E0,1.0187865E1,4.9430056E0,3.9240923E0,5.8162594E0,0E0,0E0,0E0,0E0,0E0,0E0,0E0,0E0,0E0,2.026226E0,0E0,0E0,0E0,0E0,0E0,0E0],"parents":[2147483647,0,0,1,1,4,4,5,5,3,3,7,7,12,12,6,6,10,10,11,11,17,17,21,21,9,9,25,25,26,26,28,28,30,30,16,16,15,15,8,8,36,36,29,29,2,2,45,45,46,46,50,50,51,51,54,54,47,47,57,57,58,58,61,61,18,18,66,66,27,27,65,65,49,49,73,73,39,39,38,38,35,35,40,40,76,76,53,53,48,48,89,89,92,92,22,22,62,62,90,90,52,52,37,37,91,91,102,102],"right_children":[2,4,46,10,6,8,16,12,40,26,18,20,14,-1,-1,38,36,22,66,-1,-1,24,96,-1,-1,28,30,70,32,44,34,-1,-1,-1,-1,82,42,104,80,78,84,-1,-1,-1,-1,48,50,58,90,74,52,54,102,88,56,-1,-1,60,62,-1,-1,64,98,-1,-1,72,68,-1,-1,-1,-1,-1,-1,76,-1,-1,86,-1,-1,-1,-1,-1,-1,-1,-1,-1,-1,-1,-1,92,100,106,94,-1,-1,-1,-1,-1,-1,-1,-1,-1,108,-1,-1,-1,-1,-1,-1],"split_conditions":[1.4438369E-2,2.7807662E-1,1.0071982E0,5.7157534E-1,5.645749E-3,5.412844E-1,3.0761623E-1,-7.751618E-4,9.405439E-1,1.6376994E-3,-6.265971E-4,5.3800297E-1,4.796686E-3,2.6382206E-2,-1.5353775E-1,4.1680634E-1,1.0013423E0,4.9987836E-3,2.2685216E-3,-1.4463027E-1,2.3276502E-1,2.2580644E-1,4.7754982E-1,2.6735595E-1,-8.921739E-2,-1.8735725E0,9.321123E-4,3.09017E-1,1.5967662E-3,4.3462336E-1,4.1150707E-1,9.2951715E-2,3.0499947E-1,-9.2962034E-2,3.984595E-2,2.4521933E-3,3.4257113E-3,1.3831424E-2,2.0289855E-1,1.6805324E-1,3.09017E-1,1.575262E-2,3.6087474E-1,-6.865125E-2,-4.1398665E-1,1.0055915E0,1.0099235E0,3.1569743E-1,1.6165861E0,4.6902695E-3,2.8422866E-3,4.828277E-1,1.4492754E-2,2.4587906E-3,2.1596143E0,-4.1593495E-1,3.6240512E-1,3.9285713E-1,6.721935E-1,4.4509897E-1,-4.704971E-1,4.0556145E-1,5.7142857E-2,-4.3438253E-1,1.496332E-1,2.87659E-1,5.5172414E-1,-8.126016E-2,4.1579333E-1,-2.3843047E-1,1.0929797E-2,3.384342E-1,-1.7240378E-1,3.3259195E-1,-3.9711684E-1,-3.7243834E-1,-1.5465303E-3,-2.0056409E-1,9.3528435E-2,-1.4674063E-1,2.1169557E-1,-2.5740886E-1,1.167214E-1,-1.34023E-1,-3.9911437E-1,-9.336556E-5,4.890374E-1,4.983253E-2,4.8606956E-1,4.0706524E-1,1.9607844E-2,3.028169E-1,6.2580645E-1,-3.6989322E-1,2.2767293E-1,-4.0718037E-1,9.736926E-4,5.742091E-2,4.6802205E-1,1.4074545E-1,-4.86369E-1,-1.3114455E-1,6.3650304E-1,4.785559E-1,-2.4376148E-1,5.092525E-1,-0E0,4.4264343E-1,-2.1037087E-3],"split_indices":[15,4,24,29,15,21,18,15,4,11,0,18,15,0,0,29,24,5,11,0,0,21,18,0,0,4,5,26,11,18,29,0,0,0,0,5,11,15,21,20,26,0,0,0,0,24,24,18,4,0,11,29,20,11,4,0,0,19,4,0,0,18,21,0,0,18,19,0,0,0,0,0,0,29,0,0,0,0,0,0,0,0,0,0,0,0,0,0,0,18,20,20,19,0,0,0,0,0,0,0,0,0,20,0,0,0,0,0,0],"split_type":[0,0,0,0,0,0,0,0,0,0,0,0,0,0,0,0,0,0,0,0,0,0,0,0,0,0,0,0,0,0,0,0,0,0,0,0,0,0,0,0,0,0,0,0,0,0,0,0,0,0,0,0,0,0,0,0,0,0,0,0,0,0,0,0,0,0,0,0,0,0,0,0,0,0,0,0,0,0,0,0,0,0,0,0,0,0,0,0,0,0,0,0,0,0,0,0,0,0,0,0,0,0,0,0,0,0,0,0,0],"sum_hessian":[1.7124889E3,1.6097087E3,1.0278016E2,8.922263E2,7.174825E2,3.9892706E2,3.1855545E2,3.415645E2,5.7362534E1,7.531046E2,1.3912166E2,1.1158221E2,2.299823E2,1.9297176E2,3.701055E1,2.6786512E1,2.9176892E2,4.8806427E1,9.031523E1,1.05251816E2,6.33039E0,3.940554E1,9.400887E0,2.2747795E1,1.6657747E1,2.8172086E2,4.7138376E2,3.936474E1,2.4235614E2,2.4549828E1,4.4683392E2,2.1931662E2,2.303951E1,5.6933727E1,3.899002E2,2.074599E1,2.7102295E2,9.042869E0,1.7743643E1,2.5954142E1,3.1408394E1,2.6545523E2,5.56769E0,1.650081E1,8.049016E0,4.970306E1,5.3077095E1,3.285389E1,1.684917E1,2.0657244E1,3.2419853E1,2.1571049E1,1.0848804E1,1.0725982E1,1.0845067E1,8.462059E0,2.3830082E0,5.677705E0,2.7176184E1,1.8811764E0,3.7965286E0,1.3670976E1,1.3505207E1,2.3702927E0,1.1300683E1,7.4427185E1,1.5888045E1,1.1548902E1,4.3391433E0,2.1361252E1,1.8003485E1,2.0059085E0,7.242127E1,1.9958889E1,6.983538E-1,7.594794E-1,1.919941E1,1.5917756E1,1.0036385E1,6.228676E0,1.1514968E1,1.6062176E1,4.6838145E0,1.106856E1,2.0339834E1,2.2265997E0,1.697281E1,7.4489026E0,3.2770796E0,1.1305364E1,5.5438075E0,4.463935E0,6.841429E0,5.425981E0,1.4154482E0,4.8966827E0,4.504204E0,3.1242738E0,1.0380934E1,1.0908267E0,4.4529805E0,1.1883153E0,9.660489E0,8.534987E0,5.078812E-1,2.3688664E0,2.0950682E0,8.798389E0,8.6209947E-1],"tree_param":{"num_deleted":"0","num_feature":"39","num_nodes":"109","size_leaf_vector":"1"}},{"base_weights":[-1.2572906E-2,8.589308E-2,-1.0070893E-1,-2.462631E-1,6.762539E-2,1.5574758E-1,-3.5620892E-1,9.7824514E-1,6.5459855E-2,1.0559407E0,-2.6899493E-1,1.4937118E-1,-1.3244219E-1,4.7847214E-1,-1.638176E-1,-3.8305977E-1,-3.96136E-2,3.0523745E-2,-1.2276586E0,1.6135791E-1,-4.5754433E-1,-4.2100754E-1,1.232007E0,1.1590255E-1,-4.6588194E-2,-1.9317535E-1,4.2043722E-1,-3.146271E-1,-9.1216224E-1,-2.6501358E-1,-6.855362E-2,4.6679583E-1,5.060691E-2,7.9104596E-1,-1.0518243E-1,-1.3682522E-1,2.2956401E-1,-1.6621462E-1,9.228565E-2,1.0400538E-1,1.06123565E-2,1.285709E-1,-1.8688197E-1,-2.856169E-1,1.607006E-1,6.28887E-2,-2.0163906E-1,-1.482597E0,-2.4570276E-1,1.57262E-3,-8.2707E-1,-1.00620784E-1,1.7792402E-1,-4.4843078E-1,-7.8538716E-2,-2.83138E-1,2.7244058E-1,1.6990687E-1,2.0890161E-2,-2.777893E-1,2.3730214E-1,2.024155E-1,-6.220121E-2,1.3383768E0,-3.699762E-1,1.4035092E-3,-4.472934E-1,-1.4099857E-1,1.3617146E0,8.881045E-1,5.158757E-1,-2.6483288E-1,3.3808604E-1,1.626395E0,3.3019066E-1,3.994101E-1,-4.2997268E-1,-4.6818337E-1,1.791023E-3,2.7753764E-1,5.092366E-1],"categories":[],"categories_nodes":[],"categories_segments":[],"categories_sizes":[],"default_left":[0,0,0,0,0,0,0,0,0,0,0,0,0,0,0,0,0,0,0,0,0,0,0,0,0,0,0,0,0,0,0,0,0,0,0,0,0,0,0,0,0,0,0,0,0,0,0,0,0,0,0,0,0,0,0,0,0,0,0,0,0,0,0,0,0,0,0,0,0,0,0,0,0,0,0,0,0,0,0,0,0],"id":5,"left_children":[1,7,3,9,5,31,47,21,11,63,15,19,13,-1,25,27,17,23,65,35,-1,-1,67,-1,-1,61,-1,29,55,-1,-1,33,43,59,41,37,39,-1,-1,-1,-1,-1,-1,45,57,-1,-1,77,49,51,53,-1,-1,-1,-1,-1,-1,-1,-1,-1,-1,-1,-1,73,-1,-1,-1,-1,69,71,-1,-1,-1,79,75,-1,-1,-1,-1,-1,-1],"loss_changes":[1.4814702E1,1.46842985E1,2.2075058E1,1.4376722E1,1.56232195E1,1.1314236E1,8.865927E0,1.1909344E1,1.3099955E1,6.1023006E0,1.2425285E1,1.2000135E1,1.3750332E1,0E0,1.1468369E1,1.1409878E1,1.3182206E1,1.1486938E1,4.1661434E0,1.1203374E1,0E0,0E0,3.910637E0,0E0,0E0,6.5050287E0,0E0,1.2132866E1,7.6233673E0,0E0,0E0,1.623502E1,9.599746E0,6.571335E0,1.0360404E1,2.2283142E1,1.2423397E1,0E0,0E0,0E0,0E0,0E0,0E0,1.4475451E1,7.51786E0,0E0,0E0,1.9347906E0,9.47434E0,1.0876218E1,8.308253E0,0E0,0E0,0E0,0E0,0E0,0E0,0E0,0E0,0E0,0E0,0E0,0E0,2.0610075E0,0E0,0E0,0E0,0E0,3.1850567E0,5.4083853E0,0E0,0E0,0E0,2.692442E-1,4.8016276E0,0E0,0E0,0E0,0E0,0E0,0E0],"parents":[2147483647,0,0,2,2,4,4,1,1,3,3,8,8,12,12,10,10,16,16,11,11,7,7,17,17,14,14,15,15,27,27,5,5,31,31,19,19,35,35,36,36,34,34,32,32,43,43,6,6,48,48,49,49,50,50,28,28,44,44,33,33,25,25,9,9,18,18,22,22,68,68,69,69,63,63,74,74,47,47,73,73],"right_children":[2,8,4,10,6,32,48,22,12,64,16,20,14,-1,26,28,18,24,66,36,-1,-1,68,-1,-1,62,-1,30,56,-1,-1,34,44,60,42,38,40,-1,-1,-1,-1,-1,-1,46,58,-1,-1,78,50,52,54,-1,-1,-1,-1,-1,-1,-1,-1,-1,-1,-1,-1,74,-1,-1,-1,-1,70,72,-1,-1,-1,80,76,-1,-1,-1,-1,-1,-1],"split_conditions":[1.000134E0,2.6459926E-1,5.935633E-3,4.298751E-4,7.590164E-1,1.4375E-1,3.3492064E-1,-1.6480306E-2,2.0152917E-3,8.8966024E-1,4.3762377E-1,6.8E1,-1.5015908E-2,4.7847214E-1,2.4538353E-2,5.719863E-1,2.326378E0,-5E-1,4.447561E-1,-1.9099005E-2,-4.5754433E-1,-4.2100754E-1,7.591093E-2,1.1590255E-1,-4.6588194E-2,3.3483455E-1,4.2043722E-1,-6.3148197E-3,6.4029557E-1,-2.6501358E-1,-6.855362E-2,1.5706291E-2,3.6653168E-3,3.3483455E-1,9.558015E-1,5.080516E-1,5.0551116E-1,-1.6621462E-1,9.228565E-2,1.0400538E-1,1.06123565E-2,1.285709E-1,-1.8688197E-1,1.2256709E0,5.7377048E-2,6.28887E-2,-2.0163906E-1,1E0,1.2876365E0,9.6422267E-1,3.521127E-2,-1.00620784E-1,1.7792402E-1,-4.4843078E-1,-7.8538716E-2,-2.83138E-1,2.7244058E-1,1.6990687E-1,2.0890161E-2,-2.777893E-1,2.3730214E-1,2.024155E-1,-6.220121E-2,5.726496E-1,-3.699762E-1,1.4035092E-3,-4.472934E-1,-1.4099857E-1,2.8624535E-1,2.0703517E-1,5.158757E-1,-2.6483288E-1,3.3808604E-1,3.8691795E-1,7.861909E-4,3.994101E-1,-4.2997268E-1,-4.6818337E-1,1.791023E-3,2.7753764E-1,5.092366E-1],"split_indices":[24,18,15,5,19,21,18,16,16,22,18,30,15,0,15,29,22,9,29,16,0,0,19,0,0,22,0,15,29,0,0,16,16,22,22,29,29,0,0,0,0,0,0,4,20,0,0,19,22,22,21,0,0,0,0,0,0,0,0,0,0,0,0,19,0,0,0,0,21,18,0,0,0,22,15,0,0,0,0,0,0],"split_type":[0,0,0,0,0,0,0,0,0,0,0,0,0,0,0,0,0,0,0,0,0,0,0,0,0,0,0,0,0,0,0,0,0,0,0,0,0,0,0,0,0,0,0,0,0,0,0,0,0,0,0,0,0,0,0,0,0,0,0,0,0,0,0,0,0,0,0,0,0,0,0,0,0,0,0,0,0,0,0,0,0],"sum_hessian":[1.7065446E3,8.0603735E2,9.005072E2,4.8286563E2,4.1764154E2,3.4589404E2,7.1747505E1,1.776353E1,7.8827386E2,8.076374E0,4.7478925E2,5.5360895E2,2.3466489E2,3.6632783E0,2.3100162E2,3.1698236E2,1.5780688E2,1.492547E2,8.5521965E0,5.501816E2,3.4273527E0,1.517822E0,1.6245708E1,5.048063E1,9.877406E1,2.2726094E2,3.7406647E0,2.8105698E2,3.59254E1,2.6592997E1,2.5446397E2,8.714964E1,2.587444E2,5.555481E1,3.1594831E1,1.0236928E2,4.4781232E2,5.155745E1,5.081183E1,2.5465843E2,1.9315388E2,1.5816079E1,1.5778751E1,6.371899E1,1.950254E2,2.9523489E1,3.4195503E1,6.1141195E0,6.5633385E1,4.6233578E1,1.939981E1,2.9532854E1,1.6700722E1,7.712894E0,1.1686916E1,3.4113815E1,1.811585E0,3.0805529E1,1.6421988E2,1.7653933E0,5.3789413E1,7.1506724E0,2.2011028E2,7.32714E0,7.492342E-1,2.0891972E0,6.463E0,1.0730664E0,1.5172642E1,8.141324E0,7.0313177E0,1.158006E0,6.9833183E0,5.571615E0,1.7555244E0,1.143631E0,6.118935E-1,5.3490644E0,7.6505494E-1,1.7701466E0,3.8014686E0],"tree_param":{"num_deleted":"0","num_feature":"39","num_nodes":"81","size_leaf_vector":"1"}},{"base_weights":[1.3514928E-2,1.08029276E-1,-6.2564656E-2,-2.5855938E-1,3.481374E-2,1.7258549E-1,-4.189529E-1,-9.405842E-2,2.324506E-1,-4.8930216E-1,5.134244E-1,1.6250156E-1,-2.3850088E-1,1.33567E-1,-7.7972853E-1,9.5487565E-2,4.5918694E-1,-5.979197E-2,3.1822982E-1,9.3518114E-1,2.0766945E-1,2.1657227E-1,-1.9908385E-1,4.220855E-1,-2.6112154E-2,-5.283674E-1,3.1160593E-1,1.2732244E0,1.09826155E-1,-3.0198425E-1,2.9650402E-1,-5.742453E-2,1.723588E0,-4.2425838E-1,1.6853786E-1,2.8535116E-1,9.909221E-1,1.0561869E-1,-2.1438089E-1,-4.2406526E-1,-1.2838039E0,6.013839E-1,-2.420793E-1,3.2314065E-1,-9.2418915E-1,3.148615E-2,3.8288814E-1,-1.2891924E-2,-7.571905E-1,-6.100973E-2,-3.6172584E-1,1.1600881E0,-5.420443E-2,-5.2458346E-1,1.5410814E-1,-9.066549E-2,-2.5991523E-1,-4.7496647E-2,-4.3648207E-1,-9.057838E-1,8.905522E-1,4.1225606E-1,-1.0113534E-1,1.4091182E-1,-9.330587E-2,3.5220754E-1,-3.1804677E-2,3.386844E-2,2.7677003E-1,-2.0042619E-2,1.22700654E-1,2.6805922E-1,-7.9534805E-1,7.2854005E-2,8.686517E-1,3.2739982E-1,-1.591477E-1,-1.3676277E0,1.0347073E0,4.2623377E-1,-1.504217E-1,3.6458522E-1,6.425569E-2,-2.107158E-1,6.1734296E-2,-2.124267E-1,4.6219468E-1,-4.446692E-2,-2.2356926E-1,4.91271E-1,-5.3846292E-2,1.0439105E-1,4.2947912E-1,2.4189472E-2,-1.0134797E0,5.7387274E-2,-3.7393892E-1,-3.5158998E-1,4.0460688E-1,2.5530118E-1,-3.6923474E-1,-1.2062702E0,-4.055745E-1,-4.293192E-1,-5.77772E-2,1.9716417E-2,-3.408625E-1,-1.051364E-1,1.5293452E-1,-4.1435313E-1,9.3845285E-2,4.6005245E-2,4.189874E-1,-1.3127626E-1,4.963195E-1,9.938916E-4,5.5122215E-1,-4.402238E-1,7.573891E-4,4.4530606E-1,-0E0],"categories":[],"categories_nodes":[],"categories_segments":[],"categories_sizes":[],"default_left":[0,0,0,0,0,0,0,0,0,0,0,0,0,0,0,0,0,0,0,0,0,0,0,0,0,0,0,0,0,0,0,0,0,0,0,0,0,0,0,0,0,0,0,0,0,0,0,0,0,0,0,0,0,0,0,0,0,0,0,0,0,0,0,0,0,0,0,0,0,0,0,0,0,0,0,0,0,0,0,0,0,0,0,0,0,0,0,0,0,0,0,0,0,0,0,0,0,0,0,0,0,0,0,0,0,0,0,0,0,0,0,0,0,0,0,0,0,0,0,0,0],"id":6,"left_children":[1,11,3,5,7,71,9,21,23,39,31,15,13,41,59,17,19,47,61,27,43,79,85,35,25,49,67,91,29,-1,-1,33,115,-1,-1,37,65,-1,-1,55,109,51,93,45,99,-1,-1,69,57,-1,-1,111,53,-1,-1,-1,-1,-1,-1,101,113,63,89,-1,-1,-1,-1,-1,-1,-1,-1,73,77,83,75,-1,-1,117,119,81,107,-1,-1,-1,-1,87,-1,-1,-1,-1,-1,-1,-1,95,97,-1,-1,-1,-1,-1,-1,103,105,-1,-1,-1,-1,-1,-1,-1,-1,-1,-1,-1,-1,-1,-1,-1,-1,-1,-1],"loss_changes":[1.19318075E1,1.3978933E1,1.754913E1,2.112442E1,1.5655469E1,7.7212505E0,1.4662479E1,1.2151153E1,1.1898099E1,1.0585518E1,1.090143E1,1.2705557E1,2.0292248E1,1.055859E1,8.854778E0,1.806409E1,1.4049389E1,1.006704E1,8.4699E0,1.1302368E1,1.0196416E1,7.2614017E0,7.0109625E0,1.0810677E1,1.7496677E1,9.832516E0,7.9814024E0,6.908489E0,1.41873E1,0E0,0E0,1.0945564E1,2.2685099E0,0E0,0E0,1.1445824E1,8.321402E0,0E0,0E0,9.495659E0,5.3952675E0,9.810462E0,6.8654413E0,1.5554798E1,5.7322755E0,0E0,0E0,7.791467E0,9.1873255E0,0E0,0E0,4.9411983E0,1.4312213E1,0E0,0E0,0E0,0E0,0E0,0E0,5.6238194E0,3.9093385E0,1.2523888E1,6.942746E0,0E0,0E0,0E0,0E0,0E0,0E0,0E0,0E0,8.856914E0,8.245752E0,7.180351E0,8.474424E0,0E0,0E0,1.7423935E0,1.141923E0,1.0281773E1,5.5625224E0,0E0,0E0,0E0,0E0,8.535809E0,0E0,0E0,0E0,0E0,0E0,0E0,0E0,6.3463283E0,5.840932E0,0E0,0E0,0E0,0E0,0E0,0E0,7.9769974E0,5.8087473E0,0E0,0E0,0E0,0E0,0E0,0E0,0E0,0E0,0E0,0E0,0E0,0E0,0E0,0E0,0E0,0E0,0E0,0E0],"parents":[2147483647,0,0,2,2,3,3,4,4,6,6,1,1,12,12,11,11,15,15,16,16,7,7,8,8,24,24,19,19,28,28,10,10,31,31,23,23,35,35,9,9,13,13,20,20,43,43,17,17,25,25,41,41,52,52,39,39,48,48,14,14,18,18,61,61,36,36,26,26,47,47,5,5,71,71,74,74,72,72,21,21,79,79,73,73,22,22,85,85,62,62,27,27,42,42,93,93,94,94,44,44,59,59,101,101,102,102,80,80,40,40,51,51,60,60,32,32,77,77,78,78],"right_children":[2,12,4,6,8,72,10,22,24,40,32,16,14,42,60,18,20,48,62,28,44,80,86,36,26,50,68,92,30,-1,-1,34,116,-1,-1,38,66,-1,-1,56,110,52,94,46,100,-1,-1,70,58,-1,-1,112,54,-1,-1,-1,-1,-1,-1,102,114,64,90,-1,-1,-1,-1,-1,-1,-1,-1,74,78,84,76,-1,-1,118,120,82,108,-1,-1,-1,-1,88,-1,-1,-1,-1,-1,-1,-1,96,98,-1,-1,-1,-1,-1,-1,104,106,-1,-1,-1,-1,-1,-1,-1,-1,-1,-1,-1,-1,-1,-1,-1,-1,-1,-1],"split_conditions":[9.9984384E-1,2.004369E-3,1.0012412E0,4.5024642E-1,5.8778524E-1,3.6E1,4.1E1,1.4462249E-3,1.9563911E-3,1.0011207E0,2.0880508E-3,9.5105654E-1,5.8778524E-1,2.526957E-3,1.7458256E0,-3.930904E-3,9.9571294E-1,-4.407547E-3,-2.0791529E-4,4.8510665E-3,3.3E1,1.220488E0,5.1E1,1.0038499E0,1.0046393E0,1.4E1,3.156505E-3,1.8374339E-3,1.1797189E0,-3.0198425E-1,2.9650402E-1,-2.9403018E-4,7.1616536E-1,-4.2425838E-1,1.6853786E-1,4.1E1,1.2475728E0,1.0561869E-1,-2.1438089E-1,2.2078739E-3,2.0164999E-3,9.9949944E-1,1E0,2E1,7.132804E-1,3.148615E-2,3.8288814E-1,-5.0775935E-3,-4.272916E-3,-6.100973E-2,-3.6172584E-1,-2.5881904E-1,-1.9946892E-3,-5.2458346E-1,1.5410814E-1,-9.066549E-2,-2.5991523E-1,-4.7496647E-2,-4.3648207E-1,9.9962604E-1,-3.969192E-3,1.0875E0,9.4391784E-4,1.4091182E-1,-9.330587E-2,3.5220754E-1,-3.1804677E-2,3.386844E-2,2.7677003E-1,-2.0042619E-2,1.22700654E-1,1.9E1,3.5727406E-1,5.0052893E-1,1.9644287E-3,3.2739982E-1,-1.591477E-1,1.0010908E0,-5E-1,-7.0710677E-1,7.365867E-3,3.6458522E-1,6.425569E-2,-2.107158E-1,6.1734296E-2,2.8E1,4.6219468E-1,-4.446692E-2,-2.2356926E-1,4.91271E-1,-5.3846292E-2,1.0439105E-1,4.2947912E-1,9.99583E-1,1.7976642E0,5.7387274E-2,-3.7393892E-1,-3.5158998E-1,4.0460688E-1,2.5530118E-1,-3.6923474E-1,1.6E1,1.9218707E-3,-4.293192E-1,-5.77772E-2,1.9716417E-2,-3.408625E-1,-1.051364E-1,1.5293452E-1,-4.1435313E-1,9.3845285E-2,4.6005245E-2,4.189874E-1,-1.3127626E-1,4.963195E-1,9.938916E-4,5.5122215E-1,-4.402238E-1,7.573891E-4,4.4530606E-1,-0E0],"split_indices":[24,15,17,7,25,30,30,12,12,17,12,25,25,5,6,2,17,2,15,5,30,13,30,17,24,30,12,12,13,0,0,15,13,0,0,30,13,0,0,12,12,17,28,30,7,0,0,2,15,0,0,8,2,0,0,0,0,0,0,17,2,6,12,0,0,0,0,0,0,0,0,30,7,13,12,0,0,17,9,9,2,0,0,0,0,30,0,0,0,0,0,0,0,24,7,0,0,0,0,0,0,30,12,0,0,0,0,0,0,0,0,0,0,0,0,0,0,0,0,0,0],"split_type":[0,0,0,0,0,0,0,0,0,0,0,0,0,0,0,0,0,0,0,0,0,0,0,0,0,0,0,0,0,0,0,0,0,0,0,0,0,0,0,0,0,0,0,0,0,0,0,0,0,0,0,0,0,0,0,0,0,0,0,0,0,0,0,0,0,0,0,0,0,0,0,0,0,0,0,0,0,0,0,0,0,0,0,0,0,0,0,0,0,0,0,0,0,0,0,0,0,0,0,0,0,0,0,0,0,0,0,0,0,0,0,0,0,0,0,0,0,0,0,0,0],"sum_hessian":[1.6588392E3,7.3974347E2,9.1909576E2,3.049277E2,6.141681E2,8.267378E1,2.222539E2,3.7184085E2,2.4232724E2,2.067792E2,1.5474693E1,6.3937994E2,1.0036354E2,5.959481E1,4.076873E1,5.218586E2,1.1752139E2,3.07609E2,2.1424956E2,4.037884E1,7.7142555E1,9.388185E1,2.7795898E2,1.3970108E2,1.0262616E2,4.1201756E1,6.14244E1,2.8543184E1,1.1835654E1,5.244239E0,6.591416E0,1.0686937E1,4.787756E0,3.2183576E0,7.4685802E0,1.1295126E2,2.6749817E1,1.03799255E2,9.15201E0,1.9146698E2,1.5312229E1,2.6470495E1,3.3124313E1,7.017422E1,6.96834E0,5.8787468E1,1.1386747E1,2.8848068E2,1.912831E1,2.9701374E1,1.1500383E1,1.418093E1,1.2289565E1,2.923794E0,9.365771E0,1.6117348E2,3.0293505E1,1.1311167E1,7.817143E0,3.8021492E1,2.747241E0,1.7501492E2,3.923463E1,1.553475E2,1.9667423E1,2.1353975E1,5.3958406E0,4.8352016E1,1.3072382E1,2.5540984E2,3.3070847E1,7.542703E1,7.2467527E0,5.71512E1,1.8275833E1,1.5079548E1,3.1962852E0,5.5719223E0,1.6748308E0,5.972154E1,3.4160313E1,1.0485099E1,4.9236443E1,8.539786E0,4.8611412E1,2.762174E2,1.7415798E0,2.5412547E2,2.2091942E1,1.6262902E0,3.7608337E1,6.8112226E0,2.1731962E1,2.481593E1,8.308385E0,2.2100685E1,2.715244E0,7.6558375E0,6.525477E-1,1.1949819E0,5.773358E0,2.3517204E1,1.4504286E1,1.7437553E1,6.0796504E0,9.334229E0,5.1700563E0,2.586614E1,8.294172E0,1.3589104E1,1.7231249E0,3.7833366E0,1.03975935E1,1.1397531E0,1.6074879E0,6.6721493E-1,4.1205406E0,4.7727995E0,7.9912275E-1,9.860444E-1,6.8878645E-1],"tree_param":{"num_deleted":"0","num_feature":"39","num_nodes":"121","size_leaf_vector":"1"}},{"base_weights":[-9.204885E-3,-2.6175288E-2,3.5497987E-1,-7.965684E-3,-6.985413E-1,8.55391E-1,-2.0649537E-2,-3.7557772E-1,8.781387E-1,-1.0404198E0,-4.9674585E-2,3.744943E-2,-1.3770777E-1,-3.4149587E-1,9.676039E-2,-2.1185142E-1,3.5357758E-1,-2.6671484E-1,2.4824295E-2,9.5006056E-2,-1.4501308E-1,-3.7073952E-1,1.1236492E-1,1.363039E0,-3.7181085E-1,8.849202E-1,7.904202E-2,-2.3592643E-2,4.3629313E-1,3.283603E-4,6.486735E-2,4.3748423E-2,-1.3847524E-1,-4.36825E-1,4.3142404E-2,2.3543397E-1,-5.903698E-1,-1.0996124E0,8.094058E-1,-6.651379E-2,-1.9000757E-1,5.7479554E-1,-3.7340692E-1,1.4395541E-1,-3.2040518E-2,-1.2514211E0,-8.083834E-2,-3.7417695E-1,1.0320603E0,3.2672396E-1,-1.5825057E0,-1.2004933E0,4.3961668E-1,4.381069E-1,-4.779765E-1,-4.8122615E-1,3.4592453E-1,4.6530947E-1,6.0896313E-1,9.644785E-1,-1.6151781E-1,-4.6836123E-1,5.5356187E-1,-4.322388E-1,-4.3697037E-2,3.4092554E-1,1.389942E0,-1.373476E-1,3.4545285E-1,-1.6808626E-1,3.222263E-1,4.312284E-1,-1.1512112E-1,1.1177686E0,-2.8760558E-1,-4.079519E-1,2.8150305E-1,-2.2512615E-1,4.2488942E-1,1.4842937E0,3.472374E-1,3.5572243E-1,-3.7627757E-1,3.446787E-1,4.2973436E-2,-1.4276384E0,-6.949797E-1,-6.121169E-2,-4.4732794E-1,-3.857011E-4,-4.3025064E-1,2.3064108E-3,-4.8717692E-1,1.2373102E-1,4.5490688E-1],"categories":[],"categories_nodes":[],"categories_segments":[],"categories_sizes":[],"default_left":[0,0,0,0,0,0,0,0,0,0,0,0,0,0,0,0,0,0,0,0,0,0,0,0,0,0,0,0,0,0,0,0,0,0,0,0,0,0,0,0,0,0,0,0,0,0,0,0,0,0,0,0,0,0,0,0,0,0,0,0,0,0,0,0,0,0,0,0,0,0,0,0,0,0,0,0,0,0,0,0,0,0,0,0,0,0,0,0,0,0,0,0,0,0,0],"id":7,"left_children":[1,3,5,11,9,57,7,45,73,51,35,19,13,23,15,17,43,-1,-1,25,21,31,33,41,39,27,29,-1,-1,-1,-1,-1,-1,-1,-1,37,-1,55,83,-1,-1,-1,-1,-1,-1,49,47,63,71,-1,91,85,53,-1,-1,-1,-1,-1,59,65,61,-1,69,-1,-1,67,77,-1,-1,-1,-1,-1,-1,79,75,-1,-1,-1,-1,93,81,-1,-1,-1,-1,89,87,-1,-1,-1,-1,-1,-1,-1,-1],"loss_changes":[1.0580469E1,2.0023907E1,1.4332574E1,9.386355E0,9.552395E0,6.3336277E0,1.4059873E1,8.126404E0,3.57203E0,6.829111E0,9.108821E0,1.2395833E1,1.9744394E1,1.1556028E1,1.5258413E1,1.9752169E1,8.133045E0,0E0,0E0,1.1294713E1,1.6456491E1,1.0213648E1,9.660226E0,8.24115E0,8.940052E0,1.1845132E1,1.0584545E1,0E0,0E0,0E0,0E0,0E0,0E0,0E0,0E0,1.0635875E1,0E0,6.801814E0,2.673973E0,0E0,0E0,0E0,0E0,0E0,0E0,6.874196E0,7.9110117E0,4.8366613E0,3.9835734E0,0E0,1.9433594E0,2.6680717E0,7.9766617E0,0E0,0E0,0E0,0E0,0E0,7.0419827E0,4.522419E0,9.29646E0,0E0,4.2992935E0,0E0,0E0,5.7935133E0,3.5137405E0,0E0,0E0,0E0,0E0,0E0,0E0,2.8007288E0,3.9931428E0,0E0,0E0,0E0,0E0,9.177885E-1,6.346599E0,0E0,0E0,0E0,0E0,3.0123787E0,3.5725498E0,0E0,0E0,0E0,0E0,0E0,0E0,0E0,0E0],"parents":[2147483647,0,0,1,1,2,2,6,6,4,4,3,3,12,12,14,14,15,15,11,11,20,20,13,13,19,19,25,25,26,26,21,21,22,22,10,10,35,35,24,24,23,23,16,16,7,7,46,46,45,45,9,9,52,52,37,37,5,5,58,58,60,60,47,47,59,59,65,65,62,62,48,48,8,8,74,74,66,66,73,73,80,80,38,38,51,51,86,86,85,85,50,50,79,79],"right_children":[2,4,6,12,10,58,8,46,74,52,36,20,14,24,16,18,44,-1,-1,26,22,32,34,42,40,28,30,-1,-1,-1,-1,-1,-1,-1,-1,38,-1,56,84,-1,-1,-1,-1,-1,-1,50,48,64,72,-1,92,86,54,-1,-1,-1,-1,-1,60,66,62,-1,70,-1,-1,68,78,-1,-1,-1,-1,-1,-1,80,76,-1,-1,-1,-1,94,82,-1,-1,-1,-1,90,88,-1,-1,-1,-1,-1,-1,-1,-1],"split_conditions":[3.383251E-3,3.0102876E-3,3.8220412E-3,1.231948E0,1.1306837E0,2.631579E-1,2.9733882E-3,4.327444E-3,1.6571268E0,2.4314836E-2,5.9182364E-1,8.946093E-3,1.5560317E0,2.6666667E-2,1.5296076E-3,-2.4211013E-3,4.972743E-3,-2.6671484E-1,2.4824295E-2,2.347826E-1,1.742422E-3,3.460357E-1,1.6538847E-3,1.8181261E0,1.3186145E0,-3.1307708E-3,9.699454E-1,-2.3592643E-2,4.3629313E-1,3.283603E-4,6.486735E-2,4.3748423E-2,-1.3847524E-1,-4.36825E-1,4.3142404E-2,-4.044923E-3,-5.903698E-1,3.3639185E-3,6.25E-1,-6.651379E-2,-1.9000757E-1,5.7479554E-1,-3.7340692E-1,1.4395541E-1,-3.2040518E-2,-1.4440972E-2,2.7807662E-1,5.974803E-1,7.0710677E-1,3.2672396E-1,3.265245E-1,1.0165882E0,-2.5881904E-1,4.381069E-1,-4.779765E-1,-4.8122615E-1,3.4592453E-1,4.6530947E-1,5.585093E-1,4.0976903E-1,4.1981527E-4,-4.6836123E-1,3.156505E-3,-4.322388E-1,-4.3697037E-2,-1.2623253E-2,-4.2779528E-2,-1.373476E-1,3.4545285E-1,-1.6808626E-1,3.222263E-1,4.312284E-1,-1.1512112E-1,1.6431175E-2,2.108887E0,-4.079519E-1,2.8150305E-1,-2.2512615E-1,4.2488942E-1,6.309223E-1,-1.8369701E-16,3.5572243E-1,-3.7627757E-1,3.446787E-1,4.2973436E-2,2.8865558E-1,1.2920489E0,-6.121169E-2,-4.4732794E-1,-3.857011E-4,-4.3025064E-1,2.3064108E-3,-4.8717692E-1,1.2373102E-1,4.5490688E-1],"split_indices":[11,11,11,13,23,19,16,12,4,16,18,16,7,19,12,16,15,0,0,18,12,7,11,23,4,16,13,0,0,0,0,0,0,0,0,16,0,12,19,0,0,0,0,0,0,15,4,22,9,0,18,23,9,0,0,0,0,0,4,18,15,0,12,0,0,16,15,0,0,0,0,0,0,15,4,0,0,0,0,13,9,0,0,0,0,18,4,0,0,0,0,0,0,0,0],"split_type":[0,0,0,0,0,0,0,0,0,0,0,0,0,0,0,0,0,0,0,0,0,0,0,0,0,0,0,0,0,0,0,0,0,0,0,0,0,0,0,0,0,0,0,0,0,0,0,0,0,0,0,0,0,0,0,0,0,0,0,0,0,0,0,0,0,0,0,0,0,0,0,0,0,0,0,0,0,0,0,0,0,0,0,0,0,0,0,0,0,0,0,0,0,0,0],"sum_hessian":[1.7113071E3,1.6353511E3,7.595609E1,1.5924921E3,4.2858997E1,3.2423138E1,4.353296E1,3.1320295E1,1.2212662E1,2.7963793E1,1.4895204E1,1.1797252E3,4.127668E2,2.2076724E2,1.9199957E2,8.722635E1,1.0477322E2,2.4863064E1,6.2363285E1,8.9692596E2,2.827993E2,1.5060216E2,1.3219713E2,3.6527772E0,2.1711447E2,1.7479795E1,8.7944617E2,7.3386436E0,1.0141151E1,5.849839E2,2.944623E2,2.934015E1,1.2126202E2,3.051736E0,1.2914539E2,1.3304192E1,1.5910124E0,3.926482E0,9.377709E0,1.5284837E2,6.426609E1,2.946624E0,7.061533E-1,7.751014E1,2.7263079E1,7.6679564E0,2.365234E1,1.885879E1,4.7935495E0,8.383676E-1,6.8295884E0,2.528024E1,2.6835535E0,1.8050551E0,8.784982E-1,3.1466615E0,7.7982044E-1,7.13405E0,2.5289087E1,1.725897E1,8.030117E0,2.4480758E0,5.5820417E0,2.6673348E0,1.6191456E1,7.195035E0,1.0063934E1,3.7995298E0,3.3955052E0,1.9182183E0,3.6638234E0,3.5106113E0,1.282938E0,1.01397085E1,2.0729537E0,1.068717E0,1.0042368E0,5.254981E-1,9.538436E0,6.703568E0,3.43614E0,2.261741E0,1.1743993E0,5.5068054E0,3.8709042E0,1.7106688E1,8.173551E0,5.6017246E0,2.571826E0,1.3656356E0,1.5741053E1,6.8990624E-1,6.1396823E0,9.9858147E-1,5.7049866E0],"tree_param":{"num_deleted":"0","num_feature":"39","num_nodes":"95","size_leaf_vector":"1"}},{"base_weights":[2.2866633E-2,2.8355947E-2,-3.7896052E-1,-1.0211731E-2,1.5008003E-1,-5.384537E-1,1.913142E-1,-8.2741207E-1,4.695747E-1,-3.1689033E-1,2.4538182E-1,-5.0919855E-1,2.6061785E-1,-4.4770133E-2,2.2006316E-1,-2.6927741E-2,-6.1967075E-1,-1.3212124E-2,-9.136688E-1,-7.3239213E-1,2.9074842E-1,5.8168944E-2,-1.0321262E0,2.3339118E-1,-2.0739925E-1,2.0277011E-1,-4.0826476E-1,-7.266151E-1,4.6718195E-1,-5.771479E-3,2.911454E-1,4.8821118E-1,-3.0294263E-1,7.166523E-1,1.751628E-1,6.0268406E-2,-4.574514E-1,4.43782E-1,-9.6921444E-1,4.2944843E-1,-9.875E-1,1.3192049E-3,2.8251266E-1,-3.314652E-1,-9.017144E-2,-3.62198E-1,-3.1389847E-2,3.6701176E-1,-3.3112067E-1,2.5882328E-1,6.639112E-2],"categories":[],"categories_nodes":[],"categories_segments":[],"categories_sizes":[],"default_left":[0,0,0,0,0,0,0,0,0,0,0,0,0,0,0,0,0,0,0,0,0,0,0,0,0,0,0,0,0,0,0,0,0,0,0,0,0,0,0,0,0,0,0,0,0,0,0,0,0,0,0],"id":8,"left_children":[1,3,-1,13,5,7,9,37,-1,21,11,-1,49,15,19,17,27,29,31,39,33,23,25,-1,-1,-1,-1,43,-1,-1,-1,-1,-1,41,35,-1,-1,-1,45,-1,47,-1,-1,-1,-1,-1,-1,-1,-1,-1,-1],"loss_changes":[1.2673729E1,7.777128E0,0E0,1.0015067E1,1.1343715E1,1.4924889E1,1.0359499E1,7.3520203E0,0E0,9.753294E0,1.0903391E1,0E0,4.8310833E0,1.1219359E1,1.1112894E1,1.2907321E1,8.430542E0,8.408519E0,8.162519E0,7.0459666E0,7.501541E0,1.5319094E1,9.934596E0,0E0,0E0,0E0,0E0,5.8357544E0,0E0,0E0,0E0,0E0,0E0,6.972519E0,9.304579E0,0E0,0E0,0E0,5.475462E0,0E0,5.3541727E0,0E0,0E0,0E0,0E0,0E0,0E0,0E0,0E0,0E0,0E0],"parents":[2147483647,0,0,1,1,4,4,5,5,6,6,10,10,3,3,13,13,15,15,14,14,9,9,21,21,22,22,16,16,17,17,18,18,20,20,34,34,7,7,19,19,33,33,27,27,38,38,40,40,12,12],"right_children":[2,4,-1,14,6,8,10,38,-1,22,12,-1,50,16,20,18,28,30,32,40,34,24,26,-1,-1,-1,-1,44,-1,-1,-1,-1,-1,42,36,-1,-1,-1,46,-1,48,-1,-1,-1,-1,-1,-1,-1,-1,-1,-1],"split_conditions":[7.1E1,2.316926E-3,-3.7896052E-1,6.413376E-3,4.77687E-1,3.2908078E-3,-2.4686843E-2,2.0144098E-3,4.695747E-1,1.1672229E0,1.5209769E-3,-5.0919855E-1,3.3680797E-1,4.507705E-3,-1.6691537E-3,2.5606455E-2,2.0222643E-2,6.3E1,4.5728388E-1,4.171934E-1,7.264025E-3,-1.2264033E-2,6.1085975E-1,2.3339118E-1,-2.0739925E-1,2.0277011E-1,-4.0826476E-1,5.2151405E-3,4.6718195E-1,-5.771479E-3,2.911454E-1,4.8821118E-1,-3.0294263E-1,2.3973628E-3,2.2368866E-3,6.0268406E-2,-4.574514E-1,4.43782E-1,1.9E1,4.2944843E-1,-4.7522085E-3,1.3192049E-3,2.8251266E-1,-3.314652E-1,-9.017144E-2,-3.62198E-1,-3.1389847E-2,3.6701176E-1,-3.3112067E-1,2.5882328E-1,6.639112E-2],"split_indices":[30,3,0,2,13,12,16,11,0,13,11,0,23,1,1,16,16,30,23,22,2,2,22,0,0,0,0,1,0,0,0,0,0,16,3,0,0,0,30,0,1,0,0,0,0,0,0,0,0,0,0],"split_type":[0,0,0,0,0,0,0,0,0,0,0,0,0,0,0,0,0,0,0,0,0,0,0,0,0,0,0,0,0,0,0,0,0,0,0,0,0,0,0,0,0,0,0,0,0,0,0,0,0,0,0],"sum_hessian":[1.6625304E3,1.656239E3,6.291472E0,1.257915E3,3.983239E2,2.2324392E1,3.7599954E2,1.9911291E1,2.4131012E0,3.6030445E1,3.399691E2,2.241887E0,3.377272E2,1.0939567E3,1.6395842E2,1.0612983E3,3.265833E1,1.0453995E3,1.5898744E1,1.1154562E1,1.5280385E2,2.3796185E1,1.223426E1,1.2062939E1,1.1733245E1,2.399707E0,9.834553E0,3.1382849E1,1.2754813E0,1.0382574E3,7.1420875E0,8.408029E-1,1.50579405E1,3.2320713E1,1.2048314E2,1.18007835E2,2.475307E0,9.4851923E-1,1.8962772E1,9.870761E-1,1.0167485E1,9.677134E0,2.2643578E1,1.427398E1,1.7108868E1,1.3529201E1,5.4335713E0,7.09838E-1,9.457647E0,1.0154735E1,3.2757248E2],"tree_param":{"num_deleted":"0","num_feature":"39","num_nodes":"51","size_leaf_vector":"1"}},{"base_weights":[-2.55964E-2,2.7962798E-2,-1.4943388E-1,-1.2701565E-1,8.325567E-2,-3.4282154E-1,3.50997E-2,6.378109E-1,-1.5666327E-1,-1.0388637E-1,-7.1056217E-1,3.2937902E-1,1.4575063E0,-3.8567472E-1,3.624091E-1,-7.957018E-2,2.882772E-1,1.1127238E-1,-3.3342135E-1,-4.4995135E-1,5.150349E-1,-2.2465308E-1,-1.2484457E0,3.5730198E-2,-2.744632E-1,-1.4753024E-2,-6.4110416E-1,1.8798997E-1,-5.5622257E-2,1.4396596E-2,3.6440623E-1,-3.1697434E-1,-5.2540917E-2,-3.795242E-1,9.574472E-1,3.5273537E-2,-5.208312E-1,4.9961928E-1,-3.4253012E-2,-4.2287654E-1,8.85079E-1,-1.0453288E-1,6.35284E-1,1.574932E-2,-1.2014732E-1,3.5275063E-1,-2.580601E-1,4.2286694E-1,8.116647E-2,6.110238E-2,-4.8609453E-1,-5.345914E-1,4.7180992E-1,-2.931085E-1,-4.2543963E-2,5.3209785E-2,4.49704E-1,7.0582256E-2,3.0917275E-1,1.0327446E-1,-4.7399428E-1,1.8735703E-2,1.7736943E-1,9.899529E-1,2.2626227E-1,-1.8188596E-1,8.39503E-2,-1.2883599E-1,3.663377E-1,-6.5810956E-2,-3.583538E-1,3.7535974E-1,-4.0271577E-1,2.5145018E-1,-1.1129351E-1,-2.7618906E-1,-9.951215E-1,-2.7359957E-1,1.4373015E-1,-5.586605E-1,8.13883E-2,1.5820293E-1,-3.9239082E-1,4.337494E-2,-1.8505836E-1,-3.3816895E-1,-4.99872E-2,-1.4236703E0,-3.994995E-1,-8.4128803E-1,-1.340912E-1,-8.681309E-2,2.5922453E-1,4.6497172E-1,-1.3296248E-1,-1.323541E-1,-4.6869588E-1,-3.2399394E-2,-2.5864545E-1,1.3057902E0,-3.126749E-1,-4.263047E-1,3.230402E-1,-1.8155552E-1,4.0511015E-1,-5.0561863E-1,-3.340498E-1,4.3880495E-1,-3.97703E-1,-0E0,1.4468993E0,4.7464606E-1,1.8029268E-1],"categories":[],"categories_nodes":[],"categories_segments":[],"categories_sizes":[],"default_left":[0,0,0,0,0,0,0,0,0,0,0,0,0,0,0,0,0,0,0,0,0,0,0,0,0,0,0,0,0,0,0,0,0,0,0,0,0,0,0,0,0,0,0,0,0,0,0,0,0,0,0,0,0,0,0,0,0,0,0,0,0,0,0,0,0,0,0,0,0,0,0,0,0,0,0,0,0,0,0,0,0,0,0,0,0,0,0,0,0,0,0,0,0,0,0,0,0,0,0,0,0,0,0,0,0,0,0,0,0,0,0,0,0],"id":9,"left_children":[1,3,31,5,17,9,7,11,25,13,75,29,93,53,15,-1,-1,57,19,21,-1,23,71,-1,-1,27,97,-1,-1,-1,-1,33,35,49,99,37,87,39,41,45,47,43,73,-1,-1,-1,-1,-1,-1,51,79,103,55,-1,-1,-1,-1,59,63,61,69,-1,-1,67,65,-1,-1,-1,-1,-1,-1,-1,-1,-1,-1,77,85,-1,-1,83,81,-1,-1,-1,-1,-1,-1,105,89,95,91,-1,-1,-1,-1,-1,-1,-1,-1,109,101,-1,-1,-1,-1,-1,107,-1,-1,-1,111,-1,-1],"loss_changes":[1.1017071E1,9.939998E0,8.136303E0,1.0675383E1,9.98941E0,1.1479761E1,2.0187044E1,1.05290165E1,9.108981E0,1.0502437E1,6.291754E0,8.429979E0,5.019079E0,7.7065854E0,1.3293053E1,0E0,0E0,6.4458065E0,1.3970436E1,9.173576E0,0E0,1.094071E1,6.4237614E0,0E0,0E0,1.3226196E1,4.540309E0,0E0,0E0,0E0,0E0,1.474012E1,1.3084413E1,8.23962E0,3.9450064E0,8.659571E0,5.3512726E0,1.2520595E1,1.1000853E1,9.293671E0,9.225128E0,1.119438E1,6.3132877E0,0E0,0E0,0E0,0E0,0E0,0E0,8.477452E0,5.826393E0,3.6154475E0,6.5046573E0,0E0,0E0,0E0,0E0,1.1850603E1,7.6477423E0,1.2018787E1,7.213213E0,0E0,0E0,7.220536E0,8.231646E0,0E0,0E0,0E0,0E0,0E0,0E0,0E0,0E0,0E0,0E0,1.1815157E1,5.5673275E0,0E0,0E0,9.668507E0,1.20626745E1,0E0,0E0,0E0,0E0,0E0,0E0,2.366437E0,5.206145E0,4.942812E0,5.454565E0,0E0,0E0,0E0,0E0,0E0,0E0,0E0,0E0,1.2629118E0,4.2295756E0,0E0,0E0,0E0,0E0,0E0,4.571205E0,0E0,0E0,0E0,9.9739647E-1,0E0,0E0],"parents":[2147483647,0,0,1,1,3,3,6,6,5,5,7,7,9,9,14,14,4,4,18,18,19,19,21,21,8,8,25,25,11,11,2,2,31,31,32,32,35,35,37,37,38,38,41,41,39,39,40,40,33,33,49,49,13,13,52,52,17,17,57,57,59,59,58,58,64,64,63,63,60,60,22,22,42,42,10,10,75,75,50,50,80,80,79,79,76,76,36,36,88,88,90,90,12,12,89,89,26,26,34,34,100,100,51,51,87,87,106,106,99,99,110,110],"right_children":[2,4,32,6,18,10,8,12,26,14,76,30,94,54,16,-1,-1,58,20,22,-1,24,72,-1,-1,28,98,-1,-1,-1,-1,34,36,50,100,38,88,40,42,46,48,44,74,-1,-1,-1,-1,-1,-1,52,80,104,56,-1,-1,-1,-1,60,64,62,70,-1,-1,68,66,-1,-1,-1,-1,-1,-1,-1,-1,-1,-1,78,86,-1,-1,84,82,-1,-1,-1,-1,-1,-1,106,90,96,92,-1,-1,-1,-1,-1,-1,-1,-1,110,102,-1,-1,-1,-1,-1,108,-1,-1,-1,112,-1,-1],"split_conditions":[8.146238E-2,-8.0221146E-4,3.09017E-1,2.9440378E-3,6.0033447E-1,2.1818182E-1,3.4585658E-3,5.4227585E-1,6.378824E-3,1.2371134E-1,2.0541705E-3,3.442623E-1,5E-1,-1.8119933E-3,1.6057374E-3,-7.957018E-2,2.882772E-1,2.587603E-3,5.2419502E-2,7.0710677E-1,5.150349E-1,-9.3971044E-2,9.848926E-4,3.5730198E-2,-2.744632E-1,-3.6333995E-3,-2.4492937E-16,1.8798997E-1,-5.5622257E-2,1.4396596E-2,3.6440623E-1,6.0753343E-3,4.4189277E-3,1.1735345E-3,5.4486436E-3,-8.660254E-1,1.6451248E-3,4E0,3.7020808E-1,9.968374E-1,2.9710943E-3,2.4039787E-1,2.131652E-3,1.574932E-2,-1.2014732E-1,3.5275063E-1,-2.580601E-1,4.2286694E-1,8.116647E-2,-2.5881904E-1,1.0036932E0,5.9354854E-1,2.266346E-3,-2.931085E-1,-4.2543963E-2,5.3209785E-2,4.49704E-1,2.380364E-3,4.330542E-1,1.0047467E0,1.0040323E0,1.8735703E-2,1.7736943E-1,4.1045293E-1,2.0217504E-3,-1.8188596E-1,8.39503E-2,-1.2883599E-1,3.663377E-1,-6.5810956E-2,-3.583538E-1,3.7535974E-1,-4.0271577E-1,2.5145018E-1,-1.1129351E-1,1.7306528E-3,1.0024713E0,-2.7359957E-1,1.4373015E-1,-1.7984E-3,1.0070795E0,1.5820293E-1,-3.9239082E-1,4.337494E-2,-1.8505836E-1,-3.3816895E-1,-4.99872E-2,1.5E1,-2.7536752E-3,5.0692666E-1,5.633308E-1,-8.681309E-2,2.5922453E-1,4.6497172E-1,-1.3296248E-1,-1.323541E-1,-4.6869588E-1,-3.2399394E-2,-2.5864545E-1,-7.974703E-3,4.308129E-3,-4.263047E-1,3.230402E-1,-1.8155552E-1,4.0511015E-1,-5.0561863E-1,1.5351085E-3,4.3880495E-1,-3.97703E-1,-0E0,4.9891677E-3,4.7464606E-1,1.8029268E-1],"split_indices":[27,0,26,5,29,21,5,29,5,21,5,21,8,0,3,0,0,3,27,8,0,27,11,0,0,0,25,0,0,0,0,5,5,11,0,8,3,30,27,17,5,27,3,0,0,0,0,0,0,8,17,29,5,0,0,0,0,3,29,17,17,0,0,29,11,0,0,0,0,0,0,0,0,0,0,5,17,0,0,0,17,0,0,0,0,0,0,30,0,29,29,0,0,0,0,0,0,0,0,0,3,0,0,0,0,0,3,0,0,0,11,0,0],"split_type":[0,0,0,0,0,0,0,0,0,0,0,0,0,0,0,0,0,0,0,0,0,0,0,0,0,0,0,0,0,0,0,0,0,0,0,0,0,0,0,0,0,0,0,0,0,0,0,0,0,0,0,0,0,0,0,0,0,0,0,0,0,0,0,0,0,0,0,0,0,0,0,0,0,0,0,0,0,0,0,0,0,0,0,0,0,0,0,0,0,0,0,0,0,0,0,0,0,0,0,0,0,0,0,0,0,0,0,0,0,0,0,0,0],"sum_hessian":[1.6605968E3,1.1593746E3,5.0122217E2,3.0477567E2,8.5459894E2,1.3061221E2,1.7416344E2,4.1888992E1,1.3227446E2,7.937935E1,5.123286E1,3.0708254E1,1.1180737E1,4.9508053E1,2.9871296E1,1.5314659E1,1.4556638E1,8.009413E2,5.3657646E1,5.1145523E1,2.5121214E0,4.015703E1,1.0988496E1,2.7605747E1,1.255128E1,1.02518555E2,2.9755898E1,2.1533394E1,8.098516E1,2.4165014E1,6.543239E0,1.8343297E2,3.177892E2,1.7502977E2,8.403188E0,2.6781378E2,4.997544E1,3.46638E1,2.3314998E2,1.0207585E1,2.4456213E1,2.1120569E2,2.194429E1,1.4175786E2,6.944783E1,2.2572684E0,7.9503174E0,1.1581296E1,1.2874916E1,3.410953E1,1.4092024E2,1.38866825E1,2.022285E1,1.2513211E1,3.6994843E1,1.6504025E1,3.7188258E0,6.646475E2,1.362938E2,6.272113E2,3.7436207E1,5.8817255E2,3.9038727E1,1.4479769E1,1.21814026E2,9.513592E0,1.1230043E2,2.6527414E0,1.1827027E1,2.9279747E1,8.156462E0,6.8143785E-1,1.0307058E1,1.7432713E1,4.511577E0,2.0486834E1,3.0746027E1,1.0787407E1,9.699427E0,1.2494771E2,1.5972535E1,1.2163307E1,3.8092284E0,1.634438E1,1.08603325E2,2.4047657E1,6.6983705E0,5.581263E0,4.439418E1,1.6443361E1,2.7950817E1,2.4108301E1,3.8425167E0,1.0087636E1,1.0931011E0,1.1783194E1,4.6601677E0,1.0734478E1,1.902142E1,6.588979E0,1.8142089E0,9.866589E-1,8.2754993E-1,1.3272531E1,6.141518E-1,3.9595218E0,1.6217415E0,5.483836E-1,1.0733578E0,6.686971E-1,5.9202814E0,4.226063E0,1.6942189E0],"tree_param":{"num_deleted":"0","num_feature":"39","num_nodes":"113","size_leaf_vector":"1"}},{"base_weights":[-7.1761324E-3,3.9527744E-2,-1.2268446E-1,-2.1655238E-1,1.9159998E-1,1.9450612E-1,-3.2556465E-1,-2.0721231E-1,-7.80033E-1,-2.4447238E-1,5.0279874E-1,9.991878E-1,6.2006775E-2,-6.104877E-1,3.6197364E-1,5.2469736E-1,-1.6560914E-1,-9.3676794E-1,2.3244171E-1,1.6257381E0,9.55112E-2,4.392796E-1,-1.3099056E0,-3.4217086E-2,-1.5080912E-1,2.6601054E-2,-8.2015634E-1,-6.0543172E-2,2.2849634E-1,1.1540523E-2,2.7494448E-1,-1.4176735E-2,1.9312398E-1,3.9802524E-1,-7.272539E-3,6.899314E-2,1.2355995E0,-1.04327194E-1,1.2932873E0,1.7781134E-3,-8.04524E-1,-1.7695667E0,2.1054226E-1,-1.1233012E-1,1.6834152E-1,6.181774E-2,-1.0828057E-1,-5.8471564E-2,6.489185E-2,-1.0042233E-1,2.732776E-2,1.6502072E-1,1.0730504E0,1.8513425E-1,-1.5507396E-1,-1.9175763E-1,3.730033E-1,-7.485609E-2,-1.3777672E0,-2.786848E-1,1.8779334E-1,-3.6512536E-1,3.4227994E-1,3.099456E-1,-1.0228138E0,1.3727359E0,-7.9054046E-1,3.5540584E-1,-4.250336E-1,-2.7700233E-1,2.0525765E-1,2.8733328E-1,1.194106E0,3.2271993E-1,-3.8707352E-1,9.577042E-3,1.5167275E-1,-3.2158548E-1,-1.3749728E-1,4.4956684E-1,-3.6801136E-1,1.8219586E-1,-4.1453615E-1,4.0738007E-1,-2.6292884E-1,-4.8160386E-1,-1.9435613E-1,3.786184E-1,-3.423457E-1,-1.9504511E-1,3.7408224E-1,2.6907382E-4,5.111768E-1,-0E0,1.4140519E0,3.0390608E-1,-3.0783245E-1,1.0672767E-3,4.3666205E-1,1.4862677E0,-4.828347E-2,-4.236672E-1,3.7340015E-1,-5.5784386E-1,9.2844246E-4,-1.5414815E-3,4.8853466E-1,-4.969777E-1,2.4103445E-3,4.8822388E-1,-6.5406575E-4,4.682953E-1,-7.5557833E-3,-4.4203904E-1,2.0919666E-3],"categories":[],"categories_nodes":[],"categories_segments":[],"categories_sizes":[],"default_left":[0,0,0,0,0,0,0,0,0,0,0,0,0,0,0,0,0,0,0,0,0,0,0,0,0,0,0,0,0,0,0,0,0,0,0,0,0,0,0,0,0,0,0,0,0,0,0,0,0,0,0,0,0,0,0,0,0,0,0,0,0,0,0,0,0,0,0,0,0,0,0,0,0,0,0,0,0,0,0,0,0,0,0,0,0,0,0,0,0,0,0,0,0,0,0,0,0,0,0,0,0,0,0,0,0,0,0,0,0,0,0,0,0,0,0],"id":10,"left_children":[1,29,3,5,11,13,7,9,17,23,-1,19,15,57,21,51,25,77,69,105,79,31,107,-1,-1,27,83,-1,-1,33,61,-1,-1,35,39,37,93,43,91,45,41,103,81,-1,-1,49,47,-1,-1,-1,-1,53,55,-1,-1,-1,-1,59,113,-1,-1,63,71,65,85,109,67,-1,-1,-1,-1,73,99,75,-1,-1,-1,-1,-1,-1,89,-1,-1,-1,-1,-1,87,-1,-1,-1,-1,-1,-1,95,97,-1,-1,-1,-1,111,101,-1,-1,-1,-1,-1,-1,-1,-1,-1,-1,-1,-1,-1,-1],"loss_changes":[8.888382E0,7.7292433E0,1.4005745E1,1.6390844E1,1.1415672E1,1.0406588E1,1.5496313E1,1.7377235E1,9.515617E0,8.151678E0,0E0,8.500278E0,9.966972E0,5.444968E0,8.386871E0,6.105237E0,7.993512E0,4.893696E0,5.3072147E0,1.9385815E0,4.721231E0,7.6820927E0,1.8277788E0,0E0,0E0,9.655746E0,4.5452986E0,0E0,0E0,7.627316E0,5.4055395E0,0E0,0E0,1.3395846E1,7.2196703E0,7.514649E0,3.0249405E0,6.7013845E0,3.1045413E0,6.5401874E0,1.1101809E1,2.4558182E0,4.594524E0,0E0,0E0,9.929786E0,1.222982E1,0E0,0E0,0E0,0E0,7.0501866E0,6.1097317E0,0E0,0E0,0E0,0E0,5.8476343E0,1.6218824E0,0E0,0E0,5.4095507E0,5.1931887E0,7.450123E0,3.5260906E0,1.7036891E0,5.3883586E0,0E0,0E0,0E0,0E0,6.4508047E0,2.472661E0,6.721468E0,0E0,0E0,0E0,0E0,0E0,0E0,3.2162404E0,0E0,0E0,0E0,0E0,0E0,5.5193725E0,0E0,0E0,0E0,0E0,0E0,0E0,2.745976E0,2.6734009E0,0E0,0E0,0E0,0E0,1.6715803E0,3.724179E0,0E0,0E0,0E0,0E0,0E0,0E0,0E0,0E0,0E0,0E0,0E0,0E0,0E0,0E0],"parents":[2147483647,0,0,2,2,3,3,6,6,7,7,4,4,5,5,12,12,8,8,11,11,14,14,9,9,16,16,25,25,1,1,21,21,29,29,33,33,35,35,34,34,40,40,37,37,39,39,46,46,45,45,15,15,51,51,52,52,13,13,57,57,30,30,61,61,63,63,66,66,18,18,62,62,71,71,73,73,17,17,20,20,42,42,26,26,64,64,86,86,80,80,38,38,36,36,93,93,94,94,72,72,100,100,41,41,19,19,22,22,65,65,99,99,58,58],"right_children":[2,30,4,6,12,14,8,10,18,24,-1,20,16,58,22,52,26,78,70,106,80,32,108,-1,-1,28,84,-1,-1,34,62,-1,-1,36,40,38,94,44,92,46,42,104,82,-1,-1,50,48,-1,-1,-1,-1,54,56,-1,-1,-1,-1,60,114,-1,-1,64,72,66,86,110,68,-1,-1,-1,-1,74,100,76,-1,-1,-1,-1,-1,-1,90,-1,-1,-1,-1,-1,88,-1,-1,-1,-1,-1,-1,96,98,-1,-1,-1,-1,112,102,-1,-1,-1,-1,-1,-1,-1,-1,-1,-1,-1,-1,-1,-1],"split_conditions":[9.3863204E-2,4.3920197E-2,3.696203E-4,4.788069E-1,-1.5367313E-3,1.03719256E-4,1.9892927E-3,4.7E1,1.5023708E0,1E0,5.0279874E-1,4.528302E-2,4.3662544E-4,8.0472855E-5,4E1,2.1104424E-3,2.6662047E-3,3.4941763E-2,7.3412055E-1,1.3412547E-3,4.0816326E-2,-3.0409E-4,1.0490105E0,-3.4217086E-2,-1.5080912E-1,3.2857144E-1,-3.6890104E-1,-6.0543172E-2,2.2849634E-1,-3.5548797E-3,-2.6557425E-3,-1.4176735E-2,1.9312398E-1,4.0631523E-4,1.6469063E-2,-3.7388494E-3,-2.5724638E-1,2.1E1,1.5852225E-3,1.177994E0,2.185263E-2,9.072165E-1,-1.5475495E-3,-1.1233012E-1,1.6834152E-1,4.131054E-1,2.0459308E-3,-5.8471564E-2,6.489185E-2,-1.0042233E-1,2.732776E-2,1.7962394E-3,1.1313194E-1,1.8513425E-1,-1.5507396E-1,-1.9175763E-1,3.730033E-1,1.1229082E-3,5.7614404E-1,-2.786848E-1,1.8779334E-1,7.34097E-2,6.896552E-1,9.4736844E-2,2.1454943E-3,8.0140063E-4,1.1827792E-4,3.5540584E-1,-4.250336E-1,-2.7700233E-1,2.0525765E-1,6.6295886E-1,3.810885E-4,1.8407796E-4,-3.8707352E-1,9.577042E-3,1.5167275E-1,-3.2158548E-1,-1.3749728E-1,4.4956684E-1,2.476101E0,1.8219586E-1,-4.1453615E-1,4.0738007E-1,-2.6292884E-1,-4.8160386E-1,9.210526E-2,3.786184E-1,-3.423457E-1,-1.9504511E-1,3.7408224E-1,2.6907382E-4,5.111768E-1,-5.236593E-1,1.8374339E-3,3.0390608E-1,-3.0783245E-1,1.0672767E-3,4.3666205E-1,2.3067726E-3,7.788241E-3,-4.236672E-1,3.7340015E-1,-5.5784386E-1,9.2844246E-4,-1.5414815E-3,4.8853466E-1,-4.969777E-1,2.4103445E-3,4.8822388E-1,-6.5406575E-4,4.682953E-1,-7.5557833E-3,-4.4203904E-1,2.0919666E-3],"split_indices":[27,27,14,23,0,14,12,30,23,28,0,6,14,14,30,12,12,6,22,12,20,0,22,0,0,20,6,0,0,0,0,0,0,14,2,0,6,30,12,23,2,19,27,0,0,22,12,0,0,0,0,12,27,0,0,0,0,12,6,0,0,27,20,20,12,2,14,0,0,0,0,20,14,14,0,0,0,0,0,0,22,0,0,0,0,0,20,0,0,0,0,0,0,6,12,0,0,0,0,12,2,0,0,0,0,0,0,0,0,0,0,0,0,0,0],"split_type":[0,0,0,0,0,0,0,0,0,0,0,0,0,0,0,0,0,0,0,0,0,0,0,0,0,0,0,0,0,0,0,0,0,0,0,0,0,0,0,0,0,0,0,0,0,0,0,0,0,0,0,0,0,0,0,0,0,0,0,0,0,0,0,0,0,0,0,0,0,0,0,0,0,0,0,0,0,0,0,0,0,0,0,0,0,0,0,0,0,0,0,0,0,0,0,0,0,0,0,0,0,0,0,0,0,0,0,0,0,0,0,0,0,0,0],"sum_hessian":[1.6471047E3,1.172995E3,4.741098E2,3.6513776E2,1.0897205E2,7.6492004E1,2.8864575E2,2.2931627E2,5.9329464E1,2.253885E2,3.9277673E0,1.4820927E1,9.415112E1,1.3050834E1,6.344117E1,3.0930614E1,6.322051E1,5.1393875E1,7.935589E0,8.62649E0,6.194437E0,6.082537E1,2.6158013E0,1.6055675E2,6.4831764E1,4.9066765E1,1.4153743E1,3.768256E1,1.1384207E1,1.0486133E3,1.24381615E2,2.0943356E1,3.9882015E1,4.842626E1,1.0001871E3,3.4975452E1,1.34508095E1,3.0851263E1,4.1241913E0,9.8922235E2,1.0964713E1,5.519572E0,5.445142E0,2.1769827E1,9.081435E0,6.4013464E2,3.4908768E2,2.688008E2,8.0286865E1,5.072167E1,5.89413E2,1.888861E1,1.2042004E1,1.1166973E1,7.721638E0,1.5439351E0,1.0498069E1,7.858146E0,5.192688E0,3.473941E0,4.384205E0,1.1726645E1,1.1265497E2,5.8560195E0,5.8706255E0,2.9457147E0,2.910305E0,7.149426E-1,2.1953623E0,2.2397466E0,5.6958423E0,1.06163765E2,6.491208E0,1.0418626E2,1.977504E0,4.5630413E1,5.8555847E1,3.3954426E1,1.743945E1,1.2904588E0,4.9039783E0,4.446209E0,9.989326E-1,5.94291E-1,1.3559452E1,3.0015128E0,2.869113E0,1.1140567E0,1.7550561E0,4.235859E0,6.6811955E-1,1.3067633E0,2.8174279E0,1.7309306E0,1.1719879E1,8.726181E-1,8.583125E-1,1.2106363E0,1.0509243E1,5.2133117E0,1.2778963E0,6.079914E-1,6.699048E-1,4.832557E0,6.870146E-1,6.711362E-1,7.9553537E0,1.8485788E0,7.6722264E-1,2.243315E0,7.023996E-1,4.5782394E0,6.350724E-1,4.46392E0,7.287677E-1],"tree_param":{"num_deleted":"0","num_feature":"39","num_nodes":"115","size_leaf_vector":"1"}},{"base_weights":[-1.890812E-2,4.2711597E-2,-8.593719E-2,-1.9906075E-1,2.4937145E-2,-1.5490437E-1,-7.7978605E-1,-5.9404083E-2,-4.6643892E-1,-2.7725506E-1,1.2674005E-1,-2.0975098E-2,1.3285807E-1,-6.461232E-1,2.1999097E-1,3.580486E-1,-4.275116E-2,6.957413E-2,-3.6413574E-1,-5.3313607E-1,5.404332E-1,7.9387456E-1,-4.9801067E-1,1.9321996E-1,-2.6449186E-1,-1.4037938E-1,1.4794596E-1,-1.400897E-1,9.980619E-2,6.0773456E-1,6.599975E-2,2.1596655E-1,-3.658904E-2,5.970855E-1,9.275016E-2,-2.06379E-1,4.5410365E-2,-2.299065E-1,8.990355E-2,2.3903394E-1,6.7446707E-3,-3.8628772E-1,2.4388711E-1,-1.406839E0,-1.0914154E-1,-1.6580717E-1,2.0871633E-1,8.4570783E-1,-1.9838074E-1,-6.092733E-3,-1.343043E-1,3.8411345E-2,2.4171558E-1,-1.9526094E-1,3.407804E-1,-4.8452693E-1,3.4566793E-1,-1.4782993E0,9.187677E-2,1.0355486E-2,1.2178495E-1,3.7662327E-1,-1.7904818E-1,-1.5263274E-1,-5.1400936E-1,-3.3617762E-1,7.65125E-1,4.9745774E-1,-1.9574608E-1,-1.9920203E-1,2.850905E-1,-3.226239E-1,2.1813293E-1,3.8836688E-1,-3.8483977E-2,4.599559E-1,1.3879306E0,4.2516312E-1,3.4051582E-2,2.4011897E-1,-8.808143E-2,4.0237775E-1,-5.416502E-1,4.089699E-1,-2.0294714E-1,-3.4209248E-2,-3.3992288E-1,-8.9185796E-4,-4.5471007E-1,-2.4894227E-1,-9.092138E-2,-2.0018522E-1,-1.0273529E0,-1.3807715E0,6.1302786E-3,4.93518E-1,-1.2432338E0,-1.7853142E-1,4.3677303E-1,-4.8679244E-2,4.2273423E-1,4.4770655E-1,7.102782E-2,8.077749E-4,-4.7975835E-1,-4.540675E-1,-6.6766595E-5,1.656131E-4,-4.0496933E-1,-4.464981E-1,-1.3662998E-1],"categories":[],"categories_nodes":[],"categories_segments":[],"categories_sizes":[],"default_left":[0,0,0,0,0,0,0,0,0,0,0,0,0,0,0,0,0,0,0,0,0,0,0,0,0,0,0,0,0,0,0,0,0,0,0,0,0,0,0,0,0,0,0,0,0,0,0,0,0,0,0,0,0,0,0,0,0,0,0,0,0,0,0,0,0,0,0,0,0,0,0,0,0,0,0,0,0,0,0,0,0,0,0,0,0,0,0,0,0,0,0,0,0,0,0,0,0,0,0,0,0,0,0,0,0,0,0,0,0,0,0],"id":11,"left_children":[1,27,3,5,15,7,91,9,13,79,11,-1,-1,53,45,19,17,23,55,57,21,41,83,59,25,-1,-1,43,29,47,31,33,37,51,35,-1,-1,49,39,-1,-1,-1,-1,109,61,-1,-1,75,81,-1,-1,-1,-1,-1,-1,89,73,103,71,-1,-1,65,63,85,-1,67,69,-1,-1,-1,-1,-1,-1,-1,-1,77,101,-1,-1,-1,-1,-1,87,-1,-1,-1,-1,-1,-1,-1,-1,95,93,107,97,99,105,-1,-1,-1,-1,-1,-1,-1,-1,-1,-1,-1,-1,-1,-1],"loss_changes":[6.788266E0,8.941542E0,9.874673E0,9.959645E0,8.973255E0,1.07764435E1,3.8861427E0,1.1271929E1,1.0522539E1,5.9087687E0,1.0675443E1,0E0,0E0,7.4276276E0,7.8646913E0,1.1000616E1,1.1950014E1,1.0149131E1,7.3703814E0,6.860671E0,1.4823509E1,8.625839E0,5.3937364E0,6.8518357E0,1.2828291E1,0E0,0E0,7.952829E0,1.1196827E1,7.852319E0,9.422011E0,1.1666202E1,8.901513E0,7.580881E0,1.1169935E1,0E0,0E0,7.5928183E0,1.112618E1,0E0,0E0,0E0,0E0,6.7806625E-1,6.787341E0,0E0,0E0,6.412121E0,5.5757422E0,0E0,0E0,0E0,0E0,0E0,0E0,4.672058E0,6.468881E0,1.7054453E0,6.506499E0,0E0,0E0,7.0372567E0,7.6278086E0,5.387128E0,0E0,7.4432273E0,6.540264E0,0E0,0E0,0E0,0E0,0E0,0E0,0E0,0E0,6.737499E0,3.1764107E0,0E0,0E0,0E0,0E0,0E0,4.746353E0,0E0,0E0,0E0,0E0,0E0,0E0,0E0,0E0,6.352289E0,7.0093536E0,1.5305252E0,5.5091143E0,3.7366157E0,1.6997967E0,0E0,0E0,0E0,0E0,0E0,0E0,0E0,0E0,0E0,0E0,0E0,0E0,0E0,0E0],"parents":[2147483647,0,0,2,2,3,3,5,5,7,7,10,10,8,8,4,4,16,16,15,15,20,20,17,17,24,24,1,1,28,28,30,30,31,31,34,34,32,32,38,38,21,21,27,27,14,14,29,29,37,37,33,33,13,13,18,18,19,19,23,23,44,44,62,62,61,61,65,65,66,66,58,58,56,56,47,47,75,75,9,9,48,48,22,22,63,63,82,82,55,55,6,6,92,92,91,91,94,94,95,95,76,76,57,57,96,96,93,93,43,43],"right_children":[2,28,4,6,16,8,92,10,14,80,12,-1,-1,54,46,20,18,24,56,58,22,42,84,60,26,-1,-1,44,30,48,32,34,38,52,36,-1,-1,50,40,-1,-1,-1,-1,110,62,-1,-1,76,82,-1,-1,-1,-1,-1,-1,90,74,104,72,-1,-1,66,64,86,-1,68,70,-1,-1,-1,-1,-1,-1,-1,-1,78,102,-1,-1,-1,-1,-1,88,-1,-1,-1,-1,-1,-1,-1,-1,96,94,108,98,100,106,-1,-1,-1,-1,-1,-1,-1,-1,-1,-1,-1,-1,-1,-1],"split_conditions":[2.7807662E-1,6.136629E-1,5.645749E-3,2.0869977E0,-8.660254E-1,4.1272727E-1,1.121427E0,2.4581197E-4,3.9400766E-3,3.577696E-1,1.9900498E-1,-2.0975098E-2,1.3285807E-1,1.8520104E0,-1.908409E-4,8.070459E-1,1.1018476E0,1.6312695E0,1.2403101E0,9.9206895E-1,3.4443694E-3,3.87019E-14,8.180454E-1,5.208988E-1,1.9304665E-3,-1.4037938E-1,1.4794596E-1,-2.1171966E0,-4.9507388E-1,-1.3647083E-3,4.8059306E-1,-1.7157387E0,-1.2341596E0,9.76479E-1,-1.6800556E-2,-2.06379E-1,4.5410365E-2,-6.450591E-3,-1.4064362E-2,2.3903394E-1,6.7446707E-3,-3.8628772E-1,2.4388711E-1,2.3532403E0,-7.0710677E-1,-1.6580717E-1,2.0871633E-1,-5.736557E-3,-2.5881904E-1,-6.092733E-3,-1.343043E-1,3.8411345E-2,2.4171558E-1,-1.9526094E-1,3.407804E-1,7.8048534E-3,5.010154E-1,-1.8792759E-3,7.8048534E-3,1.0355486E-2,1.2178495E-1,4.6582642E-1,2.2433074E-3,8.702323E-3,-5.1400936E-1,3.6947963E-1,4.347826E-2,4.9745774E-1,-1.9574608E-1,-1.9920203E-1,2.850905E-1,-3.226239E-1,2.1813293E-1,3.8836688E-1,-3.8483977E-2,-1.4440972E-2,2.7527986E-3,4.2516312E-1,3.4051582E-2,2.4011897E-1,-8.808143E-2,4.0237775E-1,4.3411083E-3,4.089699E-1,-2.0294714E-1,-3.4209248E-2,-3.3992288E-1,-8.9185796E-4,-4.5471007E-1,-2.4894227E-1,-9.092138E-2,1.2290541E0,3.4085652E-3,-5.236593E-1,1.9900498E-1,1.0015662E0,7.2778077E-3,-1.7853142E-1,4.3677303E-1,-4.8679244E-2,4.2273423E-1,4.4770655E-1,7.102782E-2,8.077749E-4,-4.7975835E-1,-4.540675E-1,-6.6766595E-5,1.656131E-4,-4.0496933E-1,-4.464981E-1,-1.3662998E-1],"split_indices":[4,23,15,4,9,20,23,0,15,29,20,0,0,4,0,23,22,4,6,4,0,20,4,29,0,0,0,4,6,15,29,4,4,22,15,0,0,15,15,0,0,0,0,22,9,0,0,15,9,0,0,0,0,0,0,15,23,0,15,0,0,29,0,15,0,29,20,0,0,0,0,0,0,0,0,15,5,0,0,0,0,0,15,0,0,0,0,0,0,0,0,22,5,6,20,22,5,0,0,0,0,0,0,0,0,0,0,0,0,0,0],"split_type":[0,0,0,0,0,0,0,0,0,0,0,0,0,0,0,0,0,0,0,0,0,0,0,0,0,0,0,0,0,0,0,0,0,0,0,0,0,0,0,0,0,0,0,0,0,0,0,0,0,0,0,0,0,0,0,0,0,0,0,0,0,0,0,0,0,0,0,0,0,0,0,0,0,0,0,0,0,0,0,0,0,0,0,0,0,0,0,0,0,0,0,0,0,0,0,0,0,0,0,0,0,0,0,0,0,0,0,0,0,0,0],"sum_hessian":[1.6430156E3,8.560969E2,7.8691876E2,3.8940573E2,3.9751306E2,3.622033E2,2.7202423E1,2.774655E2,8.473778E1,1.2778563E2,1.496799E2,9.515599E1,5.452391E1,6.717099E1,1.7566786E1,6.6941376E1,3.305717E2,2.4511148E2,8.54602E1,1.1284942E1,5.5656433E1,4.4788578E1,1.0867855E1,1.789803E2,6.613118E1,5.0856014E1,1.5275167E1,2.0365472E2,6.524422E2,4.0431915E1,6.1201025E2,2.4848251E2,3.6352777E2,6.045661E1,1.880259E2,1.4477533E1,1.7354837E2,1.436993E2,2.1982848E2,1.6991375E1,2.028371E2,1.5107588E0,4.327782E1,4.5740275E0,1.9908069E2,6.9108353E0,1.0655951E1,3.1206835E1,9.2250805E0,7.912732E1,6.457197E1,2.2719973E1,3.773664E1,6.534983E1,1.821156E0,7.313999E1,1.2320209E1,4.3475103E0,6.9374313E0,1.0961296E2,6.936733E1,2.4897593E1,1.741831E2,1.7176024E2,2.4228597E0,8.795254E0,1.6102337E1,1.1470182E0,7.648236E0,2.3441572E0,1.3758181E1,2.4068222E0,4.530609E0,3.7233462E0,8.596863E0,1.8522625E1,1.2684211E1,4.2106504E0,1.4311975E1,4.1292973E0,1.2365633E2,1.4426471E0,7.7824335E0,9.979545E-1,9.8699E0,1.674546E2,4.3056264E0,5.3975954E0,2.3848379E0,1.9850931E1,5.328906E1,8.286317E0,1.8916105E1,1.4029408E1,4.8866973E0,5.060584E0,3.2257323E0,3.5661678E0,1.3205295E0,3.2003994E0,1.8601848E0,1.0493061E1,2.1911497E0,6.6382515E-1,3.6836853E0,2.3884842E0,8.3724797E-1,7.5862586E-1,1.3270782E1,3.584478E0,9.8954964E-1],"tree_param":{"num_deleted":"0","num_feature":"39","num_nodes":"111","size_leaf_vector":"1"}},{"base_weights":[1.1490243E-2,-3.3689737E-2,1.2138648E-1,5.8392787E-1,7.323154E-2,6.928251E-1,3.605846E-2,1.4466844E0,3.6495793E-1,-7.655847E-1,6.8094724E-1,-1.4516679E0,1.0329773E0,1.0234036E0,-2.84345E-1,6.2191818E-2,-1.01621166E-1,8.573398E-2,-9.966633E-1,-2.756654E-2,-3.2900828E-1,-1.0308491E0,-1.9821995E-3,4.8853663E-1,-4.8782624E-2,-2.7080506E-1,-2.8771502E-3,-4.210392E-1,3.41714E-1,2.118022E-3,2.7142864E-1,-5.0433683E-1,4.4249225E-1,1.7152171E0,-3.5427603E-1,6.1535746E-1,5.7582546E-2,-3.829601E-1,7.670882E-1,-9.437584E-2,1.5812689E-1,-2.3465133E-3,-2.0386778E-1,2.7930036E-1,3.502953E-2,-1.6358994E0,1.1279909E-4,-4.4152755E-1,4.67806E-1,-1.4500186E-1,3.248523E-2,3.1709638E-1,-2.8422552E-3,9.43909E-1,-1.6862412E-1,5.175425E-1,-1.7181206E-1,2.6339206E-3,3.478712E-1,-1.395502E-1,5.6490505E-1,-1.09492525E-1,1.3686861E-1,-7.082653E-2,-4.441083E-1,-6.1158426E-2,1.2466634E-1,-3.5211116E-1,1.9615348E-1,2.3707181E-1,3.911573E-2,-3.8371214E-1,4.9951112E-1,-3.4979165E-1,-3.2390967E-2,-7.6595426E-1,1.1750782E0,1.7653772E-1,-3.637392E-1,-2.1881448E-2,-1.3890623E0,-3.37096E-1,3.773575E-1,9.8010674E-2,4.148229E-1,-9.2320526E-1,6.8438333E-1,-4.1144612E-1,5.445438E-1,3.2253084E-1,-3.355143E-1,-4.5818326E-1,2.4749262E-3,-1.3093251E-1,4.0923524E-1,7.5976294E-4,-5.080568E-1,1.1710958E-3,-4.009227E-1,-2.1175172E-3,4.4719052E-1,2.2728525E-3,-3.6884806E-1],"categories":[],"categories_nodes":[],"categories_segments":[],"categories_sizes":[],"default_left":[0,0,0,0,0,0,0,0,0,0,0,0,0,0,0,0,0,0,0,0,0,0,0,0,0,0,0,0,0,0,0,0,0,0,0,0,0,0,0,0,0,0,0,0,0,0,0,0,0,0,0,0,0,0,0,0,0,0,0,0,0,0,0,0,0,0,0,0,0,0,0,0,0,0,0,0,0,0,0,0,0,0,0,0,0,0,0,0,0,0,0,0,0,0,0,0,0,0,0,0,0,0,0],"id":12,"left_children":[1,15,3,7,5,13,61,33,9,11,53,31,99,75,85,17,19,35,45,21,27,79,23,29,25,-1,-1,47,71,-1,-1,-1,-1,59,-1,37,39,-1,51,41,43,-1,-1,-1,-1,95,87,49,-1,-1,-1,-1,-1,57,55,-1,-1,-1,-1,-1,-1,63,67,65,-1,-1,-1,73,69,-1,-1,-1,77,-1,-1,101,83,-1,-1,81,91,-1,-1,-1,-1,97,93,-1,89,-1,-1,-1,-1,-1,-1,-1,-1,-1,-1,-1,-1,-1,-1],"loss_changes":[8.080528E0,7.5139694E0,1.0549136E1,8.297236E0,9.890814E0,7.9300833E0,5.956794E0,7.1273804E0,1.2993557E1,1.0253576E1,6.357148E0,7.307619E0,1.4220273E0,5.1853046E0,4.1000805E0,1.1948979E1,1.13668E1,6.9722614E0,6.6445913E0,1.3079587E1,1.0275457E1,4.5708914E0,1.1420035E1,1.0183585E1,1.616056E1,0E0,0E0,6.4938736E0,5.6650043E0,0E0,0E0,0E0,0E0,6.1163654E0,0E0,7.4249477E0,6.802163E0,0E0,6.4435883E0,9.746126E0,7.2292066E0,0E0,0E0,0E0,0E0,2.0169315E0,3.7156157E0,6.5328674E0,0E0,0E0,0E0,0E0,0E0,6.2343693E0,6.6229615E0,0E0,0E0,0E0,0E0,0E0,0E0,9.539551E0,6.9701185E0,1.2622688E1,0E0,0E0,0E0,5.5212736E0,7.75086E0,0E0,0E0,0E0,4.81929E0,0E0,0E0,6.9329804E-1,4.2867184E0,0E0,0E0,6.3490076E0,3.4121037E0,0E0,0E0,0E0,0E0,1.9049561E0,2.627843E0,0E0,4.016102E0,0E0,0E0,0E0,0E0,0E0,0E0,0E0,0E0,0E0,0E0,0E0,0E0,0E0,0E0],"parents":[2147483647,0,0,2,2,4,4,3,3,8,8,9,9,5,5,1,1,15,15,16,16,19,19,22,22,24,24,20,20,23,23,11,11,7,7,17,17,35,35,36,36,39,39,40,40,18,18,27,27,47,47,38,38,10,10,54,54,53,53,33,33,6,6,61,61,63,63,62,62,68,68,28,28,67,67,13,13,72,72,21,21,79,79,76,76,14,14,46,46,88,88,80,80,86,86,45,45,85,85,12,12,75,75],"right_children":[2,16,4,8,6,14,62,34,10,12,54,32,100,76,86,18,20,36,46,22,28,80,24,30,26,-1,-1,48,72,-1,-1,-1,-1,60,-1,38,40,-1,52,42,44,-1,-1,-1,-1,96,88,50,-1,-1,-1,-1,-1,58,56,-1,-1,-1,-1,-1,-1,64,68,66,-1,-1,-1,74,70,-1,-1,-1,78,-1,-1,102,84,-1,-1,82,92,-1,-1,-1,-1,98,94,-1,90,-1,-1,-1,-1,-1,-1,-1,-1,-1,-1,-1,-1,-1,-1],"split_conditions":[1.0019202E0,-6.640437E-4,1.0021521E0,-7.751618E-4,9.900641E-4,1.8108642E-1,1.7306564E-3,1.7288444E0,3.841188E-1,4.318182E-1,3.6945814E-1,7.916667E-1,4.4700462E-1,-5.6284153E-1,5.770009E-3,2.8801498E0,4.1272727E-1,-5.101089E-1,9.9979085E-1,-5.546019E-4,1.4695244E0,-2.7248678E-1,1E-2,7.7246207E-1,2.9533373E-2,-2.7080506E-1,-2.8771502E-3,3.8647544E-1,4.4262296E-1,2.118022E-3,2.7142864E-1,-5.0433683E-1,4.4249225E-1,-8.660254E-1,-3.5427603E-1,3.5989618E-1,-1.1233168E-1,-3.829601E-1,-1.9808495E-3,1.7650753E0,-4.05569E-1,-2.3465133E-3,-2.0386778E-1,2.7930036E-1,3.502953E-2,9.953343E-1,2.3293152E0,3.6400037E-3,4.67806E-1,-1.4500186E-1,3.248523E-2,3.1709638E-1,-2.8422552E-3,-1.7191269E-1,-2.0515586E-1,5.175425E-1,-1.7181206E-1,2.6339206E-3,3.478712E-1,-1.395502E-1,5.6490505E-1,1.0073606E0,2.4475524E-2,1.004693E0,-4.441083E-1,-6.1158426E-2,1.2466634E-1,4.224476E-1,1.8105677E-3,2.3707181E-1,3.911573E-2,-3.8371214E-1,3.4634932E-3,-3.4979165E-1,-3.2390967E-2,4.5561525E-3,4.5804766E-1,1.7653772E-1,-3.637392E-1,-3.7666264E-1,1.0008581E0,-3.37096E-1,3.773575E-1,9.8010674E-2,4.148229E-1,2.5805598E-1,8.8445476E-4,-4.1144612E-1,3.4849463E0,3.2253084E-1,-3.355143E-1,-4.5818326E-1,2.4749262E-3,-1.3093251E-1,4.0923524E-1,7.5976294E-4,-5.080568E-1,1.1710958E-3,-4.009227E-1,-2.1175172E-3,4.4719052E-1,2.2728525E-3,-3.6884806E-1],"split_indices":[17,1,17,15,3,27,3,22,7,20,21,21,20,6,15,22,20,6,17,1,22,6,21,22,21,0,0,27,20,0,0,0,0,8,0,29,6,0,15,7,27,0,0,0,0,17,7,1,0,0,0,0,0,27,27,0,0,0,0,0,0,17,20,17,0,0,0,29,3,0,0,0,1,0,0,15,29,0,0,6,17,0,0,0,0,27,3,0,7,0,0,0,0,0,0,0,0,0,0,0,0,0,0],"split_type":[0,0,0,0,0,0,0,0,0,0,0,0,0,0,0,0,0,0,0,0,0,0,0,0,0,0,0,0,0,0,0,0,0,0,0,0,0,0,0,0,0,0,0,0,0,0,0,0,0,0,0,0,0,0,0,0,0,0,0,0,0,0,0,0,0,0,0,0,0,0,0,0,0,0,0,0,0,0,0,0,0,0,0,0,0,0,0,0,0,0,0,0,0,0,0,0,0,0,0,0,0,0,0],"sum_hessian":[1.6269681E3,1.1530944E3,4.7387372E2,4.4402424E1,4.294713E2,2.404146E1,4.0542984E2,8.6854105E0,3.5717014E1,7.7191167E0,2.7997898E1,5.6250257E0,2.094091E0,1.7955084E1,6.086375E0,4.7818198E2,6.749124E2,4.6802145E2,1.0160511E1,5.093348E2,1.655776E2,1.240462E1,4.9693018E2,4.3062653E1,4.5386752E2,1.7816444E1,4.360511E2,1.4568745E2,1.9890152E1,2.1844141E1,2.121851E1,5.120041E0,5.049848E-1,7.9954786E0,6.899314E-1,2.334018E1,4.4468127E2,1.4976195E0,2.184256E1,1.7707281E2,2.6760846E2,1.5634357E2,2.072924E1,9.437716E0,2.5817075E2,6.0867124E0,4.0737987E0,1.4449222E2,1.1952364E0,1.2628538E2,1.8206835E1,1.4653969E1,7.18859E0,2.1358053E1,6.6398463E0,1.0519273E0,5.5879188E0,5.3725724E0,1.598548E1,9.857582E-1,7.009721E0,1.6588928E2,2.3954056E2,1.619647E2,3.9245653E0,1.25922905E2,3.604181E1,2.5758823E1,2.1378174E2,1.628746E1,1.9749428E2,1.4948308E0,1.839532E1,5.0680313E0,2.0690792E1,1.318477E0,1.6636608E1,1.7268692E1,1.1266303E0,3.3245254E0,9.080095E0,1.801672E0,1.5228534E0,4.803989E0,1.1832619E1,3.6754642E0,2.4109108E0,9.7121155E-1,3.102587E0,2.3615937E0,7.4099344E-1,7.612388E0,1.4677069E0,1.0215126E0,1.3893983E0,6.7043084E-1,5.4162817E0,1.4158565E0,2.2596076E0,8.407241E-1,1.253367E0,6.648005E-1,6.536765E-1],"tree_param":{"num_deleted":"0","num_feature":"39","num_nodes":"103","size_leaf_vector":"1"}},{"base_weights":[-2.9696655E-2,-2.6060732E-2,-3.862446E-1,-3.9951533E-2,4.2576858E-1,1.4482626E-1,-6.500491E-2,-2.0548387E-1,3.6116102E-1,6.1636406E-1,-1.3498166E-1,1.8392281E-1,-5.9708804E-1,1.2760253E-1,-1.4456357E-1,2.7150595E-1,8.878044E-2,5.288035E-2,-2.4158661E-1,-3.1682557E-1,-4.3409806E-2,-4.906408E-1,1.0683307E-1,8.710456E-2,-3.8115942E-1,-3.0425087E-1,-7.746508E-2,-1.5790921E-1,1.24688216E-1,7.248489E-1,-6.880316E-2,-3.619501E-2,-7.963352E-1,-1.2511401E-1,-6.511792E-3,-1.0536687E0,2.5172475E-1,3.4011188E-1,-4.3370295E-1,-2.503773E-1,8.951008E-1,-3.984461E-1,6.4546424E-1,3.77683E-1,-5.710379E-2,-2.4408118E-1,1.9190216E-1,3.8116947E-1,-3.7591273E-1,3.3923596E-1,-2.6465675E-1,1.0610849E0,-9.385141E-4,3.8933805E-1,1.3600823E-1,-1.5403636E-1,3.9593077E-1],"categories":[],"categories_nodes":[],"categories_segments":[],"categories_sizes":[],"default_left":[0,0,0,0,0,0,0,0,0,0,0,0,0,0,0,0,0,0,0,0,0,0,0,0,0,0,0,0,0,0,0,0,0,0,0,0,0,0,0,0,0,0,0,0,0,0,0,0,0,0,0,0,0,0,0,0,0],"id":13,"left_children":[1,3,-1,5,29,7,19,11,9,15,13,27,17,-1,-1,-1,-1,-1,-1,21,31,25,23,-1,-1,-1,-1,-1,-1,39,35,33,49,-1,-1,37,43,-1,-1,41,51,-1,47,-1,45,-1,-1,-1,-1,-1,-1,53,55,-1,-1,-1,-1],"loss_changes":[7.991068E0,1.0126529E1,0E0,7.2469206E0,7.132098E0,1.4185976E1,7.4912176E0,1.0937963E1,1.4666816E1,8.10758E0,9.117978E0,7.2628384E0,7.721057E0,0E0,0E0,0E0,0E0,0E0,0E0,8.027009E0,6.8892164E0,9.805157E0,9.865958E0,0E0,0E0,0E0,0E0,0E0,0E0,5.0432367E0,5.8726234E0,6.640578E0,4.1152415E0,0E0,0E0,5.7927895E0,4.840418E0,0E0,0E0,5.2005405E0,3.809845E0,0E0,4.625162E0,0E0,7.088853E0,0E0,0E0,0E0,0E0,0E0,0E0,4.024475E0,3.5822048E0,0E0,0E0,0E0,0E0],"parents":[2147483647,0,0,1,1,3,3,5,5,8,8,7,7,10,10,9,9,12,12,6,6,19,19,22,22,21,21,11,11,4,4,20,20,31,31,30,30,35,35,29,29,39,39,36,36,44,44,42,42,32,32,40,40,51,51,52,52],"right_children":[2,4,-1,6,30,8,20,12,10,16,14,28,18,-1,-1,-1,-1,-1,-1,22,32,26,24,-1,-1,-1,-1,-1,-1,40,36,34,50,-1,-1,38,44,-1,-1,42,52,-1,48,-1,46,-1,-1,-1,-1,-1,-1,54,56,-1,-1,-1,-1],"split_conditions":[3.2794244E0,7.27729E-3,-3.862446E-1,9.7467075E-4,3.6616346E-3,1.443508E-4,-4.1840732E-1,6.1266626E-5,1.8691999E-3,6.9070124E-4,4.5650882E-1,1.25E-1,4.3909806E-1,1.2760253E-1,-1.4456357E-1,2.7150595E-1,8.878044E-2,5.288035E-2,-2.4158661E-1,3.6524335E-4,4.673876E-1,5E0,1.6378185E0,8.710456E-2,-3.8115942E-1,-3.0425087E-1,-7.746508E-2,-1.5790921E-1,1.24688216E-1,-2.5447288E-1,3.9025508E-3,-2.457549E0,-2.5350318E0,-1.2511401E-1,-6.511792E-3,2.41177E-4,-1.5381743E-1,3.4011188E-1,-4.3370295E-1,-1.9724771E-1,2.675708E0,-3.984461E-1,-2.7487788E-1,3.77683E-1,1.7246134E-3,-2.4408118E-1,1.9190216E-1,3.8116947E-1,-3.7591273E-1,3.3923596E-1,-2.6465675E-1,3.0237406E-3,2.7586207E-1,3.8933805E-1,1.3600823E-1,-1.5403636E-1,3.9593077E-1],"split_indices":[4,1,0,5,3,14,6,0,3,5,29,20,29,0,0,0,0,0,0,14,27,30,4,0,0,0,0,0,0,27,3,4,4,0,0,14,27,0,0,6,4,0,27,0,27,0,0,0,0,0,0,3,20,0,0,0,0],"split_type":[0,0,0,0,0,0,0,0,0,0,0,0,0,0,0,0,0,0,0,0,0,0,0,0,0,0,0,0,0,0,0,0,0,0,0,0,0,0,0,0,0,0,0,0,0,0,0,0,0,0,0,0,0,0,0,0,0],"sum_hessian":[1.6165381E3,1.6125024E3,4.0356064E0,1.5646438E3,4.7858696E1,1.8666068E2,1.377983E3,7.126795E1,1.1539272E2,7.6156265E1,3.9236454E1,3.5804497E1,3.546346E1,1.5416103E1,2.382035E1,3.4062828E1,4.209344E1,9.145154E0,2.6318306E1,1.0854738E2,1.2694357E3,7.694002E1,3.1607363E1,2.7914976E1,3.692386E0,1.9657112E1,5.7282906E1,9.246359E0,2.6558136E1,2.9746874E1,1.811182E1,1.2576642E3,1.1771534E1,3.726453E1,1.2203997E3,4.29792E0,1.38139E1,7.149252E-1,3.5829952E0,4.4022245E0,2.5344648E1,1.8270222E0,2.5752022E0,2.8132045E0,1.1000696E1,5.220298E0,5.7803984E0,1.9497907E0,6.254114E-1,7.1733E-1,1.1054204E1,2.1342552E1,4.002096E0,1.3124451E1,8.218102E0,3.000617E0,1.0014789E0],"tree_param":{"num_deleted":"0","num_feature":"39","num_nodes":"57","size_leaf_vector":"1"}},{"base_weights":[-1.0562919E-2,-2.0475426E-1,1.3382984E-2,5.100158E-1,-2.8427538E-1,-3.6842018E-1,4.3345743E-1,-2.9227683E-1,1.0766034E0,1.8419266E-2,-9.861835E-1,8.8901603E-1,-4.6079084E-1,-2.4681379E-1,-7.5080866E-1,-3.2545158E-1,5.68621E-1,2.48496E-2,-1.600397E-1,3.9559782E-1,-1.4530395E-1,5.034122E-1,-9.569083E-1,-1.3583164E0,-4.552169E-1,2.576991E-2,-3.4586158E-1,1.06764E-1,-2.437886E-2,4.3553632E-1,9.460687E-2,1.8819068E-1,-7.1301356E-2,2.4432322E-1,3.4377832E-2,5.960143E-2,-6.7756385E-2,-4.4504616E-1,-7.1004084E-3,4.0572155E-1,-5.2752674E-1,-3.4534153E-2,-2.6529306E-1,1.3135813E0,-3.4179732E-1,-8.315805E-2,6.749182E-2,7.893376E-6,-9.630678E-2,1.4858349E-1,7.19157E-3,-5.382261E-1,1.1547924E0,1.3443182E0,-3.6443457E-1,3.6575177E-1,-4.3151143E-1,3.9006358E-1,-1.0973153E0,-3.401294E-1,2.9271114E-1,2.8900956E-3,-4.5776314E-1,4.445543E-1,-1.20328456E-1,-1.4604424E0,1.2043887E-1,4.3126732E-1,-2.5049702E-3,-5.07286E-1,6.093182E-4,-3.5338104E-1,-2.3991977E-1,-2.8155288E-1,3.9754272E-1,-3.8153076E-1,4.110586E-3],"categories":[],"categories_nodes":[],"categories_segments":[],"categories_sizes":[],"default_left":[0,0,0,0,0,0,0,0,0,0,0,0,0,0,0,0,0,0,0,0,0,0,0,0,0,0,0,0,0,0,0,0,0,0,0,0,0,0,0,0,0,0,0,0,0,0,0,0,0,0,0,0,0,0,0,0,0,0,0,0,0,0,0,0,0,0,0,0,0,0,0,0,0,0,0,0,0],"id":14,"left_children":[1,3,9,11,5,13,7,57,43,27,71,51,21,15,23,17,19,-1,-1,-1,-1,-1,65,61,25,-1,-1,29,37,-1,31,33,35,-1,-1,-1,-1,39,45,-1,41,-1,-1,63,-1,47,49,-1,-1,-1,-1,55,53,67,-1,-1,-1,59,75,-1,-1,-1,-1,-1,-1,69,-1,-1,-1,-1,-1,-1,73,-1,-1,-1,-1],"loss_changes":[7.4490814E0,1.0033684E1,7.1838417E0,6.621835E0,9.609797E0,6.5503654E0,7.900046E0,4.5509424E0,5.3163366E0,5.3669996E0,1.4463892E0,5.029436E0,6.2648835E0,6.9802E0,5.960758E0,1.0291476E1,9.172884E0,0E0,0E0,0E0,0E0,0E0,3.2486763E0,4.3843174E0,1.0142738E1,0E0,0E0,8.190398E0,6.9498887E0,0E0,7.140964E0,1.3064154E1,8.20847E0,0E0,0E0,0E0,0E0,6.1354294E0,5.21445E0,0E0,6.2376823E0,0E0,0E0,4.315033E0,0E0,9.980181E0,9.020512E0,0E0,0E0,0E0,0E0,4.6795454E0,5.5636225E0,2.8976955E0,0E0,0E0,0E0,5.2410755E0,1.1670356E0,0E0,0E0,0E0,0E0,0E0,0E0,1.7641602E0,0E0,0E0,0E0,0E0,0E0,0E0,3.377487E0,0E0,0E0,0E0,0E0],"parents":[2147483647,0,0,1,1,4,4,6,6,2,2,3,3,5,5,13,13,15,15,16,16,12,12,14,14,24,24,9,9,27,27,30,30,31,31,32,32,28,28,37,37,40,40,8,8,38,38,45,45,46,46,11,11,52,52,51,51,7,7,57,57,23,23,43,43,22,22,53,53,65,65,10,10,72,72,58,58],"right_children":[2,4,10,12,6,14,8,58,44,28,72,52,22,16,24,18,20,-1,-1,-1,-1,-1,66,62,26,-1,-1,30,38,-1,32,34,36,-1,-1,-1,-1,40,46,-1,42,-1,-1,64,-1,48,50,-1,-1,-1,-1,56,54,68,-1,-1,-1,60,76,-1,-1,-1,-1,-1,-1,70,-1,-1,-1,-1,-1,-1,74,-1,-1,-1,-1],"split_conditions":[2E0,2.8177178E-1,7.1E1,4.1641527E-1,3.1783548E-1,1.3412306E-1,1.786658E-3,1.1455139E0,1.0106908E0,-5.302491E-4,9.9872696E-1,-2.7274495E-1,9.9497885E-1,1.004693E0,-2.6911714E-3,-7.479695E-1,1.0013943E-2,2.48496E-2,-1.600397E-1,3.9559782E-1,-1.4530395E-1,5.034122E-1,1.979286E-3,3.521127E-2,1.0011207E0,2.576991E-2,-3.4586158E-1,2.2470708E-1,-4.2988863E-4,4.3553632E-1,2.1483622E-1,1.1834166E-3,9.967468E-1,2.4432322E-1,3.4377832E-2,5.960143E-2,-6.7756385E-2,-9.659258E-1,-1.2E-1,4.0572155E-1,-4.679426E-4,-3.4534153E-2,-2.6529306E-1,2E0,-3.4179732E-1,-1.9628286E-1,6.496391E-14,7.893376E-6,-9.630678E-2,1.4858349E-1,7.19157E-3,-3.4074958E-3,2.235454E-1,-1.3108614E-2,-3.6443457E-1,3.6575177E-1,-4.3151143E-1,1.2765957E-1,9.297252E-4,-3.401294E-1,2.9271114E-1,2.8900956E-3,-4.5776314E-1,4.445543E-1,-1.20328456E-1,5.206357E-1,1.2043887E-1,4.3126732E-1,-2.5049702E-3,-5.07286E-1,6.093182E-4,-3.5338104E-1,7.4E1,-2.8155288E-1,3.9754272E-1,-3.8153076E-1,4.110586E-3],"split_indices":[30,7,30,18,27,27,11,7,24,0,17,27,17,17,2,4,2,0,0,0,0,0,11,21,17,0,0,18,0,0,6,11,24,0,0,0,0,9,6,0,0,0,0,28,0,6,21,0,0,0,0,2,27,6,0,0,0,21,2,0,0,0,0,0,0,18,0,0,0,0,0,0,30,0,0,0,0],"split_type":[0,0,0,0,0,0,0,0,0,0,0,0,0,0,0,0,0,0,0,0,0,0,0,0,0,0,0,0,0,0,0,0,0,0,0,0,0,0,0,0,0,0,0,0,0,0,0,0,0,0,0,0,0,0,0,0,0,0,0,0,0,0,0,0,0,0,0,0,0,0,0,0,0,0,0,0,0],"sum_hessian":[1.6014805E3,1.7558296E2,1.4258975E3,1.7433655E1,1.581493E2,1.416706E2,1.6478718E1,7.8102093E0,8.6685095E0,1.4190099E3,6.887653E0,1.25550995E1,4.878555E0,1.0782114E2,3.3849457E1,9.84843E1,9.336838E0,3.7168102E1,6.13162E1,5.188756E0,4.1480813E0,7.470715E-1,4.1314836E0,1.076517E1,2.3084288E1,1.3769368E1,9.314919E0,4.6296368E2,9.560462E2,3.537553E0,4.5942612E2,2.9371652E2,1.6570961E2,2.4733644E1,2.6898288E2,6.23706E1,1.03339E2,3.745799E1,9.185882E2,1.3688133E0,3.6089176E1,1.8755869E1,1.7333307E1,7.9653735E0,7.031356E-1,4.5481433E2,4.6377386E2,3.4592404E2,1.0889029E2,3.7631443E1,4.2614243E2,1.9277992E0,1.06273E1,9.981903E0,6.453979E-1,6.5384066E-1,1.2739586E0,4.30127E0,3.5089393E0,1.1874535E0,3.1138163E0,1.9268214E0,8.838348E0,6.8601084E0,1.1052653E0,3.0235872E0,1.1078963E0,8.615018E0,1.3668848E0,2.3653595E0,6.5822756E-1,4.8417573E0,2.0458956E0,1.4702338E0,5.756619E-1,2.7603307E0,7.486087E-1],"tree_param":{"num_deleted":"0","num_feature":"39","num_nodes":"77","size_leaf_vector":"1"}},{"base_weights":[-6.4470386E-3,3.6253943E-3,-6.22815E-1,-4.083784E-1,1.6363867E-2,-7.5933236E-1,4.0975112E-1,-1.0832176E0,1.1549932E-1,3.5207954E-1,3.997326E-3,5.1404965E-1,-7.323075E-1,8.4752643E-1,-1.1345962E-1,-1.2842468E0,9.8030615E-1,1.1511234E-1,-2.2614862E-1,-2.287132E-3,6.39555E-1,-4.041114E-1,1.0600685E0,3.7074378E-1,-2.9849386E-1,4.1515678E-1,-1.1866264E0,-1.4048801E-1,-8.137745E-1,-1.1333816E0,2.824418E-1,1.2074584E0,-3.819829E-1,-2.5868374E-1,4.1356057E-1,-2.3051105E-2,-1.1736388E0,-5.688547E-2,4.724493E-1,1.18356E-1,3.4483218E-1,-4.877283E-1,1.2454625E0,-4.733606E-3,1.2353489E0,4.9139875E-1,-1.7860004E-3,1.3123043E-1,-4.6898055E-1,7.18977E-1,-1.1173782E0,-1.12865135E-1,3.4981543E-1,-2.0279308E-1,-1.3032293E0,-4.0412033E-1,2.1713021E-1,-4.7200942E-1,-1.6844298E-1,-1.2938972E0,-2.5021543E-3,3.2051885E-1,-3.470001E-1,-2.8152056E-3,-4.0868276E-1,4.795947E-1,1.417254E-4,-1.027884E-3,5.0910306E-1,4.6517214E-1,-0E0,4.621396E-1,1.025961E-3,4.0904325E-1,-1.0817541E-3,3.5185933E-3,-3.8303655E-1,-4.0343046E-1,-2.3217985E-1],"categories":[],"categories_nodes":[],"categories_segments":[],"categories_sizes":[],"default_left":[0,0,0,0,0,0,0,0,0,0,0,0,0,0,0,0,0,0,0,0,0,0,0,0,0,0,0,0,0,0,0,0,0,0,0,0,0,0,0,0,0,0,0,0,0,0,0,0,0,0,0,0,0,0,0,0,0,0,0,0,0,0,0,0,0,0,0,0,0,0,0,0,0,0,0,0,0,0,0],"id":15,"left_children":[1,3,5,27,9,7,-1,25,41,11,19,13,15,39,17,47,71,-1,-1,43,21,23,51,-1,-1,-1,59,33,29,53,31,65,-1,35,-1,37,63,-1,-1,-1,-1,49,67,45,69,-1,-1,-1,-1,73,75,-1,-1,55,57,-1,-1,-1,-1,77,61,-1,-1,-1,-1,-1,-1,-1,-1,-1,-1,-1,-1,-1,-1,-1,-1,-1,-1],"loss_changes":[9.938929E0,8.269173E0,7.67155E0,5.100933E0,6.34441E0,6.9316244E0,0E0,5.216032E0,4.8095384E0,9.636032E0,5.8891296E0,9.943579E0,7.1084185E0,5.0032043E0,6.262522E0,4.145708E0,1.2645496E0,0E0,0E0,4.421953E0,6.45035E0,5.443145E0,3.1699104E0,0E0,0E0,0E0,2.1903362E0,5.644624E0,6.6532335E0,2.2313557E0,7.2584133E0,1.8767114E0,0E0,5.8253903E0,0E0,6.921318E0,1.9142828E0,0E0,0E0,0E0,0E0,3.7368522E0,1.8000827E0,4.3916802E0,1.5649462E0,0E0,0E0,0E0,0E0,9.567772E-1,9.378042E-1,0E0,0E0,3.4656253E0,3.1126842E0,0E0,0E0,0E0,0E0,8.256073E-1,2.8370874E0,0E0,0E0,0E0,0E0,0E0,0E0,0E0,0E0,0E0,0E0,0E0,0E0,0E0,0E0,0E0,0E0,0E0,0E0],"parents":[2147483647,0,0,1,1,2,2,5,5,4,4,9,9,11,11,12,12,14,14,10,10,20,20,21,21,7,7,3,3,28,28,30,30,27,27,33,33,35,35,13,13,8,8,19,19,43,43,15,15,41,41,22,22,29,29,53,53,54,54,26,26,60,60,36,36,31,31,42,42,44,44,16,16,49,49,50,50,59,59],"right_children":[2,4,6,28,10,8,-1,26,42,12,20,14,16,40,18,48,72,-1,-1,44,22,24,52,-1,-1,-1,60,34,30,54,32,66,-1,36,-1,38,64,-1,-1,-1,-1,50,68,46,70,-1,-1,-1,-1,74,76,-1,-1,56,58,-1,-1,-1,-1,78,62,-1,-1,-1,-1,-1,-1,-1,-1,-1,-1,-1,-1,-1,-1,-1,-1,-1,-1],"split_conditions":[6.4029557E-1,2.8576007E-1,1.904024E0,2.7906978E-1,3.3680797E-1,5.218978E-1,4.0975112E-1,3.87019E-14,2.238806E-1,1.412186E0,6.2389785E-1,1.8999047E-3,8.040215E-1,3.1126672E-1,3.1126672E-1,3.448276E-2,9.3322396E-1,1.1511234E-1,-2.2614862E-1,5.9797573E0,4.1075927E-1,-7.905646E-1,6.496391E-14,3.7074378E-1,-2.9849386E-1,4.1515678E-1,2.8893035E-3,2.5581396E-1,1.1793011E0,2.749625E-1,2.7459562E-1,2.326106E-3,-3.819829E-1,5.0124687E-1,4.1356057E-1,4.0149626E-1,-4.903691E-1,-5.688547E-2,4.724493E-1,1.18356E-1,3.4483218E-1,-2.7146667E-1,7.077118E-1,3.1231943E-1,1.19758904E-1,4.9139875E-1,-1.7860004E-3,1.3123043E-1,-4.6898055E-1,1.9281727E-3,5.111524E-1,-1.12865135E-1,3.4981543E-1,1.5745866E-3,9.802587E-1,-4.0412033E-1,2.1713021E-1,-4.7200942E-1,-1.6844298E-1,9.924078E-1,3.2021957E-3,3.2051885E-1,-3.470001E-1,-2.8152056E-3,-4.0868276E-1,4.795947E-1,1.417254E-4,-1.027884E-3,5.0910306E-1,4.6517214E-1,-0E0,4.621396E-1,1.025961E-3,4.0904325E-1,-1.0817541E-3,3.5185933E-3,-3.8303655E-1,-4.0343046E-1,-2.3217985E-1],"split_indices":[29,23,4,21,23,21,0,20,20,22,29,12,4,23,23,20,4,0,0,6,18,4,21,0,0,0,11,21,22,18,23,11,0,20,0,20,4,0,0,0,0,6,22,29,4,0,0,0,0,11,22,0,0,11,22,0,0,0,0,22,11,0,0,0,0,0,0,0,0,0,0,0,0,0,0,0,0,0,0],"split_type":[0,0,0,0,0,0,0,0,0,0,0,0,0,0,0,0,0,0,0,0,0,0,0,0,0,0,0,0,0,0,0,0,0,0,0,0,0,0,0,0,0,0,0,0,0,0,0,0,0,0,0,0,0,0,0,0,0,0,0,0,0,0,0,0,0,0,0,0,0,0,0,0,0,0,0,0,0,0,0],"sum_hessian":[1.600494E3,1.5750198E3,2.5474216E1,4.6987263E1,1.5280325E3,2.4077888E1,1.396327E0,1.7526274E1,6.5516157E0,5.402605E1,1.4740065E3,4.712739E1,6.898657E0,3.0712952E1,1.6414442E1,5.2678494E0,1.6308076E0,9.423747E0,6.990694E0,1.4598362E3,1.4170264E1,4.0723796E0,1.0097885E1,1.0598202E0,3.0125594E0,5.3744346E-1,1.698883E1,2.8508448E1,1.8478813E1,1.430075E1,4.1780634E0,2.728421E0,1.4496425E0,2.6789848E1,1.7185994E0,2.152107E1,5.268778E0,1.9681185E1,1.8398867E0,1.5113101E1,1.559985E1,4.36982E0,2.1817956E0,1.4572214E3,2.6147542E0,1.1274347E0,1.456094E3,9.772649E-1,4.2905846E0,1.4851136E0,2.8847063E0,1.1761843E0,8.9217005E0,2.2978997E0,1.200285E1,9.5560634E-1,1.3422935E0,7.4052505E0,4.5975995E0,1.5554636E1,1.4341941E0,7.541523E-1,6.800418E-1,1.1306767E0,4.138101E0,1.8269231E0,9.0149784E-1,7.825468E-1,1.3992488E0,1.8585215E0,7.5623274E-1,8.48618E-1,7.821896E-1,5.919455E-1,8.931682E-1,5.900938E-1,2.2946126E0,1.1118626E1,4.43601E0],"tree_param":{"num_deleted":"0","num_feature":"39","num_nodes":"79","size_leaf_vector":"1"}},{"base_weights":[6.647526E-3,-3.894084E-3,4.7893134E-1,1.8145029E-1,4.944685E-1,-3.08625E-2,1.7462829E-1,2.6223502E-1,-3.415176E-1,-8.062916E-1,4.8529163E-1,1.3983194E0,2.1639174E-1,-4.6842834E-1,2.8551885E-1,5.6892553E-5,-4.2843035E-1,-3.6530408E-1,6.333647E-1,1.255314E0,-6.8247783E-1,-8.896209E-1,9.102759E-1,3.1454638E-1,-1.6580167E0,9.000107E-2,-2.4789271E-1,-1.3484727E0,3.1427303E-1,-1.1865385E-1,2.252217E-2,-1.534429E0,-1.0540324E-1,-8.74058E-2,-9.890678E-1,-6.856776E-2,7.614534E-5,4.895265E-2,-4.1870338E-1,7.9415107E-1,-9.992516E-1,3.9510984E-2,-3.7035602E-1,4.0248057E-1,-5.028069E-1,1.3486138E-1,-4.662463E-2,2.9376531E-2,2.8950384E-1,7.708627E-2,-2.5066333E-2,1.2298718E-1,-1.8915647E-1,-8.463342E-2,3.6828297E-1,-3.0778039E-1,4.1373318E-1,-1.0375316E-1,-4.1297576E-1,-1.268639E-1,4.133634E-1,-1.416114E-1,1.4282904E0,1.0458789E-3,-5.3495425E-1,-3.726817E-4,-4.7000307E-1,4.2371548E-4,4.295438E-1,4.0462673E-1,2.7043995E-1,-3.3914673E-1,3.3667073E-1,-2.7074939E-2,-4.7620064E-1,3.802544E-1,-2.8699052E-3,4.3842608E-1,1.6467792E-1],"categories":[],"categories_nodes":[],"categories_segments":[],"categories_sizes":[],"default_left":[0,0,0,0,0,0,0,0,0,0,0,0,0,0,0,0,0,0,0,0,0,0,0,0,0,0,0,0,0,0,0,0,0,0,0,0,0,0,0,0,0,0,0,0,0,0,0,0,0,0,0,0,0,0,0,0,0,0,0,0,0,0,0,0,0,0,0,0,0,0,0,0,0,0,0,0,0,0,0],"id":16,"left_children":[1,5,3,17,-1,29,7,11,9,39,53,67,13,15,25,-1,-1,21,19,61,27,23,69,59,63,-1,-1,65,-1,31,41,73,33,35,37,-1,-1,-1,-1,75,57,45,43,-1,51,47,49,-1,-1,-1,-1,-1,-1,55,-1,-1,-1,-1,-1,-1,-1,-1,77,-1,-1,-1,-1,-1,-1,-1,71,-1,-1,-1,-1,-1,-1,-1,-1],"loss_changes":[7.8883734E0,7.463672E0,1.3307343E1,7.0925474E0,0E0,6.3127575E0,9.223625E0,8.985272E0,1.14932995E1,6.1015673E0,5.2207403E0,1.3880749E0,7.971939E0,7.789773E0,7.002243E0,0E0,0E0,8.940188E0,1.305791E1,3.4735603E0,6.6939154E0,8.81846E0,1.2694762E0,3.6927674E0,2.5745087E0,0E0,0E0,1.8186269E0,0E0,9.511E0,5.595204E0,1.1729536E0,8.006041E0,6.923925E0,6.146084E0,0E0,0E0,0E0,0E0,1.0223587E0,5.081854E0,6.5988455E0,8.568375E0,0E0,5.575739E0,1.0034197E1,5.9794164E0,0E0,0E0,0E0,0E0,0E0,0E0,1.1246412E1,0E0,0E0,0E0,0E0,0E0,0E0,0E0,0E0,9.872608E-1,0E0,0E0,0E0,0E0,0E0,0E0,0E0,3.3995492E0,0E0,0E0,0E0,0E0,0E0,0E0,0E0,0E0],"parents":[2147483647,0,0,2,2,1,1,6,6,8,8,7,7,12,12,13,13,3,3,18,18,17,17,21,21,14,14,20,20,5,5,29,29,32,32,33,33,34,34,9,9,30,30,42,42,41,41,45,45,46,46,44,44,10,10,53,53,40,40,23,23,19,19,24,24,27,27,11,11,22,22,70,70,31,31,39,39,62,62],"right_children":[2,6,4,18,-1,30,8,12,10,40,54,68,14,16,26,-1,-1,22,20,62,28,24,70,60,64,-1,-1,66,-1,32,42,74,34,36,38,-1,-1,-1,-1,76,58,46,44,-1,52,48,50,-1,-1,-1,-1,-1,-1,56,-1,-1,-1,-1,-1,-1,-1,-1,78,-1,-1,-1,-1,-1,-1,-1,72,-1,-1,-1,-1,-1,-1,-1,-1],"split_conditions":[5.9182364E-1,9.783448E-3,2.4E1,9.95224E-1,4.944685E-1,1.5E-1,2.5606455E-2,-2.8812126E-3,1.1851597E-2,9.999542E-1,1.3E1,3.7721893E-1,-1.3357869E-3,4.2765547E-4,1.3805841E-3,5.6892553E-5,-4.2843035E-1,6.123234E-17,9.147164E-3,4.86741E-1,2.537612E-2,-1.4585153E-2,6.14836E-1,-1.5247695E-2,7.77906E-1,9.000107E-2,-2.4789271E-1,6.010073E-1,3.1427303E-1,9.244868E-4,7.484277E-1,5.111524E-1,2.0368989E0,-1.0390105E-3,9.938285E-1,-6.856776E-2,7.614534E-5,4.895265E-2,-4.1870338E-1,4.2356902E-1,5E0,2.220446E-16,3.0761623E-1,4.0248057E-1,-1.1983378E-2,3.517188E-3,4.0966067E-1,2.9376531E-2,2.8950384E-1,7.708627E-2,-2.5066333E-2,1.2298718E-1,-1.8915647E-1,1E0,3.6828297E-1,-3.0778039E-1,4.1373318E-1,-1.0375316E-1,-4.1297576E-1,-1.268639E-1,4.133634E-1,-1.416114E-1,1.6059723E-2,1.0458789E-3,-5.3495425E-1,-3.726817E-4,-4.7000307E-1,4.2371548E-4,4.295438E-1,4.0462673E-1,1.4306152E-1,-3.3914673E-1,3.3667073E-1,-2.7074939E-2,-4.7620064E-1,3.802544E-1,-2.8699052E-3,4.3842608E-1,1.6467792E-1],"split_indices":[18,15,30,24,0,20,16,0,2,24,30,18,0,14,14,0,0,9,2,23,15,2,18,15,22,0,0,18,0,12,20,22,23,0,24,0,0,0,0,18,30,0,18,0,16,12,23,0,0,0,0,0,0,26,0,0,0,0,0,0,0,0,15,0,0,0,0,0,0,0,20,0,0,0,0,0,0,0,0],"split_type":[0,0,0,0,0,0,0,0,0,0,0,0,0,0,0,0,0,0,0,0,0,0,0,0,0,0,0,0,0,0,0,0,0,0,0,0,0,0,0,0,0,0,0,0,0,0,0,0,0,0,0,0,0,0,0,0,0,0,0,0,0,0,0,0,0,0,0,0,0,0,0,0,0,0,0,0,0,0,0],"sum_hessian":[1.584036E3,1.549709E3,3.4327023E1,2.8188343E1,6.1386776E0,1.3465203E3,2.0318864E2,1.7381804E2,2.9370607E1,1.8806234E1,1.0564373E1,6.4365954E0,1.6738144E2,1.5204977E1,1.5217647E2,1.0771899E1,4.4330783E0,1.2778343E1,1.5410001E1,1.0472601E1,4.9373994E0,9.11335E0,3.6649928E0,3.6110969E0,5.502253E0,1.4754099E2,4.635481E0,3.6617517E0,1.2756479E0,5.090568E2,8.374635E2,4.4362893E0,5.046205E2,4.9483557E2,9.784926E0,1.7536201E2,3.1947357E2,3.0674024E0,6.7175236E0,1.9338752E0,1.687236E1,8.029818E2,3.448168E1,2.159667E0,3.2322018E1,3.810366E2,4.219452E2,3.694952E2,1.15414E1,4.988342E1,3.7206177E2,5.064651E0,2.7257364E1,6.4390182E0,4.1253543E0,3.9500241E0,2.4889944E0,7.598317E0,9.274043E0,2.2771573E0,1.3339396E0,8.8807696E-1,9.584524E0,8.0105877E-1,4.7011943E0,7.99407E-1,2.8623445E0,6.443129E-1,5.7922826E0,1.7924311E0,1.8725617E0,6.9397557E-1,1.1785861E0,5.406172E-1,3.8956718E0,1.0189929E0,9.1488236E-1,7.9206276E0,1.663897E0],"tree_param":{"num_deleted":"0","num_feature":"39","num_nodes":"79","size_leaf_vector":"1"}},{"base_weights":[5.000162E-3,5.213765E-2,-1.3586839E-1,-6.596413E-2,1.0550802E-1,1.8800254E-1,-3.5187464E-2,-2.6746088E-1,1.1149533E-1,4.1818595E-1,-4.201834E-1,-3.115063E-1,2.4519405E-1,-2.3941329E-1,5.5918314E-2,-3.071729E-2,2.7210525E-1,4.2435303E-2,4.0114808E-1,-3.3661473E-1,1.2033377E-1,4.562801E-2,-1.887678E-1,4.0660417E-1,-1.8639775E-1,-1.4281365E-1,3.0050166E-2,-1.4559527E-1,2.34447E-1,-3.0130932E-2,-5.322798E-1,7.1386915E-1,-1.082591E-1,-7.630512E-2,3.7547627E-1,-7.2931774E-2,7.42364E-2,-3.255785E-3,8.2139796E-1,-1.1058937E0,1.524566E-1,8.147372E-2,-3.7627465E-1,2.712809E-1,-7.791872E-2,9.530949E-2,-9.967495E-2,-1.839863E-2,-1.7839538E-1,-3.6155257E-1,-1.1414665E0,-7.890068E-1,-1.0991707E-1,-8.9186825E-2,1.7888582E-1,-5.7843085E-2,-4.267453E-1,-1.2005187E-1,3.1027547E-1,-9.729364E-1,5.085354E-1,4.3474072E-1,6.796868E-2,-1.5103199E-2,-4.8471078E-1,-9.750853E-2,-8.333007E-1,9.751678E-1,-1.0162761E0,-6.2533647E-1,3.700322E-1,-1.20153405E-1,2.898855E-1,-3.2014412E-1,3.109671E-3,5.3464E-1,-2.2013286E-1,1.2949486E0,2.6667768E-1,2.4713522E-1,-1.841594E-1,-1.8034242E-1,1.4609489E-2,-5.131333E-2,-2.6507792E-1,-3.9455822E-1,3.196796E-1,-3.5452446E-1,3.4878707E-1,-3.4461468E-1,-3.507975E-2,-1.0596236E0,1.5999575E-1,-3.5526133E-1,3.8195455E-1,6.768594E-1,-1.3143684E0,-3.8873115E-1,8.969911E-2,4.0490195E-1,7.960291E-2,-1.4095275E0,2.8613713E-3,1.555909E-6,4.112977E-1,3.256766E-1,-1.5447602E-5,-2.7378103E-1,-4.2473906E-1],"categories":[],"categories_nodes":[],"categories_segments":[],