{"learner":{"attributes":{"best_iteration":"0","best_score":"0.6994612024421185"},"feature_names":[],"feature_types":[],"gradient_booster":{"model":{"cats":{"enc":[],"feature_segments":[],"sorted_idx":[]},"gbtree_model_param":{"num_parallel_tree":"1","num_trees":"51"},"iteration_indptr":[0,1,2,3,4,5,6,7,8,9,10,11,12,13,14,15,16,17,18,19,20,21,22,23,24,25,26,27,28,29,30,31,32,33,34,35,36,37,38,39,40,41,42,43,44,45,46,47,48,49,50,51],"tree_info":[0,0,0,0,0,0,0,0,0,0,0,0,0,0,0,0,0,0,0,0,0,0,0,0,0,0,0,0,0,0,0,0,0,0,0,0,0,0,0,0,0,0,0,0,0,0,0,0,0,0,0],"trees":[{"base_weights":[-1.9053772E-2,-1.6982318E-1,7.1736075E-2,1.4258566E-1,-3.1174615E-1,-0E0,-3.8585147E-1,1.8968506E-1,-5.3644642E-2,4.755917E-1,-0E0,1.2651964E-1,-2.248555E-1,2.9696459E-2,-0E0,-0E0,-1.910451E-2,1.0940986E-2,-6.712968E-3,-3.5676227E-3,-2.7192315E-2,1.6132927E-2,-0E0,3.1117636E-1,-0E0,2.2579307E-2,-0E0],"categories":[],"categories_nodes":[],"categories_segments":[],"categories_sizes":[],"default_left":[0,0,0,0,0,0,0,0,0,0,0,0,0,0,0,0,0,0,0,0,0,0,0,0,0,0,0],"id":0,"left_children":[1,3,7,23,5,-1,19,9,11,13,17,21,15,-1,-1,-1,-1,-1,-1,-1,-1,-1,-1,25,-1,-1,-1],"loss_changes":[1.07135105E1,1.5803633E1,7.4346504E0,3.4717512E0,9.072628E0,0E0,4.178917E0,1.4422504E1,6.2791433E0,6.224333E0,4.7849274E0,3.9307604E0,4.9451537E0,0E0,0E0,0E0,0E0,0E0,0E0,0E0,0E0,0E0,0E0,3.257453E0,0E0,0E0,0E0],"parents":[2147483647,0,0,1,1,4,4,2,2,7,7,8,8,9,9,12,12,10,10,6,6,11,11,3,3,23,23],"right_children":[2,4,8,24,6,-1,20,10,12,14,18,22,16,-1,-1,-1,-1,-1,-1,-1,-1,-1,-1,26,-1,-1,-1],"split_conditions":[9.96644E-1,9.8717356E-1,1.0009246E0,1.0340557E0,-5.227143E-2,-0E0,4.82977E-1,-8.8459656E-2,-1.2755239E-1,1.1917808E0,-6.181743E-4,2.3120139E0,1.7142858E-1,2.9696459E-2,-0E0,-0E0,-1.910451E-2,1.0940986E-2,-6.712968E-3,-3.5676227E-3,-2.7192315E-2,1.6132927E-2,-0E0,-1.4063094E-2,-0E0,2.2579307E-2,-0E0],"split_indices":[24,17,22,13,16,0,29,27,27,13,1,7,21,0,0,0,0,0,0,0,0,0,0,16,0,0,0],"split_type":[0,0,0,0,0,0,0,0,0,0,0,0,0,0,0,0,0,0,0,0,0,0,0,0,0,0,0],"sum_hessian":[6.921173E2,2.9825763E2,3.9385968E2,7.114399E1,2.2711363E2,2.1393734E1,2.057199E2,2.4139825E2,1.5246143E2,9.375429E1,1.4764397E2,4.7100555E1,1.0536088E2,7.417321E1,1.9581083E1,4.1536755E1,6.382412E1,4.9050762E1,9.859321E1,9.4807915E1,1.1091198E2,3.653588E1,1.05646715E1,4.289088E1,2.8253109E1,3.1087208E1,1.1803673E1],"tree_param":{"num_deleted":"0","num_feature":"39","num_nodes":"27","size_leaf_vector":"1"}},{"base_weights":[-9.128408E-3,5.5606533E-2,-2.691812E-1,-7.4034184E-2,1.9892447E-1,3.8837188E-1,-0E0,-0E0,-4.4706005E-1,6.653144E-2,-2.6934075E-1,-0E0,-2.4741832E-2,2.336826E-2,-0E0,-5.3186977E-1,-0E0,-0E0,-3.2513004E-2,1.3839202E-2,-0E0,7.0444173E-3,-6.25287E-3],"categories":[],"categories_nodes":[],"categories_segments":[],"categories_sizes":[],"default_left":[0,0,0,0,0,0,0,0,0,0,0,0,0,0,0,0,0,0,0,0,0,0,0],"id":1,"left_children":[1,3,7,9,5,13,21,-1,15,19,11,-1,-1,-1,-1,17,-1,-1,-1,-1,-1,-1,-1],"loss_changes":[1.3837687E1,1.1186803E1,1.1042392E1,8.997298E0,1.4068449E1,8.826338E0,2.3445778E0,0E0,4.4537888E0,2.8133879E0,1.1456447E1,0E0,0E0,0E0,0E0,8.975473E0,0E0,0E0,0E0,0E0,0E0,0E0,0E0],"parents":[2147483647,0,0,1,1,4,4,2,2,3,3,10,10,5,5,8,8,15,15,9,9,6,6],"right_children":[2,4,8,10,6,14,22,-1,16,20,12,-1,-1,-1,-1,18,-1,-1,-1,-1,-1,-1,-1],"split_conditions":[1.1394107E-1,9.982641E-1,4.8496542E-4,-1.6623376E-2,-6.044965E-2,2.1331086E0,1.0027279E0,-0E0,5.301455E-1,9.8276E-1,4.8003834E-1,-0E0,-2.4741832E-2,2.336826E-2,-0E0,3.2660847E-3,-0E0,-0E0,-3.2513004E-2,1.3839202E-2,-0E0,7.0444173E-3,-6.25287E-3],"split_indices":[27,24,14,16,27,4,24,0,18,24,29,0,0,0,0,12,0,0,0,0,0,0,0],"split_type":[0,0,0,0,0,0,0,0,0,0,0,0,0,0,0,0,0,0,0,0,0,0,0],"sum_hessian":[6.762251E2,5.16949E2,1.5927612E2,2.3732861E2,2.7962036E2,1.5925374E2,1.2036662E2,5.265662E1,1.066195E2,1.1206521E2,1.25263405E2,4.840248E1,7.686092E1,1.4728288E2,1.1970854E1,8.813753E1,1.8481974E1,1.125521E1,7.688232E1,3.377663E1,7.8288574E1,2.5469902E1,9.489672E1],"tree_param":{"num_deleted":"0","num_feature":"39","num_nodes":"23","size_leaf_vector":"1"}},{"base_weights":[-0E0,5.3125557E-2,-2.0154923E-2,1.13171205E-1,-1.5369414E-1,-0E0,-2.2972392E-2,1.964818E-1,-5.0394505E-4,1.5809467E-2,-0E0,5.407426E-4,-5.10155E-3],"categories":[],"categories_nodes":[],"categories_segments":[],"categories_sizes":[],"default_left":[0,0,0,0,0,0,0,0,0,0,0,0,0],"id":2,"left_children":[1,3,-1,7,5,-1,-1,9,11,-1,-1,-1,-1],"loss_changes":[1.614018E1,7.323788E0,0E0,6.8352838E0,7.2330685E0,0E0,0E0,9.1650715E0,1.126478E0,0E0,0E0,0E0,0E0],"parents":[2147483647,0,0,1,1,4,4,3,3,7,7,8,8],"right_children":[2,4,-1,8,6,-1,-1,10,12,-1,-1,-1,-1],"split_conditions":[2.0976405E-1,5.2380955E-1,-2.0154923E-2,7.3099416E-3,1.0607255E0,-0E0,-2.2972392E-2,1.6064733E-2,5.4545456E-1,1.5809467E-2,-0E0,5.407426E-4,-5.10155E-3],"split_indices":[27,20,0,5,23,0,0,27,19,0,0,0,0],"split_type":[0,0,0,0,0,0,0,0,0,0,0,0,0],"sum_hessian":[6.7713135E2,5.98367E2,7.876432E1,5.047136E2,9.365343E1,5.7789326E1,3.58641E1,3.37818E2,1.668956E2,2.159811E2,1.2183689E2,6.9577576E1,9.731803E1],"tree_param":{"num_deleted":"0","num_feature":"39","num_nodes":"13","size_leaf_vector":"1"}},{"base_weights":[-0E0,-1.1339719E-1,1.2454953E-1,3.3169407E-1,-9.4279975E-2,-0E0,5.186688E-1,1.6982979E-1,-2.4375838E-1,-3.4939343E-1,1.0508632E-1,2.9322535E-2,-0E0,-3.0518913E-1,-0E0,-0E0,-1.9035116E-2,1.6553806E-2,-0E0,-2.1774394E-2,-0E0,7.432379E-4,-1.1635147E-2,2.4897228E-1,-0E0,1.6877342E-2,-0E0],"categories":[],"categories_nodes":[],"categories_segments":[],"categories_sizes":[],"default_left":[0,0,0,0,0,0,0,0,0,0,0,0,0,0,0,0,0,0,0,0,0,0,0,0,0,0,0],"id":3,"left_children":[1,7,3,5,9,21,11,23,13,19,17,-1,-1,15,-1,-1,-1,-1,-1,-1,-1,-1,-1,25,-1,-1,-1],"loss_changes":[9.944977E0,1.3662365E1,1.9016655E1,1.6648245E1,1.0922264E1,1.7885675E0,5.5945625E0,1.5249851E0,5.448908E0,4.085973E0,5.046075E0,0E0,0E0,5.768194E0,0E0,0E0,0E0,0E0,0E0,0E0,0E0,0E0,0E0,2.1565356E0,0E0,0E0,0E0],"parents":[2147483647,0,0,2,2,3,3,1,1,4,4,6,6,8,8,13,13,10,10,9,9,5,5,7,7,23,23],"right_children":[2,8,4,6,10,22,12,24,14,20,18,-1,-1,16,-1,-1,-1,-1,-1,-1,-1,-1,-1,26,-1,-1,-1],"split_conditions":[-2.7067629E-1,9.8771495E-1,1.361019E-2,3.9503387E-1,2.9520296E-2,1.0702572E-2,3.3E1,7.9617836E-4,2.5466892E-3,5.583456E-1,1.24409E0,2.9322535E-2,-0E0,-2.7322404E-2,-0E0,-0E0,-1.9035116E-2,1.6553806E-2,-0E0,-2.1774394E-2,-0E0,7.432379E-4,-1.1635147E-2,6.923077E-1,-0E0,1.6877342E-2,-0E0],"split_indices":[4,17,2,18,15,15,30,1,1,18,23,0,0,15,0,0,0,0,0,0,0,0,0,19,0,0,0],"split_type":[0,0,0,0,0,0,0,0,0,0,0,0,0,0,0,0,0,0,0,0,0,0,0,0,0,0,0],"sum_hessian":[6.7904767E2,3.2879993E2,3.5024777E2,2.0075378E2,1.4949399E2,6.2675663E1,1.3807812E2,7.8503365E1,2.5029655E2,8.428052E1,6.521346E1,1.2209338E2,1.5984741E1,2.145561E2,3.574045E1,4.0448914E1,1.741072E2,4.361365E1,2.1599813E1,7.223236E1,1.204816E1,3.9849606E1,2.282606E1,5.5781532E1,2.272183E1,4.4715336E1,1.1066195E1],"tree_param":{"num_deleted":"0","num_feature":"39","num_nodes":"27","size_leaf_vector":"1"}},{"base_weights":[-0E0,2.3511878E-1,-5.2961208E-2,-3.0909935E-1,1.4224249E-2,1.7189255E-1,-6.222694E-2,3.8440488E-3,-2.271125E-2,-0E0,2.4111992E-2,-0E0,-3.8393107E-1,-2.3719503E-2,-0E0,-0E0,2.7530162E-2],"categories":[],"categories_nodes":[],"categories_segments":[],"categories_sizes":[],"default_left":[0,0,0,0,0,0,0,0,0,0,0,0,0,0,0,0,0],"id":4,"left_children":[1,15,3,11,5,9,7,-1,-1,-1,-1,-1,13,-1,-1,-1,-1],"loss_changes":[7.655159E0,4.4518957E0,1.2930173E1,4.885275E0,6.460352E0,1.1200922E1,1.8208971E1,0E0,0E0,0E0,0E0,0E0,4.5975227E0,0E0,0E0,0E0,0E0],"parents":[2147483647,0,0,2,2,4,4,6,6,5,5,3,3,12,12,1,1],"right_children":[2,16,4,12,6,10,8,-1,-1,-1,-1,-1,14,-1,-1,-1,-1],"split_conditions":[3.3680997E-3,4.1537377E-1,3.986946E-3,-7.206589E-3,-2.4492937E-16,6.625152E-3,6.54788E-3,3.8440488E-3,-2.271125E-2,-0E0,2.4111992E-2,-0E0,1.4440433E-2,-2.3719503E-2,-0E0,-0E0,2.7530162E-2],"split_indices":[12,4,12,1,25,3,3,0,0,0,0,0,16,0,0,0,0],"split_type":[0,0,0,0,0,0,0,0,0,0,0,0,0,0,0,0,0],"sum_hessian":[6.6664264E2,9.917767E1,5.6746497E2,1.413638E2,4.2610114E2,1.7777898E2,2.4832216E2,1.7038591E2,7.793625E1,1.1575637E2,6.202261E1,2.0111881E1,1.2125192E2,9.63981E1,2.4853819E1,7.458474E1,2.459294E1],"tree_param":{"num_deleted":"0","num_feature":"39","num_nodes":"17","size_leaf_vector":"1"}},{"base_weights":[3.7477426E-2,-9.342361E-2,1.8283045E-1,2.8144673E-1,-1.0071419E-1,1.3829647E-1,-1.9743758E-1,-0E0,-2.3783065E-2,4.5255858E-1,5.0123833E-2,2.7592434E-2,-0E0,1.0517916E-3,-2.606259E-1,-0E0,-1.6186664E-2,-0E0,1.515013E-2,2.5494656E-1,-0E0,-0E0,1.600694E-2],"categories":[],"categories_nodes":[],"categories_segments":[],"categories_sizes":[],"default_left":[0,0,0,0,0,0,0,0,0,0,0,0,0,0,0,0,0,0,0,0,0,0,0],"id":5,"left_children":[1,5,3,9,7,19,13,-1,-1,11,17,-1,-1,-1,15,-1,-1,-1,-1,21,-1,-1,-1],"loss_changes":[1.3925196E1,8.722982E0,1.2153017E1,6.454527E0,6.542484E0,2.4914331E0,6.025408E0,0E0,0E0,8.388149E0,4.2947903E0,0E0,0E0,0E0,6.4379673E0,0E0,0E0,0E0,0E0,1.2309988E0,0E0,0E0,0E0],"parents":[2147483647,0,0,2,2,1,1,4,4,3,3,9,9,6,6,14,14,10,10,5,5,19,19],"right_children":[2,6,4,10,8,20,14,-1,-1,12,18,-1,-1,-1,16,-1,-1,-1,-1,22,-1,-1,-1],"split_conditions":[-2.7067629E-1,9.8717356E-1,1E0,1.0608856E-2,1.3883217E-2,9.5105654E-1,2.764549E-4,-0E0,-2.3783065E-2,3.174024E-2,3.7515268E-2,2.7592434E-2,-0E0,1.0517916E-3,-5.227143E-2,-0E0,-1.6186664E-2,-0E0,1.515013E-2,-3.438949E-2,-0E0,-0E0,1.600694E-2],"split_indices":[4,17,26,2,2,25,14,0,0,15,15,0,0,0,16,0,0,0,0,2,0,0,0],"split_type":[0,0,0,0,0,0,0,0,0,0,0,0,0,0,0,0,0,0,0,0,0,0,0],"sum_hessian":[6.6590344E2,3.1605103E2,3.4985245E2,2.8579523E2,6.405721E1,6.710936E1,2.4894165E2,4.1820515E1,2.2236698E1,1.3393134E2,1.5186389E2,1.1434163E2,1.9589703E1,2.1840834E1,2.2710081E2,2.2000145E1,2.0510068E2,1.1065567E2,4.120823E1,5.1020878E1,1.6088482E1,1.0310771E1,4.0710106E1],"tree_param":{"num_deleted":"0","num_feature":"39","num_nodes":"23","size_leaf_vector":"1"}},{"base_weights":[4.6346717E-2,2.5990131E-1,-0E0,-1.2517916E-1,1.5804327E-1,4.3418524E-1,-0E0,4.0727682E-2,-0E0,-2.981827E-1,8.711647E-2,7.871955E-3,-1.9346153E-2,-6.346099E-4,2.0741282E-2,3.9035678E-3,-1.3567037E-2,3.2354072E-1,-0E0,3.8333336E-1,-0E0,2.2761617E-2,-0E0],"categories":[],"categories_nodes":[],"categories_segments":[],"categories_sizes":[],"default_left":[0,0,0,0,0,0,0,0,0,0,0,0,0,0,0,0,0,0,0,0,0,0,0],"id":6,"left_children":[1,17,3,9,5,7,15,-1,-1,11,13,-1,-1,-1,-1,-1,-1,19,-1,21,-1,-1,-1],"loss_changes":[6.683671E0,2.883047E0,1.1189368E1,1.4018087E1,1.4348738E1,1.6168825E1,4.9370303E0,0E0,0E0,1.1109781E1,8.135748E0,0E0,0E0,0E0,0E0,0E0,0E0,2.2836552E0,0E0,1.1844893E0,0E0,0E0,0E0],"parents":[2147483647,0,0,2,2,4,4,5,5,3,3,9,9,10,10,6,6,1,1,17,17,19,19],"right_children":[2,18,4,10,6,8,16,-1,-1,12,14,-1,-1,-1,-1,-1,-1,20,-1,22,-1,-1,-1],"split_conditions":[3.3822062E-3,2.0543294E0,4.6615605E-3,1.1E1,3.09017E-1,4.659091E-1,1.1228456E-3,4.0727682E-2,-0E0,3.1666666E-1,6.586756E-4,7.871955E-3,-1.9346153E-2,-6.346099E-4,2.0741282E-2,3.9035678E-3,-1.3567037E-2,5.277778E-1,-0E0,5.6557087E-3,-0E0,2.2761617E-2,-0E0],"split_indices":[11,22,12,30,26,18,14,0,0,18,14,0,0,0,0,0,0,20,0,15,0,0,0],"split_type":[0,0,0,0,0,0,0,0,0,0,0,0,0,0,0,0,0,0,0,0,0,0,0],"sum_hessian":[6.5628735E2,1.1013361E2,5.4615375E2,3.0713394E2,2.3901982E2,9.9107895E1,1.3991193E2,4.536945E1,5.3738445E1,1.929522E2,1.14181725E2,1.1822394E1,1.811298E2,7.150244E1,4.2679283E1,9.123716E1,4.8674767E1,9.506365E1,1.5069957E1,8.038497E1,1.4678683E1,5.9804604E1,2.0580368E1],"tree_param":{"num_deleted":"0","num_feature":"39","num_nodes":"23","size_leaf_vector":"1"}},{"base_weights":[-2.5154594E-2,2.87336E-1,-7.171517E-2,7.158626E-3,-1.6645405E-1,-2.4493197E-1,-0E0,-1.5009922E-2,-0E0,-7.4954316E-2,1.2593362E-1,-1.1719299E-2,6.179555E-4,1.0335314E-2,-0E0,3.8051492E-1,-0E0,2.4585096E-2,-0E0],"categories":[],"categories_nodes":[],"categories_segments":[],"categories_sizes":[],"default_left":[0,0,0,0,0,0,0,0,0,0,0,0,0,0,0,0,0,0,0],"id":7,"left_children":[1,15,3,9,5,7,-1,-1,-1,11,13,-1,-1,-1,-1,17,-1,-1,-1],"loss_changes":[8.09493E0,1.955739E0,6.362714E0,3.5246246E0,6.1548996E0,6.321003E0,0E0,0E0,0E0,4.108106E0,3.3668754E0,0E0,0E0,0E0,0E0,2.0927572E0,0E0,0E0,0E0],"parents":[2147483647,0,0,2,2,4,4,5,5,3,3,9,9,10,10,1,1,15,15],"right_children":[2,16,4,10,6,8,-1,-1,-1,12,14,-1,-1,-1,-1,18,-1,-1,-1],"split_conditions":[2.764549E-4,1.4754703E-3,4.82977E-1,6.806187E-4,4.2857143E-1,3.1913027E-2,-0E0,-1.5009922E-2,-0E0,1.1E1,1.2300351E0,-1.1719299E-2,6.179555E-4,1.0335314E-2,-0E0,5.1947045E-1,-0E0,2.4585096E-2,-0E0],"split_indices":[14,16,29,14,21,2,0,0,0,30,23,0,0,0,0,29,0,0,0],"split_type":[0,0,0,0,0,0,0,0,0,0,0,0,0,0,0,0,0,0,0],"sum_hessian":[6.803954E2,5.367437E1,6.26721E2,2.8944113E2,3.3727988E2,2.5298595E2,8.429394E1,2.3520853E2,1.7777418E1,1.2353443E2,1.6590671E2,7.828115E1,4.525328E1,1.3409055E2,3.1816154E1,3.9815186E1,1.3859185E1,2.848926E1,1.1325928E1],"tree_param":{"num_deleted":"0","num_feature":"39","num_nodes":"19","size_leaf_vector":"1"}},{"base_weights":[1.9510839E-3,1.6800445E-1,-8.380535E-2,-9.0181015E-2,3.4688595E-1,-0E0,-3.3010444E-1,4.4537583E-1,-0E0,2.7752325E-2,-0E0,-4.692954E-1,-0E0,-2.8239438E-2,-0E0,1.639886E-2,-2.9480215E-2,-0E0,-2.3146963E-1,-2.0450545E-2,-0E0,-6.885861E-3,1.1795515E-3],"categories":[],"categories_nodes":[],"categories_segments":[],"categories_sizes":[],"default_left":[0,0,0,0,0,0,0,0,0,0,0,0,0,0,0,0,0,0,0,0,0,0,0],"id":8,"left_children":[1,3,5,17,7,15,11,9,-1,-1,-1,13,-1,-1,-1,-1,21,-1,19,-1,-1,-1,-1],"loss_changes":[1.05369835E1,1.542057E1,9.940496E0,2.872501E0,9.741972E0,4.361979E0,7.094384E0,1.0587658E1,0E0,0E0,0E0,4.8656406E0,0E0,0E0,0E0,0E0,2.7445133E0,0E0,4.272544E0,0E0,0E0,0E0,0E0],"parents":[2147483647,0,0,1,1,2,2,4,4,7,7,6,6,11,11,5,5,3,3,18,18,16,16],"right_children":[2,4,6,18,8,16,12,10,-1,-1,-1,14,-1,-1,-1,-1,22,-1,20,-1,-1,-1,-1],"split_conditions":[-2.4492937E-16,-1.2091441E-2,6.1096353E-3,-2.0104544E-2,1.3284268E0,9.8771495E-1,1.0112544E0,2.3E1,-0E0,2.7752325E-2,-0E0,5.6973296E-1,-0E0,-2.8239438E-2,-0E0,1.639886E-2,4.2654695E-3,-0E0,1.0277549E0,-2.0450545E-2,-0E0,-6.885861E-3,1.1795515E-3],"split_indices":[25,15,3,2,23,17,17,30,0,0,0,18,0,0,0,0,3,0,23,0,0,0,0],"split_type":[0,0,0,0,0,0,0,0,0,0,0,0,0,0,0,0,0,0,0,0,0,0,0],"sum_hessian":[6.6093384E2,2.6153412E2,3.9939975E2,8.6189575E1,1.7534453E2,2.9178964E2,1.07610115E2,1.5154724E2,2.3797283E1,1.2838152E2,2.3165728E1,8.040318E1,2.7206928E1,6.767065E1,1.2732543E1,2.8341228E1,2.634484E2,2.7975748E1,5.821383E1,3.7386696E1,2.0827135E1,1.4342152E2,1.2002688E2],"tree_param":{"num_deleted":"0","num_feature":"39","num_nodes":"23","size_leaf_vector":"1"}},{"base_weights":[-0E0,3.111806E-1,-4.2411793E-2,-1.7132501E-1,2.7057271E-2,1.8232921E-1,-1.2482628E-1,1.8615046E-3,-1.7490191E-2,1.6312014E-2,-0E0,-0E0,-2.9039085E-1,-1.8510312E-2,-0E0,4.178762E-1,-0E0,-0E0,3.0758217E-2,2.0423785E-3,-1.097615E-2],"categories":[],"categories_nodes":[],"categories_segments":[],"categories_sizes":[],"default_left":[0,0,0,0,0,0,0,0,0,0,0,0,0,0,0,0,0,0,0,0,0],"id":9,"left_children":[1,15,3,11,5,9,7,-1,-1,-1,-1,19,13,-1,-1,17,-1,-1,-1,-1,-1],"loss_changes":[7.2298985E0,2.663001E0,7.090393E0,4.6426816E0,9.402748E0,7.6908674E0,9.006513E0,0E0,0E0,0E0,0E0,1.8109165E0,6.079405E0,0E0,0E0,3.6770601E0,0E0,0E0,0E0,0E0,0E0],"parents":[2147483647,0,0,2,2,4,4,6,6,5,5,3,3,12,12,1,1,15,15,11,11],"right_children":[2,16,4,12,6,10,8,-1,-1,-1,-1,20,14,-1,-1,18,-1,-1,-1,-1,-1],"split_conditions":[9.859522E-1,6.785714E-1,9.980645E-1,4.8094818E-1,1.361019E-2,1.0327075E0,-5.5394854E-2,1.8615046E-3,-1.7490191E-2,1.6312014E-2,-0E0,2.0976405E-1,4.484305E-3,-1.8510312E-2,-0E0,3.0769232E-1,-0E0,-0E0,3.0758217E-2,2.0423785E-3,-1.097615E-2],"split_indices":[17,19,24,29,2,22,27,0,0,0,0,27,1,0,0,19,0,0,0,0,0],"split_type":[0,0,0,0,0,0,0,0,0,0,0,0,0,0,0,0,0,0,0,0,0],"sum_hessian":[6.685119E2,5.304473E1,6.154672E2,2.6079633E2,3.5467087E2,2.0694475E2,1.4772612E2,6.488458E1,8.284154E1,1.3002242E2,7.692233E1,1.2148249E2,1.3931384E2,1.2622917E2,1.3084668E1,4.021079E1,1.2833943E1,1.7324957E1,2.2885832E1,9.763064E1,2.3851854E1],"tree_param":{"num_deleted":"0","num_feature":"39","num_nodes":"21","size_leaf_vector":"1"}},{"base_weights":[-0E0,4.68606E-2,-2.2257568E-1,-2.2716124E-2,1.4373958E-1,4.3339875E-2,-3.9573842E-1,-1.0928123E-2,2.4750452E-1,1.8450057E-2,-0E0,-0E0,1.27234E-2,-0E0,-3.7256846E-1,-0E0,-4.7358605E-1,-2.8508028E-2,-0E0,1.0881926E-3,-7.5295814E-3,-2.2815773E-2,-0E0],"categories":[],"categories_nodes":[],"categories_segments":[],"categories_sizes":[],"default_left":[0,0,0,0,0,0,0,0,0,0,0,0,0,0,0,0,0,0,0,0,0,0,0],"id":10,"left_children":[1,3,13,5,7,11,21,19,9,-1,-1,-1,-1,-1,15,-1,17,-1,-1,-1,-1,-1,-1],"loss_changes":[7.052537E0,5.1021156E0,3.9635735E0,1.063877E1,7.2196884E0,4.2254815E0,1.2839575E0,1.7394748E0,7.028983E0,0E0,0E0,0E0,0E0,0E0,3.3334303E0,0E0,2.2916536E0,0E0,0E0,0E0,0E0,0E0,0E0],"parents":[2147483647,0,0,1,1,3,3,4,4,8,8,5,5,2,2,14,14,16,16,7,7,6,6],"right_children":[2,4,14,6,8,12,22,20,10,-1,-1,-1,-1,-1,16,-1,18,-1,-1,-1,-1,-1,-1],"split_conditions":[1.7042564E0,9.98129E-1,4.890225E-1,-5.1751593E-3,3.9503387E-1,9.650735E-1,9.971286E-1,4.3144774E-1,1.8982807E-2,1.8450057E-2,-0E0,-0E0,1.27234E-2,-0E0,-1.7512824E-2,-0E0,1.012439E0,-2.8508028E-2,-0E0,1.0881926E-3,-7.5295814E-3,-2.2815773E-2,-0E0],"split_indices":[7,24,29,2,18,22,24,22,2,0,0,0,0,0,15,0,24,0,0,0,0,0,0],"split_type":[0,0,0,0,0,0,0,0,0,0,0,0,0,0,0,0,0,0,0,0,0,0,0],"sum_hessian":[6.695237E2,5.625416E2,1.0698206E2,2.7178452E2,2.9075708E2,2.1563014E2,5.615439E1,8.1641235E1,2.0911586E2,1.4020132E2,6.891453E1,1.5383078E2,6.1799362E1,4.667697E1,6.030509E1,1.1931324E1,4.8373768E1,3.7323105E1,1.1050663E1,1.4976592E1,6.666464E1,4.5922153E1,1.0232235E1],"tree_param":{"num_deleted":"0","num_feature":"39","num_nodes":"23","size_leaf_vector":"1"}},{"base_weights":[-1.5653456E-2,-1.2126754E-1,5.014684E-2,2.6353315E-1,-2.3769702E-1,2.898695E-1,-6.480221E-2,8.525252E-2,-2.4933913E-1,-1.7587679E-2,-0E0,-0E0,4.1841692E-1,-0E0,4.4222325E-1,-0E0,-2.9916358E-1,-0E0,-1.7035471E-2,1.6147723E-2,-0E0,2.4647135E-2,-0E0,-0E0,2.9482145E-2],"categories":[],"categories_nodes":[],"categories_segments":[],"categories_sizes":[],"default_left":[0,0,0,0,0,0,0,0,0,0,0,0,0,0,0,0,0,0,0,0,0,0,0,0,0],"id":11,"left_children":[1,3,5,13,15,11,7,19,9,-1,-1,-1,21,-1,23,-1,17,-1,-1,-1,-1,-1,-1,-1,-1],"loss_changes":[5.5981293E0,1.5056164E1,1.2816519E1,5.6419606E0,5.3343124E0,5.938513E0,8.347802E0,3.4750323E0,6.733735E0,0E0,0E0,0E0,3.3153343E0,0E0,3.2677574E0,0E0,4.3653374E0,0E0,0E0,0E0,0E0,0E0,0E0,0E0,0E0],"parents":[2147483647,0,0,1,1,2,2,6,6,8,8,5,5,3,3,4,4,16,16,7,7,12,12,14,14],"right_children":[2,4,6,14,16,12,8,20,10,-1,-1,-1,22,-1,24,-1,18,-1,-1,-1,-1,-1,-1,-1,-1],"split_conditions":[9.98129E-1,-5.227143E-2,-8.8459656E-2,-5.3847555E-2,9.8696184E-1,8.64494E-1,8.775779E-3,-6.0093896E-3,1.0274448E0,-1.7587679E-2,-0E0,-0E0,1.3744428E-2,-0E0,8.151659E-1,-0E0,2.6824867E-4,-0E0,-1.7035471E-2,1.6147723E-2,-0E0,2.4647135E-2,-0E0,-0E0,2.9482145E-2],"split_indices":[24,16,27,15,17,13,2,16,24,0,0,0,1,0,13,0,14,0,0,0,0,0,0,0,0],"split_type":[0,0,0,0,0,0,0,0,0,0,0,0,0,0,0,0,0,0,0,0,0,0,0,0,0],"sum_hessian":[6.844606E2,3.1784402E2,3.6661655E2,5.094542E1,2.6689862E2,1.4208357E2,2.2453299E2,9.691656E1,1.2761643E2,1.135697E2,1.4046732E1,4.517238E1,9.6911194E1,1.0451803E1,4.0493614E1,4.24928E1,2.244058E2,1.6075794E1,2.0833002E2,3.0768148E1,6.6148415E1,8.067178E1,1.6239405E1,1.2693325E1,2.7800291E1],"tree_param":{"num_deleted":"0","num_feature":"39","num_nodes":"25","size_leaf_vector":"1"}},{"base_weights":[3.316247E-2,3.4794596E-1,-1.1715201E-2,-0E0,4.7666886E-1,-1.2033704E-1,2.4767071E-2,1.3838516E-1,-8.5372865E-2,-1.2117627E-2,-0E0,-0E0,1.1845111E-2,-0E0,-1.8423866E-1,-0E0,-1.1919758E-2,5.281327E-1,-0E0,3.0179903E-2,-0E0],"categories":[],"categories_nodes":[],"categories_segments":[],"categories_sizes":[],"default_left":[0,0,0,0,0,0,0,0,0,0,0,0,0,0,0,0,0,0,0,0,0],"id":12,"left_children":[1,3,5,-1,17,13,7,11,9,-1,-1,-1,-1,-1,15,-1,-1,19,-1,-1,-1],"loss_changes":[1.3210853E1,6.0912933E0,3.3216012E0,0E0,1.4059734E0,2.3660376E0,5.4119606E0,3.9719334E0,4.489728E0,0E0,0E0,0E0,0E0,0E0,3.134972E0,0E0,0E0,1.7610149E0,0E0,0E0,0E0],"parents":[2147483647,0,0,1,1,2,2,6,6,8,8,7,7,5,5,14,14,4,4,17,17],"right_children":[2,4,6,-1,18,14,8,12,10,-1,-1,-1,-1,-1,16,-1,-1,20,-1,-1,-1],"split_conditions":[3.3680997E-3,2.8883808E-3,-2.4503312E-1,-0E0,4.7521866E-3,-5.181347E-3,1.2847437E0,4.1856393E-1,2.4462694E-3,-1.2117627E-2,-0E0,-0E0,1.1845111E-2,-0E0,3.352452E-3,-0E0,-1.1919758E-2,7.298387E-1,-0E0,3.0179903E-2,-0E0],"split_indices":[12,3,6,0,3,1,22,18,1,0,0,0,0,0,3,0,0,6,0,0,0],"split_type":[0,0,0,0,0,0,0,0,0,0,0,0,0,0,0,0,0,0,0,0,0],"sum_hessian":[6.842702E2,1.0475907E2,5.795111E2,2.68031E1,7.795597E1,2.0883856E2,3.7067255E2,2.2588417E2,1.4478838E2,8.564877E1,5.9139595E1,8.4622246E1,1.4126192E2,5.5774155E1,1.530644E2,1.0510008E1,1.425544E2,6.669014E1,1.126583E1,5.3545982E1,1.3144159E1],"tree_param":{"num_deleted":"0","num_feature":"39","num_nodes":"21","size_leaf_vector":"1"}},{"base_weights":[-0E0,2.5760528E-1,-4.7256693E-2,1.0370384E-1,-1.7932908E-1,-3.7448722E-1,2.974706E-1,-2.9165033E-1,7.50319E-2,-0E0,-2.070797E-2,-0E0,2.049402E-2,3.4198627E-1,-0E0,-0E0,4.1771263E-1,2.5990505E-2,-0E0,-2.493017E-2,-0E0,1.0865735E-2,-0E0],"categories":[],"categories_nodes":[],"categories_segments":[],"categories_sizes":[],"default_left":[0,0,0,0,0,0,0,0,0,0,0,0,0,0,0,0,0,0,0,0,0,0,0],"id":13,"left_children":[1,13,3,5,7,19,11,9,21,-1,-1,-1,-1,15,-1,-1,17,-1,-1,-1,-1,-1,-1],"loss_changes":[9.552333E0,4.3672266E0,1.2129798E1,2.1918587E1,1.2049781E1,2.6590323E0,9.039591E0,9.5478115E0,2.2406232E0,0E0,0E0,0E0,0E0,3.3688107E0,0E0,0E0,3.5292397E0,0E0,0E0,0E0,0E0,0E0,0E0],"parents":[2147483647,0,0,2,2,3,3,4,4,7,7,6,6,1,1,13,13,16,16,5,5,8,8],"right_children":[2,14,4,6,8,20,12,10,22,-1,-1,-1,-1,16,-1,-1,18,-1,-1,-1,-1,-1,-1],"split_conditions":[3.3822062E-3,6.9536422E-3,-2.4492937E-16,3.986946E-3,2E0,1.4E1,-1.8988434E-2,5.143457E-1,8.5791856E-1,-0E0,-2.070797E-2,-0E0,2.049402E-2,6.4162534E-1,-0E0,-0E0,5.0884086E-1,2.5990505E-2,-0E0,-2.493017E-2,-0E0,1.0865735E-2,-0E0],"split_indices":[11,5,25,12,28,30,15,7,7,0,0,0,0,23,0,0,18,0,0,0,0,0,0],"split_type":[0,0,0,0,0,0,0,0,0,0,0,0,0,0,0,0,0,0,0,0,0,0,0],"sum_hessian":[6.661889E2,1.15062805E2,5.511261E2,2.2284413E2,3.2828198E2,4.6688316E1,1.761558E2,2.5397803E2,7.430395E1,7.7409294E1,1.7656874E2,3.4298706E1,1.418571E2,9.8302315E1,1.6760492E1,1.6401176E1,8.190114E1,6.2406815E1,1.9494324E1,3.267423E1,1.401409E1,4.7494915E1,2.6809032E1],"tree_param":{"num_deleted":"0","num_feature":"39","num_nodes":"23","size_leaf_vector":"1"}},{"base_weights":[-0E0,2.6673058E-1,-4.814181E-2,-0E0,-3.0111766E-1,-0E0,4.279086E-1,1.7055148E-1,-6.592418E-2,-1.1972222E-2,-0E0,-0E0,-3.963369E-1,-0E0,1.4387326E-2,-0E0,-2.3075292E-2,5.0135076E-1,-0E0,-0E0,3.2013044E-2],"categories":[],"categories_nodes":[],"categories_segments":[],"categories_sizes":[],"default_left":[0,0,0,0,0,0,0,0,0,0,0,0,0,0,0,0,0,0,0,0,0],"id":14,"left_children":[1,5,3,7,11,-1,17,13,9,-1,-1,-1,15,-1,-1,-1,-1,19,-1,-1,-1],"loss_changes":[7.3179803E0,6.242534E0,7.8580284E0,6.038407E0,5.152527E0,0E0,1.7302628E0,4.6029367E0,6.4034157E0,0E0,0E0,0E0,2.3942366E0,0E0,0E0,0E0,0E0,4.281501E0,0E0,0E0,0E0],"parents":[2147483647,0,0,2,2,1,1,3,3,8,8,4,4,7,7,12,12,6,6,17,17],"right_children":[2,6,4,8,12,-1,18,14,10,-1,-1,-1,16,-1,-1,-1,-1,20,-1,-1,-1],"split_conditions":[-2.4499235E-1,-7.328692E-3,1.7976191E0,4.8880355E-4,9.8935866E-1,-0E0,4.7599673E-2,3.8197425E-1,4.0598074E-3,-1.1972222E-2,-0E0,-0E0,8.1260943E-1,-0E0,1.4387326E-2,-0E0,-2.3075292E-2,3.9884394E-1,-0E0,-0E0,3.2013044E-2],"split_indices":[27,15,22,14,17,0,16,18,11,0,0,0,13,0,0,0,0,18,0,0,0],"split_type":[0,0,0,0,0,0,0,0,0,0,0,0,0,0,0,0,0,0,0,0,0],"sum_hessian":[6.666114E2,7.32031E1,5.9340826E2,5.0132025E2,9.2088005E1,1.6782272E1,5.6420826E1,1.4248482E2,3.5883545E2,1.2964531E2,2.2919014E2,1.0359182E1,8.172882E1,4.3323013E1,9.9161804E1,1.2835648E1,6.889317E1,4.5270164E1,1.1150662E1,1.0936689E1,3.4333473E1],"tree_param":{"num_deleted":"0","num_feature":"39","num_nodes":"21","size_leaf_vector":"1"}},{"base_weights":[1.820409E-2,1.6881923E-1,-6.2498838E-2,2.7852425E-1,-8.964512E-3,4.014668E-1,-0E0,4.5091338E-3,3.5946604E-2,-1.2839384E-1,8.064888E-2,-0E0,-2.6565963E-1,-0E0,-2.7989034E-2,2.1428175E-1,-0E0,2.1346482E-2,-0E0,-1.1204194E-2,-0E0,-4.9745506E-3,1.6838514E-3],"categories":[],"categories_nodes":[],"categories_segments":[],"categories_sizes":[],"default_left":[0,0,0,0,0,0,0,0,0,0,0,0,0,0,0,0,0,0,0,0,0,0,0],"id":15,"left_children":[1,3,9,5,-1,7,19,-1,-1,11,15,21,13,-1,-1,17,-1,-1,-1,-1,-1,-1,-1],"loss_changes":[9.436598E0,1.2308552E1,4.4197125E0,1.21000805E1,0E0,1.01485405E1,1.4880309E0,0E0,0E0,3.8076801E0,2.252343E0,1.2337503E0,8.43144E0,0E0,0E0,3.6469982E0,0E0,0E0,0E0,0E0,0E0,0E0,0E0],"parents":[2147483647,0,0,1,1,3,3,5,5,2,2,9,9,12,12,10,10,15,15,6,6,11,11],"right_children":[2,4,10,6,-1,8,20,-1,-1,12,16,22,14,-1,-1,18,-1,-1,-1,-1,-1,-1,-1],"split_conditions":[-2.4492937E-16,1.3284268E0,6.4040367E-3,1.0821745E-1,-8.964512E-3,5.662281E-3,-2.385415E-3,4.5091338E-3,3.5946604E-2,4.8044693E-1,1.8613832E0,4.285023E-3,6.1096353E-3,-0E0,-2.7989034E-2,5.473577E-3,-0E0,2.1346482E-2,-0E0,-1.1204194E-2,-0E0,-4.9745506E-3,1.6838514E-3],"split_indices":[25,23,1,27,0,3,1,0,0,18,4,3,3,0,0,3,0,0,0,0,0,0,0],"split_type":[0,0,0,0,0,0,0,0,0,0,0,0,0,0,0,0,0,0,0,0,0,0,0],"sum_hessian":[6.701997E2,2.7324246E2,3.9695728E2,2.3112886E2,4.2113586E1,1.8113213E2,4.9996742E1,1.1384446E2,6.728766E1,3.2037024E2,7.658705E1,1.9924983E2,1.211204E2,7.468185E1,4.6438557E1,5.1318172E1,2.526888E1,2.545599E1,2.5862183E1,1.9634031E1,3.036271E1,1.02397766E2,9.6852066E1],"tree_param":{"num_deleted":"0","num_feature":"39","num_nodes":"23","size_leaf_vector":"1"}},{"base_weights":[-0E0,1.2016072E-1,-6.635577E-2,2.768183E-2,-3.6538205E-1,-0E0,4.2819753E-1,-4.9017042E-1,-0E0,2.0163289E-1,-9.5244125E-2,-0E0,-2.9628867E-2,3.6520467E-3,-1.07301315E-2,-0E0,1.4759334E-2,5.2723193E-1,-0E0,-0E0,3.413715E-2,9.907222E-2,-1.4601485E-1,-2.461393E-2,5.116911E-4,1.5209372E-2,-7.1350033E-3],"categories":[],"categories_nodes":[],"categories_segments":[],"categories_sizes":[],"default_left":[0,0,0,0,0,0,0,0,0,0,0,0,0,0,0,0,0,0,0,0,0,0,0,0,0,0,0],"id":16,"left_children":[1,5,3,9,7,21,17,11,-1,15,13,-1,-1,-1,-1,-1,-1,19,-1,-1,-1,25,23,-1,-1,-1,-1],"loss_changes":[6.000613E0,1.0670794E1,1.5365494E1,7.787563E0,7.89493E0,3.2745008E0,4.1418943E0,6.8781776E0,0E0,4.2739267E0,4.627215E0,0E0,0E0,0E0,0E0,0E0,0E0,5.5838223E0,0E0,0E0,0E0,8.695103E0,9.842219E0,0E0,0E0,0E0,0E0],"parents":[2147483647,0,0,2,2,1,1,4,4,3,3,7,7,10,10,9,9,6,6,17,17,5,5,22,22,21,21],"right_children":[2,6,4,10,8,22,18,12,-1,16,14,-1,-1,-1,-1,-1,-1,20,-1,-1,-1,26,24,-1,-1,-1,-1],"split_conditions":[-2.4492937E-16,6.54788E-3,6.1096353E-3,4.9795517E-1,1.0186846E0,4.8286794E-3,1.3284268E0,-4.7845267E-2,-0E0,4.088622E-1,6.7567565E-2,-0E0,-2.9628867E-2,3.6520467E-3,-1.07301315E-2,-0E0,1.4759334E-2,7.6152307E-1,-0E0,-0E0,3.413715E-2,1.2847437E0,-5.8778524E-1,-2.461393E-2,5.116911E-4,1.5209372E-2,-7.1350033E-3],"split_indices":[25,3,3,29,24,3,23,15,0,29,20,0,0,0,0,0,0,23,0,0,0,22,25,0,0,0,0],"split_type":[0,0,0,0,0,0,0,0,0,0,0,0,0,0,0,0,0,0,0,0,0,0,0,0,0,0,0],"sum_hessian":[6.8942E2,2.7667932E2,4.1274066E2,2.9545767E2,1.17282974E2,2.05906E2,7.077332E1,9.358358E1,2.369939E1,1.5337108E2,1.420866E2,1.3120571E1,8.046301E1,2.5804222E1,1.1628237E2,3.809547E1,1.1527561E2,5.817892E1,1.2594401E1,1.5542658E1,4.2636265E1,1.24018875E2,8.188714E1,3.8674583E1,4.3212555E1,8.807624E1,3.594263E1],"tree_param":{"num_deleted":"0","num_feature":"39","num_nodes":"27","size_leaf_vector":"1"}},{"base_weights":[4.134256E-2,1.1423332E-1,-3.3603525E-1,1.6732582E-1,-0E0,2.4268757E-1,-0E0,1.41804395E-2,-7.206654E-4,1.0540732E-1,-1.7676318E-1,1.3640321E-2,-0E0,-1.5179902E-2,-0E0,-9.10782E-3,3.0285444E-3,-0E0,-3.9500046E-1,-2.2311559E-2,-0E0],"categories":[],"categories_nodes":[],"categories_segments":[],"categories_sizes":[],"default_left":[0,0,0,0,0,0,0,0,0,0,0,0,0,0,0,0,0,0,0,0,0],"id":17,"left_children":[1,3,17,5,9,7,15,-1,-1,11,13,-1,-1,-1,-1,-1,-1,-1,19,-1,-1],"loss_changes":[1.6966587E1,5.206377E0,1.8227463E0,7.8387127E0,3.5636318E0,6.467539E0,2.4324188E0,0E0,0E0,3.2091975E0,2.49157E0,0E0,0E0,0E0,0E0,0E0,0E0,0E0,1.2810326E0,0E0,0E0],"parents":[2147483647,0,0,1,1,3,3,5,5,4,4,9,9,10,10,6,6,2,2,18,18],"right_children":[2,4,18,6,10,8,16,-1,-1,12,14,-1,-1,-1,-1,-1,-1,-1,20,-1,-1],"split_conditions":[2.0976405E-1,6.923077E-1,3.2939923E-3,2.4489796E-2,6E0,3.7E1,4.1580897E-2,1.41804395E-2,-7.206654E-4,5.287015E-1,1.1140584E-2,1.3640321E-2,-0E0,-1.5179902E-2,-0E0,-9.10782E-3,3.0285444E-3,-0E0,1.227848E0,-2.2311559E-2,-0E0],"split_indices":[27,19,12,16,30,30,16,0,0,29,16,0,0,0,0,0,0,0,13,0,0],"split_type":[0,0,0,0,0,0,0,0,0,0,0,0,0,0,0,0,0,0,0,0,0],"sum_hessian":[6.7348047E2,5.9250867E2,8.097181E1,4.5677246E2,1.3573622E2,3.449805E2,1.1179196E2,3.3027655E2,1.4703962E1,5.4683956E1,8.105226E1,4.277756E1,1.1906395E1,4.7897537E1,3.315472E1,5.603716E1,5.5754807E1,1.345072E1,6.752109E1,5.717625E1,1.0344836E1],"tree_param":{"num_deleted":"0","num_feature":"39","num_nodes":"21","size_leaf_vector":"1"}},{"base_weights":[-0E0,3.5617907E-2,-2.3862104E-1,9.559202E-2,-1.6892639E-1,-0E0,2.9462543E-1,-0E0,-2.2024749E-2,1.0479108E-2,-4.199776E-3,2.6373176E-2,2.2857224E-3,-3.0008116E-1,-0E0,-2.079962E-2,-0E0],"categories":[],"categories_nodes":[],"categories_segments":[],"categories_sizes":[],"default_left":[0,0,0,0,0,0,0,0,0,0,0,0,0,0,0,0,0],"id":18,"left_children":[1,3,13,5,7,9,11,-1,-1,-1,-1,-1,-1,15,-1,-1,-1],"loss_changes":[5.4107714E0,6.8494253E0,1.0113645E0,1.1282202E1,7.54869E0,5.4713945E0,4.6834536E0,0E0,0E0,0E0,0E0,0E0,0E0,2.7879434E0,0E0,0E0,0E0],"parents":[2147483647,0,0,1,1,3,3,4,4,5,5,6,6,2,2,13,13],"right_children":[2,4,14,6,8,10,12,-1,-1,-1,-1,-1,-1,16,-1,-1,-1],"split_conditions":[2.0976405E-1,1.3356497E0,1.161661E0,4.6547516E-3,4.7368393E-3,-1.8744843E-1,6.730248E-4,-0E0,-2.2024749E-2,1.0479108E-2,-4.199776E-3,2.6373176E-2,2.2857224E-3,1.2E1,-0E0,-2.079962E-2,-0E0],"split_indices":[27,23,23,11,11,27,14,0,0,0,0,0,0,30,0,0,0],"split_type":[0,0,0,0,0,0,0,0,0,0,0,0,0,0,0,0,0],"sum_hessian":[6.6650916E2,5.94962E2,7.154716E1,5.0199002E2,9.297197E1,3.2812E2,1.7387001E2,4.8924675E1,4.404729E1,7.178379E1,2.563362E2,6.3295685E1,1.1057433E2,5.279557E1,1.8751587E1,3.878716E1,1.400841E1],"tree_param":{"num_deleted":"0","num_feature":"39","num_nodes":"17","size_leaf_vector":"1"}},{"base_weights":[2.9750198E-2,3.2153228E-1,-8.9961226E-4,-1.0847152E-1,1.5347956E-1,2.5482252E-1,-3.3242315E-2,2.3079546E-2,-0E0,-0E0,2.1819271E-2,3.06397E-2,-1.8948263E-1,-0E0,-1.6309483E-2,-4.3090824E-3,9.724773E-3,-0E0,-1.2893918E-2],"categories":[],"categories_nodes":[],"categories_segments":[],"categories_sizes":[],"default_left":[0,0,0,0,0,0,0,0,0,0,0,0,0,0,0,0,0,0,0],"id":19,"left_children":[1,9,3,11,5,7,17,-1,-1,-1,-1,15,13,-1,-1,-1,-1,-1,-1],"loss_changes":[9.374711E0,6.268626E0,9.727666E0,6.1465707E0,6.3410444E0,1.006245E1,1.9893895E0,0E0,0E0,0E0,0E0,3.3589869E0,9.232492E0,0E0,0E0,0E0,0E0,0E0,0E0],"parents":[2147483647,0,0,2,2,4,4,5,5,1,1,3,3,12,12,11,11,6,6],"right_children":[2,10,4,12,6,8,18,-1,-1,-1,-1,16,14,-1,-1,-1,-1,-1,-1],"split_conditions":[3.282827E-3,2.6443664E-3,4.8182136E-3,-1.4097425E-1,5.314227E-1,1.6557734E-2,-1.4063094E-2,2.3079546E-2,-0E0,-0E0,2.1819271E-2,9.9491227E-1,-2.4492937E-16,-0E0,-1.6309483E-2,-4.3090824E-3,9.724773E-3,-0E0,-1.2893918E-2],"split_indices":[12,3,12,27,29,16,16,0,0,0,0,17,25,0,0,0,0,0,0],"split_type":[0,0,0,0,0,0,0,0,0,0,0,0,0,0,0,0,0,0,0],"sum_hessian":[6.7941595E2,8.657688E1,5.928391E2,3.8931348E2,2.0352562E2,1.6427441E2,3.9251205E1,9.033913E1,7.393528E1,1.1228762E1,7.5348114E1,1.0013719E2,2.891763E2,1.11450005E2,1.7772629E2,2.5598083E1,7.453911E1,1.8517727E1,2.0733479E1],"tree_param":{"num_deleted":"0","num_feature":"39","num_nodes":"19","size_leaf_vector":"1"}},{"base_weights":[-0E0,2.2972934E-2,-1.7045116E-2,2.8548014E-1,-7.738482E-3,8.476702E-2,-1.2608671E-1,-0E0,-1.3311215E-2,1.0215036E-2,-2.7065936E-3,3.7275082E-1,-0E0,2.8669521E-2,-0E0],"categories":[],"categories_nodes":[],"categories_segments":[],"categories_sizes":[],"default_left":[0,0,0,0,0,0,0,0,0,0,0,0,0,0,0],"id":20,"left_children":[1,3,-1,11,5,9,7,-1,-1,-1,-1,13,-1,-1,-1],"loss_changes":[7.4535584E0,7.942043E0,0E0,3.276102E0,6.5052414E0,6.0188155E0,7.619628E0,0E0,0E0,0E0,0E0,4.592739E0,0E0,0E0,0E0],"parents":[2147483647,0,0,1,1,4,4,6,6,5,5,3,3,11,11],"right_children":[2,4,-1,12,6,10,8,-1,-1,-1,-1,14,-1,-1,-1],"split_conditions":[2.6461327E-1,3.3817403E-3,-1.7045116E-2,5.5084544E-1,4.82977E-1,4.9710983E-1,-2.4492937E-16,-0E0,-1.3311215E-2,1.0215036E-2,-2.7065936E-3,6.2134623E-4,-0E0,2.8669521E-2,-0E0],"split_indices":[27,12,0,29,29,18,25,0,0,0,0,14,0,0,0],"split_type":[0,0,0,0,0,0,0,0,0,0,0,0,0,0,0],"sum_hessian":[6.791153E2,6.2787573E2,5.123954E1,9.117861E1,5.3669714E2,2.5540439E2,2.8129276E2,1.1844627E2,1.628465E2,1.7343544E2,8.196894E1,7.292634E1,1.8252272E1,3.9014397E1,3.391194E1],"tree_param":{"num_deleted":"0","num_feature":"39","num_nodes":"15","size_leaf_vector":"1"}},{"base_weights":[1.6871039E-2,7.2685376E-2,-2.6639846E-1,3.7412703E-1,3.435682E-3,-2.0430429E-2,-0E0,4.719648E-2,-2.651376E-1,7.6845908E-3,-0E0,4.684913E-1,-0E0,-0E0,2.8371265E-2,-1.8100446E-2,-0E0],"categories":[],"categories_nodes":[],"categories_segments":[],"categories_sizes":[],"default_left":[0,0,0,0,0,0,0,0,0,0,0,0,0,0,0,0,0],"id":21,"left_children":[1,3,5,11,7,-1,-1,9,15,-1,-1,13,-1,-1,-1,-1,-1],"loss_changes":[8.849312E0,8.674816E0,5.702506E0,3.2877254E0,4.0876493E0,0E0,0E0,3.7869477E0,1.1089401E0,0E0,0E0,3.1751041E0,0E0,0E0,0E0,0E0,0E0],"parents":[2147483647,0,0,1,1,2,2,4,4,7,7,3,3,11,11,8,8],"right_children":[2,4,6,12,8,-1,-1,10,16,-1,-1,14,-1,-1,-1,-1,-1],"split_conditions":[2.0976405E-1,3.3003301E-3,5.2853596E-1,5.081967E-1,3.4E1,-2.0430429E-2,-0E0,-2.4492937E-16,4.6E1,7.6845908E-3,-0E0,1.0204082E-1,-0E0,-0E0,2.8371265E-2,-1.8100446E-2,-0E0],"split_indices":[27,5,18,20,30,0,0,25,30,0,0,21,0,0,0,0,0],"split_type":[0,0,0,0,0,0,0,0,0,0,0,0,0,0,0,0,0],"sum_hessian":[6.5998584E2,5.870516E2,7.293426E1,7.4467255E1,5.125843E2,5.940663E1,1.352763E1,4.798715E2,3.271283E1,1.9651558E2,2.833559E2,5.8846424E1,1.56208315E1,1.2053197E1,4.6793224E1,2.1373905E1,1.1338924E1],"tree_param":{"num_deleted":"0","num_feature":"39","num_nodes":"17","size_leaf_vector":"1"}},{"base_weights":[-0E0,-1.456576E-1,1.0242915E-1,3.48637E-1,-0E0,4.4254184E-1,-0E0,-0E0,-2.3491018E-1,-4.5902535E-1,2.6389714E-2,-1.3533895E-2,1.3957065E-1,1.5174369E-2,-2.2560225E-3,1.4674066E-1,-9.066344E-2,-0E0,-1.1823903E-2,-2.6347483E-2,-0E0,8.576791E-3,-0E0,2.43659E-2,-0E0,1.129742E-2,-0E0],"categories":[],"categories_nodes":[],"categories_segments":[],"categories_sizes":[],"default_left":[0,0,0,0,0,0,0,0,0,0,0,0,0,0,0,0,0,0,0,0,0,0,0,0,0,0,0],"id":22,"left_children":[1,7,3,5,15,23,-1,11,9,19,21,-1,13,-1,-1,25,17,-1,-1,-1,-1,-1,-1,-1,-1,-1,-1],"loss_changes":[1.0568845E1,4.021109E0,1.1386438E1,4.7895727E0,3.6099741E0,1.7222137E0,0E0,4.9805865E0,1.5520422E1,3.1472511E0,1.8213464E0,0E0,5.4096975E0,0E0,0E0,1.6984298E0,4.6012416E0,0E0,0E0,0E0,0E0,0E0,0E0,0E0,0E0,0E0,0E0],"parents":[2147483647,0,0,2,2,3,3,1,1,8,8,7,7,12,12,4,4,16,16,9,9,10,10,5,5,15,15],"right_children":[2,8,4,6,16,24,-1,12,10,20,22,-1,14,-1,-1,26,18,-1,-1,-1,-1,-1,-1,-1,-1,-1,-1],"split_conditions":[-4.7727042E-1,-2.1937843E-2,-1.2755239E-1,6.327225E-3,1.0024154E0,3.1E1,-0E0,-7.587504E-2,5.2641556E-3,1.6286644E-3,6.978367E-3,-1.3533895E-2,2.2817229E-1,1.5174369E-2,-2.2560225E-3,1.3247342E-2,8E0,-0E0,-1.1823903E-2,-2.6347483E-2,-0E0,8.576791E-3,-0E0,2.43659E-2,-0E0,1.129742E-2,-0E0],"split_indices":[4,15,27,3,24,30,0,27,3,1,15,0,27,0,0,15,30,0,0,0,0,0,0,0,0,0,0],"split_type":[0,0,0,0,0,0,0,0,0,0,0,0,0,0,0,0,0,0,0,0,0,0,0,0,0,0,0],"sum_hessian":[6.78376E2,2.9227045E2,3.8610556E2,1.1786965E2,2.682359E2,9.3816925E1,2.4052732E1,1.13187584E2,1.7908286E2,1.1292825E2,6.6154594E1,3.4362324E1,7.8825264E1,6.7039116E1,1.1786146E1,8.319604E1,1.8503987E2,8.409148E1,1.009484E2,9.4613884E1,1.8314367E1,5.3701324E1,1.2453272E1,8.286748E1,1.0949448E1,6.2576088E1,2.061995E1],"tree_param":{"num_deleted":"0","num_feature":"39","num_nodes":"27","size_leaf_vector":"1"}},{"base_weights":[2.9343652E-2,9.577185E-2,-1.0883709E-1,-5.185626E-2,1.9728136E-1,2.8779387E-1,-0E0,1.7966835E-2,-0E0,-0E0,-3.6709678E-1,-2.739549E-2,-0E0,8.052839E-3,-1.5593758E-1,-1.6035564E-2,4.073758E-3,-1.1729912E-1,1.402173E-1,-0E0,1.5357E-2,-6.0392995E-3,7.598785E-3,-1.5128972E-2,-0E0],"categories":[],"categories_nodes":[],"categories_segments":[],"categories_sizes":[],"default_left":[0,0,0,0,0,0,0,0,0,0,0,0,0,0,0,0,0,0,0,0,0,0,0,0,0],"id":23,"left_children":[1,3,9,13,5,7,21,-1,-1,17,11,-1,-1,-1,15,-1,-1,23,19,-1,-1,-1,-1,-1,-1],"loss_changes":[6.334085E0,9.381451E0,7.2481847E0,4.2005596E0,7.5773993E0,7.988533E0,1.9686248E0,0E0,0E0,2.2915044E0,4.67587E0,0E0,0E0,0E0,8.829926E0,0E0,0E0,1.9114513E0,3.3943195E0,0E0,0E0,0E0,0E0,0E0,0E0],"parents":[2147483647,0,0,1,1,4,4,5,5,2,2,10,10,3,3,14,14,9,9,18,18,6,6,17,17],"right_children":[2,4,10,14,6,8,22,-1,-1,18,12,-1,-1,-1,16,-1,-1,24,20,-1,-1,-1,-1,-1,-1],"split_conditions":[5.324552E-1,-1.2091441E-2,5.1931213E-3,3.525E-1,7.476994E-3,7.4166055E-3,5.4939874E-3,1.7966835E-2,-0E0,4.1784036E-1,2.5316456E-1,-2.739549E-2,-0E0,8.052839E-3,1.1E1,-1.6035564E-2,4.073758E-3,1.1E1,3.743693E-3,-0E0,1.5357E-2,-6.0392995E-3,7.598785E-3,-1.5128972E-2,-0E0],"split_indices":[29,15,3,18,5,3,11,0,0,18,21,0,0,0,30,0,0,30,3,0,0,0,0,0,0],"split_type":[0,0,0,0,0,0,0,0,0,0,0,0,0,0,0,0,0,0,0,0,0,0,0,0,0],"sum_hessian":[6.829333E2,5.1215906E2,1.7077426E2,1.7053044E2,3.416286E2,2.4671817E2,9.491043E1,2.1653853E2,3.0179651E1,1.1109821E2,5.9676052E1,3.685268E1,2.2823372E1,2.264797E1,1.4788246E2,1.1008873E2,3.779374E1,3.8460323E1,7.2637886E1,2.9433289E1,4.3204597E1,7.056755E1,2.4342886E1,1.8160557E1,2.0299767E1],"tree_param":{"num_deleted":"0","num_feature":"39","num_nodes":"25","size_leaf_vector":"1"}},{"base_weights":[-2.0156737E-2,4.472703E-2,-8.503581E-2,-0E0,-3.7256697E-1,-5.1919323E-1,-0E0,-2.463626E-2,3.2693022E-1,5.767753E-2,-2.52047E-1,-2.7272612E-2,-0E0,-1.113309E-4,-3.7836544E-2,-1.2561981E-1,1.0163608E-1,1.565042E-2,-2.9965725E-3,-0E0,-2.1556238E-2,-1.0288883E-3,1.0692763E-2,2.0575674E-2,-0E0],"categories":[],"categories_nodes":[],"categories_segments":[],"categories_sizes":[],"default_left":[0,0,0,0,0,0,0,0,0,0,0,0,0,0,0,0,0,0,0,0,0,0,0,0,0],"id":24,"left_children":[1,7,3,15,5,13,-1,9,23,21,11,-1,-1,-1,-1,19,17,-1,-1,-1,-1,-1,-1,-1,-1],"loss_changes":[3.2546055E0,8.264356E0,1.3350902E1,3.839421E0,1.0754957E1,4.741087E0,0E0,5.6922855E0,3.0822353E0,3.4089682E0,7.8493276E0,0E0,0E0,0E0,0E0,7.614271E0,9.996143E0,0E0,0E0,0E0,0E0,0E0,0E0,0E0,0E0],"parents":[2147483647,0,0,2,2,4,4,1,1,7,7,10,10,5,5,3,3,16,16,15,15,9,9,8,8],"right_children":[2,8,4,16,6,14,-1,10,24,22,12,-1,-1,-1,-1,20,18,-1,-1,-1,-1,-1,-1,-1,-1],"split_conditions":[-2.4492937E-16,6.413978E-3,6.1096353E-3,3.7295935E-3,5.6973296E-1,4.8407644E-1,-0E0,4.7011175E-3,1.2610556E0,3.962264E-1,-5.8778524E-1,-2.7272612E-2,-0E0,-1.113309E-4,-3.7836544E-2,3.6338465E-3,4.9795517E-1,1.565042E-2,-2.9965725E-3,-0E0,-2.1556238E-2,-1.0288883E-3,1.0692763E-2,2.0575674E-2,-0E0],"split_indices":[25,3,3,3,18,18,0,3,13,18,25,0,0,0,0,12,29,0,0,0,0,0,0,0,0],"split_type":[0,0,0,0,0,0,0,0,0,0,0,0,0,0,0,0,0,0,0,0,0,0,0,0,0],"sum_hessian":[6.583497E2,2.5365225E2,4.0469745E2,2.9691003E2,1.0778741E2,9.055057E1,1.723684E1,1.8248936E2,7.116288E1,1.0718355E2,7.530582E1,3.4597645E1,4.070817E1,4.4939186E1,4.5611378E1,9.3803375E1,2.0310666E2,1.107445E2,9.236216E1,5.4024525E1,3.9778854E1,3.453303E1,7.265051E1,5.9428173E1,1.1734707E1],"tree_param":{"num_deleted":"0","num_feature":"39","num_nodes":"25","size_leaf_vector":"1"}},{"base_weights":[-0E0,3.512421E-1,-6.31118E-2,-0E0,-2.1498498E-1,-0E0,-3.3102137E-1,-0E0,-2.076659E-2,-3.1592593E-2,1.6157685E-2,-0E0,-1.0190173E-2,-0E0,2.171928E-2],"categories":[],"categories_nodes":[],"categories_segments":[],"categories_sizes":[],"default_left":[0,0,0,0,0,0,0,0,0,0,0,0,0,0,0],"id":25,"left_children":[1,13,3,9,5,-1,7,-1,-1,11,-1,-1,-1,-1,-1],"loss_changes":[1.3824565E1,2.410965E0,5.683427E0,4.5087237E0,5.0788155E0,0E0,4.509159E0,0E0,0E0,4.080816E0,0E0,0E0,0E0,0E0,0E0],"parents":[2147483647,0,0,2,2,4,4,6,6,3,3,9,9,1,1],"right_children":[2,14,4,10,6,-1,8,-1,-1,12,-1,-1,-1,-1,-1],"split_conditions":[3.282827E-3,5.364173E-1,7.878864E-2,2.068058E-3,4.8880355E-4,-0E0,9.891993E-1,-0E0,-2.076659E-2,1.2063383E0,1.6157685E-2,-0E0,-1.0190173E-2,-0E0,2.171928E-2],"split_indices":[12,22,27,14,14,0,17,0,0,23,0,0,0,0,0],"split_type":[0,0,0,0,0,0,0,0,0,0,0,0,0,0,0],"sum_hessian":[6.5846326E2,8.3159996E1,5.753032E2,4.1189346E2,1.6340977E2,5.3915867E1,1.0949391E2,1.744943E1,9.204448E1,3.8246924E2,2.9424217E1,2.8479028E2,9.767894E1,1.947223E1,6.368777E1],"tree_param":{"num_deleted":"0","num_feature":"39","num_nodes":"15","size_leaf_vector":"1"}},{"base_weights":[-2.4851288E-3,1.305966E-2,-3.4169883E-1,-6.422207E-2,1.1370442E-1,2.987142E-1,-0E0,2.0318767E-2,-0E0,-0E0,-2.3206261E-1,-0E0,-2.389762E-2,1.526308E-3,-1.2905727E-2,-2.0957364E-2,-0E0],"categories":[],"categories_nodes":[],"categories_segments":[],"categories_sizes":[],"default_left":[0,0,0,0,0,0,0,0,0,0,0,0,0,0,0,0,0],"id":26,"left_children":[1,3,15,9,5,7,-1,-1,-1,13,11,-1,-1,-1,-1,-1,-1],"loss_changes":[6.9067354E0,5.466805E0,1.2756085E0,3.0407228E0,6.8462973E0,5.951763E0,0E0,0E0,0E0,2.2000616E0,7.8510857E0,0E0,0E0,0E0,0E0,0E0,0E0],"parents":[2147483647,0,0,1,1,4,4,5,5,3,3,10,10,9,9,2,2],"right_children":[2,4,16,10,6,8,-1,-1,-1,14,12,-1,-1,-1,-1,-1,-1],"split_conditions":[2.6461327E-1,9.9835914E-1,4.876033E-1,6.4749424E-3,-2.4492937E-16,1.6044972E0,-0E0,2.0318767E-2,-0E0,2.405085E-2,-2.4492937E-16,-0E0,-2.389762E-2,1.526308E-3,-1.2905727E-2,-2.0957364E-2,-0E0],"split_indices":[27,24,18,3,25,4,0,0,0,16,25,0,0,0,0,0,0],"split_type":[0,0,0,0,0,0,0,0,0,0,0,0,0,0,0,0,0],"sum_hessian":[6.68118E2,6.1984796E2,4.8270058E1,2.9646332E2,3.2338464E2,1.1503089E2,2.0835374E2,9.359814E1,2.1432755E1,2.265287E2,6.993461E1,2.6722E1,4.321261E1,2.0653484E2,1.9993858E1,3.598648E1,1.228358E1],"tree_param":{"num_deleted":"0","num_feature":"39","num_nodes":"17","size_leaf_vector":"1"}},{"base_weights":[-0E0,1.9811739E-1,-2.9476346E-2,-6.4437106E-2,1.975046E-2,-1.6899191E-1,5.3035587E-2,1.3316444E-2,-2.1629718E-3,2.024031E-3,-1.1142559E-2,2.9663995E-1,-0E0,2.2895915E-2,-0E0],"categories":[],"categories_nodes":[],"categories_segments":[],"categories_sizes":[],"default_left":[0,0,0,0,0,0,0,0,0,0,0,0,0,0,0],"id":27,"left_children":[1,11,3,5,-1,9,7,-1,-1,-1,-1,13,-1,-1,-1],"loss_changes":[4.2647357E0,2.8663836E0,5.803543E0,8.392925E0,0E0,5.920865E0,7.202687E0,0E0,0E0,0E0,0E0,2.9536004E0,0E0,0E0,0E0],"parents":[2147483647,0,0,2,2,3,3,6,6,5,5,1,1,11,11],"right_children":[2,12,4,6,-1,10,8,-1,-1,-1,-1,14,-1,-1,-1],"split_conditions":[3.282827E-3,5.5084544E-1,7.9017855E-2,4.6921913E-3,1.975046E-2,2.7003634E-4,3.09017E-1,1.3316444E-2,-2.1629718E-3,2.024031E-3,-1.1142559E-2,1.1E1,-0E0,2.2895915E-2,-0E0],"split_indices":[12,29,16,12,0,14,26,0,0,0,0,30,0,0,0],"split_type":[0,0,0,0,0,0,0,0,0,0,0,0,0,0,0],"sum_hessian":[6.721128E2,8.54464E1,5.866664E2,5.7162695E2,1.5039452E1,3.451616E2,2.2646533E2,9.724898E1,1.2921635E2,3.3129097E1,3.120325E2,6.51484E1,2.029801E1,3.5621346E1,2.952705E1],"tree_param":{"num_deleted":"0","num_feature":"39","num_nodes":"15","size_leaf_vector":"1"}},{"base_weights":[-0E0,3.645692E-2,-1.835563E-2,1.9815597E-1,-0E0,-0E0,3.136508E-1,-0E0,2.1886995E-2,1.1387987E-2,-2.1291258E-2,-7.0795245E-3,2.3090495E-3],"categories":[],"categories_nodes":[],"categories_segments":[],"categories_sizes":[],"default_left":[0,0,0,0,0,0,0,0,0,0,0,0,0],"id":28,"left_children":[1,3,-1,5,9,-1,7,-1,-1,-1,11,-1,-1],"loss_changes":[8.632626E0,3.4742558E0,0E0,3.3507528E0,2.947441E0,0E0,4.5117965E0,0E0,0E0,0E0,5.034706E0,0E0,0E0],"parents":[2147483647,0,0,1,1,3,3,6,6,4,4,10,10],"right_children":[2,4,-1,6,10,-1,8,-1,-1,-1,12,-1,-1],"split_conditions":[2.6992953E-1,9.899374E-1,-1.835563E-2,-6.247832E-2,2.764549E-4,-0E0,3.776469E-3,-0E0,2.1886995E-2,1.1387987E-2,5.2780397E-3,-7.0795245E-3,2.3090495E-3],"split_indices":[27,17,0,27,14,0,12,0,0,0,16,0,0],"split_type":[0,0,0,0,0,0,0,0,0,0,0,0,0],"sum_hessian":[6.7499207E2,6.272226E2,4.7769478E1,1.0004981E2,5.271728E2,3.206451E1,6.79853E1,1.4401214E1,5.3584087E1,4.2495842E1,4.8467694E2,2.2346875E2,2.612082E2],"tree_param":{"num_deleted":"0","num_feature":"39","num_nodes":"13","size_leaf_vector":"1"}},{"base_weights":[-0E0,1.8919658E-2,-3.327609E-2,4.417686E-3,-2.2076577E-1,-3.5214972E-1,-0E0,-0E0,-2.326445E-2,-8.2382426E-2,8.170347E-2,-1.2816246E-2,1.589953E-3,9.537194E-3,-1.2998268E-3],"categories":[],"categories_nodes":[],"categories_segments":[],"categories_sizes":[],"default_left":[0,0,0,0,0,0,0,0,0,0,0,0,0,0,0],"id":29,"left_children":[1,-1,3,9,5,7,-1,-1,-1,11,13,-1,-1,-1,-1],"loss_changes":[9.371064E0,0E0,6.6046457E0,3.3306997E0,6.099518E0,4.975665E0,0E0,0E0,0E0,5.7754326E0,5.500059E0,0E0,0E0,0E0,0E0],"parents":[2147483647,0,0,2,2,4,4,5,5,3,3,9,9,10,10],"right_children":[2,-1,4,10,6,8,-1,-1,-1,12,14,-1,-1,-1,-1],"split_conditions":[2.714217E-4,1.8919658E-2,1.1394107E-1,8.3744556E-1,1.2E1,3.4085128E-3,-0E0,-0E0,-2.326445E-2,-3.843632E-2,1.2063383E0,-1.2816246E-2,1.589953E-3,9.537194E-3,-1.2998268E-3],"split_indices":[14,0,27,23,30,12,0,0,0,27,23,0,0,0,0],"split_type":[0,0,0,0,0,0,0,0,0,0,0,0,0,0,0],"sum_hessian":[6.6763947E2,5.0599674E1,6.170398E2,4.774743E2,1.3956548E2,9.796734E1,4.1598145E1,2.313981E1,7.482753E1,1.6363997E2,3.1383435E2,9.462323E1,6.901674E1,1.9825339E2,1.15580956E2],"tree_param":{"num_deleted":"0","num_feature":"39","num_nodes":"15","size_leaf_vector":"1"}},{"base_weights":[-9.561669E-3,2.1680988E-1,-6.1771173E-2,-2.726369E-1,1.17615275E-2,1.0929679E-1,-2.4662624E-1,1.1676902E-2,-5.9915488E-3,-0E0,-2.4473779E-2,-0E0,2.3498764E-2,-3.3162186E-1,-0E0,-0E0,-1.875694E-2],"categories":[],"categories_nodes":[],"categories_segments":[],"categories_sizes":[],"default_left":[0,0,0,0,0,0,0,0,0,0,0,0,0,0,0,0,0],"id":30,"left_children":[1,11,3,13,5,7,9,-1,-1,-1,-1,-1,-1,15,-1,-1,-1],"loss_changes":[6.5703497E0,3.1339822E0,1.1832577E1,2.1891356E0,9.328766E0,1.0968875E1,9.7074375E0,0E0,0E0,0E0,0E0,0E0,0E0,2.6492367E0,0E0,0E0,0E0],"parents":[2147483647,0,0,2,2,4,4,5,5,6,6,1,1,3,3,13,13],"right_children":[2,12,4,14,6,8,10,-1,-1,-1,-1,-1,-1,16,-1,-1,-1],"split_conditions":[3.282827E-3,2.0841227E-3,4.078499E-3,9.003433E-4,1E0,1.2108806E0,9.9562293E-1,1.1676902E-2,-5.9915488E-3,-0E0,-2.4473779E-2,-0E0,2.3498764E-2,2.7401422E-4,-0E0,-0E0,-1.875694E-2],"split_indices":[12,2,12,14,26,23,17,0,0,0,0,0,0,14,0,0,0],"split_type":[0,0,0,0,0,0,0,0,0,0,0,0,0,0,0,0,0],"sum_hessian":[6.657748E2,8.2969635E1,5.828052E2,1.7884837E2,4.039568E2,3.2554343E2,7.841335E1,2.3925963E2,8.62838E1,2.5450102E1,5.2963257E1,5.8995213E1,2.3974424E1,1.3754887E2,4.1299503E1,1.3421416E1,1.2412746E2],"tree_param":{"num_deleted":"0","num_feature":"39","num_nodes":"17","size_leaf_vector":"1"}},{"base_weights":[-0E0,8.073564E-2,-7.621108E-2,-2.3530166E-1,3.1842306E-2,1.1841206E-1,-4.03008E-1,-2.4289018E-2,-0E0,2.2916125E-1,-4.1677177E-2,-1.3453715E-2,7.486345E-3,1.8042466E-1,-0E0,-0E0,3.6322963E-1,1.600165E-2,-0E0,-0E0,1.5139128E-2,-1.09018765E-1,1.24097005E-1,1.3847535E-2,-0E0,-0E0,-8.828681E-3,2.177718E-2,-0E0],"categories":[],"categories_nodes":[],"categories_segments":[],"categories_sizes":[],"default_left":[0,0,0,0,0,0,0,0,0,0,0,0,0,0,0,0,0,0,0,0,0,0,0,0,0,0,0,0,0],"id":31,"left_children":[1,13,3,5,9,19,7,-1,-1,17,11,-1,-1,15,21,-1,27,-1,-1,-1,-1,25,23,-1,-1,-1,-1,-1,-1],"loss_changes":[4.222619E0,3.711088E0,8.495135E0,1.4527208E1,4.7642446E0,2.0912776E0,7.355835E0,0E0,0E0,3.4198823E0,6.464666E0,0E0,0E0,6.027E0,2.059171E0,0E0,1.742753E0,0E0,0E0,0E0,0E0,1.7997466E0,2.0138595E0,0E0,0E0,0E0,0E0,0E0,0E0],"parents":[2147483647,0,0,2,2,3,3,6,6,4,4,10,10,1,1,13,13,9,9,5,5,14,14,22,22,21,21,16,16],"right_children":[2,14,4,6,10,20,8,-1,-1,18,12,-1,-1,16,22,-1,28,-1,-1,-1,-1,26,24,-1,-1,-1,-1,-1,-1],"split_conditions":[4.82977E-1,9.868613E-1,9.982641E-1,-2.4561403E-2,9.665571E-3,5.247397E-1,5.78541E-1,-2.4289018E-2,-0E0,3.1E1,2.9520296E-2,-1.3453715E-2,7.486345E-3,5.670447E-3,1.3081201E0,-0E0,4.7826087E-1,1.600165E-2,-0E0,-0E0,1.5139128E-2,-6.25613E-3,2.2785677E-2,1.3847535E-2,-0E0,-0E0,-8.828681E-3,2.177718E-2,-0E0],"split_indices":[29,13,24,2,2,29,29,0,0,30,15,0,0,16,13,0,21,0,0,0,0,0,15,0,0,0,0,0,0],"split_type":[0,0,0,0,0,0,0,0,0,0,0,0,0,0,0,0,0,0,0,0,0,0,0,0,0,0,0,0,0],"sum_hessian":[6.6828406E2,3.0681723E2,3.6146683E2,1.7887445E2,1.8259236E2,3.9299072E1,1.3957538E2,1.2411666E2,1.5458714E1,8.0740685E1,1.01851685E2,6.857221E1,3.327947E1,1.6743895E2,1.3937828E2,8.797739E1,7.946156E1,6.9916306E1,1.0824373E1,1.8947819E1,2.0351252E1,1.0245179E2,3.6926483E1,2.567758E1,1.1248905E1,1.1860928E1,9.0590866E1,6.140781E1,1.8053755E1],"tree_param":{"num_deleted":"0","num_feature":"39","num_nodes":"29","size_leaf_vector":"1"}},{"base_weights":[-0E0,5.0391316E-2,-2.0589301E-1,-0E0,-3.3975828E-1,-2.3065507E-2,-0E0,1.4277557E-1,-0E0,2.2776699E-1,-3.5133597E-3,-0E0,1.5733413E-2,-9.53869E-2,8.550532E-2,1.5668279E-2,-0E0,-1.22507205E-2,-0E0],"categories":[],"categories_nodes":[],"categories_segments":[],"categories_sizes":[],"default_left":[0,0,0,0,0,0,0,0,0,0,0,0,0,0,0,0,0,0,0],"id":32,"left_children":[1,7,3,-1,5,-1,-1,9,13,11,-1,-1,-1,17,15,-1,-1,-1,-1],"loss_changes":[6.334923E0,1.9318949E0,3.6892395E0,0E0,3.4103441E0,0E0,0E0,4.7553625E0,3.4665234E0,3.8986864E0,0E0,0E0,0E0,4.7363296E0,7.2147574E0,0E0,0E0,0E0,0E0],"parents":[2147483647,0,0,2,2,4,4,1,1,7,7,9,9,8,8,14,14,13,13],"right_children":[2,8,4,-1,6,-1,-1,10,14,12,-1,-1,-1,18,16,-1,-1,-1,-1],"split_conditions":[1.7976191E0,4.8496542E-4,1.6666667E-1,-0E0,1.0058985E0,-2.3065507E-2,-0E0,2.959617E-1,-9.0127E-3,-3.7903225E-1,-3.5133597E-3,-0E0,1.5733413E-2,9.9622464E-1,4.6035796E-1,1.5668279E-2,-0E0,-1.22507205E-2,-0E0],"split_indices":[22,14,20,0,24,0,0,27,16,6,0,0,0,23,29,0,0,0,0],"split_type":[0,0,0,0,0,0,0,0,0,0,0,0,0,0,0,0,0,0,0],"sum_hessian":[6.7307745E2,5.6827954E2,1.0479794E2,4.0680958E1,6.411698E1,4.622975E1,1.7887232E1,1.5680573E2,4.114738E2,1.4514806E2,1.165767E1,3.448663E1,1.1066142E2,1.6451729E2,2.4695651E2,8.26028E1,1.6435371E2,9.534709E1,6.917019E1],"tree_param":{"num_deleted":"0","num_feature":"39","num_nodes":"19","size_leaf_vector":"1"}},{"base_weights":[1.1462235E-2,6.408654E-2,-8.75608E-2,1.3043052E-1,-1.8970221E-1,2.2746652E-1,-0E0,1.0520102E-3,2.7596626E-2,-0E0,-2.4151212E-1,-0E0,-2.9600346E-2,8.447073E-3,-7.1388604E-3,-1.53384E-2,-0E0,-8.706611E-3,1.7714831E-1,1.329124E-2,-0E0],"categories":[],"categories_nodes":[],"categories_segments":[],"categories_sizes":[],"default_left":[0,0,0,0,0,0,0,0,0,0,0,0,0,0,0,0,0,0,0,0,0],"id":33,"left_children":[1,3,9,5,15,7,13,-1,-1,17,11,-1,-1,-1,-1,-1,-1,-1,19,-1,-1],"loss_changes":[3.295587E0,8.192318E0,4.435047E0,7.154623E0,3.2116103E0,1.3086568E1,4.07317E0,0E0,0E0,2.8434103E0,1.1235016E1,0E0,0E0,0E0,0E0,0E0,0E0,0E0,2.0103562E0,0E0,0E0],"parents":[2147483647,0,0,1,1,3,3,5,5,2,2,10,10,6,6,4,4,9,9,18,18],"right_children":[2,4,10,6,16,8,14,-1,-1,18,12,-1,-1,-1,-1,-1,-1,-1,20,-1,-1],"split_conditions":[2.4489796E-2,2.0976405E-1,-8.651343E-2,4.848485E-1,5.2853596E-1,4.4939476E-3,4.630405E-3,1.0520102E-3,2.7596626E-2,-4.2498938E-4,9.8627925E-1,-0E0,-2.9600346E-2,8.447073E-3,-7.1388604E-3,-1.53384E-2,-0E0,-8.706611E-3,7.6666665E-1,1.329124E-2,-0E0],"split_indices":[16,27,27,18,18,11,3,0,0,15,23,0,0,0,0,0,0,0,6,0,0],"split_type":[0,0,0,0,0,0,0,0,0,0,0,0,0,0,0,0,0,0,0,0,0],"sum_hessian":[6.567055E2,4.9706335E2,1.5964215E2,4.2914285E2,6.792051E1,2.7266495E2,1.564779E2,1.9198915E2,8.0675804E1,7.1307465E1,8.833468E1,4.9912323E1,3.842236E1,4.831488E1,1.08163025E2,5.3924633E1,1.3995877E1,1.07240305E1,6.0583435E1,4.979625E1,1.0787183E1],"tree_param":{"num_deleted":"0","num_feature":"39","num_nodes":"21","size_leaf_vector":"1"}},{"base_weights":[-0E0,-1.7502459E-2,3.230361E-1,1.1601816E-1,-9.4600074E-2,-1.8211535E-1,7.979618E-3,3.8083436E-3,-1.42958565E-2,2.4091338E-1,-1.2900546E-2,1.9489998E-2,-0E0,-4.150187E-3,9.409115E-3,-0E0,2.0755943E-2,-8.42684E-3,-0E0],"categories":[],"categories_nodes":[],"categories_segments":[],"categories_sizes":[],"default_left":[0,0,0,0,0,0,0,0,0,0,0,0,0,0,0,0,0,0,0],"id":34,"left_children":[1,3,15,9,5,7,13,-1,-1,11,17,-1,-1,-1,-1,-1,-1,-1,-1],"loss_changes":[4.9001746E0,6.4860044E0,1.3292508E0,5.392434E0,5.875104E0,1.0375223E1,3.9659927E0,0E0,0E0,5.1632247E0,1.1634347E0,0E0,0E0,0E0,0E0,0E0,0E0,0E0,0E0],"parents":[2147483647,0,0,1,1,4,4,5,5,3,3,9,9,6,6,2,2,10,10],"right_children":[2,4,16,10,6,8,14,-1,-1,12,18,-1,-1,-1,-1,-1,-1,-1,-1],"split_conditions":[2.068058E-3,-1.3352096E-1,-5.5666002E-3,1E0,4.6615605E-3,3.3084063E-3,-9.8824E-4,3.8083436E-3,-1.42958565E-2,6.950478E-4,5.540678E-4,1.9489998E-2,-0E0,-4.150187E-3,9.409115E-3,-0E0,2.0755943E-2,-8.42684E-3,-0E0],"split_indices":[14,27,2,28,12,12,0,0,0,0,0,0,0,0,0,0,0,0,0],"split_type":[0,0,0,0,0,0,0,0,0,0,0,0,0,0,0,0,0,0,0],"sum_hessian":[6.652917E2,6.302131E2,3.507858E1,1.8136475E2,4.4884836E2,2.9063037E2,1.58218E2,5.6462864E1,2.341675E2,1.2710635E2,5.425839E1,7.635271E1,5.0753647E1,7.184476E1,8.637324E1,1.0067106E1,2.5011473E1,3.1335789E1,2.29226E1],"tree_param":{"num_deleted":"0","num_feature":"39","num_nodes":"19","size_leaf_vector":"1"}},{"base_weights":[3.229365E-2,1.0071352E-1,-1.0270919E-1,1.5587893E-1,-1.1359969E-2,2.162252E-1,-4.26624E-2,-3.2478887E-1,-0E0,1.3733098E-2,-0E0,-4.1512585E-1,-0E0,-2.5988394E-2,-0E0,-7.041118E-4,9.19222E-3,-7.7143707E-3,-0E0,-0E0,-8.451098E-3],"categories":[],"categories_nodes":[],"categories_segments":[],"categories_sizes":[],"default_left":[0,0,0,0,0,0,0,0,0,0,0,0,0,0,0,0,0,0,0,0,0],"id":35,"left_children":[1,3,7,5,-1,9,17,11,15,-1,-1,13,-1,-1,-1,19,-1,-1,-1,-1,-1],"loss_changes":[6.3390565E0,8.751917E0,7.3459096E0,7.377185E0,0E0,4.9067936E0,1.4253963E0,2.865614E0,1.7960099E0,0E0,0E0,3.0913715E0,0E0,0E0,0E0,1.0478113E0,0E0,0E0,0E0,0E0,0E0],"parents":[2147483647,0,0,1,1,3,3,2,2,5,5,7,7,11,11,8,8,6,6,15,15],"right_children":[2,4,8,6,-1,10,18,12,16,-1,-1,14,-1,-1,-1,20,-1,-1,-1,-1,-1],"split_conditions":[2.4489796E-2,2.6461327E-1,4.5045045E-1,1.7976191E0,-1.1359969E-2,1E0,8.60289E-3,5.1642824E-3,4.1580897E-2,1.3733098E-2,-0E0,1E0,-0E0,-2.5988394E-2,-0E0,-5.7297368E-2,9.19222E-3,-7.7143707E-3,-0E0,-0E0,-8.451098E-3],"split_indices":[16,27,18,22,0,26,16,11,16,0,0,26,0,0,0,27,0,0,0,0,0],"split_type":[0,0,0,0,0,0,0,0,0,0,0,0,0,0,0,0,0,0,0,0,0],"sum_hessian":[6.672388E2,4.936618E2,1.7357697E2,4.531669E2,4.04949E1,3.8547818E2,6.768872E1,7.79959E1,9.5581055E1,3.0014014E2,8.533806E1,6.0493507E1,1.75024E1,4.640937E1,1.4084138E1,5.244364E1,4.3137413E1,5.5819035E1,1.1869685E1,2.5765293E1,2.6678347E1],"tree_param":{"num_deleted":"0","num_feature":"39","num_nodes":"21","size_leaf_vector":"1"}},{"base_weights":[-0E0,2.1645248E-1,-3.418886E-2,-3.23461E-1,-0E0,9.909707E-2,-7.5817205E-2,1.3074845E-2,-4.089688E-3,4.5426954E-3,-6.8376176E-3,-2.1401787E-2,-0E0,-0E0,1.5628329E-2],"categories":[],"categories_nodes":[],"categories_segments":[],"categories_sizes":[],"default_left":[0,0,0,0,0,0,0,0,0,0,0,0,0,0,0],"id":36,"left_children":[1,13,3,11,5,7,9,-1,-1,-1,-1,-1,-1,-1,-1],"loss_changes":[3.5771527E0,2.1082745E0,5.225161E0,2.2300758E0,4.3530035E0,9.006564E0,4.1424017E0,0E0,0E0,0E0,0E0,0E0,0E0,0E0,0E0],"parents":[2147483647,0,0,2,2,4,4,5,5,6,6,3,3,1,1],"right_children":[2,14,4,12,6,8,10,-1,-1,-1,-1,-1,-1,-1,-1],"split_conditions":[2.714217E-4,-3.4039367E-3,3.379137E-4,6.3793105E-1,-2.4492937E-16,1.0340557E0,4.5545146E-4,1.3074845E-2,-4.089688E-3,4.5426954E-3,-6.8376176E-3,-2.1401787E-2,-0E0,-0E0,1.5628329E-2],"split_indices":[14,0,14,19,25,13,14,0,0,0,0,0,0,0,0],"split_type":[0,0,0,0,0,0,0,0,0,0,0,0,0,0,0],"sum_hessian":[6.662561E2,5.0745026E1,6.155111E2,4.6928963E1,5.6858215E2,2.281363E2,3.4044583E2,1.4699411E2,8.11422E1,4.5894726E1,2.9455112E2,3.4681946E1,1.2247019E1,1.0034802E1,4.0710224E1],"tree_param":{"num_deleted":"0","num_feature":"39","num_nodes":"15","size_leaf_vector":"1"}},{"base_weights":[-0E0,2.3399666E-2,-2.2613494E-1,8.210959E-2,-8.699482E-2,-0E0,3.8185728E-1,2.8804526E-2,-0E0,-1.9812505E-1,1.2559066E-2,-1.9439405E-2,-0E0,9.8431595E-3,-2.6113428E-3,-1.6495742E-2,-0E0],"categories":[],"categories_nodes":[],"categories_segments":[],"categories_sizes":[],"default_left":[0,0,0,0,0,0,0,0,0,0,0,0,0,0,0,0,0],"id":37,"left_children":[1,3,15,5,9,13,7,-1,-1,11,-1,-1,-1,-1,-1,-1,-1],"loss_changes":[3.3659003E0,4.0649285E0,1.4275918E0,1.017068E1,6.0649757E0,4.654116E0,1.0285351E1,0E0,0E0,5.999746E0,0E0,0E0,0E0,0E0,0E0,0E0,0E0],"parents":[2147483647,0,0,1,1,3,3,6,6,4,4,9,9,5,5,2,2],"right_children":[2,4,16,6,10,14,8,-1,-1,12,-1,-1,-1,-1,-1,-1,-1],"split_conditions":[2.5817722E-1,2.4489796E-2,4.6238533E-1,1.1606819E-2,7.9017855E-2,9.865175E-1,4.9027563E-3,2.8804526E-2,-0E0,2.2463496E-3,1.2559066E-2,-1.9439405E-2,-0E0,9.8431595E-3,-2.6113428E-3,-1.6495742E-2,-0E0],"split_indices":[27,16,18,16,16,24,12,0,0,1,0,0,0,0,0,0,0],"split_type":[0,0,0,0,0,0,0,0,0,0,0,0,0,0,0,0,0],"sum_hessian":[6.62842E2,6.136989E2,4.9143024E1,4.614417E2,1.5225723E2,3.7989325E2,8.154844E1,6.121388E1,2.033456E1,1.3997191E2,1.2285317E1,6.863834E1,7.1333565E1,8.890647E1,2.909868E2,3.0902552E1,1.8240473E1],"tree_param":{"num_deleted":"0","num_feature":"39","num_nodes":"17","size_leaf_vector":"1"}},{"base_weights":[-0E0,-1.5974644E-1,2.9097462E-2,1.417522E-1,-2.3023585E-2,2.6427934E-1,-1.7339794E-1,-6.432396E-2,2.916532E-1,1.891802E-2,-0E0,-0E0,-1.3210732E-2,1.9254154E-2,-0E0,-0E0,-9.769954E-3,-0E0,-1.2123898E-2],"categories":[],"categories_nodes":[],"categories_segments":[],"categories_sizes":[],"default_left":[0,0,0,0,0,0,0,0,0,0,0,0,0,0,0,0,0,0,0],"id":38,"left_children":[1,17,3,7,5,13,11,15,9,-1,-1,-1,-1,-1,-1,-1,-1,-1,-1],"loss_changes":[2.6637912E0,1.7944887E0,4.7483993E0,1.0250662E1,1.5049025E1,4.0816927E0,4.237098E0,2.3226752E0,4.900303E0,0E0,0E0,0E0,0E0,0E0,0E0,0E0,0E0,0E0,0E0],"parents":[2147483647,0,0,2,2,4,4,3,3,8,8,6,6,5,5,7,7,1,1],"right_children":[2,18,4,8,6,14,12,16,10,-1,-1,-1,-1,-1,-1,-1,-1,-1,-1],"split_conditions":[4.088622E-1,-1.208981E-2,-2.4492937E-16,4.7032228E-1,4.6531665E-1,4.2105263E-1,3.807687E-3,-8.206812E-3,9.5042385E-2,1.891802E-2,-0E0,-0E0,-1.3210732E-2,1.9254154E-2,-0E0,-0E0,-9.769954E-3,-0E0,-1.2123898E-2],"split_indices":[29,2,25,29,29,20,11,1,27,0,0,0,0,0,0,0,0,0,0],"split_type":[0,0,0,0,0,0,0,0,0,0,0,0,0,0,0,0,0,0,0],"sum_hessian":[6.653784E2,7.444735E1,5.909311E2,2.4216928E2,3.4876178E2,9.437497E1,2.5438683E2,7.628912E1,1.6588016E2,1.2873584E2,3.7144325E1,8.982036E1,1.6456645E2,6.66855E1,2.7689468E1,1.6104551E1,6.018457E1,1.727401E1,5.717334E1],"tree_param":{"num_deleted":"0","num_feature":"39","num_nodes":"19","size_leaf_vector":"1"}},{"base_weights":[-0E0,-1.0744198E-1,7.8260556E-2,2.52239E-1,-2.1506928E-2,1.4357854E-1,-1.8968819E-1,3.6272785E-1,-0E0,-0E0,-2.5382322E-1,-0E0,-1.9733163E-2,-0E0,3.3667025E-1,2.1396678E-2,-0E0,3.2281853E-2,-1.5038818E-1,-0E0,-1.4013386E-2,2.4389943E-2,-0E0,1.1790939E-2,-0E0],"categories":[],"categories_nodes":[],"categories_segments":[],"categories_sizes":[],"default_left":[0,0,0,0,0,0,0,0,0,0,0,0,0,0,0,0,0,0,0,0,0,0,0,0,0],"id":39,"left_children":[1,5,3,7,17,13,9,15,-1,-1,11,-1,-1,-1,21,-1,-1,23,19,-1,-1,-1,-1,-1,-1],"loss_changes":[5.8324466E0,7.2734814E0,8.527293E0,4.658434E0,2.6053007E0,3.533319E0,4.2328243E0,2.7415533E0,0E0,0E0,6.096676E0,0E0,0E0,0E0,2.3934097E0,0E0,0E0,2.344695E0,3.235115E0,0E0,0E0,0E0,0E0,0E0,0E0],"parents":[2147483647,0,0,2,2,1,1,3,3,6,6,10,10,5,5,7,7,4,4,18,18,14,14,17,17],"right_children":[2,6,4,8,18,14,10,16,-1,-1,12,-1,-1,-1,22,-1,-1,24,20,-1,-1,-1,-1,-1,-1],"split_conditions":[-2.7067629E-1,-5.227143E-2,-6.044965E-2,4.9595865E-3,8.775779E-3,8.151659E-1,7.5885713E-1,1E0,-0E0,-0E0,2.1153846E-1,-0E0,-1.9733163E-2,-0E0,1.1511254E0,2.1396678E-2,-0E0,4.9342103E-3,4.7852176E-1,-0E0,-1.4013386E-2,2.4389943E-2,-0E0,1.1790939E-2,-0E0],"split_indices":[4,16,27,11,2,13,13,26,0,0,20,0,0,0,13,0,0,5,29,0,0,0,0,0,0],"split_type":[0,0,0,0,0,0,0,0,0,0,0,0,0,0,0,0,0,0,0,0,0,0,0,0,0],"sum_hessian":[6.5199976E2,3.067779E2,3.4522186E2,1.567775E2,1.8844437E2,4.3862755E1,2.6291513E2,1.0605532E2,5.072218E1,5.479358E1,2.0812157E2,8.8758804E1,1.1936276E2,1.2893913E1,3.0968842E1,8.835311E1,1.7702202E1,8.3499954E1,1.04944405E2,4.0663452E1,6.428095E1,1.9574135E1,1.1394705E1,3.3914967E1,4.958499E1],"tree_param":{"num_deleted":"0","num_feature":"39","num_nodes":"25","size_leaf_vector":"1"}},{"base_weights":[-0E0,-8.462356E-2,3.8413264E-2,2.0797232E-1,-4.7310855E-2,7.368206E-2,-2.0831019E-1,-0E0,3.7145782E-1,-0E0,-1.4910142E-2,2.3426583E-2,-0E0,-0E0,-2.3196541E-1,-0E0,-3.5602462E-1,-2.3084586E-2,-0E0,9.013464E-3,-0E0],"categories":[],"categories_nodes":[],"categories_segments":[],"categories_sizes":[],"default_left":[0,0,0,0,0,0,0,0,0,0,0,0,0,0,0,0,0,0,0,0,0],"id":40,"left_children":[1,13,3,7,5,19,9,-1,11,-1,-1,-1,-1,-1,15,-1,17,-1,-1,-1,-1],"loss_changes":[2.3743052E0,4.482249E0,8.272011E0,6.5306454E0,6.7409587E0,2.6807423E0,5.717057E0,0E0,5.458747E0,0E0,0E0,0E0,0E0,0E0,4.5541277E0,0E0,4.1446266E0,0E0,0E0,0E0,0E0],"parents":[2147483647,0,0,2,2,4,4,3,3,6,6,8,8,1,1,14,14,16,16,5,5],"right_children":[2,14,4,8,6,20,10,-1,12,-1,-1,-1,-1,-1,16,-1,18,-1,-1,-1,-1],"split_conditions":[-1.2091441E-2,-2.3505976E-2,-2.4492937E-16,6.4417406E-4,4.795541E-1,4.871795E-1,-9.5020905E-3,-0E0,1.6044972E0,-0E0,-1.4910142E-2,2.3426583E-2,-0E0,-0E0,4.4785277E-4,-0E0,-2.0569962E-1,-2.3084586E-2,-0E0,9.013464E-3,-0E0],"split_indices":[15,15,25,14,29,20,15,0,4,0,0,0,0,0,14,0,4,0,0,0,0],"split_type":[0,0,0,0,0,0,0,0,0,0,0,0,0,0,0,0,0,0,0,0,0],"sum_hessian":[6.702564E2,2.284595E2,4.417969E2,1.827389E2,2.59058E2,1.1553984E2,1.4351817E2,8.499152E1,9.774738E1,1.4314343E1,1.2920383E2,8.259134E1,1.5156046E1,1.2342275E2,1.0503675E2,3.027367E1,7.4763084E1,5.9847538E1,1.49155445E1,9.346502E1,2.2074823E1],"tree_param":{"num_deleted":"0","num_feature":"39","num_nodes":"21","size_leaf_vector":"1"}},{"base_weights":[-0E0,-6.33693E-2,7.808414E-2,-0E0,-3.5758424E-1,-0E0,-2.9525524E-2,2.1762282E-1,-0E0,-0E0,3.3799854E-1,1.312994E-1,-1.7875531E-1,1.3947383E-2,-0E0,-0E0,-1.4713381E-2,-0E0,1.9925205E-2,-7.892271E-2,8.7874E-2,9.880296E-3,-5.7434826E-3,-0E0,-1.4143956E-2],"categories":[],"categories_nodes":[],"categories_segments":[],"categories_sizes":[],"default_left":[0,0,0,0,0,0,0,0,0,0,0,0,0,0,0,0,0,0,0,0,0,0,0,0,0],"id":41,"left_children":[1,3,7,19,5,-1,-1,9,11,-1,17,13,15,-1,-1,-1,-1,-1,-1,23,21,-1,-1,-1,-1],"loss_changes":[3.4842525E0,8.734813E0,5.7818227E0,1.949036E0,9.412501E0,0E0,0E0,7.140679E0,5.2596087E0,0E0,2.703907E0,4.3654785E0,3.3984475E0,0E0,0E0,0E0,0E0,0E0,0E0,3.758858E0,4.8750973E0,0E0,0E0,0E0,0E0],"parents":[2147483647,0,0,1,1,4,4,2,2,7,7,8,8,11,11,12,12,10,10,3,3,20,20,19,19],"right_children":[2,4,8,20,6,-1,-1,10,12,-1,18,14,16,-1,-1,-1,-1,-1,-1,24,22,-1,-1,-1,-1],"split_conditions":[9.98129E-1,-5.1751593E-3,-6.044965E-2,-7.587504E-2,8.410042E-1,-0E0,-2.9525524E-2,3.9220184E-1,4.574254E-3,-0E0,-1.0701318E-2,1.0075958E0,8.545348E-3,1.3947383E-2,-0E0,-0E0,-1.4713381E-2,-0E0,1.9925205E-2,7.038035E-4,2.3334524E-1,9.880296E-3,-5.7434826E-3,-0E0,-1.4143956E-2],"split_indices":[24,2,27,27,13,0,0,18,3,0,16,17,2,0,0,0,0,0,0,14,27,0,0,0,0],"split_type":[0,0,0,0,0,0,0,0,0,0,0,0,0,0,0,0,0,0,0,0,0,0,0,0,0],"sum_hessian":[6.642614E2,3.204308E2,3.4383066E2,2.5174158E2,6.868922E1,2.2841581E1,4.584763E1,1.576357E2,1.8619495E2,3.563768E1,1.21998024E2,8.032486E1,1.0587009E2,6.61149E1,1.4209959E1,3.386738E1,7.200271E1,2.0013508E1,1.0198451E2,9.000296E1,1.6173862E2,1.3710786E2,2.4630754E1,4.524511E1,4.4757854E1],"tree_param":{"num_deleted":"0","num_feature":"39","num_nodes":"25","size_leaf_vector":"1"}},{"base_weights":[2.958572E-2,-7.079978E-2,8.460414E-2,2.1995822E-1,-0E0,3.7681693E-1,-0E0,-0E0,2.4254542E-2,-0E0,-1.9114684E-2,1.1865709E-2,-2.9793238E-2,3.6699993E-3,-1.2160644E-2],"categories":[],"categories_nodes":[],"categories_segments":[],"categories_sizes":[],"default_left":[0,0,0,0,0,0,0,0,0,0,0,0,0,0,0],"id":42,"left_children":[1,9,3,5,-1,7,-1,-1,-1,11,-1,-1,13,-1,-1],"loss_changes":[3.8375983E0,5.059824E0,7.270857E0,8.876546E0,0E0,7.931444E0,0E0,0E0,0E0,1.7462015E0,0E0,0E0,4.624292E0,0E0,0E0],"parents":[2147483647,0,0,2,2,3,3,5,5,1,1,9,9,12,12],"right_children":[2,10,4,6,-1,8,-1,-1,-1,12,-1,-1,14,-1,-1],"split_conditions":[3.9503387E-1,2.4489796E-2,4.7428572E-1,1.0149254E0,-0E0,6.115515E-1,-0E0,-0E0,2.4254542E-2,4.2343387E-1,-1.9114684E-2,1.1865709E-2,9.9725527E-1,3.6699993E-3,-1.2160644E-2],"split_indices":[18,16,18,13,0,23,0,0,0,22,0,0,17,0,0],"split_type":[0,0,0,0,0,0,0,0,0,0,0,0,0,0,0],"sum_hessian":[6.4899347E2,1.6440242E2,4.8459103E2,2.134541E2,2.7113693E2,1.2865399E2,8.480012E1,2.1282457E1,1.0737153E2,1.3379964E2,3.0602795E1,1.9039728E1,1.147599E2,5.0194466E1,6.456544E1],"tree_param":{"num_deleted":"0","num_feature":"39","num_nodes":"15","size_leaf_vector":"1"}},{"base_weights":[-0E0,5.312037E-2,-1.08876E-1,2.4526176E-1,-0E0,-2.1517377E-1,9.826971E-2,1.3752498E-2,-0E0,-1.8138817E-1,-0E0,-2.484946E-1,-0E0,-0E0,-1.8510103E-2,-0E0,3.376036E-1,-0E0,2.3621961E-2,-0E0,-1.4787664E-2],"categories":[],"categories_nodes":[],"categories_segments":[],"categories_sizes":[],"default_left":[0,0,0,0,0,0,0,0,0,0,0,0,0,0,0,0,0,0,0,0,0],"id":43,"left_children":[1,3,9,15,5,19,7,-1,-1,11,-1,13,-1,-1,-1,-1,17,-1,-1,-1,-1],"loss_changes":[3.8880835E0,4.6704226E0,3.4479144E0,3.149819E0,8.153145E0,2.5199256E0,5.9639797E0,0E0,0E0,3.7590365E0,0E0,3.3614073E0,0E0,0E0,0E0,0E0,5.871187E0,0E0,0E0,0E0,0E0],"parents":[2147483647,0,0,1,1,4,4,6,6,2,2,9,9,11,11,3,3,16,16,5,5],"right_children":[2,4,10,16,6,20,8,-1,-1,12,-1,14,-1,-1,-1,-1,18,-1,-1,-1,-1],"split_conditions":[7.3099416E-3,3.4085128E-3,1.37171885E-2,2.8883808E-3,3.986946E-3,7.46742E-1,-2.4492937E-16,1.3752498E-2,-0E0,5E-1,-0E0,1.0378188E0,-0E0,-0E0,-1.8510103E-2,-0E0,6.4162534E-1,-0E0,2.3621961E-2,-0E0,-1.4787664E-2],"split_indices":[5,12,5,3,12,23,25,0,0,21,0,22,0,0,0,0,23,0,0,0,0],"split_type":[0,0,0,0,0,0,0,0,0,0,0,0,0,0,0,0,0,0,0,0,0],"sum_hessian":[6.641432E2,4.5740924E2,2.0673396E2,8.956798E1,3.6784125E2,1.10290634E2,2.5755063E2,1.02986374E2,1.5456425E2,1.7288055E2,3.38534E1,1.4831873E2,2.4561834E1,6.2459106E1,8.585962E1,1.9383127E1,7.018485E1,1.2933826E1,5.7251026E1,2.7809204E1,8.248143E1],"tree_param":{"num_deleted":"0","num_feature":"39","num_nodes":"21","size_leaf_vector":"1"}},{"base_weights":[8.865836E-3,2.5707272E-1,-1.5276017E-2,-0E0,3.8004512E-1,2.4496302E-2,-1.24077655E-1,-0E0,-2.442054E-1,-0E0,-1.6958568E-2,-3.0035784E-3,1.4954208E-1,-9.431821E-3,7.5956183E-3,2.0383654E-2,-0E0,-0E0,4.3077284E-1,3.0712206E-2,-0E0],"categories":[],"categories_nodes":[],"categories_segments":[],"categories_sizes":[],"default_left":[0,0,0,0,0,0,0,0,0,0,0,0,0,0,0,0,0,0,0,0,0],"id":44,"left_children":[1,3,5,-1,17,11,7,-1,9,-1,-1,13,15,-1,-1,-1,-1,-1,19,-1,-1],"loss_changes":[6.510039E0,4.5935516E0,3.5754893E0,0E0,1.1824484E0,2.750666E0,4.581472E0,0E0,4.7782726E0,0E0,0E0,7.830615E0,6.1416483E0,0E0,0E0,0E0,0E0,0E0,2.7137232E0,0E0,0E0],"parents":[2147483647,0,0,1,1,2,2,6,6,8,8,5,5,11,11,12,12,4,4,18,18],"right_children":[2,4,6,-1,18,12,8,-1,10,-1,-1,14,16,-1,-1,-1,-1,-1,20,-1,-1],"split_conditions":[3.282827E-3,2.8883808E-3,9.6796185E-1,-0E0,2.7411296E-3,1.1E1,-2.4492937E-16,-0E0,-2.3505976E-2,-0E0,-1.6958568E-2,4.6615605E-3,3.09017E-1,-9.431821E-3,7.5956183E-3,2.0383654E-2,-0E0,-0E0,6.586756E-4,3.0712206E-2,-0E0],"split_indices":[12,3,7,0,12,30,25,0,15,0,0,12,26,0,0,0,0,0,14,0,0],"split_type":[0,0,0,0,0,0,0,0,0,0,0,0,0,0,0,0,0,0,0,0,0],"sum_hessian":[6.66349E2,8.723224E1,5.7911676E2,2.093957E1,6.629267E1,3.6245856E2,2.1665817E2,9.132218E1,1.2533599E2,2.3639908E1,1.0169608E2,2.3956326E2,1.2289531E2,1.3735173E2,1.0221153E2,4.4835793E1,7.805952E1,1.0538301E1,5.575437E1,2.9532509E1,2.6221863E1],"tree_param":{"num_deleted":"0","num_feature":"39","num_nodes":"21","size_leaf_vector":"1"}},{"base_weights":[-0E0,8.108387E-2,-5.391011E-2,7.5876445E-2,-2.5746778E-1,-3.3822665E-1,-0E0,2.0858085E-1,-7.140639E-2,2.671437E-2,4.6857996E-4,-0E0,1.8067828E-1,-0E0,2.8353357E-1,-0E0,-2.1211693E-2,2.998474E-2,-2.2326921E-1,-1.7272776E-2,-0E0,-0E0,1.037113E-2,1.6576175E-2,-0E0,-0E0,-1.1129044E-2],"categories":[],"categories_nodes":[],"categories_segments":[],"categories_sizes":[],"default_left":[0,0,0,0,0,0,0,0,0,0,0,0,0,0,0,0,0,0,0,0,0,0,0,0,0,0,0],"id":45,"left_children":[1,11,3,7,5,15,-1,9,25,-1,-1,17,13,-1,23,-1,-1,21,19,-1,-1,-1,-1,-1,-1,-1,-1],"loss_changes":[3.0358124E0,3.9284942E0,1.3052175E1,6.0732336E0,6.606186E0,2.7458458E0,0E0,4.946196E0,1.3725828E0,0E0,0E0,2.6187665E0,3.6376987E0,0E0,1.5867167E0,0E0,0E0,2.0306978E0,2.3311875E0,0E0,0E0,0E0,0E0,0E0,0E0,0E0,0E0],"parents":[2147483647,0,0,2,2,4,4,3,3,7,7,1,1,12,12,5,5,11,11,18,18,17,17,14,14,8,8],"right_children":[2,12,4,8,6,16,-1,10,26,-1,-1,18,14,-1,24,-1,-1,22,20,-1,-1,-1,-1,-1,-1,-1,-1],"split_conditions":[-2.4492937E-16,4.7032228E-1,4.9857217E-1,2.4043716E-1,7.311911E-3,3.6338465E-3,-0E0,4.5545146E-4,4.9130434E-1,2.671437E-2,4.6857996E-4,9.868613E-1,-2.625164E-3,-0E0,5.583456E-1,-0E0,-2.1211693E-2,-1.14082E-2,5.131086E-1,-1.7272776E-2,-0E0,-0E0,1.037113E-2,1.6576175E-2,-0E0,-0E0,-1.1129044E-2],"split_indices":[25,29,29,6,1,12,0,14,18,0,0,13,1,0,18,0,0,15,18,0,0,0,0,0,0,0,0],"split_type":[0,0,0,0,0,0,0,0,0,0,0,0,0,0,0,0,0,0,0,0,0,0,0,0,0,0,0],"sum_hessian":[6.749244E2,2.6700986E2,4.0791455E2,2.2292555E2,1.84989E2,1.6073784E2,2.4251162E1,1.5079303E2,7.2132515E1,3.1792883E1,1.1900015E2,1.008792E2,1.6613065E2,5.935903E1,1.06771614E2,4.6954716E1,1.1378312E2,5.9600704E1,4.12785E1,3.095356E1,1.0324942E1,2.0947206E1,3.86535E1,8.984856E1,1.6923058E1,4.5974167E1,2.6158348E1],"tree_param":{"num_deleted":"0","num_feature":"39","num_nodes":"27","size_leaf_vector":"1"}},{"base_weights":[-0E0,-7.718646E-2,6.616455E-2,1.0874322E-1,-1.853476E-1,-0E0,-2.597111E-1,-0E0,-1.810394E-2,-9.599409E-3,1.3729304E-1,2.7299637E-1,-0E0,-0E0,1.6701428E-2,-8.533504E-4,1.0241505E-2,-1.11735284E-1,3.2765858E-3,-1.0523584E-2,-0E0,8.92128E-3,-0E0],"categories":[],"categories_nodes":[],"categories_segments":[],"categories_sizes":[],"default_left":[0,0,0,0,0,0,0,0,0,0,0,0,0,0,0,0,0,0,0,0,0,0,0],"id":46,"left_children":[1,3,9,21,5,-1,7,-1,-1,17,11,13,15,-1,-1,-1,-1,19,-1,-1,-1,-1,-1],"loss_changes":[3.516151E0,7.2243576E0,3.3367264E0,1.2559773E0,3.986539E0,0E0,5.5310726E0,0E0,0E0,1.495728E0,3.3203535E0,2.7469063E0,1.712345E0,0E0,0E0,0E0,0E0,2.1085424E0,0E0,0E0,0E0,0E0,0E0],"parents":[2147483647,0,0,1,1,4,4,6,6,2,2,10,10,11,11,12,12,9,9,17,17,3,3],"right_children":[2,4,10,22,6,-1,8,-1,-1,18,12,14,16,-1,-1,-1,-1,20,-1,-1,-1,-1,-1],"split_conditions":[4.0879347E-3,3.2466373E-3,8.3744556E-1,-2.5881904E-1,1.0526316E-1,-0E0,7.7011883E-1,-0E0,-1.810394E-2,9.548023E-1,9.868613E-1,9.843401E-1,5.8020516E-3,-0E0,1.6701428E-2,-8.533504E-4,1.0241505E-2,-2.5881904E-1,3.2765858E-3,-1.0523584E-2,-0E0,8.92128E-3,-0E0],"split_indices":[11,12,23,8,20,0,23,0,0,13,13,24,11,0,0,0,0,8,0,0,0,0,0],"split_type":[0,0,0,0,0,0,0,0,0,0,0,0,0,0,0,0,0,0,0,0,0,0,0],"sum_hessian":[6.708984E2,3.0112112E2,3.6977725E2,7.672387E1,2.2439726E2,5.5909695E1,1.6848756E2,4.446859E1,1.2401898E2,1.15165794E2,2.5461147E2,1.014779E2,1.5313356E2,1.2396451E1,8.908144E1,1.23245155E2,2.9888409E1,1.0315791E2,1.2007879E1,6.949044E1,3.366748E1,6.1664677E1,1.5059193E1],"tree_param":{"num_deleted":"0","num_feature":"39","num_nodes":"23","size_leaf_vector":"1"}},{"base_weights":[2.2851355E-2,9.431345E-2,-5.2952353E-2,1.750017E-1,-5.2370958E-2,-0E0,3.032379E-1,3.0330657E-3,-2.8812864E-1,-2.8094528E-2,-0E0,1.7086439E-2,-0E0,-1.4112431E-1,5.31435E-3,-2.3556869E-1,-0E0,-1.657513E-2,-0E0,1.7928633E-1,-0E0,-0E0,1.4479734E-2],"categories":[],"categories_nodes":[],"categories_segments":[],"categories_sizes":[],"default_left":[0,0,0,0,0,0,0,0,0,0,0,0,0,0,0,0,0,0,0,0,0,0,0],"id":47,"left_children":[1,3,13,5,7,-1,11,-1,9,-1,-1,-1,-1,15,19,17,-1,-1,-1,21,-1,-1,-1],"loss_changes":[4.1030655E0,6.2573824E0,2.7245936E0,7.975462E0,5.4291477E0,0E0,3.146101E0,0E0,9.829137E0,0E0,0E0,0E0,0E0,4.3923035E0,1.7322853E0,6.3128357E0,0E0,0E0,0E0,1.4289837E0,0E0,0E0,0E0],"parents":[2147483647,0,0,1,1,3,3,4,4,8,8,6,6,2,2,13,13,15,15,14,14,19,19],"right_children":[2,4,14,6,8,-1,12,-1,10,-1,-1,-1,-1,16,20,18,-1,-1,-1,22,-1,-1,-1],"split_conditions":[5.4421768E-2,6.4973235E-3,2.033509E-2,6E0,-2.4492937E-16,-0E0,1.5000695E0,3.0330657E-3,2E0,-2.8094528E-2,-0E0,1.7086439E-2,-0E0,2E0,4.574254E-3,1.0130097E0,-0E0,-1.657513E-2,-0E0,3.09017E-1,-0E0,-0E0,1.4479734E-2],"split_indices":[6,3,27,30,25,0,23,0,28,0,0,0,0,28,3,17,0,0,0,26,0,0,0],"split_type":[0,0,0,0,0,0,0,0,0,0,0,0,0,0,0,0,0,0,0,0,0,0,0],"sum_hessian":[6.618574E2,4.073325E2,2.545249E2,3.0551675E2,1.0181574E2,1.2369805E2,1.8181871E2,4.51699E1,5.6645844E1,3.865672E1,1.7989126E1,1.679817E2,1.3836996E1,1.639031E2,9.06218E1,1.3156425E2,3.233885E1,1.1892979E2,1.2634473E1,4.39805E1,4.66413E1,1.6251923E1,2.7728579E1],"tree_param":{"num_deleted":"0","num_feature":"39","num_nodes":"23","size_leaf_vector":"1"}},{"base_weights":[-0E0,-5.5640206E-2,1.2646572E-1,2.3427646E-1,-3.2063916E-3,3.253743E-1,-0E0,-0E0,2.0690061E-2,3.9691046E-2,-1.0998292E-1,-2.9578876E-2,2.215672E-2,-2.3069277E-1,-0E0,-0E0,-1.7587844E-2,-1.3815298E-2,-0E0],"categories":[],"categories_nodes":[],"categories_segments":[],"categories_sizes":[],"default_left":[0,0,0,0,0,0,0,0,0,0,0,0,0,0,0,0,0,0,0],"id":48,"left_children":[1,9,3,5,-1,7,-1,-1,-1,11,13,17,-1,15,-1,-1,-1,-1,-1],"loss_changes":[4.8271284E0,3.1826189E0,6.1831627E0,5.3438272E0,0E0,5.9195185E0,0E0,0E0,0E0,7.3760667E0,5.6911597E0,3.058096E0,0E0,3.996461E0,0E0,0E0,0E0,0E0,0E0],"parents":[2147483647,0,0,2,2,3,3,5,5,1,1,9,9,10,10,13,13,11,11],"right_children":[2,10,4,6,-1,8,-1,-1,-1,12,14,18,-1,16,-1,-1,-1,-1,-1],"split_conditions":[3.298409E-3,-2.1937843E-2,1.3356497E0,1.8613832E0,-3.2063916E-3,7.164179E-1,-0E0,-0E0,2.0690061E-2,1.1E1,-2.8381154E-1,3.09017E-1,2.215672E-2,-2.4492937E-16,-0E0,-0E0,-1.7587844E-2,-1.3815298E-2,-0E0],"split_indices":[1,15,23,4,0,13,0,0,0,30,4,26,0,25,0,0,0,0,0],"split_type":[0,0,0,0,0,0,0,0,0,0,0,0,0,0,0,0,0,0,0],"sum_hessian":[6.6102435E2,4.6022855E2,2.0079584E2,1.6029784E2,4.0498E1,1.2876376E2,3.153408E1,1.8399061E1,1.103647E2,1.0126401E2,3.5896454E2,7.317953E1,2.8084478E1,1.8080057E2,1.7816397E2,7.64356E1,1.0436496E2,3.1009518E1,4.2170006E1],"tree_param":{"num_deleted":"0","num_feature":"39","num_nodes":"19","size_leaf_vector":"1"}},{"base_weights":[-0E0,-9.108308E-2,5.8412086E-2,1.4158767E-1,-1.5314822E-1,2.8402922E-1,-4.9202867E-2,2.0286404E-2,-1.373322E-2,-1.6218571E-2,8.190353E-3,-2.3598306E-1,9.673501E-2,4.5188884E-3,-3.5801527E-1,-0E0,-2.174597E-2,-3.4627524E-1,-0E0,-0E0,-2.7107349E-2,2.986235E-1,-0E0,-0E0,1.9805422E-2],"categories":[],"categories_nodes":[],"categories_segments":[],"categories_sizes":[],"default_left":[0,0,0,0,0,0,0,0,0,0,0,0,0,0,0,0,0,0,0,0,0,0,0,0,0],"id":49,"left_children":[1,11,3,5,17,7,9,-1,-1,-1,-1,13,21,-1,15,-1,-1,19,-1,-1,-1,23,-1,-1,-1],"loss_changes":[3.4746096E0,7.9628515E0,8.050201E0,1.236331E1,4.8219485E0,1.8711586E1,9.981903E0,0E0,0E0,0E0,0E0,9.551882E0,4.3064866E0,0E0,5.4345684E0,0E0,0E0,6.5642657E0,0E0,0E0,0E0,1.9071355E0,0E0,0E0,0E0],"parents":[2147483647,0,0,2,2,3,3,5,5,6,6,1,1,11,11,14,14,4,4,17,17,12,12,21,21],"right_children":[2,12,4,6,18,8,10,-1,-1,-1,-1,14,22,-1,16,-1,-1,20,-1,-1,-1,24,-1,-1,-1],"split_conditions":[-1.2091441E-2,1.1E1,1E0,2.6208766E-2,1.2505391E-2,3.3E1,9E0,2.0286404E-2,-1.373322E-2,-1.6218571E-2,8.190353E-3,-7.1383975E-2,1.0252733E0,4.5188884E-3,3.2660847E-3,-0E0,-2.174597E-2,3.3192213E-3,-0E0,-0E0,-2.7107349E-2,3.3192213E-3,-0E0,-0E0,1.9805422E-2],"split_indices":[15,30,26,16,16,30,30,0,0,0,0,16,7,0,12,0,0,12,0,0,0,12,0,0,0],"split_type":[0,0,0,0,0,0,0,0,0,0,0,0,0,0,0,0,0,0,0,0,0,0,0,0,0],"sum_hessian":[6.6476996E2,2.2303806E2,4.417319E2,3.5337625E2,8.835566E1,2.2953508E2,1.23841156E2,2.0542473E2,2.4110346E1,7.2239525E1,5.160163E1,1.54512E2,6.852606E1,2.0455229E1,1.3405676E2,1.7710403E1,1.1634635E2,4.945313E1,3.890253E1,1.2865867E1,3.658726E1,4.6532104E1,2.1993961E1,1.2246829E1,3.4285275E1],"tree_param":{"num_deleted":"0","num_feature":"39","num_nodes":"25","size_leaf_vector":"1"}},{"base_weights":[-8.992096E-3,2.6019457E-1,-4.970957E-2,-1.3306336E-1,4.4846434E-2,5.367906E-2,-2.1227702E-1,2.3452705E-1,-4.4391006E-2,1.966542E-2,-0E0,-1.8406859E-2,1.1731106E-3,-0E0,-1.3808913E-2,-2.329561E-3,1.1340833E-2,1.6803743E-2,-0E0],"categories":[],"categories_nodes":[],"categories_segments":[],"categories_sizes":[],"default_left":[0,0,0,0,0,0,0,0,0,0,0,0,0,0,0,0,0,0,0],"id":50,"left_children":[1,17,3,5,7,15,13,9,11,-1,-1,-1,-1,-1,-1,-1,-1,-1,-1],"loss_changes":[5.51549E0,1.3947148E0,5.941265E0,7.555659E0,6.211033E0,3.4406147E0,6.163266E0,6.6752286E0,6.6419697E0,0E0,0E0,0E0,0E0,0E0,0E0,0E0,0E0,0E0,0E0],"parents":[2147483647,0,0,2,2,3,3,4,4,7,7,8,8,6,6,5,5,1,1],"right_children":[2,18,4,6,8,16,14,10,12,-1,-1,-1,-1,-1,-1,-1,-1,-1,-1],"split_conditions":[2.714217E-4,5.307305E-1,4.6615605E-3,-1.8174246E-1,3.09017E-1,9.9209225E-1,3.2466373E-3,2.6874108E-2,-1.03509136E-1,1.966542E-2,-0E0,-1.8406859E-2,1.1731106E-3,-0E0,-1.3808913E-2,-2.329561E-3,1.1340833E-2,1.6803743E-2,-0E0],"split_indices":[14,29,12,27,26,24,12,27,27,0,0,0,0,0,0,0,0,0,0],"split_type":[0,0,0,0,0,0,0,0,0,0,0,0,0,0,0,0,0,0,0],"sum_hessian":[6.7344775E2,4.913236E1,6.243154E2,3.8585675E2,2.3845866E2,7.8285385E1,3.0757138E2,1.06936584E2,1.3152208E2,7.473047E1,3.2206116E1,4.0657253E1,9.086482E1,4.915218E1,2.584192E2,1.7627903E1,6.0657482E1,3.7793034E1,1.1339323E1],"tree_param":{"num_deleted":"0","num_feature":"39","num_nodes":"19","size_leaf_vector":"1"}}]},"name":"gbtree"},"learner_model_param":{"base_score":"[4.6696198E-1]","boost_from_average":"1","num_class":"0","num_feature":"39","num_target":"1"},"objective":{"name":"binary:logistic","reg_loss_param":{"scale_pos_weight":"1"}}},"version":[3,1,3]}