{"learner":{"attributes":{},"feature_names":[],"feature_types":[],"gradient_booster":{"model":{"cats":{"enc":[],"feature_segments":[],"sorted_idx":[]},"gbtree_model_param":{"num_parallel_tree":"1","num_trees":"1654"},"iteration_indptr":[0,1,2,3,4,5,6,7,8,9,10,11,12,13,14,15,16,17,18,19,20,21,22,23,24,25,26,27,28,29,30,31,32,33,34,35,36,37,38,39,40,41,42,43,44,45,46,47,48,49,50,51,52,53,54,55,56,57,58,59,60,61,62,63,64,65,66,67,68,69,70,71,72,73,74,75,76,77,78,79,80,81,82,83,84,85,86,87,88,89,90,91,92,93,94,95,96,97,98,99,100,101,102,103,104,105,106,107,108,109,110,111,112,113,114,115,116,117,118,119,120,121,122,123,124,125,126,127,128,129,130,131,132,133,134,135,136,137,138,139,140,141,142,143,144,145,146,147,148,149,150,151,152,153,154,155,156,157,158,159,160,161,162,163,164,165,166,167,168,169,170,171,172,173,174,175,176,177,178,179,180,181,182,183,184,185,186,187,188,189,190,191,192,193,194,195,196,197,198,199,200,201,202,203,204,205,206,207,208,209,210,211,212,213,214,215,216,217,218,219,220,221,222,223,224,225,226,227,228,229,230,231,232,233,234,235,236,237,238,239,240,241,242,243,244,245,246,247,248,249,250,251,252,253,254,255,256,257,258,259,260,261,262,263,264,265,266,267,268,269,270,271,272,273,274,275,276,277,278,279,280,281,282,283,284,285,286,287,288,289,290,291,292,293,294,295,296,297,298,299,300,301,302,303,304,305,306,307,308,309,310,311,312,313,314,315,316,317,318,319,320,321,322,323,324,325,326,327,328,329,330,331,332,333,334,335,336,337,338,339,340,341,342,343,344,345,346,347,348,349,350,351,352,353,354,355,356,357,358,359,360,361,362,363,364,365,366,367,368,369,370,371,372,373,374,375,376,377,378,379,380,381,382,383,384,385,386,387,388,389,390,391,392,393,394,395,396,397,398,399,400,401,402,403,404,405,406,407,408,409,410,411,412,413,414,415,416,417,418,419,420,421,422,423,424,425,426,427,428,429,430,431,432,433,434,435,436,437,438,439,440,441,442,443,444,445,446,447,448,449,450,451,452,453,454,455,456,457,458,459,460,461,462,463,464,465,466,467,468,469,470,471,472,473,474,475,476,477,478,479,480,481,482,483,484,485,486,487,488,489,490,491,492,493,494,495,496,497,498,499,500,501,502,503,504,505,506,507,508,509,510,511,512,513,514,515,516,517,518,519,520,521,522,523,524,525,526,527,528,529,530,531,532,533,534,535,536,537,538,539,540,541,542,543,544,545,546,547,548,549,550,551,552,553,554,555,556,557,558,559,560,561,562,563,564,565,566,567,568,569,570,571,572,573,574,575,576,577,578,579,580,581,582,583,584,585,586,587,588,589,590,591,592,593,594,595,596,597,598,599,600,601,602,603,604,605,606,607,608,609,610,611,612,613,614,615,616,617,618,619,620,621,622,623,624,625,626,627,628,629,630,631,632,633,634,635,636,637,638,639,640,641,642,643,644,645,646,647,648,649,650,651,652,653,654,655,656,657,658,659,660,661,662,663,664,665,666,667,668,669,670,671,672,673,674,675,676,677,678,679,680,681,682,683,684,685,686,687,688,689,690,691,692,693,694,695,696,697,698,699,700,701,702,703,704,705,706,707,708,709,710,711,712,713,714,715,716,717,718,719,720,721,722,723,724,725,726,727,728,729,730,731,732,733,734,735,736,737,738,739,740,741,742,743,744,745,746,747,748,749,750,751,752,753,754,755,756,757,758,759,760,761,762,763,764,765,766,767,768,769,770,771,772,773,774,775,776,777,778,779,780,781,782,783,784,785,786,787,788,789,790,791,792,793,794,795,796,797,798,799,800,801,802,803,804,805,806,807,808,809,810,811,812,813,814,815,816,817,818,819,820,821,822,823,824,825,826,827,828,829,830,831,832,833,834,835,836,837,838,839,840,841,842,843,844,845,846,847,848,849,850,851,852,853,854,855,856,857,858,859,860,861,862,863,864,865,866,867,868,869,870,871,872,873,874,875,876,877,878,879,880,881,882,883,884,885,886,887,888,889,890,891,892,893,894,895,896,897,898,899,900,901,902,903,904,905,906,907,908,909,910,911,912,913,914,915,916,917,918,919,920,921,922,923,924,925,926,927,928,929,930,931,932,933,934,935,936,937,938,939,940,941,942,943,944,945,946,947,948,949,950,951,952,953,954,955,956,957,958,959,960,961,962,963,964,965,966,967,968,969,970,971,972,973,974,975,976,977,978,979,980,981,982,983,984,985,986,987,988,989,990,991,992,993,994,995,996,997,998,999,1000,1001,1002,1003,1004,1005,1006,1007,1008,1009,1010,1011,1012,1013,1014,1015,1016,1017,1018,1019,1020,1021,1022,1023,1024,1025,1026,1027,1028,1029,1030,1031,1032,1033,1034,1035,1036,1037,1038,1039,1040,1041,1042,1043,1044,1045,1046,1047,1048,1049,1050,1051,1052,1053,1054,1055,1056,1057,1058,1059,1060,1061,1062,1063,1064,1065,1066,1067,1068,1069,1070,1071,1072,1073,1074,1075,1076,1077,1078,1079,1080,1081,1082,1083,1084,1085,1086,1087,1088,1089,1090,1091,1092,1093,1094,1095,1096,1097,1098,1099,1100,1101,1102,1103,1104,1105,1106,1107,1108,1109,1110,1111,1112,1113,1114,1115,1116,1117,1118,1119,1120,1121,1122,1123,1124,1125,1126,1127,1128,1129,1130,1131,1132,1133,1134,1135,1136,1137,1138,1139,1140,1141,1142,1143,1144,1145,1146,1147,1148,1149,1150,1151,1152,1153,1154,1155,1156,1157,1158,1159,1160,1161,1162,1163,1164,1165,1166,1167,1168,1169,1170,1171,1172,1173,1174,1175,1176,1177,1178,1179,1180,1181,1182,1183,1184,1185,1186,1187,1188,1189,1190,1191,1192,1193,1194,1195,1196,1197,1198,1199,1200,1201,1202,1203,1204,1205,1206,1207,1208,1209,1210,1211,1212,1213,1214,1215,1216,1217,1218,1219,1220,1221,1222,1223,1224,1225,1226,1227,1228,1229,1230,1231,1232,1233,1234,1235,1236,1237,1238,1239,1240,1241,1242,1243,1244,1245,1246,1247,1248,1249,1250,1251,1252,1253,1254,1255,1256,1257,1258,1259,1260,1261,1262,1263,1264,1265,1266,1267,1268,1269,1270,1271,1272,1273,1274,1275,1276,1277,1278,1279,1280,1281,1282,1283,1284,1285,1286,1287,1288,1289,1290,1291,1292,1293,1294,1295,1296,1297,1298,1299,1300,1301,1302,1303,1304,1305,1306,1307,1308,1309,1310,1311,1312,1313,1314,1315,1316,1317,1318,1319,1320,1321,1322,1323,1324,1325,1326,1327,1328,1329,1330,1331,1332,1333,1334,1335,1336,1337,1338,1339,1340,1341,1342,1343,1344,1345,1346,1347,1348,1349,1350,1351,1352,1353,1354,1355,1356,1357,1358,1359,1360,1361,1362,1363,1364,1365,1366,1367,1368,1369,1370,1371,1372,1373,1374,1375,1376,1377,1378,1379,1380,1381,1382,1383,1384,1385,1386,1387,1388,1389,1390,1391,1392,1393,1394,1395,1396,1397,1398,1399,1400,1401,1402,1403,1404,1405,1406,1407,1408,1409,1410,1411,1412,1413,1414,1415,1416,1417,1418,1419,1420,1421,1422,1423,1424,1425,1426,1427,1428,1429,1430,1431,1432,1433,1434,1435,1436,1437,1438,1439,1440,1441,1442,1443,1444,1445,1446,1447,1448,1449,1450,1451,1452,1453,1454,1455,1456,1457,1458,1459,1460,1461,1462,1463,1464,1465,1466,1467,1468,1469,1470,1471,1472,1473,1474,1475,1476,1477,1478,1479,1480,1481,1482,1483,1484,1485,1486,1487,1488,1489,1490,1491,1492,1493,1494,1495,1496,1497,1498,1499,1500,1501,1502,1503,1504,1505,1506,1507,1508,1509,1510,1511,1512,1513,1514,1515,1516,1517,1518,1519,1520,1521,1522,1523,1524,1525,1526,1527,1528,1529,1530,1531,1532,1533,1534,1535,1536,1537,1538,1539,1540,1541,1542,1543,1544,1545,1546,1547,1548,1549,1550,1551,1552,1553,1554,1555,1556,1557,1558,1559,1560,1561,1562,1563,1564,1565,1566,1567,1568,1569,1570,1571,1572,1573,1574,1575,1576,1577,1578,1579,1580,1581,1582,1583,1584,1585,1586,1587,1588,1589,1590,1591,1592,1593,1594,1595,1596,1597,1598,1599,1600,1601,1602,1603,1604,1605,1606,1607,1608,1609,1610,1611,1612,1613,1614,1615,1616,1617,1618,1619,1620,1621,1622,1623,1624,1625,1626,1627,1628,1629,1630,1631,1632,1633,1634,1635,1636,1637,1638,1639,1640,1641,1642,1643,1644,1645,1646,1647,1648,1649,1650,1651,1652,1653,1654],"tree_info":[0,0,0,0,0,0,0,0,0,0,0,0,0,0,0,0,0,0,0,0,0,0,0,0,0,0,0,0,0,0,0,0,0,0,0,0,0,0,0,0,0,0,0,0,0,0,0,0,0,0,0,0,0,0,0,0,0,0,0,0,0,0,0,0,0,0,0,0,0,0,0,0,0,0,0,0,0,0,0,0,0,0,0,0,0,0,0,0,0,0,0,0,0,0,0,0,0,0,0,0,0,0,0,0,0,0,0,0,0,0,0,0,0,0,0,0,0,0,0,0,0,0,0,0,0,0,0,0,0,0,0,0,0,0,0,0,0,0,0,0,0,0,0,0,0,0,0,0,0,0,0,0,0,0,0,0,0,0,0,0,0,0,0,0,0,0,0,0,0,0,0,0,0,0,0,0,0,0,0,0,0,0,0,0,0,0,0,0,0,0,0,0,0,0,0,0,0,0,0,0,0,0,0,0,0,0,0,0,0,0,0,0,0,0,0,0,0,0,0,0,0,0,0,0,0,0,0,0,0,0,0,0,0,0,0,0,0,0,0,0,0,0,0,0,0,0,0,0,0,0,0,0,0,0,0,0,0,0,0,0,0,0,0,0,0,0,0,0,0,0,0,0,0,0,0,0,0,0,0,0,0,0,0,0,0,0,0,0,0,0,0,0,0,0,0,0,0,0,0,0,0,0,0,0,0,0,0,0,0,0,0,0,0,0,0,0,0,0,0,0,0,0,0,0,0,0,0,0,0,0,0,0,0,0,0,0,0,0,0,0,0,0,0,0,0,0,0,0,0,0,0,0,0,0,0,0,0,0,0,0,0,0,0,0,0,0,0,0,0,0,0,0,0,0,0,0,0,0,0,0,0,0,0,0,0,0,0,0,0,0,0,0,0,0,0,0,0,0,0,0,0,0,0,0,0,0,0,0,0,0,0,0,0,0,0,0,0,0,0,0,0,0,0,0,0,0,0,0,0,0,0,0,0,0,0,0,0,0,0,0,0,0,0,0,0,0,0,0,0,0,0,0,0,0,0,0,0,0,0,0,0,0,0,0,0,0,0,0,0,0,0,0,0,0,0,0,0,0,0,0,0,0,0,0,0,0,0,0,0,0,0,0,0,0,0,0,0,0,0,0,0,0,0,0,0,0,0,0,0,0,0,0,0,0,0,0,0,0,0,0,0,0,0,0,0,0,0,0,0,0,0,0,0,0,0,0,0,0,0,0,0,0,0,0,0,0,0,0,0,0,0,0,0,0,0,0,0,0,0,0,0,0,0,0,0,0,0,0,0,0,0,0,0,0,0,0,0,0,0,0,0,0,0,0,0,0,0,0,0,0,0,0,0,0,0,0,0,0,0,0,0,0,0,0,0,0,0,0,0,0,0,0,0,0,0,0,0,0,0,0,0,0,0,0,0,0,0,0,0,0,0,0,0,0,0,0,0,0,0,0,0,0,0,0,0,0,0,0,0,0,0,0,0,0,0,0,0,0,0,0,0,0,0,0,0,0,0,0,0,0,0,0,0,0,0,0,0,0,0,0,0,0,0,0,0,0,0,0,0,0,0,0,0,0,0,0,0,0,0,0,0,0,0,0,0,0,0,0,0,0,0,0,0,0,0,0,0,0,0,0,0,0,0,0,0,0,0,0,0,0,0,0,0,0,0,0,0,0,0,0,0,0,0,0,0,0,0,0,0,0,0,0,0,0,0,0,0,0,0,0,0,0,0,0,0,0,0,0,0,0,0,0,0,0,0,0,0,0,0,0,0,0,0,0,0,0,0,0,0,0,0,0,0,0,0,0,0,0,0,0,0,0,0,0,0,0,0,0,0,0,0,0,0,0,0,0,0,0,0,0,0,0,0,0,0,0,0,0,0,0,0,0,0,0,0,0,0,0,0,0,0,0,0,0,0,0,0,0,0,0,0,0,0,0,0,0,0,0,0,0,0,0,0,0,0,0,0,0,0,0,0,0,0,0,0,0,0,0,0,0,0,0,0,0,0,0,0,0,0,0,0,0,0,0,0,0,0,0,0,0,0,0,0,0,0,0,0,0,0,0,0,0,0,0,0,0,0,0,0,0,0,0,0,0,0,0,0,0,0,0,0,0,0,0,0,0,0,0,0,0,0,0,0,0,0,0,0,0,0,0,0,0,0,0,0,0,0,0,0,0,0,0,0,0,0,0,0,0,0,0,0,0,0,0,0,0,0,0,0,0,0,0,0,0,0,0,0,0,0,0,0,0,0,0,0,0,0,0,0,0,0,0,0,0,0,0,0,0,0,0,0,0,0,0,0,0,0,0,0,0,0,0,0,0,0,0,0,0,0,0,0,0,0,0,0,0,0,0,0,0,0,0,0,0,0,0,0,0,0,0,0,0,0,0,0,0,0,0,0,0,0,0,0,0,0,0,0,0,0,0,0,0,0,0,0,0,0,0,0,0,0,0,0,0,0,0,0,0,0,0,0,0,0,0,0,0,0,0,0,0,0,0,0,0,0,0,0,0,0,0,0,0,0,0,0,0,0,0,0,0,0,0,0,0,0,0,0,0,0,0,0,0,0,0,0,0,0,0,0,0,0,0,0,0,0,0,0,0,0,0,0,0,0,0,0,0,0,0,0,0,0,0,0,0,0,0,0,0,0,0,0,0,0,0,0,0,0,0,0,0,0,0,0,0,0,0,0,0,0,0,0,0,0,0,0,0,0,0,0,0,0,0,0,0,0,0,0,0,0,0,0,0,0,0,0,0,0,0,0,0,0,0,0,0,0,0,0,0,0,0,0,0,0,0,0,0,0,0,0,0,0,0,0,0,0,0,0,0,0,0,0,0,0,0,0,0,0,0,0,0,0,0,0,0,0,0,0,0,0,0,0,0,0,0,0,0,0,0,0,0,0,0,0,0,0,0,0,0,0,0,0,0,0,0,0,0,0,0,0,0,0,0,0,0,0,0,0,0,0,0,0,0,0,0,0,0,0,0,0,0,0,0,0,0,0,0,0,0,0,0,0,0,0,0,0,0,0,0,0,0,0,0,0,0,0,0,0,0,0,0,0,0,0,0,0,0,0,0,0,0,0,0,0,0,0,0,0,0,0,0,0,0,0,0,0,0,0,0,0,0,0,0,0,0,0,0,0,0,0,0,0,0,0,0,0,0,0,0,0,0,0,0,0,0,0,0,0,0,0,0,0,0,0,0,0,0,0,0,0,0,0,0,0,0,0,0,0,0,0,0,0,0,0,0,0,0,0,0,0,0,0,0,0,0,0,0,0,0,0,0,0,0,0,0,0,0,0,0,0,0,0,0,0,0,0,0,0,0,0,0,0,0,0,0,0,0,0,0,0,0,0,0,0,0,0,0,0,0,0,0,0,0,0,0,0,0,0,0,0,0,0,0,0,0,0,0,0,0,0,0,0,0,0,0,0,0,0,0,0,0,0,0,0,0,0,0,0,0,0,0,0,0,0,0,0,0,0,0,0,0,0,0,0,0,0,0,0,0,0,0,0,0,0,0,0,0,0,0,0,0,0,0,0,0,0,0,0,0,0,0,0,0,0,0,0,0,0,0,0,0,0,0,0,0,0,0,0,0,0,0,0,0,0,0,0,0,0,0,0,0,0,0,0,0,0,0,0,0,0,0,0,0,0,0,0,0,0,0,0,0,0,0,0,0,0,0,0,0,0,0,0,0,0,0,0,0,0,0,0,0,0,0,0,0,0,0,0,0,0,0,0,0,0,0],"trees":[{"base_weights":[8.812916E-2,2.0536415E-1,-5.1034402E-2,1.10149376E-1,1.0075845E-3,8.450085E-2,-3.658259E-2],"categories":[],"categories_nodes":[],"categories_segments":[],"categories_sizes":[],"default_left":[0,0,0,0,0,0,0],"id":0,"left_children":[1,3,5,-1,-1,-1,-1],"loss_changes":[7.1222866E-1,7.8051895E-1,4.756003E-1,0E0,0E0,0E0,0E0],"parents":[2147483647,0,0,1,1,2,2],"right_children":[2,4,6,-1,-1,-1,-1],"split_conditions":[7.3053758E-3,1.25287855E-2,-2.0865534E-2,1.10149376E-1,1.0075845E-3,8.450085E-2,-3.658259E-2],"split_indices":[2,27,16,0,0,0,0],"split_type":[0,0,0,0,0,0,0],"sum_hessian":[4.3631786E1,2.3681665E1,1.9950119E1,1.3093783E1,1.0587883E1,3.5070467E0,1.6443073E1],"tree_param":{"num_deleted":"0","num_feature":"39","num_nodes":"7","size_leaf_vector":"1"}},{"base_weights":[6.337072E-2,2.1403241E-1,-3.792993E-2,6.7129596E-3,-8.620689E-2,1.0640453E-1,2.0499587E-2],"categories":[],"categories_nodes":[],"categories_segments":[],"categories_sizes":[],"default_left":[0,0,0,0,0,0,0],"id":1,"left_children":[1,5,3,-1,-1,-1,-1],"loss_changes":[6.6019726E-1,3.5851902E-1,3.914767E-1,0E0,0E0,0E0,0E0],"parents":[2147483647,0,0,2,2,1,1],"right_children":[2,6,4,-1,-1,-1,-1],"split_conditions":[9.9760646E-1,1.02372095E-2,1E0,6.7129596E-3,-8.620689E-2,1.0640453E-1,2.0499587E-2],"split_indices":[24,3,26,0,0,0,0],"split_type":[0,0,0,0,0,0,0],"sum_hessian":[4.3233482E1,1.7379925E1,2.5853558E1,2.0836796E1,5.0167623E0,8.785647E0,8.594277E0],"tree_param":{"num_deleted":"0","num_feature":"39","num_nodes":"7","size_leaf_vector":"1"}},{"base_weights":[4.294748E-2,-4.112251E-2,1.7055587E-1,2.6322615E-3,1.0750351E-1,1.974518E-2,-5.5462535E-2],"categories":[],"categories_nodes":[],"categories_segments":[],"categories_sizes":[],"default_left":[0,0,0,0,0,0,0],"id":2,"left_children":[1,5,3,-1,-1,-1,-1],"loss_changes":[4.6972257E-1,4.087616E-1,5.3160495E-1,0E0,0E0,0E0,0E0],"parents":[2147483647,0,0,2,2,1,1],"right_children":[2,6,4,-1,-1,-1,-1],"split_conditions":[5.8778524E-1,1.0378628E-2,9.86014E-1,2.6322615E-3,1.0750351E-1,1.974518E-2,-5.5462535E-2],"split_indices":[25,2,13,0,0,0,0],"split_type":[0,0,0,0,0,0,0],"sum_hessian":[4.3759216E1,2.6380888E1,1.7378326E1,9.374505E0,8.003821E0,1.5143799E1,1.1237089E1],"tree_param":{"num_deleted":"0","num_feature":"39","num_nodes":"7","size_leaf_vector":"1"}},{"base_weights":[4.76787E-2,1.9770148E-1,3.7458003E-2,3.7874844E-2,-1.5684651E-2],"categories":[],"categories_nodes":[],"categories_segments":[],"categories_sizes":[],"default_left":[0,0,0,0,0],"id":3,"left_children":[1,-1,3,-1,-1],"loss_changes":[2.6965982E-1,0E0,3.4054756E-1,0E0,0E0],"parents":[2147483647,0,0,2,2],"right_children":[2,-1,4,-1,-1],"split_conditions":[-1.6452268E-1,1.9770148E-1,7.630154E-3,3.7874844E-2,-1.5684651E-2],"split_indices":[16,0,12,0,0],"split_type":[0,0,0,0,0],"sum_hessian":[4.309378E1,6.939483E-1,4.2399834E1,2.1281603E1,2.1118229E1],"tree_param":{"num_deleted":"0","num_feature":"39","num_nodes":"5","size_leaf_vector":"1"}},{"base_weights":[2.0266606E-2,-2.0195715E-2,2.6428598E-1,1.2342459E-2,-5.693742E-2,1.6837546E-1,3.108474E-2],"categories":[],"categories_nodes":[],"categories_segments":[],"categories_sizes":[],"default_left":[0,0,0,0,0,0,0],"id":4,"left_children":[1,3,5,-1,-1,-1,-1],"loss_changes":[4.260869E-1,3.8766158E-1,2.931336E-1,0E0,0E0,0E0,0E0],"parents":[2147483647,0,0,1,1,2,2],"right_children":[2,4,6,-1,-1,-1,-1],"split_conditions":[1.1680103E-2,1.1403013E-2,-2.8613241E-2,1.2342459E-2,-5.693742E-2,1.6837546E-1,3.108474E-2],"split_indices":[11,3,2,0,0,0,0],"split_type":[0,0,0,0,0,0,0],"sum_hessian":[4.3121433E1,3.6993988E1,6.1274447E0,2.718287E1,9.811117E0,2.1277013E0,3.9997432E0],"tree_param":{"num_deleted":"0","num_feature":"39","num_nodes":"7","size_leaf_vector":"1"}},{"base_weights":[7.875309E-3,3.3845525E-2,-2.5298044E-1,-1.375987E-1,1.5844861E-2,-1.9864646E-1,-2.9306032E-2],"categories":[],"categories_nodes":[],"categories_segments":[],"categories_sizes":[],"default_left":[0,0,0,0,0,0,0],"id":5,"left_children":[1,3,5,-1,-1,-1,-1],"loss_changes":[2.9193985E-1,3.7136275E-1,2.476177E-1,0E0,0E0,0E0,0E0],"parents":[2147483647,0,0,1,1,2,2],"right_children":[2,4,6,-1,-1,-1,-1],"split_conditions":[2.3955595E-1,4.4192364E-3,8.8475835E-1,-1.375987E-1,1.5844861E-2,-1.9864646E-1,-2.9306032E-2],"split_indices":[27,12,13,0,0,0,0],"split_type":[0,0,0,0,0,0,0],"sum_hessian":[4.3092476E1,3.920132E1,3.8911545E0,1.453234E0,3.7748085E1,1.0535775E0,2.837577E0],"tree_param":{"num_deleted":"0","num_feature":"39","num_nodes":"7","size_leaf_vector":"1"}},{"base_weights":[3.792503E-2,1.498248E-1,-1.5367256E-2,9.508722E-2,4.58206E-3,-6.6404015E-2,7.27112E-3],"categories":[],"categories_nodes":[],"categories_segments":[],"categories_sizes":[],"default_left":[0,0,0,0,0,0,0],"id":6,"left_children":[1,3,5,-1,-1,-1,-1],"loss_changes":[2.550414E-1,3.1200314E-1,2.3792824E-1,0E0,0E0,0E0,0E0],"parents":[2147483647,0,0,1,1,2,2],"right_children":[2,4,6,-1,-1,-1,-1],"split_conditions":[5E0,1.3708336E-3,3.815178E-1,9.508722E-2,4.58206E-3,-6.6404015E-2,7.27112E-3],"split_indices":[30,14,18,0,0,0,0],"split_type":[0,0,0,0,0,0,0],"sum_hessian":[4.2738136E1,1.37857E1,2.8952436E1,6.1147904E0,7.670909E0,4.657461E0,2.4294975E1],"tree_param":{"num_deleted":"0","num_feature":"39","num_nodes":"7","size_leaf_vector":"1"}},{"base_weights":[-3.9136126E-3,3.567242E-2,-1.636316E-1,-2.6334461E-5,-1.6371578E-1,-3.713876E-3,9.488015E-2],"categories":[],"categories_nodes":[],"categories_segments":[],"categories_sizes":[],"default_left":[0,0,0,0,0,0,0],"id":7,"left_children":[1,5,3,-1,-1,-1,-1],"loss_changes":[2.715764E-1,4.6654552E-1,5.355818E-1,0E0,0E0,0E0,0E0],"parents":[2147483647,0,0,2,2,1,1],"right_children":[2,6,4,-1,-1,-1,-1],"split_conditions":[1E0,1.1497451E-2,1.9518592E-3,-2.6334461E-5,-1.6371578E-1,-3.713876E-3,9.488015E-2],"split_indices":[26,12,14,0,0,0,0],"split_type":[0,0,0,0,0,0,0],"sum_hessian":[4.2919567E1,3.4397892E1,8.521677E0,5.9853454E0,2.5363314E0,2.9388634E1,5.009257E0],"tree_param":{"num_deleted":"0","num_feature":"39","num_nodes":"7","size_leaf_vector":"1"}},{"base_weights":[9.701977E-3,-2.8423795E-1,3.3492997E-2,3.8724784E-2,-1.0908185E-2,-1.3546972E-1,5.958974E-2],"categories":[],"categories_nodes":[],"categories_segments":[],"categories_sizes":[],"default_left":[0,0,0,0,0,0,0],"id":8,"left_children":[1,5,3,-1,-1,-1,-1],"loss_changes":[2.9552826E-1,2.5968823E-1,2.6310351E-1,0E0,0E0,0E0,0E0],"parents":[2147483647,0,0,2,2,1,1],"right_children":[2,6,4,-1,-1,-1,-1],"split_conditions":[2.2727273E-2,1.3040751E-2,9.009782E-3,3.8724784E-2,-1.0908185E-2,-1.3546972E-1,5.958974E-2],"split_indices":[21,3,3,0,0,0,0],"split_type":[0,0,0,0,0,0,0],"sum_hessian":[4.2259563E1,3.1536562E0,3.9105907E1,1.6482664E1,2.2623241E1,2.3385339E0,8.151224E-1],"tree_param":{"num_deleted":"0","num_feature":"39","num_nodes":"7","size_leaf_vector":"1"}},{"base_weights":[9.316291E-3,-3.2680232E-2,1.2937668E-1,-1.3066777E-2,1.9831713E-1,2.4440015E-2,1.6707975E-1],"categories":[],"categories_nodes":[],"categories_segments":[],"categories_sizes":[],"default_left":[0,0,0,0,0,0,0],"id":9,"left_children":[1,3,5,-1,-1,-1,-1],"loss_changes":[2.1540245E-1,2.4295144E-1,2.2554375E-1,0E0,0E0,0E0,0E0],"parents":[2147483647,0,0,1,1,2,2],"right_children":[2,4,6,-1,-1,-1,-1],"split_conditions":[1.0799572E0,6.9408924E-3,6.0714287E-1,-1.3066777E-2,1.9831713E-1,2.4440015E-2,1.6707975E-1],"split_indices":[23,14,21,0,0,0,0],"split_type":[0,0,0,0,0,0,0],"sum_hessian":[4.268852E1,3.1627346E1,1.10611725E1,3.1144342E1,4.8300192E-1,9.970191E0,1.0909808E0],"tree_param":{"num_deleted":"0","num_feature":"39","num_nodes":"7","size_leaf_vector":"1"}},{"base_weights":[2.0443587E-2,-4.5875764E-1,3.0864218E-2,6.3472964E-2,-2.773475E-1,-2.3474088E-2,2.4126237E-2],"categories":[],"categories_nodes":[],"categories_segments":[],"categories_sizes":[],"default_left":[0,0,0,0,0,0,0],"id":10,"left_children":[1,3,5,-1,-1,-1,-1],"loss_changes":[2.1364608E-1,2.8918338E-1,2.2865196E-1,0E0,0E0,0E0,0E0],"parents":[2147483647,0,0,1,1,2,2],"right_children":[2,4,6,-1,-1,-1,-1],"split_conditions":[3.8329346E-4,5.867128E-3,8.695652E-1,6.3472964E-2,-2.773475E-1,-2.3474088E-2,2.4126237E-2],"split_indices":[14,3,13,0,0,0,0],"split_type":[0,0,0,0,0,0,0],"sum_hessian":[4.2802402E1,9.000658E-1,4.1902336E1,3.720621E-1,5.280037E-1,1.3111082E1,2.8791256E1],"tree_param":{"num_deleted":"0","num_feature":"39","num_nodes":"7","size_leaf_vector":"1"}},{"base_weights":[-1.5067536E-2,-3.141746E-2,3.1661803E-1,-1.4738034E-1,-3.273214E-3,2.8310692E-1,3.9278463E-2],"categories":[],"categories_nodes":[],"categories_segments":[],"categories_sizes":[],"default_left":[0,0,0,0,0,0,0],"id":11,"left_children":[1,3,5,-1,-1,-1,-1],"loss_changes":[2.3462182E-1,3.8943815E-1,2.3530114E-1,0E0,0E0,0E0,0E0],"parents":[2147483647,0,0,1,1,2,2],"right_children":[2,4,6,-1,-1,-1,-1],"split_conditions":[1.4428111E-2,9.632181E-1,-1.2768361E-1,-1.4738034E-1,-3.273214E-3,2.8310692E-1,3.9278463E-2],"split_indices":[11,17,16,0,0,0,0],"split_type":[0,0,0,0,0,0,0],"sum_hessian":[4.3270157E1,4.1248337E1,2.0218222E0,1.7394341E0,3.95089E1,4.484974E-1,1.5733247E0],"tree_param":{"num_deleted":"0","num_feature":"39","num_nodes":"7","size_leaf_vector":"1"}},{"base_weights":[3.1711683E-3,3.3354506E-2,-1.5958788E-1,1.2672557E-1,-7.458133E-2,2.6615217E-2,-3.319814E-2],"categories":[],"categories_nodes":[],"categories_segments":[],"categories_sizes":[],"default_left":[0,0,0,0,0,0,0],"id":12,"left_children":[1,5,3,-1,-1,-1,-1],"loss_changes":[2.1065505E-1,2.911536E-1,3.529854E-1,0E0,0E0,0E0,0E0],"parents":[2147483647,0,0,2,2,1,1],"right_children":[2,6,4,-1,-1,-1,-1],"split_conditions":[1.7080511E-1,1.1261326E0,4.950495E-2,1.2672557E-1,-7.458133E-2,2.6615217E-2,-3.319814E-2],"split_indices":[27,4,21,0,0,0,0],"split_type":[0,0,0,0,0,0,0],"sum_hessian":[4.2876244E1,3.6179295E1,6.696951E0,8.880841E-1,5.8088665E0,2.6117163E1,1.0062131E1],"tree_param":{"num_deleted":"0","num_feature":"39","num_nodes":"7","size_leaf_vector":"1"}},{"base_weights":[-4.131832E-3,8.651377E-2,-6.0918316E-2,-1.161565E-2,-1.4079468E-1,1.9125441E-2,1.7816201E-1],"categories":[],"categories_nodes":[],"categories_segments":[],"categories_sizes":[],"default_left":[0,0,0,0,0,0,0],"id":13,"left_children":[1,5,3,-1,-1,-1,-1],"loss_changes":[2.1961528E-1,1.8775588E-1,2.3681484E-1,0E0,0E0,0E0,0E0],"parents":[2147483647,0,0,2,2,1,1],"right_children":[2,6,4,-1,-1,-1,-1],"split_conditions":[6E0,3.7003335E-2,1.8465174E-2,-1.161565E-2,-1.4079468E-1,1.9125441E-2,1.7816201E-1],"split_indices":[30,1,3,0,0,0,0],"split_type":[0,0,0,0,0,0,0],"sum_hessian":[4.2647255E1,1.6419767E1,2.6227486E1,2.490129E1,1.3261942E0,1.5737037E1,6.8273056E-1],"tree_param":{"num_deleted":"0","num_feature":"39","num_nodes":"7","size_leaf_vector":"1"}},{"base_weights":[-1.2613961E-2,-6.614571E-2,6.899098E-2,-1.5065287E-1,-8.382091E-3,1.0440088E-1,-2.0878431E-3],"categories":[],"categories_nodes":[],"categories_segments":[],"categories_sizes":[],"default_left":[0,0,0,0,0,0,0],"id":14,"left_children":[1,3,5,-1,-1,-1,-1],"loss_changes":[1.8532613E-1,4.269849E-1,3.5804945E-1,0E0,0E0,0E0,0E0],"parents":[2147483647,0,0,1,1,2,2],"right_children":[2,4,6,-1,-1,-1,-1],"split_conditions":[5.8778524E-1,9.6299624E-1,-4.464473E-2,-1.5065287E-1,-8.382091E-3,1.0440088E-1,-2.0878431E-3],"split_indices":[25,24,16,0,0,0,0],"split_type":[0,0,0,0,0,0,0],"sum_hessian":[4.2402916E1,2.561204E1,1.6790878E1,2.0386643E0,2.3573376E1,3.5746703E0,1.3216208E1],"tree_param":{"num_deleted":"0","num_feature":"39","num_nodes":"7","size_leaf_vector":"1"}},{"base_weights":[-4.7127967E-4,9.4365045E-2,-4.812418E-2,4.5073084E-3,1.0153755E-1,-4.2476878E-2,4.3862457E-3],"categories":[],"categories_nodes":[],"categories_segments":[],"categories_sizes":[],"default_left":[0,0,0,0,0,0,0],"id":15,"left_children":[1,3,5,-1,-1,-1,-1],"loss_changes":[1.921277E-1,2.7622145E-1,1.6717029E-1,0E0,0E0,0E0,0E0],"parents":[2147483647,0,0,1,1,2,2],"right_children":[2,4,6,-1,-1,-1,-1],"split_conditions":[8.876454E-1,2.1383846E-3,-8.050442E-3,4.5073084E-3,1.0153755E-1,-4.2476878E-2,4.3862457E-3],"split_indices":[22,14,16,0,0,0,0],"split_type":[0,0,0,0,0,0,0],"sum_hessian":[4.249952E1,1.4205018E1,2.82945E1,1.0746046E1,3.4589717E0,1.1332152E1,1.6962349E1],"tree_param":{"num_deleted":"0","num_feature":"39","num_nodes":"7","size_leaf_vector":"1"}},{"base_weights":[-9.077972E-3,5.624572E-2,-7.1643576E-2,-3.1355375E-1,-1.3847182E-2,1.495983E-1,2.1855456E-3],"categories":[],"categories_nodes":[],"categories_segments":[],"categories_sizes":[],"default_left":[0,0,0,0,0,0,0],"id":16,"left_children":[1,5,3,-1,-1,-1,-1],"loss_changes":[1.7473991E-1,4.5419136E-1,5.392024E-1,0E0,0E0,0E0,0E0],"parents":[2147483647,0,0,2,2,1,1],"right_children":[2,6,4,-1,-1,-1,-1],"split_conditions":[7.630154E-3,-3.871625E-2,7.5167343E-3,-3.1355375E-1,-1.3847182E-2,1.495983E-1,2.1855456E-3],"split_indices":[12,15,11,0,0,0,0],"split_type":[0,0,0,0,0,0,0],"sum_hessian":[4.2731697E1,2.090028E1,2.1831417E1,5.399224E-1,2.1291494E1,2.0628388E0,1.883744E1],"tree_param":{"num_deleted":"0","num_feature":"39","num_nodes":"7","size_leaf_vector":"1"}},{"base_weights":[6.307902E-3,-4.114671E-2,1.1405995E-1,9.244592E-2,-2.5491768E-3,-2.7120883E-2,4.3049064E-2],"categories":[],"categories_nodes":[],"categories_segments":[],"categories_sizes":[],"default_left":[0,0,0,0,0,0,0],"id":17,"left_children":[1,5,3,-1,-1,-1,-1],"loss_changes":[2.1928781E-1,2.7339876E-1,3.140725E-1,0E0,0E0,0E0,0E0],"parents":[2147483647,0,0,2,2,1,1],"right_children":[2,6,4,-1,-1,-1,-1],"split_conditions":[5.7979435E-2,5.36036E-1,8.753056E-2,9.244592E-2,-2.5491768E-3,-2.7120883E-2,4.3049064E-2],"split_indices":[16,18,16,0,0,0,0],"split_type":[0,0,0,0,0,0,0],"sum_hessian":[4.2855915E1,2.975276E1,1.3103154E1,5.0502043E0,8.05295E0,2.3475096E1,6.277664E0],"tree_param":{"num_deleted":"0","num_feature":"39","num_nodes":"7","size_leaf_vector":"1"}},{"base_weights":[4.357117E-3,4.6875137E-1,-4.4683395E-3,-9.667562E-2,3.6440582E-3,2.483246E-2,2.5067776E-1],"categories":[],"categories_nodes":[],"categories_segments":[],"categories_sizes":[],"default_left":[0,0,0,0,0,0,0],"id":18,"left_children":[1,5,3,-1,-1,-1,-1],"loss_changes":[1.7513324E-1,1.1234577E-1,2.2270942E-1,0E0,0E0,0E0,0E0],"parents":[2147483647,0,0,2,2,1,1],"right_children":[2,6,4,-1,-1,-1,-1],"split_conditions":[3.502212E-1,1.1795828E-3,-3.5556367E-1,-9.667562E-2,3.6440582E-3,2.483246E-2,2.5067776E-1],"split_indices":[29,14,27,0,0,0,0],"split_type":[0,0,0,0,0,0,0],"sum_hessian":[4.263864E1,7.8653705E-1,4.1852104E1,2.0699682E0,3.9782135E1,3.9219445E-1,3.9434263E-1],"tree_param":{"num_deleted":"0","num_feature":"39","num_nodes":"7","size_leaf_vector":"1"}},{"base_weights":[1.0565279E-2,1.7005365E-2,-1.9916989E-1,1.6776493E-2,-2.643141E-2],"categories":[],"categories_nodes":[],"categories_segments":[],"categories_sizes":[],"default_left":[0,0,0,0,0],"id":19,"left_children":[1,3,-1,-1,-1],"loss_changes":[1.877615E-1,1.7636326E-1,0E0,0E0,0E0],"parents":[2147483647,0,0,1,1],"right_children":[2,4,-1,-1,-1],"split_conditions":[6.4E1,9.549619E-2,-1.9916989E-1,1.6776493E-2,-2.643141E-2],"split_indices":[30,27,0,0,0],"split_type":[0,0,0,0,0],"sum_hessian":[4.313462E1,4.2739132E1,3.9548832E-1,3.1180643E1,1.1558489E1],"tree_param":{"num_deleted":"0","num_feature":"39","num_nodes":"5","size_leaf_vector":"1"}},{"base_weights":[3.047833E-3,5.52035E-2,-6.4970255E-2,-6.1119925E-2,1.35751525E-2,-9.461957E-3,5.132859E-2],"categories":[],"categories_nodes":[],"categories_segments":[],"categories_sizes":[],"default_left":[0,0,0,0,0,0,0],"id":20,"left_children":[1,5,3,-1,-1,-1,-1],"loss_changes":[1.5152463E-1,2.4489392E-1,2.8561714E-1,0E0,0E0,0E0,0E0],"parents":[2147483647,0,0,2,2,1,1],"right_children":[2,6,4,-1,-1,-1,-1],"split_conditions":[1.6994633E-2,-7.040017E-3,5.472637E-2,-6.1119925E-2,1.35751525E-2,-9.461957E-3,5.132859E-2],"split_indices":[15,16,16,0,0,0,0],"split_type":[0,0,0,0,0,0,0],"sum_hessian":[4.2693695E1,2.4171291E1,1.8522406E1,8.18063E0,1.0341775E1,1.3849275E1,1.0322016E1],"tree_param":{"num_deleted":"0","num_feature":"39","num_nodes":"7","size_leaf_vector":"1"}},{"base_weights":[-6.106994E-3,1.8171816E-1,-2.6600812E-2,-6.0116608E-2,1.3390405E-3,1.7764151E-1,2.0247163E-2],"categories":[],"categories_nodes":[],"categories_segments":[],"categories_sizes":[],"default_left":[0,0,0,0,0,0,0],"id":21,"left_children":[1,5,3,-1,-1,-1,-1],"loss_changes":[1.6337457E-1,1.9546962E-1,2.078577E-1,0E0,0E0,0E0,0E0],"parents":[2147483647,0,0,2,2,1,1],"right_children":[2,6,4,-1,-1,-1,-1],"split_conditions":[-8.472315E-2,4.0454698E-1,3.7696335E-1,-6.0116608E-2,1.3390405E-3,1.7764151E-1,2.0247163E-2],"split_indices":[16,18,18,0,0,0,0],"split_type":[0,0,0,0,0,0,0],"sum_hessian":[4.2447056E1,4.164523E0,3.8282536E1,5.781734E0,3.25008E1,8.906561E-1,3.273867E0],"tree_param":{"num_deleted":"0","num_feature":"39","num_nodes":"7","size_leaf_vector":"1"}},{"base_weights":[-9.486538E-4,1.577225E-1,-8.237434E-3,-8.52105E-3,5.265235E-2],"categories":[],"categories_nodes":[],"categories_segments":[],"categories_sizes":[],"default_left":[0,0,0,0,0],"id":22,"left_children":[1,-1,3,-1,-1],"loss_changes":[1.6438407E-1,0E0,1.5758438E-1,0E0,0E0],"parents":[2147483647,0,0,2,2],"right_children":[2,-1,4,-1,-1],"split_conditions":[-1.6884114E-1,1.577225E-1,3.2E1,-8.52105E-3,5.265235E-2],"split_indices":[16,0,30,0,0],"split_type":[0,0,0,0,0],"sum_hessian":[4.273285E1,5.698406E-1,4.216301E1,3.7998226E1,4.1647825E0],"tree_param":{"num_deleted":"0","num_feature":"39","num_nodes":"5","size_leaf_vector":"1"}},{"base_weights":[-9.163487E-3,-2.3702776E-1,9.312458E-3,-9.7846285E-2,9.538522E-2,3.524456E-2,-7.353212E-3],"categories":[],"categories_nodes":[],"categories_segments":[],"categories_sizes":[],"default_left":[0,0,0,0,0,0,0],"id":23,"left_children":[1,3,5,-1,-1,-1,-1],"loss_changes":[1.8007156E-1,1.6224433E-1,1.4569384E-1,0E0,0E0,0E0,0E0],"parents":[2147483647,0,0,1,1,2,2],"right_children":[2,4,6,-1,-1,-1,-1],"split_conditions":[2.173913E-2,1.6406071E0,9.8822516E-1,-9.7846285E-2,9.538522E-2,3.524456E-2,-7.353212E-3],"split_indices":[21,4,17,0,0,0,0],"split_type":[0,0,0,0,0,0,0],"sum_hessian":[4.2719753E1,3.1975904E0,3.9522163E1,2.7555425E0,4.4204777E-1,9.403458E0,3.0118708E1],"tree_param":{"num_deleted":"0","num_feature":"39","num_nodes":"7","size_leaf_vector":"1"}},{"base_weights":[-4.619486E-3,2.4290746E-3,-1.7060116E-1,8.6739965E-2,-2.852428E-3],"categories":[],"categories_nodes":[],"categories_segments":[],"categories_sizes":[],"default_left":[0,0,0,0,0],"id":24,"left_children":[1,3,-1,-1,-1],"loss_changes":[1.696176E-1,1.4454873E-1,0E0,0E0,0E0],"parents":[2147483647,0,0,1,1],"right_children":[2,4,-1,-1,-1],"split_conditions":[1.0568322E0,3.702183E-1,-1.7060116E-1,8.6739965E-2,-2.852428E-3],"split_indices":[17,29,0,0,0],"split_type":[0,0,0,0,0],"sum_hessian":[4.23948E1,4.1882504E1,5.1229453E-1,1.6654792E0,4.0217026E1],"tree_param":{"num_deleted":"0","num_feature":"39","num_nodes":"5","size_leaf_vector":"1"}},{"base_weights":[2.3497848E-4,-1.9017938E-1,1.7343858E-2,-1.19303204E-1,1.2407784E-1,-8.392515E-2,9.710599E-3],"categories":[],"categories_nodes":[],"categories_segments":[],"categories_sizes":[],"default_left":[0,0,0,0,0,0,0],"id":25,"left_children":[1,3,5,-1,-1,-1,-1],"loss_changes":[1.3760866E-1,4.4213843E-1,1.7507134E-1,0E0,0E0,0E0,0E0],"parents":[2147483647,0,0,1,1,2,2],"right_children":[2,4,6,-1,-1,-1,-1],"split_conditions":[9.626334E-1,1.2211908E-2,-1.468787E-2,-1.19303204E-1,1.2407784E-1,-8.392515E-2,9.710599E-3],"split_indices":[24,11,0,0,0,0,0],"split_type":[0,0,0,0,0,0,0],"sum_hessian":[4.225512E1,3.4717152E0,3.8783405E1,2.5842361E0,8.874789E-1,1.8638846E0,3.691952E1],"tree_param":{"num_deleted":"0","num_feature":"39","num_nodes":"7","size_leaf_vector":"1"}},{"base_weights":[1.4259008E-3,-3.4875062E-1,1.3981441E-2,-3.002945E-1,-3.5057757E-2,1.2614765E-2,-3.9592072E-2],"categories":[],"categories_nodes":[],"categories_segments":[],"categories_sizes":[],"default_left":[0,0,0,0,0,0,0],"id":26,"left_children":[1,3,5,-1,-1,-1,-1],"loss_changes":[1.8688972E-1,2.2137965E-1,1.6980425E-1,0E0,0E0,0E0,0E0],"parents":[2147483647,0,0,1,1,2,2],"right_children":[2,4,6,-1,-1,-1,-1],"split_conditions":[7.481135E-1,4.450635E-1,4.0466927E-2,-3.002945E-1,-3.5057757E-2,1.2614765E-2,-3.9592072E-2],"split_indices":[23,29,2,0,0,0,0],"split_type":[0,0,0,0,0,0,0],"sum_hessian":[4.2536957E1,1.4608673E0,4.1076088E1,3.7123236E-1,1.0896349E0,3.4448994E1,6.6270957E0],"tree_param":{"num_deleted":"0","num_feature":"39","num_nodes":"7","size_leaf_vector":"1"}},{"base_weights":[1.2798907E-2,6.789275E-3,1.5842213E-1,4.219825E-3,-1.7620356E-1],"categories":[],"categories_nodes":[],"categories_segments":[],"categories_sizes":[],"default_left":[0,0,0,0,0],"id":27,"left_children":[1,3,-1,-1,-1],"loss_changes":[1.318964E-1,1.8361135E-1,0E0,0E0,0E0],"parents":[2147483647,0,0,1,1],"right_children":[2,4,-1,-1,-1],"split_conditions":[9.5652175E-1,9.285714E-1,1.5842213E-1,4.219825E-3,-1.7620356E-1],"split_indices":[19,19,0,0,0],"split_type":[0,0,0,0,0],"sum_hessian":[4.2552475E1,4.207543E1,4.770432E-1,4.157574E1,4.9969143E-1],"tree_param":{"num_deleted":"0","num_feature":"39","num_nodes":"5","size_leaf_vector":"1"}},{"base_weights":[1.3547079E-2,-1.10863805E-1,4.1109655E-2,-2.1470381E-1,-1.6295772E-2,5.0778233E-2,2.2416897E-3],"categories":[],"categories_nodes":[],"categories_segments":[],"categories_sizes":[],"default_left":[0,0,0,0,0,0,0],"id":28,"left_children":[1,3,5,-1,-1,-1,-1],"loss_changes":[1.4449146E-1,2.6057708E-1,1.4921504E-1,0E0,0E0,0E0,0E0],"parents":[2147483647,0,0,1,1,2,2],"right_children":[2,4,6,-1,-1,-1,-1],"split_conditions":[-2.398957E-1,5.020855E-3,8.46395E-2,-2.1470381E-1,-1.6295772E-2,5.0778233E-2,2.2416897E-3],"split_indices":[6,12,21,0,0,0,0],"split_type":[0,0,0,0,0,0,0],"sum_hessian":[4.2126633E1,7.630115E0,3.4496517E1,6.362823E-1,6.9938326E0,7.127118E0,2.73694E1],"tree_param":{"num_deleted":"0","num_feature":"39","num_nodes":"7","size_leaf_vector":"1"}},{"base_weights":[-1.81883E-2,-2.7653342E-2,3.0089036E-1,2.310424E-1,-3.570402E-2,-4.0191077E-3,-9.135437E-2],"categories":[],"categories_nodes":[],"categories_segments":[],"categories_sizes":[],"default_left":[0,0,0,0,0,0,0],"id":29,"left_children":[1,5,3,-1,-1,-1,-1],"loss_changes":[1.2751485E-1,1.6185595E-1,2.4272874E-1,0E0,0E0,0E0,0E0],"parents":[2147483647,0,0,2,2,1,1],"right_children":[2,6,4,-1,-1,-1,-1],"split_conditions":[1.7181209E-1,1.3628547E-1,-7.097697E-2,2.310424E-1,-3.570402E-2,-4.0191077E-3,-9.135437E-2],"split_indices":[16,16,27,0,0,0,0],"split_type":[0,0,0,0,0,0,0],"sum_hessian":[4.224448E1,4.1038734E1,1.205745E0,5.645718E-1,6.411731E-1,3.9056004E1,1.9827307E0],"tree_param":{"num_deleted":"0","num_feature":"39","num_nodes":"7","size_leaf_vector":"1"}},{"base_weights":[-1.9117324E-3,-1.9074703E-2,2.4006836E-1,-8.454541E-2,-2.1731535E-3,1.479212E-1,2.079887E-2],"categories":[],"categories_nodes":[],"categories_segments":[],"categories_sizes":[],"default_left":[0,0,0,0,0,0,0],"id":30,"left_children":[1,3,5,-1,-1,-1,-1],"loss_changes":[1.7631537E-1,1.2332634E-1,1.21396646E-1,0E0,0E0,0E0,0E0],"parents":[2147483647,0,0,1,1,2,2],"right_children":[2,4,6,-1,-1,-1,-1],"split_conditions":[6.666667E-1,4.3523274E-3,-2.4492937E-16,-8.454541E-2,-2.1731535E-3,1.479212E-1,2.079887E-2],"split_indices":[21,11,25,0,0,0,0],"split_type":[0,0,0,0,0,0,0],"sum_hessian":[4.246818E1,3.966708E1,2.801102E0,1.6863925E0,3.7980686E1,1.1133151E0,1.6877868E0],"tree_param":{"num_deleted":"0","num_feature":"39","num_nodes":"7","size_leaf_vector":"1"}},{"base_weights":[9.261319E-3,-2.383198E-1,2.3667682E-2,8.005618E-2,2.6634294E-3,7.415438E-2,-1.0381391E-1],"categories":[],"categories_nodes":[],"categories_segments":[],"categories_sizes":[],"default_left":[0,0,0,0,0,0,0],"id":31,"left_children":[1,5,3,-1,-1,-1,-1],"loss_changes":[1.5042998E-1,1.2390685E-1,1.4352381E-1,0E0,0E0,0E0,0E0],"parents":[2147483647,0,0,2,2,1,1],"right_children":[2,6,4,-1,-1,-1,-1],"split_conditions":[3.003003E-3,-3.1131566E-2,6.369427E-3,8.005618E-2,2.6634294E-3,7.415438E-2,-1.0381391E-1],"split_indices":[21,2,20,0,0,0,0],"split_type":[0,0,0,0,0,0,0],"sum_hessian":[4.21897E1,2.3084908E0,3.988121E1,2.260174E0,3.7621037E1,4.1904262E-1,1.8894482E0],"tree_param":{"num_deleted":"0","num_feature":"39","num_nodes":"7","size_leaf_vector":"1"}},{"base_weights":[-7.5778575E-3,4.3360323E-2,-9.660306E-2,2.9901292E-3,1.7905436E-1,-8.292314E-2,2.532016E-3],"categories":[],"categories_nodes":[],"categories_segments":[],"categories_sizes":[],"default_left":[0,0,0,0,0,0,0],"id":32,"left_children":[1,3,5,-1,-1,-1,-1],"loss_changes":[1.922431E-1,4.9916744E-1,2.9337972E-1,0E0,0E0,0E0,0E0],"parents":[2147483647,0,0,1,1,2,2],"right_children":[2,4,6,-1,-1,-1,-1],"split_conditions":[8.91551E-3,8.812994E-3,4.3715546E-1,2.9901292E-3,1.7905436E-1,-8.292314E-2,2.532016E-3],"split_indices":[11,12,18,0,0,0,0],"split_type":[0,0,0,0,0,0,0],"sum_hessian":[4.236507E1,2.6945301E1,1.5419769E1,2.5430555E1,1.5147455E0,5.6632166E0,9.756553E0],"tree_param":{"num_deleted":"0","num_feature":"39","num_nodes":"7","size_leaf_vector":"1"}},{"base_weights":[4.0456136E-3,7.516354E-2,-4.8022486E-2,1.7630292E-1,1.1256574E-2,-8.580345E-2,-3.453916E-3],"categories":[],"categories_nodes":[],"categories_segments":[],"categories_sizes":[],"default_left":[0,0,0,0,0,0,0],"id":33,"left_children":[1,3,5,-1,-1,-1,-1],"loss_changes":[1.5798943E-1,3.4749645E-1,2.1441266E-1,0E0,0E0,0E0,0E0],"parents":[2147483647,0,0,1,1,2,2],"right_children":[2,4,6,-1,-1,-1,-1],"split_conditions":[9.020569E-3,9.808841E-1,6.608722E-3,1.7630292E-1,1.1256574E-2,-8.580345E-2,-3.453916E-3],"split_indices":[3,17,12,0,0,0,0],"split_type":[0,0,0,0,0,0,0],"sum_hessian":[4.264004E1,1.802659E1,2.4613453E1,1.21273E0,1.681386E1,3.2459915E0,2.1367462E1],"tree_param":{"num_deleted":"0","num_feature":"39","num_nodes":"7","size_leaf_vector":"1"}},{"base_weights":[4.7431057E-3,3.1466594E-1,-5.9404513E-3,-1.5058461E-1,1.5771292E-3,-7.731478E-2,1.729869E-1],"categories":[],"categories_nodes":[],"categories_segments":[],"categories_sizes":[],"default_left":[0,0,0,0,0,0,0],"id":34,"left_children":[1,5,3,-1,-1,-1,-1],"loss_changes":[1.390114E-1,2.1359152E-1,2.2667874E-1,0E0,0E0,0E0,0E0],"parents":[2147483647,0,0,2,2,1,1],"right_children":[2,6,4,-1,-1,-1,-1],"split_conditions":[-2.217837E0,9.269787E-4,-1.9754092E0,-1.5058461E-1,1.5771292E-3,-7.731478E-2,1.729869E-1],"split_indices":[4,14,4,0,0,0,0],"split_type":[0,0,0,0,0,0,0],"sum_hessian":[4.1904247E1,1.3886375E0,4.051561E1,8.839991E-1,3.963161E1,4.3716776E-1,9.514698E-1],"tree_param":{"num_deleted":"0","num_feature":"39","num_nodes":"7","size_leaf_vector":"1"}},{"base_weights":[1.666968E-3,1.8058264E-1,-1.7970694E-2,1.9316308E-1,2.340421E-2,-1.2300883E-2,3.984212E-2],"categories":[],"categories_nodes":[],"categories_segments":[],"categories_sizes":[],"default_left":[0,0,0,0,0,0,0],"id":35,"left_children":[1,3,5,-1,-1,-1,-1],"loss_changes":[1.4828688E-1,1.978113E-1,1.3325398E-1,0E0,0E0,0E0,0E0],"parents":[2147483647,0,0,1,1,2,2],"right_children":[2,4,6,-1,-1,-1,-1],"split_conditions":[5.170282E-3,-1.0240396E-2,1.2069227E-2,1.9316308E-1,2.340421E-2,-1.2300883E-2,3.984212E-2],"split_indices":[5,2,11,0,0,0,0],"split_type":[0,0,0,0,0,0,0],"sum_hessian":[4.2153694E1,4.1641498E0,3.7989544E1,7.387783E-1,3.4253714E0,3.2951443E1,5.0381017E0],"tree_param":{"num_deleted":"0","num_feature":"39","num_nodes":"7","size_leaf_vector":"1"}},{"base_weights":[-5.5131465E-3,-1.7551047E-1,1.3629118E-2,2.1651228E-1,7.0226315E-4,-1.13000475E-1,2.7400734E-2],"categories":[],"categories_nodes":[],"categories_segments":[],"categories_sizes":[],"default_left":[0,0,0,0,0,0,0],"id":36,"left_children":[1,5,3,-1,-1,-1,-1],"loss_changes":[1.3779932E-1,2.324883E-1,3.0436197E-1,0E0,0E0,0E0,0E0],"parents":[2147483647,0,0,2,2,1,1],"right_children":[2,6,4,-1,-1,-1,-1],"split_conditions":[9.745122E-1,5.8778524E-1,-1.3883677E-1,2.1651228E-1,7.0226315E-4,-1.13000475E-1,2.7400734E-2],"split_indices":[17,25,16,0,0,0,0],"split_type":[0,0,0,0,0,0,0],"sum_hessian":[4.229417E1,4.2754645E0,3.8018707E1,5.827447E-1,3.7435963E1,2.4308937E0,1.8445709E0],"tree_param":{"num_deleted":"0","num_feature":"39","num_nodes":"7","size_leaf_vector":"1"}},{"base_weights":[2.4417834E-3,9.486962E-2,-3.2286827E-2,-2.2874115E-1,-5.4151597E-3,-9.2137785E-4,1.04238205E-1],"categories":[],"categories_nodes":[],"categories_segments":[],"categories_sizes":[],"default_left":[0,0,0,0,0,0,0],"id":37,"left_children":[1,5,3,-1,-1,-1,-1],"loss_changes":[1.351461E-1,2.8623486E-1,3.1703928E-1,0E0,0E0,0E0,0E0],"parents":[2147483647,0,0,2,2,1,1],"right_children":[2,6,4,-1,-1,-1,-1],"split_conditions":[-1.7078348E-2,7.7778418E-3,9.8332906E-1,-2.2874115E-1,-5.4151597E-3,-9.2137785E-4,1.04238205E-1],"split_indices":[2,16,17,0,0,0,0],"split_type":[0,0,0,0,0,0,0],"sum_hessian":[4.20695E1,1.1490321E1,3.057918E1,5.685812E-1,3.00106E1,8.296733E0,3.193588E0],"tree_param":{"num_deleted":"0","num_feature":"39","num_nodes":"7","size_leaf_vector":"1"}},{"base_weights":[-1.4784097E-2,-2.9302817E-2,2.76693E-1,-4.381973E-2,1.8563569E-1,-4.1313376E-3,-9.7199716E-2],"categories":[],"categories_nodes":[],"categories_segments":[],"categories_sizes":[],"default_left":[0,0,0,0,0,0,0],"id":38,"left_children":[1,5,3,-1,-1,-1,-1],"loss_changes":[1.7740767E-1,1.8278061E-1,2.9117548E-1,0E0,0E0,0E0,0E0],"parents":[2147483647,0,0,2,2,1,1],"right_children":[2,6,4,-1,-1,-1,-1],"split_conditions":[1.0391855E0,1.0311893E0,-3.9403673E-2,-4.381973E-2,1.8563569E-1,-4.1313376E-3,-9.7199716E-2],"split_indices":[17,17,27,0,0,0,0],"split_type":[0,0,0,0,0,0,0],"sum_hessian":[4.1931114E1,3.995271E1,1.9784067E0,8.892933E-1,1.0891134E0,3.797881E1,1.9738998E0],"tree_param":{"num_deleted":"0","num_feature":"39","num_nodes":"7","size_leaf_vector":"1"}},{"base_weights":[5.2623064E-3,1.1451537E-2,-1.4652343E-1,-2.977652E-4,8.810792E-2],"categories":[],"categories_nodes":[],"categories_segments":[],"categories_sizes":[],"default_left":[0,0,0,0,0],"id":39,"left_children":[1,3,-1,-1,-1],"loss_changes":[1.2867554E-1,1.4670268E-1,0E0,0E0,0E0],"parents":[2147483647,0,0,1,1],"right_children":[2,4,-1,-1,-1],"split_conditions":[1.0568322E0,1.045045E-1,-1.4652343E-1,-2.977652E-4,8.810792E-2],"split_indices":[17,15,0,0,0],"split_type":[0,0,0,0,0],"sum_hessian":[4.203697E1,4.1529713E1,5.072545E-1,3.9789524E1,1.7401884E0],"tree_param":{"num_deleted":"0","num_feature":"39","num_nodes":"5","size_leaf_vector":"1"}},{"base_weights":[-3.1859044E-3,2.669678E-3,-1.9046353E-1,-2.5859885E-3,2.7667314E-1],"categories":[],"categories_nodes":[],"categories_segments":[],"categories_sizes":[],"default_left":[0,0,0,0,0],"id":40,"left_children":[1,3,-1,-1,-1],"loss_changes":[1.5715253E-1,4.3781614E-1,0E0,0E0,0E0],"parents":[2147483647,0,0,1,1],"right_children":[2,4,-1,-1,-1],"split_conditions":[6.7E1,5.4E1,-1.9046353E-1,-2.5859885E-3,2.7667314E-1],"split_indices":[30,30,0,0,0],"split_type":[0,0,0,0,0],"sum_hessian":[4.219838E1,4.1821415E1,3.7696534E-1,4.132408E1,4.973337E-1],"tree_param":{"num_deleted":"0","num_feature":"39","num_nodes":"5","size_leaf_vector":"1"}},{"base_weights":[1.77515E-2,-1.8156687E-2,1.0011808E-1,8.895426E-2,-5.320825E-3,3.632074E-2,-1.8467737E-2],"categories":[],"categories_nodes":[],"categories_segments":[],"categories_sizes":[],"default_left":[0,0,0,0,0,0,0],"id":41,"left_children":[1,5,3,-1,-1,-1,-1],"loss_changes":[1.2538056E-1,1.7984766E-1,2.9995465E-1,0E0,0E0,0E0,0E0],"parents":[2147483647,0,0,2,2,1,1],"right_children":[2,6,4,-1,-1,-1,-1],"split_conditions":[5.7979435E-2,5.834837E-3,8.753056E-2,8.895426E-2,-5.320825E-3,3.632074E-2,-1.8467737E-2],"split_indices":[16,11,16,0,0,0,0],"split_type":[0,0,0,0,0,0,0],"sum_hessian":[4.2356613E1,2.9497065E1,1.2859549E1,4.803961E0,8.055588E0,7.012751E0,2.2484314E1],"tree_param":{"num_deleted":"0","num_feature":"39","num_nodes":"7","size_leaf_vector":"1"}},{"base_weights":[6.417435E-3,-5.614892E-4,1.3303041E-1,1.4309995E-1,-2.1349236E-3],"categories":[],"categories_nodes":[],"categories_segments":[],"categories_sizes":[],"default_left":[0,0,0,0,0],"id":42,"left_children":[1,3,-1,-1,-1],"loss_changes":[1.2883551E-1,1.3011156E-1,0E0,0E0,0E0],"parents":[2147483647,0,0,1,1],"right_children":[2,4,-1,-1,-1],"split_conditions":[6.9408924E-3,-1.24075525E-1,1.3303041E-1,1.4309995E-1,-2.1349236E-3],"split_indices":[14,15,0,0,0],"split_type":[0,0,0,0,0],"sum_hessian":[4.197555E1,4.132687E1,6.48681E-1,5.482487E-1,4.077862E1],"tree_param":{"num_deleted":"0","num_feature":"39","num_nodes":"5","size_leaf_vector":"1"}},{"base_weights":[1.0465077E-2,-2.0287372E-1,2.8184615E-2,1.0841486E-2,-1.6339684E-1,-1.0273391E-1,3.9473385E-2],"categories":[],"categories_nodes":[],"categories_segments":[],"categories_sizes":[],"default_left":[0,0,0,0,0,0,0],"id":43,"left_children":[1,5,3,-1,-1,-1,-1],"loss_changes":[1.5885516E-1,1.5260416E-1,1.803461E-1,0E0,0E0,0E0,0E0],"parents":[2147483647,0,0,2,2,1,1],"right_children":[2,6,4,-1,-1,-1,-1],"split_conditions":[7.692308E-2,9.663728E-3,1.7377049E0,1.0841486E-2,-1.6339684E-1,-1.0273391E-1,3.9473385E-2],"split_indices":[19,12,13,0,0,0,0],"split_type":[0,0,0,0,0,0,0],"sum_hessian":[4.2027447E1,3.2117655E0,3.881568E1,3.828798E1,5.277044E-1,2.2622805E0,9.4948506E-1],"tree_param":{"num_deleted":"0","num_feature":"39","num_nodes":"7","size_leaf_vector":"1"}},{"base_weights":[3.675084E-3,-3.3425167E-2,8.230435E-2,-5.902777E-3,-1.691105E-1,4.2077523E-2,-2.8659841E-2],"categories":[],"categories_nodes":[],"categories_segments":[],"categories_sizes":[],"default_left":[0,0,0,0,0,0,0],"id":44,"left_children":[1,3,5,-1,-1,-1,-1],"loss_changes":[1.21911585E-1,2.0612538E-1,1.3977505E-1,0E0,0E0,0E0,0E0],"parents":[2147483647,0,0,1,1,2,2],"right_children":[2,4,6,-1,-1,-1,-1],"split_conditions":[3.2692307E-1,3.1411532E-1,1.1528292E0,-5.902777E-3,-1.691105E-1,4.2077523E-2,-2.8659841E-2],"split_indices":[20,20,7,0,0,0,0],"split_type":[0,0,0,0,0,0,0],"sum_hessian":[4.1759567E1,2.83706E1,1.33889675E1,2.7671722E1,6.988758E-1,1.0085525E1,3.3034427E0],"tree_param":{"num_deleted":"0","num_feature":"39","num_nodes":"7","size_leaf_vector":"1"}},{"base_weights":[-1.49757E-2,-1.9855194E-1,-1.2264608E-3,1.4472895E-3,-1.6761476E-1,3.267932E-2,-8.172298E-3],"categories":[],"categories_nodes":[],"categories_segments":[],"categories_sizes":[],"default_left":[0,0,0,0,0,0,0],"id":45,"left_children":[1,3,5,-1,-1,-1,-1],"loss_changes":[1.0631812E-1,2.16659E-1,1.13304354E-1,0E0,0E0,0E0,0E0],"parents":[2147483647,0,0,1,1,2,2],"right_children":[2,4,6,-1,-1,-1,-1],"split_conditions":[9.687485E-1,-1.2430886E0,9.8877907E-1,1.4472895E-3,-1.6761476E-1,3.267932E-2,-8.172298E-3],"split_indices":[17,4,17,0,0,0,0],"split_type":[0,0,0,0,0,0,0],"sum_hessian":[4.2166584E1,2.9249153E0,3.924167E1,1.878486E0,1.0464292E0,7.4868016E0,3.1754866E1],"tree_param":{"num_deleted":"0","num_feature":"39","num_nodes":"7","size_leaf_vector":"1"}},{"base_weights":[-1.53338015E-2,-3.1981442E-2,1.8120018E-1,-2.0328747E-1,9.388678E-2,-1.4435892E-2,5.7279274E-2],"categories":[],"categories_nodes":[],"categories_segments":[],"categories_sizes":[],"default_left":[0,0,0,0,0,0,0],"id":46,"left_children":[1,5,3,-1,-1,-1,-1],"loss_changes":[1.381758E-1,1.4212961E-1,3.7943327E-1,0E0,0E0,0E0,0E0],"parents":[2147483647,0,0,2,2,1,1],"right_children":[2,6,4,-1,-1,-1,-1],"split_conditions":[1.35889E0,1.0440341E0,1.0256625E0,-2.0328747E-1,9.388678E-2,-1.4435892E-2,5.7279274E-2],"split_indices":[13,24,23,0,0,0,0],"split_type":[0,0,0,0,0,0,0],"sum_hessian":[4.2234123E1,3.89472E1,3.2869196E0,4.3299264E-1,2.853927E0,3.6309208E1,2.6379957E0],"tree_param":{"num_deleted":"0","num_feature":"39","num_nodes":"7","size_leaf_vector":"1"}},{"base_weights":[-9.943908E-3,-2.829147E-1,3.5339575E-3,6.632664E-2,-2.1802469E-1,-2.6774293E-1,3.6569745E-3],"categories":[],"categories_nodes":[],"categories_segments":[],"categories_sizes":[],"default_left":[0,0,0,0,0,0,0],"id":47,"left_children":[1,3,5,-1,-1,-1,-1],"loss_changes":[1.5698686E-1,4.5456004E-1,3.1734043E-1,0E0,0E0,0E0,0E0],"parents":[2147483647,0,0,1,1,2,2],"right_children":[2,4,6,-1,-1,-1,-1],"split_conditions":[9.529901E-1,-9.328358E-2,-1.1111111E-1,6.632664E-2,-2.1802469E-1,-2.6774293E-1,3.6569745E-3],"split_indices":[24,15,15,0,0,0,0],"split_type":[0,0,0,0,0,0,0],"sum_hessian":[4.2605633E1,1.9972569E0,4.0608376E1,9.391612E-1,1.0580957E0,3.7823033E-1,4.0230145E1],"tree_param":{"num_deleted":"0","num_feature":"39","num_nodes":"7","size_leaf_vector":"1"}},{"base_weights":[-3.2400675E-3,1.9218307E-2,-1.8640414E-1,-1.10547036E-1,1.4424722E-2,2.9711392E-2,-1.13146E-2],"categories":[],"categories_nodes":[],"categories_segments":[],"categories_sizes":[],"default_left":[0,0,0,0,0,0,0],"id":48,"left_children":[1,5,3,-1,-1,-1,-1],"loss_changes":[1.7355992E-1,1.719545E-1,1.9878839E-1,0E0,0E0,0E0,0E0],"parents":[2147483647,0,0,2,2,1,1],"right_children":[2,6,4,-1,-1,-1,-1],"split_conditions":[5.683121E-1,3.09017E-1,1.0192068E0,-1.10547036E-1,1.4424722E-2,2.9711392E-2,-1.13146E-2],"split_indices":[29,26,23,0,0,0,0],"split_type":[0,0,0,0,0,0,0],"sum_hessian":[4.2145077E1,3.754692E1,4.598158E0,2.5789976E0,2.0191605E0,1.561406E1,2.193286E1],"tree_param":{"num_deleted":"0","num_feature":"39","num_nodes":"7","size_leaf_vector":"1"}},{"base_weights":[3.4430532E-3,1.5961805E-1,-1.6165236E-2,2.6646698E-1,2.553357E-2,-2.606097E-3,-1.7191571E-1],"categories":[],"categories_nodes":[],"categories_segments":[],"categories_sizes":[],"default_left":[0,0,0,0,0,0,0],"id":49,"left_children":[1,3,5,-1,-1,-1,-1],"loss_changes":[1.283269E-1,2.523832E-1,1.5439564E-1,0E0,0E0,0E0,0E0],"parents":[2147483647,0,0,1,1,2,2],"right_children":[2,4,6,-1,-1,-1,-1],"split_conditions":[3.6437247E-2,-2.996833E-1,1.0568322E0,2.6646698E-1,2.553357E-2,-2.606097E-3,-1.7191571E-1],"split_indices":[20,27,17,0,0,0,0],"split_type":[0,0,0,0,0,0,0],"sum_hessian":[4.185415E1,4.664332E0,3.718982E1,4.1794387E-1,4.246388E0,3.6712543E1,4.7727564E-1],"tree_param":{"num_deleted":"0","num_feature":"39","num_nodes":"7","size_leaf_vector":"1"}},{"base_weights":[-3.4284254E-3,1.0684779E-1,-3.5932213E-2,1.6559582E-2,1.5281576E-1,-3.2063503E-2,1.1913734E-2],"categories":[],"categories_nodes":[],"categories_segments":[],"categories_sizes":[],"default_left":[0,0,0,0,0,0,0],"id":50,"left_children":[1,3,5,-1,-1,-1,-1],"loss_changes":[1.5146019E-1,1.9942427E-1,1.766262E-1,0E0,0E0,0E0,0E0],"parents":[2147483647,0,0,1,1,2,2],"right_children":[2,4,6,-1,-1,-1,-1],"split_conditions":[-4.0717132E-2,1.0612005E0,9.7570956E-1,1.6559582E-2,1.5281576E-1,-3.2063503E-2,1.1913734E-2],"split_indices":[16,4,13,0,0,0,0],"split_type":[0,0,0,0,0,0,0],"sum_hessian":[4.2247334E1,9.607424E0,3.263991E1,8.535143E0,1.0722808E0,1.6816093E1,1.5823818E1],"tree_param":{"num_deleted":"0","num_feature":"39","num_nodes":"7","size_leaf_vector":"1"}},{"base_weights":[9.713696E-3,-1.4623794E-3,2.3927975E-1,2.8998116E-1,-1.3919039E-2,2.6904712E-3,-1.2653828E-1],"categories":[],"categories_nodes":[],"categories_segments":[],"categories_sizes":[],"default_left":[0,0,0,0,0,0,0],"id":51,"left_children":[1,5,3,-1,-1,-1,-1],"loss_changes":[1.07857674E-1,1.7704713E-1,4.088035E-1,0E0,0E0,0E0,0E0],"parents":[2147483647,0,0,2,2,1,1],"right_children":[2,6,4,-1,-1,-1,-1],"split_conditions":[1.4504593E-2,1.3443155E-2,1.4739384E-2,2.8998116E-1,-1.3919039E-2,2.6904712E-3,-1.2653828E-1],"split_indices":[11,11,12,0,0,0,0],"split_type":[0,0,0,0,0,0,0],"sum_hessian":[4.1964508E1,4.00234E1,1.9411082E0,5.39405E-1,1.4017032E0,3.9063114E1,9.602868E-1],"tree_param":{"num_deleted":"0","num_feature":"39","num_nodes":"7","size_leaf_vector":"1"}},{"base_weights":[-3.8729815E-3,4.5883455E-3,-3.8437283E-1,-2.542273E-1,1.5674433E-2,4.9185725E-3,-6.733918E-2],"categories":[],"categories_nodes":[],"categories_segments":[],"categories_sizes":[],"default_left":[0,0,0,0,0,0,0],"id":52,"left_children":[1,5,3,-1,-1,-1,-1],"loss_changes":[1.3483676E-1,1.1145791E-1,1.8652372E-1,0E0,0E0,0E0,0E0],"parents":[2147483647,0,0,2,2,1,1],"right_children":[2,6,4,-1,-1,-1,-1],"split_conditions":[1.63E0,1.740218E-2,1.1184624E0,-2.542273E-1,1.5674433E-2,4.9185725E-3,-6.733918E-2],"split_indices":[13,0,4,0,0,0,0],"split_type":[0,0,0,0,0,0,0],"sum_hessian":[4.1784775E1,4.08841E1,9.006733E-1,4.3168607E-1,4.689872E-1,3.888909E1,1.9950135E0],"tree_param":{"num_deleted":"0","num_feature":"39","num_nodes":"7","size_leaf_vector":"1"}},{"base_weights":[8.3167826E-5,-1.1389741E-1,2.6713686E-2,1.6797915E-2,-1.05804056E-1,-2.784725E-2,2.14279E-2],"categories":[],"categories_nodes":[],"categories_segments":[],"categories_sizes":[],"default_left":[0,0,0,0,0,0,0],"id":53,"left_children":[1,3,5,-1,-1,-1,-1],"loss_changes":[1.2603562E-1,3.2150316E-1,1.8164E-1,0E0,0E0,0E0,0E0],"parents":[2147483647,0,0,1,1,2,2],"right_children":[2,4,6,-1,-1,-1,-1],"split_conditions":[6.8303654E-3,5.4481085E-3,-1.4421314E-1,1.6797915E-2,-1.05804056E-1,-2.784725E-2,2.14279E-2],"split_indices":[3,11,27,0,0,0,0],"split_type":[0,0,0,0,0,0,0],"sum_hessian":[4.15211E1,7.8524647E0,3.3668633E1,4.5991282E0,3.2533364E0,9.17828E0,2.4490355E1],"tree_param":{"num_deleted":"0","num_feature":"39","num_nodes":"7","size_leaf_vector":"1"}},{"base_weights":[-3.8790102E-3,4.795468E-2,-7.046739E-2,-9.0232395E-2,-2.1833435E-3,3.2102454E-2,-2.6117481E-2],"categories":[],"categories_nodes":[],"categories_segments":[],"categories_sizes":[],"default_left":[0,0,0,0,0,0,0],"id":54,"left_children":[1,5,3,-1,-1,-1,-1],"loss_changes":[1.4383852E-1,1.8857305E-1,2.6644087E-1,0E0,0E0,0E0,0E0],"parents":[2147483647,0,0,2,2,1,1],"right_children":[2,6,4,-1,-1,-1,-1],"split_conditions":[1.024283E0,1.1954993E-2,1.0243063E0,-9.0232395E-2,-2.1833435E-3,3.2102454E-2,-2.6117481E-2],"split_indices":[7,5,22,0,0,0,0],"split_type":[0,0,0,0,0,0,0],"sum_hessian":[4.1648956E1,2.3414995E1,1.8233961E1,3.8989801E0,1.4334981E1,1.627368E1,7.1413164E0],"tree_param":{"num_deleted":"0","num_feature":"39","num_nodes":"7","size_leaf_vector":"1"}},{"base_weights":[3.852312E-4,3.1390575E-1,-6.4580967E-3,-9.3118705E-2,8.9444756E-4,1.8860684E-1,3.2949415E-3],"categories":[],"categories_nodes":[],"categories_segments":[],"categories_sizes":[],"default_left":[0,0,0,0,0,0,0],"id":55,"left_children":[1,5,3,-1,-1,-1,-1],"loss_changes":[8.9962214E-2,8.5519835E-2,1.1825003E-1,0E0,0E0,0E0,0E0],"parents":[2147483647,0,0,2,2,1,1],"right_children":[2,6,4,-1,-1,-1,-1],"split_conditions":[-2.5029749E-2,-1.9573979E0,-1.6823275E-2,-9.3118705E-2,8.9444756E-4,1.8860684E-1,3.2949415E-3],"split_indices":[0,4,0,0,0,0,0],"split_type":[0,0,0,0,0,0,0],"sum_hessian":[4.1812824E1,8.853262E-1,4.0927498E1,1.2219076E0,3.9705593E1,4.2592105E-1,4.5940515E-1],"tree_param":{"num_deleted":"0","num_feature":"39","num_nodes":"7","size_leaf_vector":"1"}},{"base_weights":[1.3675528E-2,7.108882E-2,-4.883879E-2,2.976556E-2,-1.0993945E-1,5.7545993E-3,-7.3189154E-2],"categories":[],"categories_nodes":[],"categories_segments":[],"categories_sizes":[],"default_left":[0,0,0,0,0,0,0],"id":56,"left_children":[1,3,5,-1,-1,-1,-1],"loss_changes":[1.5114498E-1,2.7476352E-1,2.6920533E-1,0E0,0E0,0E0,0E0],"parents":[2147483647,0,0,1,1,2,2],"right_children":[2,4,6,-1,-1,-1,-1],"split_conditions":[7.847447E-3,1.3628547E-1,1.124044E0,2.976556E-2,-1.0993945E-1,5.7545993E-3,-7.3189154E-2],"split_indices":[11,16,13,0,0,0,0],"split_type":[0,0,0,0,0,0,0],"sum_hessian":[4.2086956E1,2.1943457E1,2.01435E1,2.0614668E1,1.3287886E0,1.4954684E1,5.188815E0],"tree_param":{"num_deleted":"0","num_feature":"39","num_nodes":"7","size_leaf_vector":"1"}},{"base_weights":[7.182237E-4,-8.754318E-2,4.143148E-2,1.3459614E-1,-3.478462E-2,-1.7617238E-1,1.5512742E-2],"categories":[],"categories_nodes":[],"categories_segments":[],"categories_sizes":[],"default_left":[0,0,0,0,0,0,0],"id":57,"left_children":[1,3,5,-1,-1,-1,-1],"loss_changes":[1.5008904E-1,2.0474127E-1,1.8877609E-1,0E0,0E0,0E0,0E0],"parents":[2147483647,0,0,1,1,2,2],"right_children":[2,4,6,-1,-1,-1,-1],"split_conditions":[8.695652E-1,4.740999E-4,3.8329346E-4,1.3459614E-1,-3.478462E-2,-1.7617238E-1,1.5512742E-2],"split_indices":[13,14,14,0,0,0,0],"split_type":[0,0,0,0,0,0,0],"sum_hessian":[4.175569E1,1.3171933E1,2.858376E1,6.6125363E-1,1.2510679E1,4.5613542E-1,2.8127625E1],"tree_param":{"num_deleted":"0","num_feature":"39","num_nodes":"7","size_leaf_vector":"1"}},{"base_weights":[-1.9984571E-3,-1.808779E-1,3.3410687E-3,4.432323E-2,-5.079109E-3],"categories":[],"categories_nodes":[],"categories_segments":[],"categories_sizes":[],"default_left":[0,0,0,0,0],"id":58,"left_children":[1,-1,3,-1,-1],"loss_changes":[1.3468243E-1,0E0,1.21928416E-1,0E0,0E0],"parents":[2147483647,0,0,2,2],"right_children":[2,-1,4,-1,-1],"split_conditions":[4.6960726E-1,-1.808779E-1,-1.5041242E0,4.432323E-2,-5.079109E-3],"split_indices":[7,0,4,0,0],"split_type":[0,0,0,0,0],"sum_hessian":[4.1676514E1,3.5658795E-1,4.1319927E1,5.079469E0,3.6240456E1],"tree_param":{"num_deleted":"0","num_feature":"39","num_nodes":"5","size_leaf_vector":"1"}},{"base_weights":[7.9216035E-3,4.5067605E-2,-6.346741E-2,1.24047846E-1,-3.0413933E-2,6.379956E-2,-2.6736222E-3],"categories":[],"categories_nodes":[],"categories_segments":[],"categories_sizes":[],"default_left":[0,0,0,0,0,0,0],"id":59,"left_children":[1,5,3,-1,-1,-1,-1],"loss_changes":[1.1193707E-1,2.5274086E-1,2.6480028E-1,0E0,0E0,0E0,0E0],"parents":[2147483647,0,0,2,2,1,1],"right_children":[2,6,4,-1,-1,-1,-1],"split_conditions":[1.3E1,7.998867E-1,-8.271187E-2,1.24047846E-1,-3.0413933E-2,6.379956E-2,-2.6736222E-3],"split_indices":[30,7,16,0,0,0,0],"split_type":[0,0,0,0,0,0,0],"sum_hessian":[4.2194576E1,2.7762291E1,1.4432285E1,1.0603502E0,1.3371935E1,6.7382226E0,2.1024069E1],"tree_param":{"num_deleted":"0","num_feature":"39","num_nodes":"7","size_leaf_vector":"1"}},{"base_weights":[-3.6223165E-3,1.4841069E-2,-1.9112895E-1,1.8199641E-2,-1.330854E-1,1.0362017E-1,1.2737842E-3],"categories":[],"categories_nodes":[],"categories_segments":[],"categories_sizes":[],"default_left":[0,0,0,0,0,0,0],"id":60,"left_children":[1,5,3,-1,-1,-1,-1],"loss_changes":[1.4489809E-1,1.333922E-1,2.4083228E-1,0E0,0E0,0E0,0E0],"parents":[2147483647,0,0,2,2,1,1],"right_children":[2,6,4,-1,-1,-1,-1],"split_conditions":[2.3955595E-1,-7.19757E-2,1.2746698E-3,1.8199641E-2,-1.330854E-1,1.0362017E-1,1.2737842E-3],"split_indices":[27,2,14,0,0,0,0],"split_type":[0,0,0,0,0,0,0],"sum_hessian":[4.1800346E1,3.8058735E1,3.7416117E0,1.8812096E0,1.8604022E0,1.1637279E0,3.6895008E1],"tree_param":{"num_deleted":"0","num_feature":"39","num_nodes":"7","size_leaf_vector":"1"}},{"base_weights":[-5.086303E-3,-3.0763634E-2,1.6195695E-1,6.6709524E-4,1.110077E-1,-1.1535126E-1,-5.527095E-3],"categories":[],"categories_nodes":[],"categories_segments":[],"categories_sizes":[],"default_left":[0,0,0,0,0,0,0],"id":61,"left_children":[1,5,3,-1,-1,-1,-1],"loss_changes":[1.7825143E-1,1.5673631E-1,1.8493502E-1,0E0,0E0,0E0,0E0],"parents":[2147483647,0,0,2,2,1,1],"right_children":[2,6,4,-1,-1,-1,-1],"split_conditions":[1.1528661E0,9.5069706E-1,2.5316456E-1,6.6709524E-4,1.110077E-1,-1.1535126E-1,-5.527095E-3],"split_indices":[23,24,20,0,0,0,0],"split_type":[0,0,0,0,0,0,0],"sum_hessian":[4.155624E1,3.6030315E1,5.525924E0,3.1427782E0,2.3831463E0,1.1910107E0,3.4839306E1],"tree_param":{"num_deleted":"0","num_feature":"39","num_nodes":"7","size_leaf_vector":"1"}},{"base_weights":[-8.913116E-3,6.2162066E-3,-1.6379558E-1,5.9389565E-2,-9.993248E-2,-4.1156462E-3,4.6660293E-2],"categories":[],"categories_nodes":[],"categories_segments":[],"categories_sizes":[],"default_left":[0,0,0,0,0,0,0],"id":62,"left_children":[1,5,3,-1,-1,-1,-1],"loss_changes":[9.781233E-2,1.1391606E-1,2.3040736E-1,0E0,0E0,0E0,0E0],"parents":[2147483647,0,0,2,2,1,1],"right_children":[2,6,4,-1,-1,-1,-1],"split_conditions":[8.2417583E-1,7.1707314E-1,9.0853286E-1,5.9389565E-2,-9.993248E-2,-4.1156462E-3,4.6660293E-2],"split_indices":[19,19,13,0,0,0,0],"split_type":[0,0,0,0,0,0,0],"sum_hessian":[4.168137E1,3.797725E1,3.704121E0,1.1832869E0,2.5208342E0,3.351365E1,4.4636E0],"tree_param":{"num_deleted":"0","num_feature":"39","num_nodes":"7","size_leaf_vector":"1"}},{"base_weights":[2.3584522E-3,-3.0265287E-3,1.497541E-1,-7.9062276E-2,2.0353512E-3],"categories":[],"categories_nodes":[],"categories_segments":[],"categories_sizes":[],"default_left":[0,0,0,0,0],"id":63,"left_children":[1,3,-1,-1,-1],"loss_changes":[1.1239935E-1,1.06387965E-1,0E0,0E0,0E0],"parents":[2147483647,0,0,1,1],"right_children":[2,4,-1,-1,-1],"split_conditions":[9.5652175E-1,4.3466194E-3,1.497541E-1,-7.9062276E-2,2.0353512E-3],"split_indices":[19,12,0,0,0],"split_type":[0,0,0,0,0],"sum_hessian":[4.1715767E1,4.1278965E1,4.368012E-1,1.4892064E0,3.978976E1],"tree_param":{"num_deleted":"0","num_feature":"39","num_nodes":"5","size_leaf_vector":"1"}},{"base_weights":[7.0808292E-3,-2.2080667E-2,9.2494175E-2,5.573932E-2,-8.408204E-2,1.793949E-3,-6.7303866E-2],"categories":[],"categories_nodes":[],"categories_segments":[],"categories_sizes":[],"default_left":[0,0,0,0,0,0,0],"id":64,"left_children":[1,5,3,-1,-1,-1,-1],"loss_changes":[1.0416012E-1,1.7785801E-1,3.7444454E-1,0E0,0E0,0E0,0E0],"parents":[2147483647,0,0,2,2,1,1],"right_children":[2,6,4,-1,-1,-1,-1],"split_conditions":[2.1136887E-3,2E0,1.4E1,5.573932E-2,-8.408204E-2,1.793949E-3,-6.7303866E-2],"split_indices":[14,28,30,0,0,0,0],"split_type":[0,0,0,0,0,0,0],"sum_hessian":[4.178018E1,3.1146149E1,1.0634032E1,8.50306E0,2.1309724E0,2.7368504E1,3.7776449E0],"tree_param":{"num_deleted":"0","num_feature":"39","num_nodes":"7","size_leaf_vector":"1"}},{"base_weights":[-7.071527E-3,1.5317978E-1,-1.2299116E-2,-2.2080611E-2,7.270747E-3],"categories":[],"categories_nodes":[],"categories_segments":[],"categories_sizes":[],"default_left":[0,0,0,0,0],"id":65,"left_children":[1,-1,3,-1,-1],"loss_changes":[1.1301118E-1,0E0,9.3201354E-2,0E0,0E0],"parents":[2147483647,0,0,2,2],"right_children":[2,-1,4,-1,-1],"split_conditions":[-5.6149644E-1,1.5317978E-1,-3.2295373E-1,-2.2080611E-2,7.270747E-3],"split_indices":[6,0,4,0,0],"split_type":[0,0,0,0,0],"sum_hessian":[4.169989E1,4.040599E-1,4.129583E1,1.5404755E1,2.5891077E1],"tree_param":{"num_deleted":"0","num_feature":"39","num_nodes":"5","size_leaf_vector":"1"}},{"base_weights":[1.4581171E-2,-3.54321E-1,2.2447737E-2,1.296153E-2,-2.2550677E-1,-6.681517E-2,9.724768E-3],"categories":[],"categories_nodes":[],"categories_segments":[],"categories_sizes":[],"default_left":[0,0,0,0,0,0,0],"id":66,"left_children":[1,3,5,-1,-1,-1,-1],"loss_changes":[1.2148945E-1,1.3988784E-1,1.0180498E-1,0E0,0E0,0E0,0E0],"parents":[2147483647,0,0,1,1,2,2],"right_children":[2,4,6,-1,-1,-1,-1],"split_conditions":[3.8329346E-4,6.1548026E-3,6.098921E-1,1.296153E-2,-2.2550677E-1,-6.681517E-2,9.724768E-3],"split_indices":[14,3,22,0,0,0,0],"split_type":[0,0,0,0,0,0,0],"sum_hessian":[4.1902817E1,8.6353654E-1,4.103928E1,4.3689027E-1,4.2664626E-1,1.6053529E0,3.943393E1],"tree_param":{"num_deleted":"0","num_feature":"39","num_nodes":"7","size_leaf_vector":"1"}},{"base_weights":[5.574203E-3,-1.7680167E-1,2.058013E-2,-9.7324714E-2,1.5838587E-1,4.0039336E-3,1.2467717E-1],"categories":[],"categories_nodes":[],"categories_segments":[],"categories_sizes":[],"default_left":[0,0,0,0,0,0,0],"id":67,"left_children":[1,3,5,-1,-1,-1,-1],"loss_changes":[1.1403419E-1,3.347409E-1,1.09438255E-1,0E0,0E0,0E0,0E0],"parents":[2147483647,0,0,1,1,2,2],"right_children":[2,4,6,-1,-1,-1,-1],"split_conditions":[8.0795634E-1,1.0323801E-2,5.4E1,-9.7324714E-2,1.5838587E-1,4.0039336E-3,1.2467717E-1],"split_indices":[23,12,30,0,0,0,0],"split_type":[0,0,0,0,0,0,0],"sum_hessian":[4.1682716E1,3.156972E0,3.8525745E1,2.613264E0,5.437078E-1,3.7852383E1,6.733643E-1],"tree_param":{"num_deleted":"0","num_feature":"39","num_nodes":"7","size_leaf_vector":"1"}},{"base_weights":[-3.161034E-3,9.620471E-2,-2.6071021E-2,1.4816542E-2,3.0719453E-1,-1.3058072E-2,3.9223276E-2],"categories":[],"categories_nodes":[],"categories_segments":[],"categories_sizes":[],"default_left":[0,0,0,0,0,0,0],"id":68,"left_children":[1,3,5,-1,-1,-1,-1],"loss_changes":[9.45807E-2,3.368438E-1,9.361414E-2,0E0,0E0,0E0,0E0],"parents":[2147483647,0,0,1,1,2,2],"right_children":[2,4,6,-1,-1,-1,-1],"split_conditions":[8.842864E-1,1.0502269E0,3.2E1,1.4816542E-2,3.0719453E-1,-1.3058072E-2,3.9223276E-2],"split_indices":[23,24,30,0,0,0,0],"split_type":[0,0,0,0,0,0,0],"sum_hessian":[4.1546177E1,7.772457E0,3.377372E1,7.4130216E0,3.5943562E-1,3.0382872E1,3.3908489E0],"tree_param":{"num_deleted":"0","num_feature":"39","num_nodes":"7","size_leaf_vector":"1"}},{"base_weights":[-5.4594474E-3,-2.4901953E-2,1.1377678E-1,1.2480962E-1,-1.2242024E-2,-4.2550038E-3,-1.3090104E-1],"categories":[],"categories_nodes":[],"categories_segments":[],"categories_sizes":[],"default_left":[0,0,0,0,0,0,0],"id":69,"left_children":[1,5,3,-1,-1,-1,-1],"loss_changes":[9.640351E-2,1.5726033E-1,2.7442732E-1,0E0,0E0,0E0,0E0],"parents":[2147483647,0,0,2,2,1,1],"right_children":[2,6,4,-1,-1,-1,-1],"split_conditions":[1.1680103E-2,1.8195003E-2,-9.3946934E-2,1.2480962E-1,-1.2242024E-2,-4.2550038E-3,-1.3090104E-1],"split_indices":[11,3,27,0,0,0,0],"split_type":[0,0,0,0,0,0,0],"sum_hessian":[4.1587494E1,3.576896E1,5.8185334E0,1.9590647E0,3.859469E0,3.488059E1,8.8837075E-1],"tree_param":{"num_deleted":"0","num_feature":"39","num_nodes":"7","size_leaf_vector":"1"}},{"base_weights":[5.062927E-3,2.5723487E-2,-1.03634626E-1,4.462038E-3,2.376338E-1,-1.2815747E-1,2.749264E-3],"categories":[],"categories_nodes":[],"categories_segments":[],"categories_sizes":[],"default_left":[0,0,0,0,0,0,0],"id":70,"left_children":[1,3,5,-1,-1,-1,-1],"loss_changes":[9.387509E-2,2.9122537E-1,2.451961E-1,0E0,0E0,0E0,0E0],"parents":[2147483647,0,0,1,1,2,2],"right_children":[2,4,6,-1,-1,-1,-1],"split_conditions":[4.13845E-2,1.1625514E-1,4.9191225E-2,4.462038E-3,2.376338E-1,-1.2815747E-1,2.749264E-3],"split_indices":[2,15,2,0,0,0,0],"split_type":[0,0,0,0,0,0,0],"sum_hessian":[4.180197E1,3.5137436E1,6.664538E0,3.4662506E1,4.7492996E-1,1.7110459E0,4.953492E0],"tree_param":{"num_deleted":"0","num_feature":"39","num_nodes":"7","size_leaf_vector":"1"}},{"base_weights":[-7.932685E-3,3.2750738E-1,-1.5602169E-2,-1.0753346E-1,2.2861601E-1,-2.9700347E-3,-1.13973245E-1],"categories":[],"categories_nodes":[],"categories_segments":[],"categories_sizes":[],"default_left":[0,0,0,0,0,0,0],"id":71,"left_children":[1,3,5,-1,-1,-1,-1],"loss_changes":[1.0745227E-1,2.8371996E-1,8.444991E-2,0E0,0E0,0E0,0E0],"parents":[2147483647,0,0,1,1,2,2],"right_children":[2,4,6,-1,-1,-1,-1],"split_conditions":[4.4431225E-3,3.7068966E-1,1.4091527E-1,-1.0753346E-1,2.2861601E-1,-2.9700347E-3,-1.13973245E-1],"split_indices":[3,19,15,0,0,0,0],"split_type":[0,0,0,0,0,0,0],"sum_hessian":[4.1818295E1,9.230977E-1,4.08952E1,3.5909435E-1,5.6400335E-1,4.028364E1,6.115578E-1],"tree_param":{"num_deleted":"0","num_feature":"39","num_nodes":"7","size_leaf_vector":"1"}},{"base_weights":[8.559193E-4,-2.0983206E-1,1.1853316E-2,-2.5759876E-1,-1.7653529E-2,1.0729844E-3,9.939925E-2],"categories":[],"categories_nodes":[],"categories_segments":[],"categories_sizes":[],"default_left":[0,0,0,0,0,0,0],"id":72,"left_children":[1,3,5,-1,-1,-1,-1],"loss_changes":[9.735255E-2,2.0372222E-1,1.05734944E-1,0E0,0E0,0E0,0E0],"parents":[2147483647,0,0,1,1,2,2],"right_children":[2,4,6,-1,-1,-1,-1],"split_conditions":[-3.5556367E-1,9.7747856E-1,1.6988341E0,-2.5759876E-1,-1.7653529E-2,1.0729844E-3,9.939925E-2],"split_indices":[27,24,7,0,0,0,0],"split_type":[0,0,0,0,0,0,0],"sum_hessian":[4.2052677E1,2.0737772E0,3.9978897E1,3.7943855E-1,1.6943387E0,3.8986927E1,9.919731E-1],"tree_param":{"num_deleted":"0","num_feature":"39","num_nodes":"7","size_leaf_vector":"1"}},{"base_weights":[6.260314E-3,-4.4676304E-2,7.071408E-2,-1.999593E-2,5.1800165E-2,-2.3810135E-2,7.766982E-2],"categories":[],"categories_nodes":[],"categories_segments":[],"categories_sizes":[],"default_left":[0,0,0,0,0,0,0],"id":73,"left_children":[1,5,3,-1,-1,-1,-1],"loss_changes":[1.360131E-1,2.465338E-1,2.5841478E-1,0E0,0E0,0E0,0E0],"parents":[2147483647,0,0,2,2,1,1],"right_children":[2,6,4,-1,-1,-1,-1],"split_conditions":[4.8341233E-1,1.2312276E0,6.9085886E-3,-1.999593E-2,5.1800165E-2,-2.3810135E-2,7.766982E-2],"split_indices":[18,13,12,0,0,0,0],"split_type":[0,0,0,0,0,0,0],"sum_hessian":[4.1403034E1,2.3122456E1,1.828058E1,7.806258E0,1.0474321E1,2.0748821E1,2.3736353E0],"tree_param":{"num_deleted":"0","num_feature":"39","num_nodes":"7","size_leaf_vector":"1"}},{"base_weights":[-1.0510471E-2,2.5633276E-2,-9.600786E-2,-1.2297805E-1,-4.282707E-3,4.1093463E-3,1.868845E-1],"categories":[],"categories_nodes":[],"categories_segments":[],"categories_sizes":[],"default_left":[0,0,0,0,0,0,0],"id":74,"left_children":[1,5,3,-1,-1,-1,-1],"loss_changes":[1.2942624E-1,2.0916341E-1,3.2029715E-1,0E0,0E0,0E0,0E0],"parents":[2147483647,0,0,2,2,1,1],"right_children":[2,6,4,-1,-1,-1,-1],"split_conditions":[1.2224718E-2,1.0397193E0,1.3040751E-2,-1.2297805E-1,-4.282707E-3,4.1093463E-3,1.868845E-1],"split_indices":[3,17,3,0,0,0,0],"split_type":[0,0,0,0,0,0,0],"sum_hessian":[4.1848747E1,2.9413591E1,1.2435156E1,2.5474102E0,9.887746E0,2.8853436E1,5.601557E-1],"tree_param":{"num_deleted":"0","num_feature":"39","num_nodes":"7","size_leaf_vector":"1"}},{"base_weights":[-1.0525731E-2,3.115551E-3,-1.8771587E-1,-1.4418155E-1,1.239608E-2,-1.9647274E-3,1.5693264E-1],"categories":[],"categories_nodes":[],"categories_segments":[],"categories_sizes":[],"default_left":[0,0,0,0,0,0,0],"id":75,"left_children":[1,5,3,-1,-1,-1,-1],"loss_changes":[1.0016157E-1,1.9473176E-1,2.0053852E-1,0E0,0E0,0E0,0E0],"parents":[2147483647,0,0,2,2,1,1],"right_children":[2,6,4,-1,-1,-1,-1],"split_conditions":[1.2087799E0,1.1936213E0,1.2465754E0,-1.4418155E-1,1.239608E-2,-1.9647274E-3,1.5693264E-1],"split_indices":[23,23,13,0,0,0,0],"split_type":[0,0,0,0,0,0,0],"sum_hessian":[4.137404E1,3.8422405E1,2.9516327E0,1.287643E0,1.6639898E0,3.773094E1,6.9146633E-1],"tree_param":{"num_deleted":"0","num_feature":"39","num_nodes":"7","size_leaf_vector":"1"}},{"base_weights":[9.016014E-3,5.2306037E-2,-3.0726913E-2,-3.4749652E-3,-1.8919848E-1,1.5176998E-3,8.427996E-2],"categories":[],"categories_nodes":[],"categories_segments":[],"categories_sizes":[],"default_left":[0,0,0,0,0,0,0],"id":76,"left_children":[1,5,3,-1,-1,-1,-1],"loss_changes":[7.168337E-2,2.1613336E-1,2.4924731E-1,0E0,0E0,0E0,0E0],"parents":[2147483647,0,0,2,2,1,1],"right_children":[2,6,4,-1,-1,-1,-1],"split_conditions":[1.2746698E-3,1.124487E-3,3.8E1,-3.4749652E-3,-1.8919848E-1,1.5176998E-3,8.427996E-2],"split_indices":[14,14,30,0,0,0,0],"split_type":[0,0,0,0,0,0,0],"sum_hessian":[4.1636337E1,1.9935427E1,2.1700909E1,2.1045158E1,6.557495E-1,1.6546343E1,3.3890846E0],"tree_param":{"num_deleted":"0","num_feature":"39","num_nodes":"7","size_leaf_vector":"1"}},{"base_weights":[7.1402984E-3,3.3344474E-1,-3.8667535E-3,-1.331839E-1,8.251741E-4,1.761557E-1,3.1647786E-2],"categories":[],"categories_nodes":[],"categories_segments":[],"categories_sizes":[],"default_left":[0,0,0,0,0,0,0],"id":77,"left_children":[1,5,3,-1,-1,-1,-1],"loss_changes":[1.5046555E-1,7.848753E-2,1.1878805E-1,0E0,0E0,0E0,0E0],"parents":[2147483647,0,0,2,2,1,1],"right_children":[2,6,4,-1,-1,-1,-1],"split_conditions":[-6.934629E-2,5.050505E-1,-6.163828E-2,-1.331839E-1,8.251741E-4,1.761557E-1,3.1647786E-2],"split_indices":[2,29,2,0,0,0,0],"split_type":[0,0,0,0,0,0,0],"sum_hessian":[4.1816826E1,1.3566328E0,4.0460194E1,5.894298E-1,3.987076E1,6.2938005E-1,7.272528E-1],"tree_param":{"num_deleted":"0","num_feature":"39","num_nodes":"7","size_leaf_vector":"1"}},{"base_weights":[5.651714E-3,5.5958986E-2,-5.354333E-2,-3.9184265E-2,3.6099285E-2,4.137426E-2,-1.2096374E-2],"categories":[],"categories_nodes":[],"categories_segments":[],"categories_sizes":[],"default_left":[0,0,0,0,0,0,0],"id":78,"left_children":[1,5,3,-1,-1,-1,-1],"loss_changes":[1.2443959E-1,1.7979258E-1,2.5961706E-1,0E0,0E0,0E0,0E0],"parents":[2147483647,0,0,2,2,1,1],"right_children":[2,6,4,-1,-1,-1,-1],"split_conditions":[-8.5896775E-3,1.0080165E0,1.9381443E-2,-3.9184265E-2,3.6099285E-2,4.137426E-2,-1.2096374E-2],"split_indices":[27,24,2,0,0,0,0],"split_type":[0,0,0,0,0,0,0],"sum_hessian":[4.176573E1,2.2584324E1,1.9181406E1,1.3279835E1,5.9015713E0,1.217508E1,1.0409244E1],"tree_param":{"num_deleted":"0","num_feature":"39","num_nodes":"7","size_leaf_vector":"1"}},{"base_weights":[-1.2317473E-3,-1.4371577E-1,1.4105095E-2,-9.0301685E-2,8.113788E-2,1.2300367E-2,-3.4486014E-2],"categories":[],"categories_nodes":[],"categories_segments":[],"categories_sizes":[],"default_left":[0,0,0,0,0,0,0],"id":79,"left_children":[1,3,5,-1,-1,-1,-1],"loss_changes":[9.099535E-2,2.6700947E-1,1.3151708E-1,0E0,0E0,0E0,0E0],"parents":[2147483647,0,0,1,1,2,2],"right_children":[2,4,6,-1,-1,-1,-1],"split_conditions":[3.448276E-2,1.2794404E-2,1.4242704E-2,-9.0301685E-2,8.113788E-2,1.2300367E-2,-3.4486014E-2],"split_indices":[21,3,3,0,0,0,0],"split_type":[0,0,0,0,0,0,0],"sum_hessian":[4.1580368E1,4.0365744E0,3.7543793E1,2.9250574E0,1.1115172E0,3.1066687E1,6.477105E0],"tree_param":{"num_deleted":"0","num_feature":"39","num_nodes":"7","size_leaf_vector":"1"}},{"base_weights":[-6.9946493E-4,5.0147213E-3,-1.6164139E-1,-2.1737302E-4,1.8397826E-1],"categories":[],"categories_nodes":[],"categories_segments":[],"categories_sizes":[],"default_left":[0,0,0,0,0],"id":80,"left_children":[1,3,-1,-1,-1],"loss_changes":[1.2767541E-1,1.4351787E-1,0E0,0E0,0E0],"parents":[2147483647,0,0,1,1],"right_children":[2,4,-1,-1,-1],"split_conditions":[6.7E1,5.6E1,-1.6164139E-1,-2.1737302E-4,1.8397826E-1],"split_indices":[30,30,0,0,0],"split_type":[0,0,0,0,0],"sum_hessian":[4.123304E1,4.0810303E1,4.2273897E-1,4.0439224E1,3.7107602E-1],"tree_param":{"num_deleted":"0","num_feature":"39","num_nodes":"5","size_leaf_vector":"1"}},{"base_weights":[4.4375295E-3,-7.139952E-3,2.1905735E-1,-3.3085827E-2,1.642903E-1,-6.067643E-3,5.150684E-2],"categories":[],"categories_nodes":[],"categories_segments":[],"categories_sizes":[],"default_left":[0,0,0,0,0,0,0],"id":81,"left_children":[1,5,3,-1,-1,-1,-1],"loss_changes":[1.0287009E-1,9.2576854E-2,2.3193124E-1,0E0,0E0,0E0,0E0],"parents":[2147483647,0,0,2,2,1,1],"right_children":[2,6,4,-1,-1,-1,-1],"split_conditions":[1.4804597E-1,1.466025E0,9.17954E-3,-3.3085827E-2,1.642903E-1,-6.067643E-3,5.150684E-2],"split_indices":[16,7,11,0,0,0,0],"split_type":[0,0,0,0,0,0,0],"sum_hessian":[4.1325706E1,3.9217064E1,2.1086454E0,1.0581018E0,1.0505435E0,3.6549843E1,2.6672204E0],"tree_param":{"num_deleted":"0","num_feature":"39","num_nodes":"7","size_leaf_vector":"1"}},{"base_weights":[1.0697578E-2,-1.3516995E-1,1.6161308E-2,1.0906206E-1,1.7369109E-3],"categories":[],"categories_nodes":[],"categories_segments":[],"categories_sizes":[],"default_left":[0,0,0,0,0],"id":82,"left_children":[1,-1,3,-1,-1],"loss_changes":[1.050689E-1,0E0,1.4826381E-1,0E0,0E0],"parents":[2147483647,0,0,2,2],"right_children":[2,-1,4,-1,-1],"split_conditions":[-5.244147E-2,-1.3516995E-1,-2.217837E0,1.0906206E-1,1.7369109E-3],"split_indices":[1,0,4,0,0],"split_type":[0,0,0,0,0],"sum_hessian":[4.1617477E1,4.741107E-1,4.1143368E1,1.1738324E0,3.9969536E1],"tree_param":{"num_deleted":"0","num_feature":"39","num_nodes":"5","size_leaf_vector":"1"}},{"base_weights":[-1.3841366E-3,-1.2129545E-1,3.7663619E-3,1.7973047E-2,-1.0855237E-2],"categories":[],"categories_nodes":[],"categories_segments":[],"categories_sizes":[],"default_left":[0,0,0,0,0],"id":83,"left_children":[1,-1,3,-1,-1],"loss_changes":[8.639393E-2,0E0,9.227765E-2,0E0,0E0],"parents":[2147483647,0,0,2,2],"right_children":[2,-1,4,-1,-1],"split_conditions":[2.792793E-1,-1.2129545E-1,4.5459837E-1,1.7973047E-2,-1.0855237E-2],"split_indices":[18,0,18,0,0],"split_type":[0,0,0,0,0],"sum_hessian":[4.132735E1,5.1119554E-1,4.0816154E1,1.6968018E1,2.3848137E1],"tree_param":{"num_deleted":"0","num_feature":"39","num_nodes":"5","size_leaf_vector":"1"}},{"base_weights":[2.1552374E-3,9.3927635E-3,-3.2688516E-1,-2.3908901E-1,1.0160413E-2,-3.732343E-4,7.5869225E-2],"categories":[],"categories_nodes":[],"categories_segments":[],"categories_sizes":[],"default_left":[0,0,0,0,0,0,0],"id":84,"left_children":[1,5,3,-1,-1,-1,-1],"loss_changes":[9.79848E-2,1.0512339E-1,1.5195206E-1,0E0,0E0,0E0,0E0],"parents":[2147483647,0,0,2,2,1,1],"right_children":[2,6,4,-1,-1,-1,-1],"split_conditions":[6.1059445E-1,5.848619E-1,9.283579E-3,-2.3908901E-1,1.0160413E-2,-3.732343E-4,7.5869225E-2],"split_indices":[29,29,3,0,0,0,0],"split_type":[0,0,0,0,0,0,0],"sum_hessian":[4.1211823E1,4.0336735E1,8.7508714E-1,3.7405E-1,5.010371E-1,3.866119E1,1.6755458E0],"tree_param":{"num_deleted":"0","num_feature":"39","num_nodes":"7","size_leaf_vector":"1"}},{"base_weights":[-9.322684E-4,5.0176915E-2,-5.078071E-2,-2.3347975E-1,-1.0448667E-2,-1.6817877E-2,3.848867E-2],"categories":[],"categories_nodes":[],"categories_segments":[],"categories_sizes":[],"default_left":[0,0,0,0,0,0,0],"id":85,"left_children":[1,5,3,-1,-1,-1,-1],"loss_changes":[1.0567164E-1,1.713885E-1,2.4190226E-1,0E0,0E0,0E0,0E0],"parents":[2147483647,0,0,2,2,1,1],"right_children":[2,6,4,-1,-1,-1,-1],"split_conditions":[7.630154E-3,3.09017E-1,7.4720415E-3,-2.3347975E-1,-1.0448667E-2,-1.6817877E-2,3.848867E-2],"split_indices":[12,26,11,0,0,0,0],"split_type":[0,0,0,0,0,0,0],"sum_hessian":[4.1456116E1,2.046246E1,2.0993654E1,4.3363485E-1,2.056002E1,8.688773E0,1.1773686E1],"tree_param":{"num_deleted":"0","num_feature":"39","num_nodes":"7","size_leaf_vector":"1"}},{"base_weights":[-1.5271043E-2,2.8684738E-3,-1.329444E-1,-4.1493927E-3,1.2452054E-1,-1.3686886E-1,-4.1039693E-3],"categories":[],"categories_nodes":[],"categories_segments":[],"categories_sizes":[],"default_left":[0,0,0,0,0,0,0],"id":86,"left_children":[1,3,5,-1,-1,-1,-1],"loss_changes":[8.8241264E-2,2.4833852E-1,2.1349597E-1,0E0,0E0,0E0,0E0],"parents":[2147483647,0,0,1,1,2,2],"right_children":[2,4,6,-1,-1,-1,-1],"split_conditions":[1.0336264E0,1.0292271E0,1.039609E0,-4.1493927E-3,1.2452054E-1,-1.3686886E-1,-4.1039693E-3],"split_indices":[24,24,24,0,0,0,0],"split_type":[0,0,0,0,0,0,0],"sum_hessian":[4.1286186E1,3.577569E1,5.510499E0,3.4391666E1,1.384021E0,1.469528E0,4.040971E0],"tree_param":{"num_deleted":"0","num_feature":"39","num_nodes":"7","size_leaf_vector":"1"}},{"base_weights":[-5.701354E-3,-2.3401603E-2,1.7270605E-1,-1.5763633E-1,7.440871E-2,-4.2420505E-3,-1.333799E-1],"categories":[],"categories_nodes":[],"categories_segments":[],"categories_sizes":[],"default_left":[0,0,0,0,0,0,0],"id":87,"left_children":[1,5,3,-1,-1,-1,-1],"loss_changes":[1.3012357E-1,1.4571425E-1,1.9964883E-1,0E0,0E0,0E0,0E0],"parents":[2147483647,0,0,2,2,1,1],"right_children":[2,6,4,-1,-1,-1,-1],"split_conditions":[6.2025315E-1,5.890411E-1,-3.6813084E-3,-1.5763633E-1,7.440871E-2,-4.2420505E-3,-1.333799E-1],"split_indices":[21,21,0,0,0,0,0],"split_type":[0,0,0,0,0,0,0],"sum_hessian":[4.1214676E1,3.7506397E1,3.7082772E0,3.5724226E-1,3.3510349E0,3.6718994E1,7.8740335E-1],"tree_param":{"num_deleted":"0","num_feature":"39","num_nodes":"7","size_leaf_vector":"1"}},{"base_weights":[-4.858872E-3,-1.4809205E-1,9.11928E-3,-2.4667723E-1,-1.1137759E-2,1.5063529E-1,-6.7887704E-5],"categories":[],"categories_nodes":[],"categories_segments":[],"categories_sizes":[],"default_left":[0,0,0,0,0,0,0],"id":88,"left_children":[1,3,5,-1,-1,-1,-1],"loss_changes":[8.285492E-2,2.7526194E-1,1.7452137E-1,0E0,0E0,0E0,0E0],"parents":[2147483647,0,0,1,1,2,2],"right_children":[2,4,6,-1,-1,-1,-1],"split_conditions":[5.00619E-3,4.1126636E-1,5.0166356E-3,-2.4667723E-1,-1.1137759E-2,1.5063529E-1,-6.7887704E-5],"split_indices":[12,29,11,0,0,0,0],"split_type":[0,0,0,0,0,0,0],"sum_hessian":[4.131882E1,3.669235E0,3.7649586E1,5.0577146E-1,3.1634636E0,6.890763E-1,3.696051E1],"tree_param":{"num_deleted":"0","num_feature":"39","num_nodes":"7","size_leaf_vector":"1"}},{"base_weights":[-2.1888325E-3,9.697046E-2,-2.7792001E-2,1.3001789E-1,6.525254E-3,8.876332E-3,-2.8399456E-2],"categories":[],"categories_nodes":[],"categories_segments":[],"categories_sizes":[],"default_left":[0,0,0,0,0,0,0],"id":89,"left_children":[1,3,5,-1,-1,-1,-1],"loss_changes":[1.0614284E-1,2.1746317E-1,1.2855951E-1,0E0,0E0,0E0,0E0],"parents":[2147483647,0,0,1,1,2,2],"right_children":[2,4,6,-1,-1,-1,-1],"split_conditions":[8.46395E-2,4.2668602E-1,-8.5896775E-3,1.3001789E-1,6.525254E-3,8.876332E-3,-2.8399456E-2],"split_indices":[21,29,27,0,0,0,0],"split_type":[0,0,0,0,0,0,0],"sum_hessian":[4.1805454E1,8.567741E0,3.323771E1,1.5474977E0,7.0202436E0,1.7913507E1,1.5324203E1],"tree_param":{"num_deleted":"0","num_feature":"39","num_nodes":"7","size_leaf_vector":"1"}},{"base_weights":[6.990591E-3,-2.1330759E-1,1.8555174E-2,-1.0033524E-2,-2.461016E-1,3.3182513E-2,-2.4824792E-3],"categories":[],"categories_nodes":[],"categories_segments":[],"categories_sizes":[],"default_left":[0,0,0,0,0,0,0],"id":90,"left_children":[1,3,5,-1,-1,-1,-1],"loss_changes":[1.04680926E-1,2.2381379E-1,9.7150885E-2,0E0,0E0,0E0,0E0],"parents":[2147483647,0,0,1,1,2,2],"right_children":[2,4,6,-1,-1,-1,-1],"split_conditions":[-3.5556367E-1,9.5105654E-1,-4.032258E-2,-1.0033524E-2,-2.461016E-1,3.3182513E-2,-2.4824792E-3],"split_indices":[27,25,16,0,0,0,0],"split_type":[0,0,0,0,0,0,0],"sum_hessian":[4.1114407E1,2.0386925E0,3.9075714E1,1.5840546E0,4.5463789E-1,8.79477E0,3.0280943E1],"tree_param":{"num_deleted":"0","num_feature":"39","num_nodes":"7","size_leaf_vector":"1"}},{"base_weights":[-9.280711E-3,4.277629E-3,-2.4342567E-1,-2.2277224E-1,-2.9864522E-2,2.618847E-3,-1.3545041E-1],"categories":[],"categories_nodes":[],"categories_segments":[],"categories_sizes":[],"default_left":[0,0,0,0,0,0,0],"id":91,"left_children":[1,5,3,-1,-1,-1,-1],"loss_changes":[1.3120078E-1,7.977999E-2,1.6158023E-1,0E0,0E0,0E0,0E0],"parents":[2147483647,0,0,2,2,1,1],"right_children":[2,6,4,-1,-1,-1,-1],"split_conditions":[2.6608309E-2,1.0568322E0,9.5496535E-1,-2.2277224E-1,-2.9864522E-2,2.618847E-3,-1.3545041E-1],"split_indices":[5,17,13,0,0,0,0],"split_type":[0,0,0,0,0,0,0],"sum_hessian":[4.126319E1,3.9011505E1,2.2516859E0,4.8995146E-1,1.7617345E0,3.864437E1,3.6713198E-1],"tree_param":{"num_deleted":"0","num_feature":"39","num_nodes":"7","size_leaf_vector":"1"}},{"base_weights":[1.3215635E-2,3.349709E-2,-1.1746038E-1,3.145514E-2,-7.316451E-2,5.386267E-3,9.386772E-2],"categories":[],"categories_nodes":[],"categories_segments":[],"categories_sizes":[],"default_left":[0,0,0,0,0,0,0],"id":92,"left_children":[1,5,3,-1,-1,-1,-1],"loss_changes":[1.09032E-1,1.5442087E-1,1.570381E-1,0E0,0E0,0E0,0E0],"parents":[2147483647,0,0,2,2,1,1],"right_children":[2,6,4,-1,-1,-1,-1],"split_conditions":[1.27442E0,1.2067118E0,6E0,3.145514E-2,-7.316451E-2,5.386267E-3,9.386772E-2],"split_indices":[22,22,30,0,0,0,0],"split_type":[0,0,0,0,0,0,0],"sum_hessian":[4.1135162E1,3.5619747E1,5.515416E0,2.0049617E0,3.5104547E0,3.3770233E1,1.8495126E0],"tree_param":{"num_deleted":"0","num_feature":"39","num_nodes":"7","size_leaf_vector":"1"}},{"base_weights":[1.046045E-3,-4.7318764E-2,6.2398694E-2,-7.279084E-3,7.107486E-2,-8.323859E-3,-1.3890348E-1],"categories":[],"categories_nodes":[],"categories_segments":[],"categories_sizes":[],"default_left":[0,0,0,0,0,0,0],"id":93,"left_children":[1,5,3,-1,-1,-1,-1],"loss_changes":[1.22585E-1,1.8720698E-1,2.7735713E-1,0E0,0E0,0E0,0E0],"parents":[2147483647,0,0,2,2,1,1],"right_children":[2,6,4,-1,-1,-1,-1],"split_conditions":[4.8341233E-1,1.928276E0,4.7615156E-2,-7.279084E-3,7.107486E-2,-8.323859E-3,-1.3890348E-1],"split_indices":[18,4,27,0,0,0,0],"split_type":[0,0,0,0,0,0,0],"sum_hessian":[4.1287666E1,2.3082703E1,1.8204964E1,1.2183704E1,6.021258E0,2.2066086E1,1.016617E0],"tree_param":{"num_deleted":"0","num_feature":"39","num_nodes":"7","size_leaf_vector":"1"}},{"base_weights":[-6.2704845E-3,5.852305E-2,-3.692363E-2,9.44607E-2,3.1443017E-3,-4.8951365E-2,-3.4805978E-4],"categories":[],"categories_nodes":[],"categories_segments":[],"categories_sizes":[],"default_left":[0,0,0,0,0,0,0],"id":94,"left_children":[1,3,5,-1,-1,-1,-1],"loss_changes":[8.231372E-2,1.6421747E-1,1.2755193E-1,0E0,0E0,0E0,0E0],"parents":[2147483647,0,0,1,1,2,2],"right_children":[2,4,6,-1,-1,-1,-1],"split_conditions":[1.25E-1,7.854702E-1,1.9512194E-1,9.44607E-2,3.1443017E-3,-4.8951365E-2,-3.4805978E-4],"split_indices":[20,22,20,0,0,0,0],"split_type":[0,0,0,0,0,0,0],"sum_hessian":[4.1430046E1,1.3295315E1,2.8134733E1,2.0777137E0,1.1217601E1,6.1747947E0,2.1959938E1],"tree_param":{"num_deleted":"0","num_feature":"39","num_nodes":"7","size_leaf_vector":"1"}},{"base_weights":[-3.3076156E-3,-2.981117E-1,5.0855763E-3,5.3863633E-2,-2.3767199E-1,-1.7669782E-3,8.689169E-2],"categories":[],"categories_nodes":[],"categories_segments":[],"categories_sizes":[],"default_left":[0,0,0,0,0,0,0],"id":95,"left_children":[1,3,5,-1,-1,-1,-1],"loss_changes":[1.0241313E-1,2.7430916E-1,1.2637861E-1,0E0,0E0,0E0,0E0],"parents":[2147483647,0,0,1,1,2,2],"right_children":[2,4,6,-1,-1,-1,-1],"split_conditions":[-1.0698244E-1,9.6067035E-1,3.7003335E-2,5.3863633E-2,-2.3767199E-1,-1.7669782E-3,8.689169E-2],"split_indices":[15,17,1,0,0,0,0],"split_type":[0,0,0,0,0,0,0],"sum_hessian":[4.129291E1,1.13539E0,4.0157524E1,5.8127415E-1,5.541159E-1,3.8676178E1,1.4813449E0],"tree_param":{"num_deleted":"0","num_feature":"39","num_nodes":"7","size_leaf_vector":"1"}},{"base_weights":[-1.8190396E-4,5.6056483E-3,-1.15967E-1,-1.2071637E-1,3.0884559E-3],"categories":[],"categories_nodes":[],"categories_segments":[],"categories_sizes":[],"default_left":[0,0,0,0,0],"id":96,"left_children":[1,3,-1,-1,-1],"loss_changes":[9.360914E-2,7.909722E-2,0E0,0E0,0E0],"parents":[2147483647,0,0,1,1],"right_children":[2,4,-1,-1,-1],"split_conditions":[1.4091527E-1,3.3519552E-3,-1.15967E-1,-1.2071637E-1,3.0884559E-3],"split_indices":[15,5,0,0,0],"split_type":[0,0,0,0,0],"sum_hessian":[4.1571953E1,4.0969017E1,6.02937E-1,4.5591143E-1,4.0513107E1],"tree_param":{"num_deleted":"0","num_feature":"39","num_nodes":"5","size_leaf_vector":"1"}},{"base_weights":[-4.791159E-3,4.2161307E-1,-1.2688484E-2,3.0495701E-2,-1.19830845E-2,1.1623242E-2,2.3999804E-1],"categories":[],"categories_nodes":[],"categories_segments":[],"categories_sizes":[],"default_left":[0,0,0,0,0,0,0],"id":97,"left_children":[1,5,3,-1,-1,-1,-1],"loss_changes":[1.3886349E-1,1.08531505E-1,1.2750874E-1,0E0,0E0,0E0,0E0],"parents":[2147483647,0,0,2,2,1,1],"right_children":[2,6,4,-1,-1,-1,-1],"split_conditions":[-4.4616932E-1,1.5618003E-2,-2.69829E-2,3.0495701E-2,-1.19830845E-2,1.1623242E-2,2.3999804E-1],"split_indices":[27,15,2,0,0,0,0],"split_type":[0,0,0,0,0,0,0],"sum_hessian":[4.1292385E1,7.394007E-1,4.0552982E1,7.808949E0,3.2744034E1,3.756237E-1,3.63777E-1],"tree_param":{"num_deleted":"0","num_feature":"39","num_nodes":"7","size_leaf_vector":"1"}},{"base_weights":[-7.509878E-4,-2.713405E-1,1.1155687E-2,1.1385764E-1,-1.3407639E-1,1.9146036E-1,1.4111816E-3],"categories":[],"categories_nodes":[],"categories_segments":[],"categories_sizes":[],"default_left":[0,0,0,0,0,0,0],"id":98,"left_children":[1,3,5,-1,-1,-1,-1],"loss_changes":[1.3209434E-1,2.0159218E-1,1.5835445E-1,0E0,0E0,0E0,0E0],"parents":[2147483647,0,0,1,1,2,2],"right_children":[2,4,6,-1,-1,-1,-1],"split_conditions":[9.619956E-1,7.1428575E-2,-1.6884114E-1,1.1385764E-1,-1.3407639E-1,1.9146036E-1,1.4111816E-3],"split_indices":[17,21,16,0,0,0,0],"split_type":[0,0,0,0,0,0,0],"sum_hessian":[4.092499E1,1.7177687E0,3.9207222E1,3.636436E-1,1.354125E0,3.8533965E-1,3.8821884E1],"tree_param":{"num_deleted":"0","num_feature":"39","num_nodes":"7","size_leaf_vector":"1"}},{"base_weights":[3.000957E-3,-1.6266039E-1,1.148527E-2,8.977119E-2,-9.7366594E-2,-2.5710963E-2,9.688223E-3],"categories":[],"categories_nodes":[],"categories_segments":[],"categories_sizes":[],"default_left":[0,0,0,0,0,0,0],"id":99,"left_children":[1,3,5,-1,-1,-1,-1],"loss_changes":[5.800785E-2,1.5283929E-1,8.024754E-2,0E0,0E0,0E0,0E0],"parents":[2147483647,0,0,1,1,2,2],"right_children":[2,4,6,-1,-1,-1,-1],"split_conditions":[-3.5556367E-1,6.106763E-3,6.654059E-3,8.977119E-2,-9.7366594E-2,-2.5710963E-2,9.688223E-3],"split_indices":[27,11,3,0,0,0,0],"split_type":[0,0,0,0,0,0,0],"sum_hessian":[4.1320095E1,2.0000083E0,3.9320087E1,5.176203E-1,1.482388E0,6.9366903E0,3.2383396E1],"tree_param":{"num_deleted":"0","num_feature":"39","num_nodes":"7","size_leaf_vector":"1"}},{"base_weights":[-3.6914886E-3,5.0991893E-2,-4.6692062E-2,2.126713E-2,-1.4641146E-1,5.9134606E-2,-2.3118692E-2],"categories":[],"categories_nodes":[],"categories_segments":[],"categories_sizes":[],"default_left":[0,0,0,0,0,0,0],"id":100,"left_children":[1,3,5,-1,-1,-1,-1],"loss_changes":[9.782303E-2,1.996755E-1,1.7469947E-1,0E0,0E0,0E0,0E0],"parents":[2147483647,0,0,1,1,2,2],"right_children":[2,4,6,-1,-1,-1,-1],"split_conditions":[9.150974E-3,3.3558644E-3,7.1121866E-1,2.126713E-2,-1.4641146E-1,5.9134606E-2,-2.3118692E-2],"split_indices":[3,14,13,0,0,0,0],"split_type":[0,0,0,0,0,0,0],"sum_hessian":[4.158207E1,1.8296677E1,2.328539E1,1.764908E1,6.475969E-1,2.5850515E0,2.070034E1],"tree_param":{"num_deleted":"0","num_feature":"39","num_nodes":"7","size_leaf_vector":"1"}},{"base_weights":[7.741228E-3,3.1421453E-2,-8.722157E-2,-8.745517E-2,1.2084128E-2,-7.970154E-3,2.9677004E-2],"categories":[],"categories_nodes":[],"categories_segments":[],"categories_sizes":[],"default_left":[0,0,0,0,0,0,0],"id":101,"left_children":[1,5,3,-1,-1,-1,-1],"loss_changes":[9.262387E-2,1.3010599E-1,2.157555E-1,0E0,0E0,0E0,0E0],"parents":[2147483647,0,0,2,2,1,1],"right_children":[2,6,4,-1,-1,-1,-1],"split_conditions":[1E0,2.777778E-1,8.415148E-3,-8.745517E-2,1.2084128E-2,-7.970154E-3,2.9677004E-2],"split_indices":[26,21,5,0,0,0,0],"split_type":[0,0,0,0,0,0,0],"sum_hessian":[4.1182995E1,3.297447E1,8.208527E0,3.1433206E0,5.0652056E0,1.7765398E1,1.520907E1],"tree_param":{"num_deleted":"0","num_feature":"39","num_nodes":"7","size_leaf_vector":"1"}},{"base_weights":[2.6196986E-4,-4.065883E-3,1.2097423E-1,-5.2323635E-3,3.4734137E-2],"categories":[],"categories_nodes":[],"categories_segments":[],"categories_sizes":[],"default_left":[0,0,0,0,0],"id":102,"left_children":[1,3,-1,-1,-1],"loss_changes":[7.2934166E-2,6.6339016E-2,0E0,0E0,0E0],"parents":[2147483647,0,0,1,1],"right_children":[2,4,-1,-1,-1],"split_conditions":[2.2451669E-1,3.2E1,1.2097423E-1,-5.2323635E-3,3.4734137E-2],"split_indices":[16,30,0,0,0],"split_type":[0,0,0,0,0],"sum_hessian":[4.148979E1,4.1059067E1,4.307257E-1,3.6945236E1,4.11383E0],"tree_param":{"num_deleted":"0","num_feature":"39","num_nodes":"5","size_leaf_vector":"1"}},{"base_weights":[-8.688742E-4,-8.779324E-2,1.6646534E-2,2.725375E-2,-7.9770915E-2,-1.0341313E-1,7.465417E-3],"categories":[],"categories_nodes":[],"categories_segments":[],"categories_sizes":[],"default_left":[0,0,0,0,0,0,0],"id":103,"left_children":[1,3,5,-1,-1,-1,-1],"loss_changes":[6.252304E-2,2.2115304E-1,1.0301352E-1,0E0,0E0,0E0,0E0],"parents":[2147483647,0,0,1,1,2,2],"right_children":[2,4,6,-1,-1,-1,-1],"split_conditions":[-1.3932427E-2,8.945677E-3,9.588199E-1,2.725375E-2,-7.9770915E-2,-1.0341313E-1,7.465417E-3],"split_indices":[1,11,24,0,0,0,0],"split_type":[0,0,0,0,0,0,0],"sum_hessian":[4.1013565E1,6.877813E0,3.4135754E1,3.440668E0,3.4371445E0,7.552303E-1,3.3380524E1],"tree_param":{"num_deleted":"0","num_feature":"39","num_nodes":"7","size_leaf_vector":"1"}},{"base_weights":[1.6587178E-3,-2.4237385E-2,9.461228E-2,9.4912365E-2,-1.5834043E-2,-9.80827E-3,1.9389032E-1],"categories":[],"categories_nodes":[],"categories_segments":[],"categories_sizes":[],"default_left":[0,0,0,0,0,0,0],"id":104,"left_children":[1,5,3,-1,-1,-1,-1],"loss_changes":[9.9555686E-2,1.8638207E-1,2.968892E-1,0E0,0E0,0E0,0E0],"parents":[2147483647,0,0,2,2,1,1],"right_children":[2,6,4,-1,-1,-1,-1],"split_conditions":[1.0511447E-2,1.0657728E0,3.09017E-1,9.4912365E-2,-1.5834043E-2,-9.80827E-3,1.9389032E-1],"split_indices":[12,24,26,0,0,0,0],"split_type":[0,0,0,0,0,0,0],"sum_hessian":[4.131847E1,3.231591E1,9.002562E0,3.5830574E0,5.419504E0,3.191994E1,3.959688E-1],"tree_param":{"num_deleted":"0","num_feature":"39","num_nodes":"7","size_leaf_vector":"1"}},{"base_weights":[4.530755E-3,3.9595276E-2,-6.2004663E-2,4.4210604E-3,1.3175376E-1,2.55347E-2,-4.6245053E-2],"categories":[],"categories_nodes":[],"categories_segments":[],"categories_sizes":[],"default_left":[0,0,0,0,0,0,0],"id":105,"left_children":[1,3,5,-1,-1,-1,-1],"loss_changes":[9.621218E-2,2.6847783E-1,1.946725E-1,0E0,0E0,0E0,0E0],"parents":[2147483647,0,0,1,1,2,2],"right_children":[2,4,6,-1,-1,-1,-1],"split_conditions":[1.0595238E0,1.0388768E0,4.5070422E-1,4.4210604E-3,1.3175376E-1,2.55347E-2,-4.6245053E-2],"split_indices":[22,22,18,0,0,0,0],"split_type":[0,0,0,0,0,0,0],"sum_hessian":[4.1224297E1,2.7006254E1,1.4218043E1,2.5445547E1,1.5607063E0,5.4866223E0,8.7314205E0],"tree_param":{"num_deleted":"0","num_feature":"39","num_nodes":"7","size_leaf_vector":"1"}},{"base_weights":[-7.563371E-3,3.886878E-1,-1.6167637E-2,-1.4384474E-1,-2.8249351E-3,-4.4999416E-3,1.9999154E-1],"categories":[],"categories_nodes":[],"categories_segments":[],"categories_sizes":[],"default_left":[0,0,0,0,0,0,0],"id":106,"left_children":[1,5,3,-1,-1,-1,-1],"loss_changes":[1.3966455E-1,9.909852E-2,1.2506482E-1,0E0,0E0,0E0,0E0],"parents":[2147483647,0,0,2,2,1,1],"right_children":[2,6,4,-1,-1,-1,-1],"split_conditions":[4.4431225E-3,9.031079E-1,4.7900057E-3,-1.4384474E-1,-2.8249351E-3,-4.4999416E-3,1.9999154E-1],"split_indices":[3,13,3,0,0,0,0],"split_type":[0,0,0,0,0,0,0],"sum_hessian":[4.1008488E1,8.6011165E-1,4.0148376E1,5.5966896E-1,3.9588707E1,3.555636E-1,5.045481E-1],"tree_param":{"num_deleted":"0","num_feature":"39","num_nodes":"7","size_leaf_vector":"1"}},{"base_weights":[-1.755087E-2,5.9182584E-2,-3.801309E-2,3.2807633E-2,-1.1630345E-1,-8.569263E-3,-1.844245E-1],"categories":[],"categories_nodes":[],"categories_segments":[],"categories_sizes":[],"default_left":[0,0,0,0,0,0,0],"id":107,"left_children":[1,3,5,-1,-1,-1,-1],"loss_changes":[6.4473234E-2,1.9616787E-1,1.7480513E-1,0E0,0E0,0E0,0E0],"parents":[2147483647,0,0,1,1,2,2],"right_children":[2,4,6,-1,-1,-1,-1],"split_conditions":[9.090909E-2,1.6067998E-2,8.4385383E-1,3.2807633E-2,-1.1630345E-1,-8.569263E-3,-1.844245E-1],"split_indices":[21,0,19,0,0,0,0],"split_type":[0,0,0,0,0,0,0],"sum_hessian":[4.1046043E1,8.630146E0,3.2415897E1,7.763569E0,8.6657685E-1,3.1912968E1,5.029303E-1],"tree_param":{"num_deleted":"0","num_feature":"39","num_nodes":"7","size_leaf_vector":"1"}},{"base_weights":[-4.8403675E-3,8.802993E-2,-3.3875808E-2,6.0460777E-3,1.1590392E-1,-7.558801E-2,-2.0383054E-3],"categories":[],"categories_nodes":[],"categories_segments":[],"categories_sizes":[],"default_left":[0,0,0,0,0,0,0],"id":108,"left_children":[1,3,5,-1,-1,-1,-1],"loss_changes":[1.1166859E-1,2.0005232E-1,1.8683901E-1,0E0,0E0,0E0,0E0],"parents":[2147483647,0,0,1,1,2,2],"right_children":[2,4,6,-1,-1,-1,-1],"split_conditions":[9.8822516E-1,1.2550186E-2,-1.4220705E-2,6.0460777E-3,1.1590392E-1,-7.558801E-2,-2.0383054E-3],"split_indices":[17,12,2,0,0,0,0],"split_type":[0,0,0,0,0,0,0],"sum_hessian":[4.1403694E1,9.850919E0,3.1552774E1,8.044557E0,1.8063623E0,3.4571013E0,2.8095673E1],"tree_param":{"num_deleted":"0","num_feature":"39","num_nodes":"7","size_leaf_vector":"1"}},{"base_weights":[7.5752167E-3,1.3150599E-2,-1.3343313E-1,5.1726084E-3,-1.2770656E-1],"categories":[],"categories_nodes":[],"categories_segments":[],"categories_sizes":[],"default_left":[0,0,0,0,0],"id":109,"left_children":[1,3,-1,-1,-1],"loss_changes":[1.03211015E-1,7.3694564E-2,0E0,0E0,0E0],"parents":[2147483647,0,0,1,1],"right_children":[2,4,-1,-1,-1],"split_conditions":[1.075849E0,6.7E1,-1.3343313E-1,5.1726084E-3,-1.2770656E-1],"split_indices":[24,30,0,0,0],"split_type":[0,0,0,0,0],"sum_hessian":[4.0857685E1,4.0373447E1,4.8423865E-1,4.000753E1,3.659183E-1],"tree_param":{"num_deleted":"0","num_feature":"39","num_nodes":"5","size_leaf_vector":"1"}},{"base_weights":[1.5100143E-2,-1.4796813E-2,8.52594E-2,3.2635123E-2,-2.0809443E-1,3.730646E-2,-1.4505437E-2],"categories":[],"categories_nodes":[],"categories_segments":[],"categories_sizes":[],"default_left":[0,0,0,0,0,0,0],"id":110,"left_children":[1,5,3,-1,-1,-1,-1],"loss_changes":[8.638496E-2,1.3592269E-1,2.3045617E-1,0E0,0E0,0E0,0E0],"parents":[2147483647,0,0,2,2,1,1],"right_children":[2,6,4,-1,-1,-1,-1],"split_conditions":[5.7979435E-2,8.953752E-1,1.3868455E-2,3.2635123E-2,-2.0809443E-1,3.730646E-2,-1.4505437E-2],"split_indices":[16,23,11,0,0,0,0],"split_type":[0,0,0,0,0,0,0],"sum_hessian":[4.114436E1,2.884933E1,1.2295027E1,1.1939307E1,3.557202E-1,5.60475E0,2.3244581E1],"tree_param":{"num_deleted":"0","num_feature":"39","num_nodes":"7","size_leaf_vector":"1"}},{"base_weights":[-1.3971345E-2,1.4276884E-1,-2.946028E-2,6.558557E-2,-1.07684866E-1,1.1118948E-1,-1.1282348E-2],"categories":[],"categories_nodes":[],"categories_segments":[],"categories_sizes":[],"default_left":[0,0,0,0,0,0,0],"id":111,"left_children":[1,3,5,-1,-1,-1,-1],"loss_changes":[1.00409836E-1,1.441158E-1,1.252092E-1,0E0,0E0,0E0,0E0],"parents":[2147483647,0,0,1,1,2,2],"right_children":[2,4,6,-1,-1,-1,-1],"split_conditions":[-6.709451E-2,7.7472526E-1,-4.2967942E-1,6.558557E-2,-1.07684866E-1,1.1118948E-1,-1.1282348E-2],"split_indices":[15,19,27,0,0,0,0],"split_type":[0,0,0,0,0,0,0],"sum_hessian":[4.1362663E1,3.708218E0,3.7654446E1,3.2241244E0,4.8409355E-1,7.5058466E-1,3.690386E1],"tree_param":{"num_deleted":"0","num_feature":"39","num_nodes":"7","size_leaf_vector":"1"}},{"base_weights":[-5.094375E-3,-7.13114E-2,2.5458101E-2,1.4126222E-1,-2.9665535E-2,-9.926402E-2,1.2342245E-2],"categories":[],"categories_nodes":[],"categories_segments":[],"categories_sizes":[],"default_left":[0,0,0,0,0,0,0],"id":112,"left_children":[1,3,5,-1,-1,-1,-1],"loss_changes":[8.403727E-2,1.9955444E-1,1.6077885E-1,0E0,0E0,0E0,0E0],"parents":[2147483647,0,0,1,1,2,2],"right_children":[2,4,6,-1,-1,-1,-1],"split_conditions":[8.695652E-1,4.740999E-4,4.981525E-4,1.4126222E-1,-2.9665535E-2,-9.926402E-2,1.2342245E-2],"split_indices":[13,14,14,0,0,0,0],"split_type":[0,0,0,0,0,0,0],"sum_hessian":[4.1503902E1,1.3106418E1,2.8397486E1,6.3104016E-1,1.2475378E1,1.1936188E0,2.7203867E1],"tree_param":{"num_deleted":"0","num_feature":"39","num_nodes":"7","size_leaf_vector":"1"}},{"base_weights":[1.4408429E-2,3.4418695E-2,-1.0429737E-1,-2.1087745E-1,4.7267415E-3,1.3056667E-2,-1.3100147E-1],"categories":[],"categories_nodes":[],"categories_segments":[],"categories_sizes":[],"default_left":[0,0,0,0,0,0,0],"id":113,"left_children":[1,5,3,-1,-1,-1,-1],"loss_changes":[9.769331E-2,1.5412061E-1,4.288899E-1,0E0,0E0,0E0,0E0],"parents":[2147483647,0,0,2,2,1,1],"right_children":[2,6,4,-1,-1,-1,-1],"split_conditions":[1.5014793E-2,1.3290475E-2,9.43818E-3,-2.1087745E-1,4.7267415E-3,1.3056667E-2,-1.3100147E-1],"split_indices":[3,12,12,0,0,0,0],"split_type":[0,0,0,0,0,0,0],"sum_hessian":[4.112208E1,3.5201283E1,5.9207997E0,9.7840685E-1,4.942393E0,3.453534E1,6.6594285E-1],"tree_param":{"num_deleted":"0","num_feature":"39","num_nodes":"7","size_leaf_vector":"1"}},{"base_weights":[-7.695743E-3,-4.1685194E-2,6.3150875E-2,2.0528848E-1,6.035194E-3,-1.5279672E-2,1.3814743E-1],"categories":[],"categories_nodes":[],"categories_segments":[],"categories_sizes":[],"default_left":[0,0,0,0,0,0,0],"id":114,"left_children":[1,5,3,-1,-1,-1,-1],"loss_changes":[9.964899E-2,1.3295025E-1,3.587291E-1,0E0,0E0,0E0,0E0],"parents":[2147483647,0,0,2,2,1,1],"right_children":[2,6,4,-1,-1,-1,-1],"split_conditions":[1.8092702E-3,1.4428111E-2,-1.8200186E0,2.0528848E-1,6.035194E-3,-1.5279672E-2,1.3814743E-1],"split_indices":[14,11,4,0,0,0,0],"split_type":[0,0,0,0,0,0,0],"sum_hessian":[4.1366116E1,2.796395E1,1.3402167E1,8.5263205E-1,1.2549535E1,2.7460463E1,5.034881E-1],"tree_param":{"num_deleted":"0","num_feature":"39","num_nodes":"7","size_leaf_vector":"1"}},{"base_weights":[1.445618E-3,1.1987324E-1,-1.9002674E-2,9.5684305E-3,1.2260043E-1,6.250727E-3,-3.8220525E-2],"categories":[],"categories_nodes":[],"categories_segments":[],"categories_sizes":[],"default_left":[0,0,0,0,0,0,0],"id":115,"left_children":[1,3,5,-1,-1,-1,-1],"loss_changes":[9.8936565E-2,1.5301481E-1,1.5137172E-1,0E0,0E0,0E0,0E0],"parents":[2147483647,0,0,1,1,2,2],"right_children":[2,4,6,-1,-1,-1,-1],"split_conditions":[7.0339633E-4,1.29629625E-2,1.5E1,9.5684305E-3,1.2260043E-1,6.250727E-3,-3.8220525E-2],"split_indices":[14,5,30,0,0,0,0],"split_type":[0,0,0,0,0,0,0],"sum_hessian":[4.0806744E1,6.005888E0,3.4800858E1,4.6211376E0,1.3847504E0,2.5466162E1,9.334693E0],"tree_param":{"num_deleted":"0","num_feature":"39","num_nodes":"7","size_leaf_vector":"1"}},{"base_weights":[7.8603055E-4,-3.3373162E-2,5.2186128E-2,-4.444194E-2,3.0214889E-2,2.6310913E-2,-2.2413842E-2],"categories":[],"categories_nodes":[],"categories_segments":[],"categories_sizes":[],"default_left":[0,0,0,0,0,0,0],"id":116,"left_children":[1,5,3,-1,-1,-1,-1],"loss_changes":[7.117507E-2,1.23029195E-1,1.5914817E-1,0E0,0E0,0E0,0E0],"parents":[2147483647,0,0,2,2,1,1],"right_children":[2,6,4,-1,-1,-1,-1],"split_conditions":[3.7572894E-2,4.0853658E-1,4.0302268E-1,-4.444194E-2,3.0214889E-2,2.6310913E-2,-2.2413842E-2],"split_indices":[16,18,18,0,0,0,0],"split_type":[0,0,0,0,0,0,0],"sum_hessian":[4.050948E1,2.4330502E1,1.6178978E1,3.1606855E0,1.3018292E1,6.2040477E0,1.8126455E1],"tree_param":{"num_deleted":"0","num_feature":"39","num_nodes":"7","size_leaf_vector":"1"}},{"base_weights":[-9.1078243E-4,-2.0518765E-1,9.569597E-3,3.217217E-2,-2.0523933E-1,-9.510026E-2,4.8954957E-3],"categories":[],"categories_nodes":[],"categories_segments":[],"categories_sizes":[],"default_left":[0,0,0,0,0,0,0],"id":117,"left_children":[1,3,5,-1,-1,-1,-1],"loss_changes":[8.76755E-2,3.021834E-1,8.66386E-2,0E0,0E0,0E0,